{"learner":{"attributes":{"best_iteration":"16","best_ntree_limit":"17","best_score":"11.565105220652544","scikit_learn":"{\"n_estimators\": 200, \"objective\": \"reg:squarederror\", \"max_depth\": 7, \"max_leaves\": null, \"max_bin\": null, \"grow_policy\": null, \"learning_rate\": 0.3, \"verbosity\": null, \"booster\": null, \"tree_method\": null, \"gamma\": null, \"min_child_weight\": null, \"max_delta_step\": null, \"subsample\": null, \"sampling_method\": null, \"colsample_bytree\": null, \"colsample_bylevel\": null, \"colsample_bynode\": null, \"reg_alpha\": null, \"reg_lambda\": null, \"scale_pos_weight\": null, \"base_score\": null, \"missing\": NaN, \"num_parallel_tree\": null, \"random_state\": null, \"n_jobs\": null, \"monotone_constraints\": null, \"interaction_constraints\": null, \"importance_type\": null, \"gpu_id\": null, \"validate_parameters\": null, \"predictor\": null, \"enable_categorical\": false, \"max_cat_to_onehot\": null, \"eval_metric\": null, \"early_stopping_rounds\": null, \"callbacks\": null, \"kwargs\": {\"max_features\": \"auto\", \"min_samples_split\": 7, \"min_samples_leaf\": 3}, \"evals_result_\": {\"validation_0\": {\"rmse\": [38.784203697856334, 27.97760044872368, 20.469071783376027, 15.285717256092815, 11.764160178655784, 9.330090421398666, 7.7202321375831415, 6.6452534238952845, 5.959256739217186, 5.444615849006101, 5.1082061395694165, 4.863707628321781, 4.6182390167214225, 4.422961278524297, 4.315505799486095, 4.18790412448855, 4.091493318261844, 3.9700017361792574, 3.9308752035409613, 3.850244483074852, 3.817445792088561, 3.655475577601802, 3.6103090182857467, 3.5960729820319535, 3.5571040386433728, 3.5255800288986117, 3.476096920550282, 3.433713124921276, 3.3267289477429305, 3.3122648680804287, 3.196649454702507, 3.112631354155419, 3.0353798702962163, 3.004441328194151, 2.855817796228398, 2.8122491677216344, 2.769888517429022]}, \"validation_1\": {\"rmse\": [40.37807955981797, 29.711088418536615, 22.55141817305251, 17.839225053188905, 15.045910347227842, 13.356389759185411, 12.486200761143092, 12.099050243209026, 11.846793754313259, 11.751173439553364, 11.686159056924883, 11.626042529070162, 11.59622474585276, 11.602883959190157, 11.590509523861273, 11.592825304966848, 11.565105220652544, 11.576035910928095, 11.57616210164828, 11.58073493007701, 11.595041749898416, 11.57824736353296, 11.57483317180312, 11.572647702460023, 11.574072229175506, 11.575149291775725, 11.573570641166368, 11.580263885352402, 11.5772247505475, 11.57300513590965, 11.569834814231433, 11.576638460062027, 11.582433810276981, 11.583664496778344, 11.589629640350394, 11.593244961304563, 11.597727928145675]}}, \"_estimator_type\": \"regressor\"}"},"feature_names":[],"feature_types":[],"gradient_booster":{"model":{"gbtree_model_param":{"num_parallel_tree":"1","num_trees":"37","size_leaf_vector":"0"},"tree_info":[0,0,0,0,0,0,0,0,0,0,0,0,0,0,0,0,0,0,0,0,0,0,0,0,0,0,0,0,0,0,0,0,0,0,0,0,0],"trees":[{"base_weights":[3.7352028E1,3.0186878E1,1.7723318E2,1.6847782E1,4.4359596E1,1.325064E2,2.2303818E2,1.0802612E1,2.3136152E1,3.8673275E1,7.349411E1,1.0691905E2,1.471166E2,2.5076921E1,2.2602887E2,7.5380564E0,1.3620373E1,1.952538E1,2.6991919E1,3.7053795E1,4.876102E1,6.3682602E1,8.5262924E1,1.096912E2,2.5076921E1,1.483279E2,2.45E1,1.8769444E2,2.3899529E2,4.4584904E0,8.588411E0,1.2611988E1,1.5756408E1,1.8135256E1,2.1695477E1,2.5092112E1,2.8732655E1,3.6933E1,1.2525E2,4.71E0,4.8902027E1,6.655677E1,5.1625957E1,8.556554E1,1.585E1,2.5155E1,1.1090306E2,6.62325E1,1.5063628E2,4.66E1,2.4065204E2,2.61625E0,5.0354166E0,8.401262E0,1.808875E1,1.2477572E1,3.0183332E1,2.4118334E1,1.5455367E1,1.8199335E1,7.0975E0,3.68E0,2.1752363E1,2.5520826E1,1.6428823E1,2.8219885E1,4.0245037E1,3.2049908E1,3.7788475E1,4.6539722E1,5.3831905E1,6.1133183E1,7.223312E1,1.2766666E1,5.3069332E1,6.66112E1,8.81034E1,5.3675E1,1.13468475E2,1.5147832E2,4.29E1,2.871515E0,1.2362499E0,4.7545614E0,8.89E0,8.225954E0,1.837077E1,2.6566668E1,1.0835E1,1.105815E1,1.3219872E1,6.82E0,2.6214E1,2.1E0,1.5506997E1,1.6838236E1,1.9098862E1,2.1951246E1,1.29425E1,2.925E0,2.559009E1,5.5333333E0,1.7512667E1,2.8305614E1,1.165E0,3.2749447E1,2.4541111E1,1.0983334E1,3.7816967E1,2.324E1,4.690409E1,1.8943333E1,5.4451828E1,6.1467213E1,1.47E1,1.8865E1,7.2669876E1,1.615E1,3E0,6.95E0,5.3959545E1,6.7825836E1,1.873E1,4.252E1,8.87316E1],"categories":[],"categories_nodes":[],"categories_segments":[],"categories_sizes":[],"default_left":[1,1,1,1,1,1,1,1,1,1,1,1,1,0,1,1,1,1,1,1,1,1,1,1,0,1,0,0,1,1,1,1,1,1,1,1,1,1,0,0,1,1,1,1,0,0,1,0,1,0,0,1,1,1,1,1,0,1,1,1,0,0,1,1,1,1,0,1,1,1,1,1,1,1,1,1,1,0,0,0,0,0,0,0,0,0,0,0,0,0,0,0,0,0,0,0,0,0,0,0,0,0,0,0,0,0,0,0,0,0,0,0,0,0,0,0,0,0,0,0,0,0,0,0,0],"id":0,"left_children":[1,3,5,7,9,11,13,15,17,19,21,23,25,-1,27,29,31,33,35,37,39,41,43,45,-1,47,-1,-1,49,51,53,55,57,59,61,63,65,67,-1,-1,69,71,73,75,-1,-1,77,-1,79,-1,-1,81,83,85,87,89,-1,91,93,95,-1,-1,97,99,101,103,-1,105,107,109,111,113,115,117,119,121,123,-1,-1,-1,-1,-1,-1,-1,-1,-1,-1,-1,-1,-1,-1,-1,-1,-1,-1,-1,-1,-1,-1,-1,-1,-1,-1,-1,-1,-1,-1,-1,-1,-1,-1,-1,-1,-1,-1,-1,-1,-1,-1,-1,-1,-1,-1,-1,-1],"loss_changes":[5.3056765E6,9.52449E5,4.99014E5,9.8549125E4,4.020505E5,3.39905E4,6.8929E4,1.21040625E4,1.7196062E4,3.163475E4,4.052725E4,9.047E3,8.54525E3,0E0,1.6777E4,1.9574805E3,1.3327344E3,1.6005781E3,1.3062812E3,1.420975E4,1.508875E3,4.2221875E3,2.382875E3,2.3325E3,0E0,5.373125E3,0E0,0E0,1.7155E4,1.5581714E2,6.641211E2,7.7597656E2,1.9111328E2,1.6010938E2,1.7923438E2,6.9865625E2,7.12E2,6.17025E3,0E0,0E0,7.43875E2,9.7175E2,1.9586406E3,2.645625E3,0E0,0E0,1.1034375E3,0E0,5.775E2,0E0,0E0,1.054071E1,8.764136E1,6.388633E2,2.0412354E2,3.658828E2,0E0,3.8729736E1,1.1844531E2,1.755E2,0E0,0E0,1.5742969E2,3.711875E2,1.0384961E2,6.697969E2,0E0,6.1453125E2,7.29E2,5.739375E2,7.8528125E2,5.854375E2,4.9378125E2,5.068164E1,1.4724922E3,1.8357812E2,6.0825E2,0E0,0E0,0E0,0E0,0E0,0E0,0E0,0E0,0E0,0E0,0E0,0E0,0E0,0E0,0E0,0E0,0E0,0E0,0E0,0E0,0E0,0E0,0E0,0E0,0E0,0E0,0E0,0E0,0E0,0E0,0E0,0E0,0E0,0E0,0E0,0E0,0E0,0E0,0E0,0E0,0E0,0E0,0E0,0E0,0E0,0E0,0E0,0E0],"parents":[2147483647,0,0,1,1,2,2,3,3,4,4,5,5,6,6,7,7,8,8,9,9,10,10,11,11,12,12,14,14,15,15,16,16,17,17,18,18,19,19,20,20,21,21,22,22,23,23,25,25,28,28,29,29,30,30,31,31,32,32,33,33,34,34,35,35,36,36,37,37,40,40,41,41,42,42,43,43,46,46,48,48,51,51,52,52,53,53,54,54,55,55,57,57,58,58,59,59,62,62,63,63,64,64,65,65,67,67,68,68,69,69,70,70,71,71,72,72,73,73,74,74,75,75,76,76],"right_children":[2,4,6,8,10,12,14,16,18,20,22,24,26,-1,28,30,32,34,36,38,40,42,44,46,-1,48,-1,-1,50,52,54,56,58,60,62,64,66,68,-1,-1,70,72,74,76,-1,-1,78,-1,80,-1,-1,82,84,86,88,90,-1,92,94,96,-1,-1,98,100,102,104,-1,106,108,110,112,114,116,118,120,122,124,-1,-1,-1,-1,-1,-1,-1,-1,-1,-1,-1,-1,-1,-1,-1,-1,-1,-1,-1,-1,-1,-1,-1,-1,-1,-1,-1,-1,-1,-1,-1,-1,-1,-1,-1,-1,-1,-1,-1,-1,-1,-1,-1,-1,-1,-1,-1,-1],"split_conditions":[1.05850006E2,3.091E1,1.8195E2,1.6255001E1,5.672E1,1.23925E2,4.7E0,1.0295E1,2.3240002E1,4.3715E1,7.6759995E1,2.665E2,2.5E2,7.5230765E0,2.205E2,5.5950003E0,1.4355E1,2.0195E1,2.6835E1,2.655E2,4.27E0,7.495E1,2.665E2,7.975E0,7.5230765E0,1.1205E1,7.3500004E0,5.6308334E1,5.1499996E0,3.53E0,9.1345E1,1.6886499E2,5.37E0,1.33875E2,3.5749998E0,3.6995003E1,1.02994995E2,3.5754997E1,3.7575E1,1.4130001E0,5.175E1,3.895E1,1.3775E1,1.794E1,4.755E0,7.5465007E0,1.94E1,1.9869751E1,2.645E2,1.39800005E1,7.219562E1,4.045E1,6.7255005E1,8.11E1,8.069E1,1.1705E1,9.055E0,1.1690001E1,3.99E0,1.721E1,2.12925E0,1.1040001E0,3.5239998E1,2.415E0,3.145E1,2.20745E2,1.2073512E1,4.1285E1,3.835E0,7.035E0,7.95E0,3.875E1,9.025E0,2.41E1,5.935E0,8.2615005E1,1.0379999E1,1.61025E1,3.4040543E1,4.5443497E1,1.2870001E1,8.6145455E-1,3.70875E-1,1.4263685E0,2.6670003E0,2.4677863E0,5.511231E0,7.9700007E0,3.2505002E0,3.3174453E0,3.965962E0,2.0460002E0,7.8642006E0,6.3E-1,4.652099E0,5.0514708E0,5.7296586E0,6.5853744E0,3.8827503E0,8.775E-1,7.677027E0,1.6600001E0,5.2538004E0,8.491685E0,3.495E-1,9.824835E0,7.362334E0,3.2950003E0,1.1345091E1,6.972E0,1.4071228E1,5.683E0,1.6335548E1,1.8440165E1,4.4100003E0,5.6595E0,2.1800964E1,4.8450003E0,9.0000004E-1,2.085E0,1.6187864E1,2.0347752E1,5.619E0,1.27560005E1,2.661948E1],"split_indices":[167,167,167,167,167,167,48,167,167,167,167,17,0,0,167,167,167,167,167,147,149,166,114,21,0,39,0,0,2,167,15,45,165,73,138,166,123,167,0,0,167,74,90,146,0,0,156,0,122,0,0,36,50,114,14,167,0,12,95,121,0,0,166,6,163,68,0,166,35,16,76,74,24,0,0,6,149,0,0,0,0,0,0,0,0,0,0,0,0,0,0,0,0,0,0,0,0,0,0,0,0,0,0,0,0,0,0,0,0,0,0,0,0,0,0,0,0,0,0,0,0,0,0,0,0],"split_type":[0,0,0,0,0,0,0,0,0,0,0,0,0,0,0,0,0,0,0,0,0,0,0,0,0,0,0,0,0,0,0,0,0,0,0,0,0,0,0,0,0,0,0,0,0,0,0,0,0,0,0,0,0,0,0,0,0,0,0,0,0,0,0,0,0,0,0,0,0,0,0,0,0,0,0,0,0,0,0,0,0,0,0,0,0,0,0,0,0,0,0,0,0,0,0,0,0,0,0,0,0,0,0,0,0,0,0,0,0,0,0,0,0,0,0,0,0,0,0,0,0,0,0,0,0],"sum_hessian":[5.298E3,5.041E3,2.57E2,2.598E3,2.443E3,1.32E2,1.25E2,1.326E3,1.272E3,2.046E3,3.97E2,5.1E1,8.1E1,2E0,1.23E2,6.16E2,7.1E2,6.6E2,6.12E2,1.767E3,2.79E2,2.2E2,1.77E2,4.9E1,2E0,8E1,1E0,3.5E1,8.8E1,1.58E2,4.58E2,4.87E2,2.23E2,4.08E2,2.52E2,3E2,3.12E2,1.766E3,1E0,1E0,2.78E2,1.74E2,4.6E1,1.76E2,1E0,1E0,4.8E1,3E0,7.7E1,1E0,8.7E1,3.9E1,1.19E2,4.51E2,7E0,4.85E2,2E0,5E0,2.18E2,4.05E2,3E0,1E0,2.51E2,2.84E2,1.6E1,3.02E2,1E1,2.69E2,1.497E3,1.95E2,8.3E1,9.5E1,7.9E1,2E0,4.4E1,2.4E1,1.52E2,3E0,4.5E1,7.6E1,1E0,3.2E1,7E0,1.13E2,6E0,4.45E2,6E0,2E0,5E0,1.72E2,3.13E2,1E0,4E0,1E0,2.17E2,1.69E2,2.36E2,2.44E2,7E0,1E0,2.83E2,2E0,1.4E1,3.01E2,1E0,2.43E2,2.6E1,2E0,1.495E3,4E0,1.91E2,2E0,8.1E1,9.4E1,1E0,1E0,7.8E1,1E0,1E0,1E0,4.3E1,2.3E1,1E0,3E0,1.49E2],"tree_param":{"num_deleted":"0","num_feature":"168","num_nodes":"125","size_leaf_vector":"0"}},{"base_weights":[2.6273987E1,2.1205235E1,1.25228935E2,1.1838435E1,3.1157406E1,8.874078E1,1.5349913E2,8.157522E0,1.6951023E1,2.7294916E1,5.2942398E1,8.977881E1,2.0061537E1,2.0061537E1,1.5523726E2,5.6399856E0,1.0412122E1,1.48728485E1,1.9490343E1,2.6006071E1,3.4906124E1,4.6917908E1,6.1740307E1,4.9907272E1,9.194102E1,1.3187598E2,1.6935158E2,3.7744627E0,6.792122E0,9.177669E0,1.1554941E1,1.3243522E1,1.5789866E1,2.4127977E1,1.8842552E1,2.590106E1,1.064625E2,3.2712967E1,3.846156E1,4.938818E1,3.766683E1,1.0952832E2,5.997183E1,9.2419975E1,2.0825E1,3.112825E1,1.3309737E2,3.9609997E1,1.7042458E2,3.5804486E0,2.0236258E1,6.6560845E0,1.55681505E1,1.2631839E1,8.733136E0,1.6172672E1,1.1238713E1,1.3426923E1,4.3727117E0,1.4299288E1,1.6915974E1,1.827947E1,3.0173199E1,1.4523476E1,1.9271544E1,2.239898E1,2.6474638E1,3.2999474E1,1.1068975E1,1.2999181E1,3.8819347E1,4.516525E1,5.5332104E1,2.551996E1,4.2989677E1,3.637516E1,6.1285225E1,2.138175E1,9.2897446E1,2.7245128E0,4.269859E0,6.5109167E0,1.28361845E1,2.4266384E1,5.152438E0,1.1332196E1,2.2145397E1,1.0450364E0,8.774675E0,1.0390666E1,1.9560486E1,1.0168E1,1.2139696E1,1.3642922E1,6.895054E0,9.142647E-1,4.8815484E0,1.4481991E1,3.0966058E0,2.2365618E1,1.6228233E1,4.069157E0,1.8617508E1,3.9893364E1,2.1604763E1,1.170084E1,1.8555368E1,4.37221E0,1.9337244E1,2.4639688E1,2.0440374E1,9.5557575E0,2.6524038E1,3.457334E1,2.7229765E1,9.664387E0,3.900497E1,4.5832977E1,1.6679876E1,1.44632225E1,5.6367096E1,2.9209133E1,1.0086282E1,1.033684E1,4.470745E1,3.92079E1,5.44026E0,4.477807E1,6.330098E1,2.1619728E1,9.337956E1],"categories":[],"categories_nodes":[],"categories_segments":[],"categories_sizes":[],"default_left":[1,1,1,1,1,1,1,1,1,1,1,1,0,0,1,1,1,1,1,1,1,1,1,0,1,1,1,1,1,1,1,1,1,1,1,1,0,1,1,1,1,0,1,1,0,0,0,0,0,1,0,1,1,1,1,1,1,1,1,1,1,1,1,1,1,1,1,1,0,0,1,1,1,1,1,1,1,0,1,0,0,0,0,0,0,0,0,0,0,0,0,0,0,0,0,0,0,0,0,0,0,0,0,0,0,0,0,0,0,0,0,0,0,0,0,0,0,0,0,0,0,0,0,0,0,0,0,0,0,0,0],"id":1,"left_children":[1,3,5,7,9,11,13,15,17,19,21,23,-1,-1,25,27,29,31,33,35,37,39,41,-1,43,45,47,49,51,53,55,57,59,61,63,65,-1,67,69,71,73,-1,75,77,-1,-1,-1,-1,-1,79,-1,81,83,85,87,89,91,93,95,97,99,101,103,105,107,109,111,113,-1,-1,115,117,119,121,123,125,127,-1,129,-1,-1,-1,-1,-1,-1,-1,-1,-1,-1,-1,-1,-1,-1,-1,-1,-1,-1,-1,-1,-1,-1,-1,-1,-1,-1,-1,-1,-1,-1,-1,-1,-1,-1,-1,-1,-1,-1,-1,-1,-1,-1,-1,-1,-1,-1,-1,-1,-1,-1,-1,-1],"loss_changes":[2.6552068E6,4.6964625E5,2.5251225E5,4.877228E4,2.0420375E5,6.3973125E3,3.0284E4,8.529125E3,5.446375E3,1.9476625E4,1.6555312E4,5.15325E3,0E0,0E0,2.4488E4,1.5154375E3,1.0183281E3,6.9034375E2,1.0054219E3,1.2289875E4,1.0655E3,3.213E3,5.7701875E3,0E0,1.6859375E3,2.994E3,5.0825E3,8.090393E2,4.240664E2,4.8545312E2,4.169453E2,3.0408984E2,3.9596094E2,1.4283594E3,5.186875E2,2.9825E3,0E0,8.191406E2,4.7928125E2,1.8182812E3,2.2003594E3,0E0,2.2025625E3,1.575125E3,0E0,0E0,0E0,0E0,0E0,1.5005151E2,0E0,3.0847852E2,4.1855872E2,2.683418E2,1.0164844E2,2.6687402E2,2.4989844E2,2.135E2,6.09568E0,3.0310547E2,4.2785938E2,7.315527E1,1.3035645E3,2.7225098E2,2.9623438E2,6.242422E2,1.02025E3,7.657656E2,0E0,0E0,1.9670312E2,1.2516875E3,2.0187656E3,7.302637E2,1.4449336E3,6.630029E2,1.62425E3,0E0,1.555E3,0E0,0E0,0E0,0E0,0E0,0E0,0E0,0E0,0E0,0E0,0E0,0E0,0E0,0E0,0E0,0E0,0E0,0E0,0E0,0E0,0E0,0E0,0E0,0E0,0E0,0E0,0E0,0E0,0E0,0E0,0E0,0E0,0E0,0E0,0E0,0E0,0E0,0E0,0E0,0E0,0E0,0E0,0E0,0E0,0E0,0E0,0E0,0E0,0E0,0E0,0E0,0E0],"parents":[2147483647,0,0,1,1,2,2,3,3,4,4,5,5,6,6,7,7,8,8,9,9,10,10,11,11,14,14,15,15,16,16,17,17,18,18,19,19,20,20,21,21,22,22,24,24,25,25,26,26,27,27,28,28,29,29,30,30,31,31,32,32,33,33,34,34,35,35,37,37,38,38,39,39,40,40,42,42,43,43,49,49,51,51,52,52,53,53,54,54,55,55,56,56,57,57,58,58,59,59,60,60,61,61,62,62,63,63,64,64,65,65,66,66,67,67,70,70,71,71,72,72,73,73,74,74,75,75,76,76,78,78],"right_children":[2,4,6,8,10,12,14,16,18,20,22,24,-1,-1,26,28,30,32,34,36,38,40,42,-1,44,46,48,50,52,54,56,58,60,62,64,66,-1,68,70,72,74,-1,76,78,-1,-1,-1,-1,-1,80,-1,82,84,86,88,90,92,94,96,98,100,102,104,106,108,110,112,114,-1,-1,116,118,120,122,124,126,128,-1,130,-1,-1,-1,-1,-1,-1,-1,-1,-1,-1,-1,-1,-1,-1,-1,-1,-1,-1,-1,-1,-1,-1,-1,-1,-1,-1,-1,-1,-1,-1,-1,-1,-1,-1,-1,-1,-1,-1,-1,-1,-1,-1,-1,-1,-1,-1,-1,-1,-1,-1,-1,-1],"split_conditions":[1.05850006E2,3.091E1,1.6998999E2,1.7939999E1,5.91E1,2.665E2,4.7E0,1.107E1,2.4654999E1,4.425E1,8.0095E1,1.8765E1,6.018461E0,6.018461E0,2.26845E2,6.915E0,1.4355E1,2.0195E1,2.041E1,2.655E2,4.24E1,7.61E1,9.35E0,1.4972182E1,2.685E2,2.9945E1,5.1499996E0,9.1165E1,9.125E1,7.76E0,7.615E0,3.810769E1,1.975E1,2.7235E1,1.189E1,3.555E1,3.1938751E1,1.4573999E2,8.1E0,4.86E1,3.5050003E1,3.2858498E1,1.12E1,7.83E0,6.2475004E0,9.338475E0,3.992921E1,1.1882999E1,5.1127377E1,5.01E0,6.0708776E0,8.9869995E1,1.315E1,4.7485E1,1.8249999E0,2.0125E1,1.9475E1,8.4905E1,1.4434999E1,8.4215E1,1.6765E1,2.82E0,2.301E1,3.5559998E1,3.79E0,3.152E1,4.9700003E0,4.045E1,3.3206928E0,3.8997543E0,1.1299999E1,8.1125E1,1.4200001E1,2.6875E1,1.3775E1,1.0735E1,1.825E1,6.4145255E0,8.690001E0,8.173539E-1,1.2809577E0,1.9532751E0,3.8508556E0,7.2799153E0,1.5457315E0,3.399659E0,6.6436195E0,3.1351095E-1,2.6324027E0,3.1172E0,5.868146E0,3.0504003E0,3.641909E0,4.092877E0,2.0685163E0,2.7427942E-1,1.4644645E0,4.3445973E0,9.289818E-1,6.709686E0,4.86847E0,1.2207472E0,5.585253E0,1.196801E1,6.481429E0,3.5102522E0,5.566611E0,1.311663E0,5.801173E0,7.3919067E0,6.1321125E0,2.8667274E0,7.957212E0,1.0372003E1,8.16893E0,2.899316E0,1.1701491E1,1.3749894E1,5.003963E0,4.338967E0,1.691013E1,8.76274E0,3.0258846E0,3.101052E0,1.3412236E1,1.1762371E1,1.632078E0,1.3433421E1,1.8990295E1,6.4859185E0,2.801387E1],"split_indices":[167,167,167,167,167,17,48,167,167,167,167,155,0,0,167,167,167,167,166,147,146,166,47,0,0,141,2,8,115,164,164,166,75,74,157,167,0,27,103,147,160,0,66,21,0,0,0,0,0,167,0,15,36,26,36,73,61,31,0,65,166,162,59,75,1,166,161,140,0,0,158,145,124,134,90,66,146,0,1,0,0,0,0,0,0,0,0,0,0,0,0,0,0,0,0,0,0,0,0,0,0,0,0,0,0,0,0,0,0,0,0,0,0,0,0,0,0,0,0,0,0,0,0,0,0,0,0,0,0,0,0],"split_type":[0,0,0,0,0,0,0,0,0,0,0,0,0,0,0,0,0,0,0,0,0,0,0,0,0,0,0,0,0,0,0,0,0,0,0,0,0,0,0,0,0,0,0,0,0,0,0,0,0,0,0,0,0,0,0,0,0,0,0,0,0,0,0,0,0,0,0,0,0,0,0,0,0,0,0,0,0,0,0,0,0,0,0,0,0,0,0,0,0,0,0,0,0,0,0,0,0,0,0,0,0,0,0,0,0,0,0,0,0,0,0,0,0,0,0,0,0,0,0,0,0,0,0,0,0,0,0,0,0,0,0],"sum_hessian":[5.298E3,5.041E3,2.57E2,2.598E3,2.443E3,1.14E2,1.43E2,1.512E3,1.086E3,2.077E3,3.66E2,1.12E2,2E0,2E0,1.41E2,7.16E2,7.96E2,6.01E2,4.85E2,1.78E3,2.97E2,2.21E2,1.45E2,7E0,1.05E2,5.7E1,8.4E1,2.75E2,4.41E2,3.87E2,4.09E2,2.22E2,3.79E2,5.5E1,4.3E2,1.779E3,1E0,1.9E2,1.07E2,1.71E2,5E1,3E0,1.42E2,1.04E2,1E0,1E0,5.6E1,1E0,8.3E1,2.73E2,2E0,4.36E2,5E0,4.1E1,3.46E2,2.3E1,3.86E2,2.17E2,5E0,1.69E2,2.1E2,3E1,2.5E1,4.2E1,3.88E2,2.56E2,1.523E3,1.87E2,3E0,2E0,1.05E2,1.05E2,6.6E1,1.7E1,3.3E1,9E0,1.33E2,1E0,1.03E2,1.24E2,1.49E2,4.28E2,8E0,2E0,3E0,3.8E1,3E0,2E0,3.44E2,1E1,1.3E1,1.82E2,2.04E2,2.09E2,8E0,1E0,4E0,1.66E2,3E0,2E1,1.9E2,1E0,2.9E1,1E1,1.5E1,2.7E1,1.5E1,2E0,3.86E2,1.14E2,1.42E2,5E0,1.518E3,1.43E2,4.4E1,1E0,1.04E2,1.02E2,3E0,2E0,6.4E1,1.3E1,4E0,2E0,3.1E1,8E0,1E0,1.7E1,1.16E2,1E0,1.02E2],"tree_param":{"num_deleted":"0","num_feature":"168","num_nodes":"131","size_leaf_vector":"0"}},{"base_weights":[1.8495157E1,1.5292309E1,9.720825E1,1.2771892E1,3.687662E1,7.637906E1,1.13207436E2,7.232793E0,1.7824883E1,3.0271423E1,4.460761E1,3.305628E1,7.7954735E1,1.604923E1,1.1478503E2,4.9987226E0,9.854672E0,1.7756443E1,9.0493126E1,5.8489216E1,2.9469324E1,1.2502254E2,4.3421497E1,7.983807E1,3.8595505E1,1.15344025E2,2.6088501E1,3.154255E0,6.0626044E0,8.855825E0,1.1396827E1,1.4392355E1,1.8917845E1,2.1095137E1,6.922782E1,2.0610523E0,2.96564E1,3.81167E1,4.8717896E1,6.735183E1,8.868863E1,1.1580962E2,3.1831223E1,3.0562074E0,1.6189005E1,5.530802E0,7.0070057E0,1.0995604E1,8.421452E0,1.2984134E1,1.0383172E1,1.4191013E1,3.249693E1,1.8118467E1,2.1782463E1,-7.5030136E-1,3.8418798E0,2.7904148E1,3.4862823E1,3.0095585E1,4.0901623E1,4.9292515E1,1.0451644E1,6.8182335E1,1.7896317E1,9.9341866E1,6.8321304E1,3.36685E1,1.1625028E2,1.102609E1,2.974582E0,1.0689305E1,5.3988647E0,1.2794354E1,6.86929E0,8.523959E0,1.2943228E1,6.676677E0,8.903225E0,1.1423163E1,1.5815171E1,2.2838662E0,1.0578581E1,1.4477714E1,9.352E0,3.894222E1,1.3070899E1,1.3516371E1,1.8359798E1,2.9303623E1,2.1149073E1,3.372393E1,2.5706556E1,1.7594679E1,3.597163E1,3.3632313E1,1.7536863E1,1.0708575E1,4.146614E1,5.0014294E1,1.675948E1,6.902124E1,1.8571316E1,2.1421318E1,1.0143443E2],"categories":[],"categories_nodes":[],"categories_segments":[],"categories_sizes":[],"default_left":[1,1,1,1,1,1,1,1,1,1,1,0,1,0,1,1,1,1,0,1,1,0,1,1,0,1,0,1,1,1,1,1,1,0,0,1,1,1,1,1,1,1,0,1,0,1,1,1,1,1,1,1,1,1,1,0,0,1,1,1,1,1,0,1,0,1,0,0,0,0,0,0,0,0,0,0,0,0,0,0,0,0,0,0,0,0,0,0,0,0,0,0,0,0,0,0,0,0,0,0,0,0,0,0,0],"id":2,"left_children":[1,3,5,7,9,11,13,15,17,19,21,-1,23,-1,25,27,29,31,-1,33,35,-1,37,39,-1,41,-1,43,45,47,49,51,53,-1,-1,55,57,59,61,63,65,67,-1,69,-1,71,73,75,77,79,81,83,85,87,89,-1,-1,91,93,95,97,99,-1,101,-1,103,-1,-1,-1,-1,-1,-1,-1,-1,-1,-1,-1,-1,-1,-1,-1,-1,-1,-1,-1,-1,-1,-1,-1,-1,-1,-1,-1,-1,-1,-1,-1,-1,-1,-1,-1,-1,-1,-1,-1],"loss_changes":[1.3344236E6,2.7659562E5,6.0336E4,1.27557E5,2.5816062E4,3.7714375E3,1.57845E4,1.2708289E4,1.02548125E4,4.8400625E3,1.7748906E4,0E0,3.5159375E3,0E0,2.5935E3,2.292463E3,1.4409844E3,9.0421875E3,0E0,1.3505508E3,1.3950625E3,0E0,4.91425E3,3.3095E3,0E0,6.6875E2,0E0,5.039082E2,3.359121E2,4.7623047E2,4.926875E2,1.7842891E3,3.6561875E3,0E0,0E0,1.7902176E1,1.5998594E3,1.5613125E3,2.0574688E3,3.8164062E2,3.1938438E3,1.0375E2,0E0,2.4758765E2,0E0,2.7033887E2,1.23319336E2,3.7105566E2,3.7177734E2,4.7337695E2,3.604297E2,7.1227344E2,2.42229E2,1.2945E3,1.1952969E3,0E0,0E0,1.8956094E3,6.499453E2,1.00919727E3,1.0899531E3,1.8621875E3,0E0,2.9971875E2,0E0,2.392625E3,0E0,0E0,0E0,0E0,0E0,0E0,0E0,0E0,0E0,0E0,0E0,0E0,0E0,0E0,0E0,0E0,0E0,0E0,0E0,0E0,0E0,0E0,0E0,0E0,0E0,0E0,0E0,0E0,0E0,0E0,0E0,0E0,0E0,0E0,0E0,0E0,0E0,0E0,0E0],"parents":[2147483647,0,0,1,1,2,2,3,3,4,4,5,5,6,6,7,7,8,8,9,9,10,10,12,12,14,14,15,15,16,16,17,17,19,19,20,20,22,22,23,23,25,25,27,27,28,28,29,29,30,30,31,31,32,32,35,35,36,36,37,37,38,38,39,39,40,40,41,41,43,43,45,45,46,46,47,47,48,48,49,49,50,50,51,51,52,52,53,53,54,54,57,57,58,58,59,59,60,60,61,61,63,63,65,65],"right_children":[2,4,6,8,10,12,14,16,18,20,22,-1,24,-1,26,28,30,32,-1,34,36,-1,38,40,-1,42,-1,44,46,48,50,52,54,-1,-1,56,58,60,62,64,66,68,-1,70,-1,72,74,76,78,80,82,84,86,88,90,-1,-1,92,94,96,98,100,-1,102,-1,104,-1,-1,-1,-1,-1,-1,-1,-1,-1,-1,-1,-1,-1,-1,-1,-1,-1,-1,-1,-1,-1,-1,-1,-1,-1,-1,-1,-1,-1,-1,-1,-1,-1,-1,-1,-1,-1,-1,-1],"split_conditions":[1.23925E2,5.175E1,1.9475E2,2.5475E1,7.525E1,2.045E1,4.7E0,1.4925E1,2.675E2,3.114E1,2.025E1,9.916883E0,2.455E2,4.8147693E0,2.675E2,8.495E0,2.0630001E1,3.4355003E1,2.714794E1,3.434E1,7.12E0,3.7506763E1,9.175E1,4.238E1,1.1578651E1,2.665E2,7.8265505E0,1.00185E2,1.2719999E1,1.376E1,2.1605E1,1.22195E2,3.8489998E1,6.3285413E0,2.0768347E1,3.2425E1,6.785E1,2.05E1,2.418E2,4.7665E1,2.344E2,5.1499996E0,9.549367E0,2.81E0,4.856702E0,4.12E0,4.98E0,2.06E1,1.634E1,2.3615E1,9.115E0,5.4E1,2.2439999E1,1.925E1,3.0150002E1,-2.2509041E-1,1.152564E0,1.9535E1,1.15E1,5.2510002E1,1.13E1,2.66E2,3.1354933E0,9.6625E1,5.368895E0,7.2000003E0,2.0496391E1,1.010055E1,3.4875088E1,3.307827E0,8.9237463E-1,3.2067916E0,1.6196595E0,3.8383064E0,2.060787E0,2.5571878E0,3.8829684E0,2.0030034E0,2.6709676E0,3.4269493E0,4.7445517E0,6.8515986E-1,3.1735744E0,4.343314E0,2.8056002E0,1.1682666E1,3.92127E0,4.0549116E0,5.50794E0,8.791087E0,6.3447223E0,1.011718E1,7.711967E0,5.2784038E0,1.079149E1,1.0089694E1,5.2610593E0,3.2125728E0,1.2439843E1,1.5004289E1,5.027844E0,2.0706373E1,5.571395E0,6.426396E0,3.043033E1],"split_indices":[167,167,167,167,167,149,48,167,147,166,165,0,43,0,5,167,167,167,0,1,156,0,167,96,0,39,0,9,167,166,166,145,167,0,0,0,167,26,163,97,83,2,0,9,0,163,123,61,167,167,162,164,32,148,166,0,0,10,73,115,72,17,0,58,0,10,0,0,0,0,0,0,0,0,0,0,0,0,0,0,0,0,0,0,0,0,0,0,0,0,0,0,0,0,0,0,0,0,0,0,0,0,0,0,0],"split_type":[0,0,0,0,0,0,0,0,0,0,0,0,0,0,0,0,0,0,0,0,0,0,0,0,0,0,0,0,0,0,0,0,0,0,0,0,0,0,0,0,0,0,0,0,0,0,0,0,0,0,0,0,0,0,0,0,0,0,0,0,0,0,0,0,0,0,0,0,0,0,0,0,0,0,0,0,0,0,0,0,0,0,0,0,0,0,0,0,0,0,0,0,0,0,0,0,0,0,0,0,0,0,0,0,0],"sum_hessian":[5.298E3,5.092E3,2.06E2,4.561E3,5.31E2,9.2E1,1.14E2,2.177E3,2.384E3,2.89E2,2.42E2,4E0,8.8E1,2E0,1.12E2,1.177E3,1E3,2.383E3,1E0,6E0,2.83E2,2E0,2.4E2,8.3E1,5E0,1.11E2,1E0,4.32E2,7.45E2,6.11E2,3.89E2,6.15E2,1.768E3,2E0,4E0,2E0,2.81E2,1.24E2,1.16E2,3.8E1,4.5E1,1.1E2,1E0,4.3E2,2E0,4.81E2,2.64E2,9.9E1,5.12E2,1.47E2,2.42E2,6.1E2,5E0,1.388E3,3.8E2,1E0,1E0,2.15E2,6.6E1,3.5E1,8.9E1,1.14E2,2E0,3.7E1,1E0,2.7E1,1.8E1,1E0,1.09E2,3E0,4.27E2,1E1,4.71E2,4E0,2.6E2,4.6E1,5.3E1,1.14E2,3.98E2,9.8E1,4.9E1,6E0,2.36E2,5.74E2,3.6E1,3E0,2E0,7.2E1,1.316E3,2.6E1,3.54E2,5.5E1,1.6E2,5E0,6.1E1,2.6E1,9E0,2E0,8.7E1,1.11E2,3E0,3.6E1,1E0,1E0,2.6E1],"tree_param":{"num_deleted":"0","num_feature":"168","num_nodes":"105","size_leaf_vector":"0"}},{"base_weights":[1.3031302E1,1.0757852E1,6.890404E1,8.914273E0,2.572508E1,5.754442E1,8.391106E1,5.24568E0,1.2639232E1,2.0399527E1,3.090223E1,5.2381325E1,7.4394905E1,1.2839383E1,8.5432274E1,3.501853E0,7.062738E0,1.2576448E1,7.691916E1,3.341155E1,1.9423986E1,1.0001803E2,3.0048288E1,5.3237053E1,-1.4456322E1,7.641775E1,1.1911924E1,8.630953E1,3.2684116E1,2.3905506E0,4.4326324E0,6.0980697E0,8.039056E0,1.0355589E1,1.3166846E1,5.015163E1,2.3115238E1,2.2196938E1,1.7256956E1,2.681171E1,3.430054E1,4.709945E1,6.1987587E1,1.0091386E0,2.8048716E0,4.3628173E0,1.7686167E1,1.3642617E1,5.979401E0,6.894574E0,8.791555E0,1.0143061E1,2.5348505E1,1.3106812E1,3.6440517E1,5.450236E1,1.4198988E1,3.5680962E0,2.4446825E1,8.643589E0,2.3165707E1,1.3585627E1,1.9947803E1,6.0561357E0,2.7295774E1,3.4892494E1,8.854752E0,5.8248055E1,4.0068943E1,1.8278717E1,6.402109E1,1.2571518E-1,1.3650658E0,2.0124345E0,3.6638591E0,3.1300225E0,4.6782875E0,4.399827E0,1.8308327E1,6.76612E0,4.925261E0,1.0096865E1,6.513564E0,8.409993E0,1.3751163E1,1.2954526E1,9.446762E0,3.363502E1,1.2796492E1,1.2686463E1,1.5488493E1,1.0268619E1,1.9706554E0,1.9748943E1,2.8053387E1,1.4984445E1,2.9060857E0,1.0777569E1,2.10268E1,3.0272226E0,9.085894E0,3.227845E1,2.491663E1,1.5172484E1,3.5471657E1,2.409605E0,1.0199932E1,2.6837358E1,6.1992203E1,2.7256104E1,4.398912E1],"categories":[],"categories_nodes":[],"categories_segments":[],"categories_sizes":[],"default_left":[1,1,1,1,1,1,1,1,1,1,1,1,1,0,1,1,1,1,0,1,1,0,1,1,0,0,0,0,0,1,1,1,1,1,1,1,1,1,1,1,1,1,1,1,1,1,0,1,1,1,1,1,1,1,0,0,0,0,0,1,1,1,1,1,1,1,1,1,1,0,0,0,0,0,0,0,0,0,0,0,0,0,0,0,0,0,0,0,0,0,0,0,0,0,0,0,0,0,0,0,0,0,0,0,0,0,0,0,0,0,0],"id":3,"left_children":[1,3,5,7,9,11,13,15,17,19,21,23,25,-1,27,29,31,33,-1,35,37,-1,39,41,-1,-1,-1,-1,-1,43,45,47,49,51,53,55,57,59,61,63,65,67,69,71,73,75,-1,77,79,81,83,85,87,89,-1,-1,-1,-1,-1,91,93,95,97,99,101,103,105,107,109,-1,-1,-1,-1,-1,-1,-1,-1,-1,-1,-1,-1,-1,-1,-1,-1,-1,-1,-1,-1,-1,-1,-1,-1,-1,-1,-1,-1,-1,-1,-1,-1,-1,-1,-1,-1,-1,-1,-1,-1,-1,-1],"loss_changes":[6.723586E5,1.4030319E5,3.04595E4,6.191978E4,1.47543125E4,6.6301562E3,8.30925E3,7.2219336E3,8.1129375E3,2.879875E3,1.35795E4,6.2603125E3,2.3759375E3,0E0,1.11225E3,1.1985908E3,1.004875E3,2.8125312E3,0E0,1.9432344E3,1.1853203E3,0E0,2.9201562E3,2.1825938E3,0E0,0E0,0E0,0E0,0E0,3.0337598E2,5.1040625E2,4.260625E2,4.1564453E2,1.2628086E3,1.9996562E3,1.6464258E2,2.5114453E2,1.2572031E3,1.2207266E3,1.4723594E3,1.453375E3,2.368875E3,2.0295156E3,3.9132713E1,2.723916E2,2.3153613E2,0E0,2.6443994E2,4.3108984E2,2.0753711E2,5.088457E2,8.016211E2,1.936643E2,1.5755312E3,0E0,0E0,0E0,0E0,0E0,7.7357544E1,1.166082E3,9.573496E2,6.144258E2,1.8379349E1,1.0806016E3,7.637969E2,1.0101746E1,8.0603125E2,8.101719E2,0E0,0E0,0E0,0E0,0E0,0E0,0E0,0E0,0E0,0E0,0E0,0E0,0E0,0E0,0E0,0E0,0E0,0E0,0E0,0E0,0E0,0E0,0E0,0E0,0E0,0E0,0E0,0E0,0E0,0E0,0E0,0E0,0E0,0E0,0E0,0E0,0E0,0E0,0E0,0E0,0E0,0E0],"parents":[2147483647,0,0,1,1,2,2,3,3,4,4,5,5,6,6,7,7,8,8,9,9,10,10,11,11,12,12,14,14,15,15,16,16,17,17,19,19,20,20,22,22,23,23,29,29,30,30,31,31,32,32,33,33,34,34,35,35,36,36,37,37,38,38,39,39,40,40,41,41,42,42,43,43,44,44,45,45,47,47,48,48,49,49,50,50,51,51,52,52,53,53,59,59,60,60,61,61,62,62,63,63,64,64,65,65,66,66,67,67,68,68],"right_children":[2,4,6,8,10,12,14,16,18,20,22,24,26,-1,28,30,32,34,-1,36,38,-1,40,42,-1,-1,-1,-1,-1,44,46,48,50,52,54,56,58,60,62,64,66,68,70,72,74,76,-1,78,80,82,84,86,88,90,-1,-1,-1,-1,-1,92,94,96,98,100,102,104,106,108,110,-1,-1,-1,-1,-1,-1,-1,-1,-1,-1,-1,-1,-1,-1,-1,-1,-1,-1,-1,-1,-1,-1,-1,-1,-1,-1,-1,-1,-1,-1,-1,-1,-1,-1,-1,-1,-1,-1,-1,-1,-1,-1],"split_conditions":[1.23925E2,5.0239998E1,2.26845E2,2.6835E1,7.114E1,1.09899994E2,4.7E0,1.4845E1,2.675E2,3.835E1,2.808E1,2.63E2,2.695E2,3.851815E0,2.645E2,9.41E0,2.0195E1,3.3715E1,2.3075748E1,2.064E1,5.535E1,3.000541E1,9.175E1,1.747E2,-4.336897E0,2.2925325E1,3.5735774E0,2.589286E1,9.805235E0,5.01E0,1.6558499E2,3.47E0,1.988E1,1.22195E2,2.4805E2,6.442E1,1.41E1,1.09E1,3.145E1,7.315E0,2.5E2,1.3205E2,9.6E0,3.47E0,1.501E1,9.15E0,5.30585E0,1.398E1,1.8119999E1,9.225E0,7.043E1,1.4959999E1,2.517E1,4.114E1,1.0932156E1,1.635071E1,4.2596965E0,1.0704288E0,7.334048E0,3.565E1,5.7E1,3.69E1,1.1825E1,6.937E1,6.905E1,1.135E1,2.025E2,3.4800003E1,1.9795E1,5.4836154E0,1.9206327E1,3.7714556E-2,4.0951976E-1,6.037304E-1,1.0991578E0,9.390068E-1,1.4034863E0,1.3199482E0,5.4924984E0,2.0298362E0,1.4775784E0,3.0290596E0,1.9540693E0,2.522998E0,4.125349E0,3.886358E0,2.8340287E0,1.0090507E1,3.8389475E0,3.8059392E0,4.6465483E0,3.0805857E0,5.9119666E-1,5.924683E0,8.416017E0,4.4953337E0,8.7182575E-1,3.233271E0,6.30804E0,9.081668E-1,2.725768E0,9.683536E0,7.4749894E0,4.5517454E0,1.0641498E1,7.2288156E-1,3.0599797E0,8.051208E0,1.8597662E1,8.176831E0,1.3196736E1],"split_indices":[167,167,167,167,167,0,48,167,147,166,166,141,0,0,107,167,167,167,0,45,166,0,167,167,0,0,0,0,0,167,46,154,50,145,48,0,8,67,74,90,120,166,43,167,122,148,0,11,166,155,17,118,7,167,0,0,0,0,0,14,167,70,142,0,166,82,95,148,14,0,0,0,0,0,0,0,0,0,0,0,0,0,0,0,0,0,0,0,0,0,0,0,0,0,0,0,0,0,0,0,0,0,0,0,0,0,0,0,0,0,0],"split_type":[0,0,0,0,0,0,0,0,0,0,0,0,0,0,0,0,0,0,0,0,0,0,0,0,0,0,0,0,0,0,0,0,0,0,0,0,0,0,0,0,0,0,0,0,0,0,0,0,0,0,0,0,0,0,0,0,0,0,0,0,0,0,0,0,0,0,0,0,0,0,0,0,0,0,0,0,0,0,0,0,0,0,0,0,0,0,0,0,0,0,0,0,0,0,0,0,0,0,0,0,0,0,0,0,0,0,0,0,0,0,0],"sum_hessian":[5.298E3,5.092E3,2.06E2,4.535E3,5.57E2,1.2E2,8.6E1,2.286E3,2.249E3,2.77E2,2.8E2,9.5E1,2.5E1,2E0,8.4E1,1.168E3,1.118E3,2.248E3,1E0,1.7E1,2.6E2,2E0,2.78E2,9.4E1,1E0,2.4E1,1E0,8.2E1,2E0,5.34E2,6.34E2,5.66E2,5.52E2,4.76E2,1.772E3,5E0,1.2E1,1.1E2,1.5E2,1.62E2,1.16E2,5.9E1,3.5E1,1.24E2,4.1E2,6.32E2,2E0,7E0,5.59E2,2.23E2,3.29E2,4.71E2,5E0,1.769E3,3E0,4E0,1E0,1E0,1.1E1,8E0,1.02E2,6.6E1,8.4E1,4E0,1.58E2,1.13E2,3E0,2E1,3.9E1,2E0,3.3E1,3.6E1,8.8E1,2.15E2,1.95E2,1.31E2,5.01E2,3E0,4E0,3.17E2,2.42E2,2.1E1,2.02E2,3.08E2,2.1E1,9E1,3.81E2,2E0,3E0,1.509E3,2.6E2,6E0,2E0,6.3E1,3.9E1,5.8E1,8E0,1E1,7.4E1,3E0,1E0,4.7E1,1.11E2,4E0,1.09E2,1E0,2E0,3E0,1.7E1,1.1E1,2.8E1],"tree_param":{"num_deleted":"0","num_feature":"168","num_nodes":"111","size_leaf_vector":"0"}},{"base_weights":[9.190037E0,7.483619E0,4.6765457E1,6.260904E0,1.7836432E1,3.676881E1,5.661495E1,3.3147018E0,8.554175E0,5.4411037E1,1.731874E1,2.6320578E1,4.1655487E1,6.1008884E1,4.0940407E1,2.14545E0,4.306677E0,8.506231E0,6.538128E1,6.8983406E1,1.1986743E1,1.3401821E1,1.9978971E1,5.2084248E1,2.282395E1,1.7698673E1,4.340607E1,4.254256E1,6.488581E1,-1.2287872E1,4.3366932E1,1.2113571E0,2.5886586E0,1.8953331E1,4.275363E0,6.827611E0,9.222217E0,5.6006756E0,1.4036915E1,1.7162804E1,2.2738918E1,8.46105E0,2.384241E1,2.8359875E1,4.5942646E1,3.1711048E1,5.211807E1,6.57493E1,2.368476E1,3.0918236E1,5.2717987E1,1.0932347E0,1.23835745E1,1.3831079E1,2.5480866E0,1.0883839E1,4.2155023E0,6.714267E0,2.0065529E1,9.186077E0,3.68288E1,9.819964E0,2.902796E-1,1.6071726E1,1.1571364E1,1.4838201E1,2.3934963E1,1.114093E1,2.3377556E1,2.4310225E1,4.2022514E0,3.455554E1,1.8112803E1,4.7154896E1,2.3176926E1,1.635453E1,6.624244E1,3.2006775E1,8.383621E0,9.144532E-1,4.142409E0,4.3265676E0,2.327604E0,1.3799604E0,1.3402096E1,3.6710699E0,4.8891444E0,1.291818E1,6.529386E0,2.6908018E1,9.917281E0,2.9070845E1,9.147425E0,3.515108E0,1.2019888E1,3.2927117E0,-2.7702084E0,7.1362543E0,1.71253E1,3.4917588E0,1.2600086E1,2.092933E1,1.1571848E1,2.6131805E1,1.2155724E1,1.4107622E1,-4.8388925E-1,2.052754E1,2.7852997E1,2.47192E1,5.6115E0,4.8536827E1,2.3351843E1,2.702709E1,6.7033264E1],"categories":[],"categories_nodes":[],"categories_segments":[],"categories_sizes":[],"default_left":[1,1,1,1,1,1,1,1,1,1,1,1,1,1,1,1,1,1,0,0,0,1,1,0,1,0,1,1,1,0,1,1,1,0,1,1,1,1,1,1,1,0,1,1,1,0,0,1,0,1,0,1,0,0,1,1,1,1,1,1,0,1,1,1,1,1,1,1,1,1,0,0,0,1,0,0,1,0,0,0,0,0,0,0,0,0,0,0,0,0,0,0,0,0,0,0,0,0,0,0,0,0,0,0,0,0,0,0,0,0,0,0,0,0,0],"id":4,"left_children":[1,3,5,7,9,11,13,15,17,19,21,23,25,27,29,31,33,35,-1,-1,-1,37,39,-1,41,-1,43,45,47,-1,49,51,53,-1,55,57,59,61,63,65,67,-1,69,71,73,-1,-1,75,-1,77,-1,79,-1,-1,81,83,85,87,89,91,-1,93,95,97,99,101,103,105,107,109,-1,-1,-1,111,-1,-1,113,-1,-1,-1,-1,-1,-1,-1,-1,-1,-1,-1,-1,-1,-1,-1,-1,-1,-1,-1,-1,-1,-1,-1,-1,-1,-1,-1,-1,-1,-1,-1,-1,-1,-1,-1,-1,-1,-1],"loss_changes":[3.394185E5,6.4067156E4,2.0564562E4,3.061886E4,9.187531E3,4.8772812E3,5.3537812E3,2.295418E3,6.391328E3,3.5006719E3,5.2443906E3,2.41467E3,2.5029688E3,3.4681562E3,4.1493594E3,3.752583E2,4.1155273E2,3.0005938E3,0E0,0E0,0E0,9.965E2,2.0425234E3,0E0,3.3950586E2,0E0,1.4450156E3,2.141914E2,9.33125E2,0E0,1.513082E3,3.7709012E2,2.471001E2,0E0,3.7858594E2,1.0146172E3,1.4415156E3,4.0045923E2,8.1741406E2,2.1479219E3,8.87625E2,0E0,2.1023438E2,1.9943848E2,5.6296094E2,0E0,0E0,5.73E2,0E0,7.5083984E1,0E0,1.5648187E2,0E0,0E0,2.3226196E2,1.9690454E2,3.7264258E2,7.885039E2,1.4978125E2,1.1044844E3,0E0,9.6450745E1,9.182166E1,8.8510547E2,7.373008E2,2.1651973E3,6.9155664E2,3.5169897E2,1.2904844E3,1.1365039E2,0E0,0E0,0E0,7.086406E2,0E0,0E0,2.66125E2,0E0,0E0,0E0,0E0,0E0,0E0,0E0,0E0,0E0,0E0,0E0,0E0,0E0,0E0,0E0,0E0,0E0,0E0,0E0,0E0,0E0,0E0,0E0,0E0,0E0,0E0,0E0,0E0,0E0,0E0,0E0,0E0,0E0,0E0,0E0,0E0,0E0,0E0],"parents":[2147483647,0,0,1,1,2,2,3,3,4,4,5,5,6,6,7,7,8,8,9,9,10,10,11,11,12,12,13,13,14,14,15,15,16,16,17,17,21,21,22,22,24,24,26,26,27,27,28,28,30,30,31,31,32,32,34,34,35,35,36,36,37,37,38,38,39,39,40,40,42,42,43,43,44,44,47,47,49,49,51,51,54,54,55,55,56,56,57,57,58,58,59,59,61,61,62,62,63,63,64,64,65,65,66,66,67,67,68,68,69,69,73,73,76,76],"right_children":[2,4,6,8,10,12,14,16,18,20,22,24,26,28,30,32,34,36,-1,-1,-1,38,40,-1,42,-1,44,46,48,-1,50,52,54,-1,56,58,60,62,64,66,68,-1,70,72,74,-1,-1,76,-1,78,-1,80,-1,-1,82,84,86,88,90,92,-1,94,96,98,100,102,104,106,108,110,-1,-1,-1,112,-1,-1,114,-1,-1,-1,-1,-1,-1,-1,-1,-1,-1,-1,-1,-1,-1,-1,-1,-1,-1,-1,-1,-1,-1,-1,-1,-1,-1,-1,-1,-1,-1,-1,-1,-1,-1,-1,-1,-1,-1],"split_conditions":[1.13630005E2,5.0239998E1,1.4545E2,2.3240002E1,2.7509998E1,1.3969E2,2.355E2,1.2719999E1,2.675E2,1.694E1,6.51E1,1.253E1,1.175E1,8.69E1,3.685E1,7.25E0,1.385E0,3.355E1,1.9614384E1,2.0695023E1,3.596023E0,9.54E0,3.6675E1,1.5625275E1,1.8415E1,5.3096023E0,2.485E1,1.70785E2,2.685E2,-3.6863618E0,1.9845E2,1.00185E2,2.595E0,5.6859994E0,5.19E0,1.22195E2,2.615E2,2.2085E1,5.535E1,8.619E1,1.234E1,2.538315E0,2.65E2,2.3029999E1,2.39E2,9.513315E0,1.5635421E1,2.96E1,7.105428E0,2.2235E2,1.5815396E1,3.915E1,3.7150724E0,4.149324E0,6.8900003E0,1.008E1,1.7939999E1,1.505E1,2.517E1,4.6949997E0,1.104864E1,7.3999996E0,1.665E1,1.259E1,1.6825E1,3.29E1,1.45135E2,7.725E1,8.82E1,2.525E2,1.2606754E0,1.0366662E1,5.4338408E0,2.0485E2,6.953078E0,4.906359E0,3.8800003E1,9.602033E0,2.5150864E0,2.7433598E-1,1.2427227E0,1.2979703E0,6.982812E-1,4.1398814E-1,4.020629E0,1.101321E0,1.4667434E0,3.8754542E0,1.9588159E0,8.072406E0,2.9751844E0,8.721253E0,2.7442274E0,1.0545325E0,3.6059666E0,9.8781353E-1,-8.3106256E-1,2.1408763E0,5.13759E0,1.0475277E0,3.780026E0,6.2787995E0,3.4715545E0,7.839542E0,3.6467173E0,4.232287E0,-1.4516678E-1,6.1582623E0,8.3559E0,7.4157605E0,1.68345E0,1.45610485E1,7.0055532E0,8.108128E0,2.010998E1],"split_indices":[167,167,145,167,166,167,92,167,147,42,167,61,96,129,0,167,64,167,0,0,0,26,74,0,49,0,136,142,110,0,167,9,156,0,165,145,19,135,166,159,28,0,9,7,108,0,0,29,0,18,0,145,0,0,164,0,167,166,7,147,0,0,0,63,147,141,147,62,167,52,0,0,0,9,0,0,83,0,0,0,0,0,0,0,0,0,0,0,0,0,0,0,0,0,0,0,0,0,0,0,0,0,0,0,0,0,0,0,0,0,0,0,0,0,0],"split_type":[0,0,0,0,0,0,0,0,0,0,0,0,0,0,0,0,0,0,0,0,0,0,0,0,0,0,0,0,0,0,0,0,0,0,0,0,0,0,0,0,0,0,0,0,0,0,0,0,0,0,0,0,0,0,0,0,0,0,0,0,0,0,0,0,0,0,0,0,0,0,0,0,0,0,0,0,0,0,0,0,0,0,0,0,0,0,0,0,0,0,0,0,0,0,0,0,0,0,0,0,0,0,0,0,0,0,0,0,0,0,0,0,0,0,0],"sum_hessian":[5.298E3,5.069E3,2.29E2,4.535E3,5.34E2,1.16E2,1.13E2,1.986E3,2.549E3,6E0,5.28E2,3.9E1,7.7E1,8.6E1,2.7E1,9.13E2,1.073E3,2.548E3,1E0,4E0,2E0,2.16E2,3.12E2,3E0,3.6E1,6E0,7.1E1,1.7E1,6.9E1,1E0,2.6E1,2.95E2,6.18E2,1E0,1.072E3,7.65E2,1.783E3,1.7E1,1.99E2,1.58E2,1.54E2,3E0,3.3E1,1.2E1,5.9E1,1E1,7E0,6.7E1,2E0,1.3E1,1.3E1,2.93E2,2E0,1E0,6.17E2,8E0,1.064E3,7.6E2,5E0,1.782E3,1E0,9E0,8E0,1.06E2,9.3E1,1.2E2,3.8E1,9E0,1.45E2,3.2E1,1E0,6E0,6E0,5.5E1,4E0,1E0,6.6E1,1.2E1,1E0,2.78E2,1.5E1,6.6E1,5.51E2,2E0,6E0,5.92E2,4.72E2,2E1,7.4E2,2E0,3E0,2E0,1.78E3,3E0,6E0,4E0,4E0,1.2E1,9.4E1,1.1E1,8.2E1,4E1,8E1,3.1E1,7E0,7E0,2E0,9.2E1,5.3E1,3.1E1,1E0,5.1E1,4E0,2E0,6.4E1],"tree_param":{"num_deleted":"0","num_feature":"168","num_nodes":"115","size_leaf_vector":"0"}},{"base_weights":[6.4956613E0,5.270906E0,3.3465286E1,4.202515E0,1.1390483E1,2.7553104E1,4.21932E1,2.564569E0,6.043942E0,8.861923E0,1.4536006E1,2.374606E1,3.3930866E1,6.731772E0,4.2914448E1,1.8096396E0,3.5840368E0,5.9921923E0,5.557409E1,2.3940481E1,8.659389E0,4.9574326E1,1.3852827E1,4.241288E1,2.1929426E1,5.5196724E1,2.8566017E1,3.347903E1,4.551296E1,1.16112E0,2.3159854E0,2.615682E0,4.107932E0,4.6060624E0,6.4674025E0,2.6720531E1,6.410143E0,1.6197271E1,8.29763E0,6.580608E1,1.1407208E1,2.3457504E1,1.3188483E1,4.666721E1,8.443447E0,1.6682072E1,2.5100565E1,2.145965E1,6.8488655E1,-1.0444691E1,2.9772247E1,3.5405796E1,8.8320055E0,4.593049E1,8.977989E0,8.523928E-1,2.360026E0,2.2592325E0,1.2165316E1,3.3064058E0,1.4673564E0,7.9817643E0,3.9005919E0,4.4188213E0,2.3083008E1,1.4914716E1,6.332486E0,2.0572647E1,7.067627E-1,7.472992E0,1.0968185E1,3.0283033E1,1.5119979E1,1.1048019E1,1.5954003E1,1.8250732E1,1.0122523E1,1.466427E1,2.8653101E1,2.1074507E1,3.6326E1,3.7271755E1,1.1786122E1,4.6769646E1,2.1231174E1,7.869236E-1,8.151888E0,1.5557954E1,1.8804455E0,3.061124E0,1.8618299E0,1.3000247E1,3.1536326E0,9.715651E-1,3.6372774E0,4.8535237E0,2.020718E1,5.723715E0,3.4741774E0,2.4975321E0,5.1377726E0,1.0478365E1,2.7993313E1,1.929054E1,5.9644814E0,6.4048467E0,6.71854E-2,6.17377E0,2.3938362E1,-4.0975475E0,2.9322271E0,1.0983621E1,6.432549E0,2.0685944E1,1.0049668E1,1.502449E0,1.6331488E1,7.6381807E0,1.3086482E1,3.0461693E1,1.5028745E1,7.8870955E0,1.9710186E1,9.202644E0,2.9501623E1,2.1681608E1,4.7697754E0,3.820407E1,1.8323666E1,1.8033926E1,4.741616E1],"categories":[],"categories_nodes":[],"categories_segments":[],"categories_sizes":[],"default_left":[1,1,1,1,1,1,1,1,1,1,1,1,1,0,1,1,1,1,0,1,1,1,1,1,1,1,1,1,1,1,1,1,1,1,1,0,0,1,1,0,0,1,1,0,0,1,1,0,0,0,1,1,0,1,0,1,1,1,0,1,1,1,1,1,1,1,1,1,1,1,1,0,1,1,1,1,0,0,1,1,1,0,0,1,0,0,0,0,0,0,0,0,0,0,0,0,0,0,0,0,0,0,0,0,0,0,0,0,0,0,0,0,0,0,0,0,0,0,0,0,0,0,0,0,0,0,0,0,0,0,0],"id":5,"left_children":[1,3,5,7,9,11,13,15,17,19,21,23,25,-1,27,29,31,33,-1,35,37,39,41,43,45,47,49,51,53,55,57,59,61,63,65,-1,-1,67,69,-1,-1,71,73,-1,-1,75,77,-1,-1,-1,79,81,-1,83,-1,85,87,89,-1,91,93,95,97,99,101,103,105,107,109,111,113,-1,115,117,119,121,-1,-1,123,125,127,-1,-1,129,-1,-1,-1,-1,-1,-1,-1,-1,-1,-1,-1,-1,-1,-1,-1,-1,-1,-1,-1,-1,-1,-1,-1,-1,-1,-1,-1,-1,-1,-1,-1,-1,-1,-1,-1,-1,-1,-1,-1,-1,-1,-1,-1,-1,-1,-1,-1],"loss_changes":[1.748559E5,3.3100312E4,1.07056875E4,1.3008266E4,5.8602734E3,2.5935312E3,2.0385781E3,1.7536484E3,4.875383E3,1.0753477E3,7.3083594E3,2.155789E3,4.1276562E3,0E0,6.58375E2,4.2945264E2,4.823662E2,1.3080391E3,0E0,7.2393555E1,9.999863E2,2.9664521E3,1.7899141E3,6.1758887E2,9.956758E2,2.5661348E3,2.2873086E3,7.7954297E2,6.096875E2,2.1229645E2,3.8504077E2,2.6800098E2,4.7408008E2,1.7039326E3,1.6264727E3,0E0,0E0,1.2054424E3,7.9673047E2,0E0,0E0,6.802822E2,1.6587852E3,0E0,0E0,1.7539648E2,1.4706621E3,0E0,0E0,0E0,1.5715625E3,4.8625195E2,0E0,3.7496875E2,0E0,2.1437134E2,7.176212E2,2.2852612E2,0E0,2.7592725E2,1.373996E2,1.0874895E3,4.4578223E2,7.026885E2,1.613916E1,7.857295E2,6.741758E2,5.3068555E2,6.547405E1,1.0543516E3,6.132988E2,0E0,1.5693799E2,1.1372891E3,1.3275078E3,2.5292578E2,0E0,0E0,3.391621E2,9.455664E1,4.3773438E1,0E0,0E0,3.1532812E2,0E0,0E0,0E0,0E0,0E0,0E0,0E0,0E0,0E0,0E0,0E0,0E0,0E0,0E0,0E0,0E0,0E0,0E0,0E0,0E0,0E0,0E0,0E0,0E0,0E0,0E0,0E0,0E0,0E0,0E0,0E0,0E0,0E0,0E0,0E0,0E0,0E0,0E0,0E0,0E0,0E0,0E0,0E0,0E0,0E0,0E0,0E0],"parents":[2147483647,0,0,1,1,2,2,3,3,4,4,5,5,6,6,7,7,8,8,9,9,10,10,11,11,12,12,14,14,15,15,16,16,17,17,19,19,20,20,21,21,22,22,23,23,24,24,25,25,26,26,27,27,28,28,29,29,30,30,31,31,32,32,33,33,34,34,37,37,38,38,41,41,42,42,45,45,46,46,50,50,51,51,53,53,55,55,56,56,57,57,59,59,60,60,61,61,62,62,63,63,64,64,65,65,66,66,67,67,68,68,69,69,70,70,72,72,73,73,74,74,75,75,78,78,79,79,80,80,83,83],"right_children":[2,4,6,8,10,12,14,16,18,20,22,24,26,-1,28,30,32,34,-1,36,38,40,42,44,46,48,50,52,54,56,58,60,62,64,66,-1,-1,68,70,-1,-1,72,74,-1,-1,76,78,-1,-1,-1,80,82,-1,84,-1,86,88,90,-1,92,94,96,98,100,102,104,106,108,110,112,114,-1,116,118,120,122,-1,-1,124,126,128,-1,-1,130,-1,-1,-1,-1,-1,-1,-1,-1,-1,-1,-1,-1,-1,-1,-1,-1,-1,-1,-1,-1,-1,-1,-1,-1,-1,-1,-1,-1,-1,-1,-1,-1,-1,-1,-1,-1,-1,-1,-1,-1,-1,-1,-1,-1,-1,-1,-1],"split_conditions":[1.13630005E2,4.2434998E1,2.205E2,2.6835E1,6.3495E1,1.02850006E2,4.7E0,1.6185001E1,2.655E2,6.875E0,3.1335001E1,8.56E0,9.3600006E1,2.0195317E0,4.425E1,9.875E0,1.6720001E1,3.0395E1,1.6672228E1,3.6300003E1,3.0150002E1,1.9925E1,9.65E0,4.591E1,1.3969E2,1.3655E1,2.92E1,2.665E2,2.675E2,2.5720001E1,1.51485E2,2.114E1,1.0799999E1,1.36945E2,1.6689999E1,8.01616E0,1.9230429E0,4.693E1,5.296E1,1.9741825E1,3.4221628E0,1.954E1,6.48E1,1.4000163E1,2.5330343E0,4.189E1,2.705E1,6.4378953E0,2.0546597E1,-3.1334074E0,2.1104999E2,6.0025E1,2.6496017E0,2.685E2,2.6933968E0,9.2765E1,7.1000004E0,1.1705E1,3.6495948E0,3.46E0,4.48E1,3.689E1,1.734E1,1.6744999E1,5.114E1,2.4385E1,5.2915E1,1.475E1,2.256E1,1.426E1,2.2275E1,9.08491E0,8.225E0,2.69E1,4.4445E1,2.065E1,3.0367572E0,4.3992815E0,8.9E0,2.65E2,2.645E2,1.1181527E1,3.535837E0,3.21E1,6.369353E0,2.3607709E-1,2.4455664E0,4.6673865E0,5.6413364E-1,9.183373E-1,5.58549E-1,3.9000742E0,9.460898E-1,2.9146954E-1,1.0911833E0,1.4560572E0,6.0621543E0,1.7171146E0,1.0422533E0,7.4925965E-1,1.5413319E0,3.1435096E0,8.397994E0,5.7871623E0,1.7893444E0,1.9214541E0,2.0155622E-2,1.852131E0,7.181509E0,-1.2292643E0,8.796682E-1,3.2950864E0,1.9297647E0,6.2057834E0,3.0149007E0,4.5073473E-1,4.8994465E0,2.2914543E0,3.9259448E0,9.138508E0,4.5086236E0,2.3661287E0,5.913056E0,2.7607934E0,8.850488E0,6.5044827E0,1.4309326E0,1.1461222E1,5.4971E0,5.410178E0,1.4224849E1],"split_indices":[167,167,167,167,167,119,48,167,147,78,166,28,126,0,41,167,158,145,0,1,166,8,117,20,167,15,28,159,69,146,46,166,155,8,165,0,0,159,156,0,0,16,148,0,0,23,62,0,0,0,152,1,0,110,0,8,10,166,0,39,3,161,166,99,0,137,166,2,0,10,161,0,4,22,145,79,0,0,10,101,128,0,0,29,0,0,0,0,0,0,0,0,0,0,0,0,0,0,0,0,0,0,0,0,0,0,0,0,0,0,0,0,0,0,0,0,0,0,0,0,0,0,0,0,0,0,0,0,0,0,0],"split_type":[0,0,0,0,0,0,0,0,0,0,0,0,0,0,0,0,0,0,0,0,0,0,0,0,0,0,0,0,0,0,0,0,0,0,0,0,0,0,0,0,0,0,0,0,0,0,0,0,0,0,0,0,0,0,0,0,0,0,0,0,0,0,0,0,0,0,0,0,0,0,0,0,0,0,0,0,0,0,0,0,0,0,0,0,0,0,0,0,0,0,0,0,0,0,0,0,0,0,0,0,0,0,0,0,0,0,0,0,0,0,0,0,0,0,0,0,0,0,0,0,0,0,0,0,0,0,0,0,0,0,0],"sum_hessian":[5.298E3,5.069E3,2.29E2,4.317E3,7.52E2,1.39E2,9E1,2.286E3,2.031E3,4.19E2,3.33E2,9E1,4.9E1,2E0,8.8E1,1.315E3,9.71E2,2.03E3,1E0,4E0,4.15E2,5E0,3.28E2,6E0,8.4E1,8E0,4.1E1,2.2E1,6.6E1,5.78E2,7.37E2,3.43E2,6.28E2,5.21E2,1.509E3,3E0,1E0,1.7E1,3.98E2,3E0,2E0,1.9E1,3.09E2,5E0,1E0,3.4E1,5E1,3E0,5E0,1E0,4E1,2E1,2E0,6.5E1,1E0,4.61E2,1.17E2,7.34E2,3E0,2.13E2,1.3E2,3E1,5.98E2,5.17E2,4E0,2.2E1,1.487E3,1.3E1,4E0,3.07E2,9.1E1,9E0,1E1,1.77E2,1.32E2,2.6E1,8E0,1.4E1,3.6E1,1.9E1,2.1E1,1.8E1,2E0,6.2E1,3E0,4.58E2,3E0,3E0,1.14E2,2.41E2,4.93E2,2E0,2.11E2,1.07E2,2.3E1,2.5E1,5E0,1.11E2,4.87E2,1.42E2,3.75E2,2E0,2E0,1.4E1,8E0,1.47E3,1.7E1,3E0,1E1,1E0,3E0,6.8E1,2.39E2,6E0,8.5E1,1E0,9E0,6.8E1,1.09E2,6E0,1.26E2,4E0,2.2E1,2E0,3.4E1,1.8E1,1E0,1.8E1,3E0,2E0,6E1],"tree_param":{"num_deleted":"0","num_feature":"168","num_nodes":"131","size_leaf_vector":"0"}},{"base_weights":[4.603726E0,3.579112E0,2.148621E1,1.8935628E0,5.257844E0,1.5327607E1,2.7115688E1,1.3637103E0,2.7746274E0,4.5703797E0,8.570736E0,3.234175E1,1.4115701E1,2.2533585E1,3.1031837E1,7.1254957E-1,1.6774718E0,7.7581997E0,2.6629088E0,4.527031E0,4.7237976E1,3.6638977E1,8.220355E0,1.396743E1,4.424772E1,1.31192E1,2.8793518E1,1.6832123E1,2.5508768E1,3.624483E1,2.4354822E1,6.7036617E-1,1.1070849E1,2.3236208E0,1.3307934E0,1.390232E1,4.1319823E0,1.7591248E1,2.627407E0,4.371229E0,8.355746E0,6.0472307E0,9.807602E0,-7.0699626E-1,1.3669105E1,1.3701793E1,4.937913E1,7.6429734E0,1.889699E1,2.9182957E1,1.7763845E1,2.3933723E1,3.9623272E1,-8.877987E0,2.5463001E1,7.5010905E0,6.1493397E-1,2.1809847E0,7.1833673E0,-1.0766068E0,1.4233335E0,1.7660694E0,1.5630684E1,-1.14691414E-1,6.5039887E0,5.316019E-1,2.8328319E0,4.49886E0,-3.902409E-1,2.9384027E1,7.4398413E0,9.099254E0,3.453579E0,1.9308187E1,9.011046E0,3.5836754E0,-1.1080177E1,1.4019665E1,-6.1553574E-1,5.937752E0,1.6099375E1,2.16339E1,1.22358055E1,3.0323774E1,8.427403E0,7.888654E0,2.0955177E1,4.101151E1,1.9305664E1,2.7593557E1,1.40242195E1,1.0085986E1,-1.2679768E-1,5.520904E-1,4.016969E0,7.3681884E0,2.0713227E0,1.1561005E0,1.1008862E1,1.1193774E0,-1.5267575E0,1.6481767E0,4.6318167E-1,6.248862E-1,-6.407018E-1,2.4171224E0,8.144568E0,2.3609955E0,-6.6254693E-1,3.0763016E0,9.512493E-1,4.246749E0,6.674776E0,-2.3437169E0,7.28155E0,6.832424E0,2.7105482E1,1.3228863E1,6.871963E0,-2.1146388E0,4.619535E0,1.100875E1,2.2540508E1,6.420628E0,1.1522421E1,7.1694694E-2,5.901098E0,1.4303122E1,-2.1808193E0,3.739956E0,-3.3140182E0,2.2870481E1,9.064082E0,7.4262314E0,3.087632E1,4.2114174E1,1.7049479E1,3.7545242E0,1.4954958E1],"categories":[],"categories_nodes":[],"categories_segments":[],"categories_sizes":[],"default_left":[1,1,1,1,1,1,1,1,1,1,1,1,1,1,1,1,1,1,1,1,0,0,1,0,0,1,1,1,1,1,1,1,0,1,1,1,1,0,1,1,1,1,1,1,1,1,0,0,1,1,1,0,1,0,1,1,1,1,1,1,1,0,0,1,1,1,1,1,1,0,1,1,1,1,1,1,0,1,1,0,0,1,0,1,0,0,0,1,0,0,1,0,0,0,0,0,0,0,0,0,0,0,0,0,0,0,0,0,0,0,0,0,0,0,0,0,0,0,0,0,0,0,0,0,0,0,0,0,0,0,0,0,0,0,0,0,0,0,0],"id":6,"left_children":[1,3,5,7,9,11,13,15,17,19,21,23,25,27,29,31,33,35,37,39,-1,-1,41,-1,-1,43,45,47,49,51,53,55,-1,57,59,61,63,-1,65,67,69,71,73,75,77,79,-1,-1,81,83,85,-1,87,-1,89,91,93,95,97,99,101,-1,-1,103,105,107,109,111,113,-1,115,117,119,121,123,125,-1,127,129,-1,-1,131,-1,133,-1,-1,-1,135,-1,-1,137,-1,-1,-1,-1,-1,-1,-1,-1,-1,-1,-1,-1,-1,-1,-1,-1,-1,-1,-1,-1,-1,-1,-1,-1,-1,-1,-1,-1,-1,-1,-1,-1,-1,-1,-1,-1,-1,-1,-1,-1,-1,-1,-1,-1,-1,-1,-1,-1],"loss_changes":[9.158534E4,1.412948E4,1.00893125E4,1.1609678E3,5.6613984E3,2.5745469E3,2.1179766E3,3.175271E2,5.004668E2,3.6240586E3,3.9178496E3,1.3508496E3,1.6553301E3,8.598125E2,1.9714609E3,2.1498499E2,2.3256201E2,3.881543E2,4.3977393E2,1.2006562E3,0E0,0E0,1.4066367E3,0E0,0E0,1.0132754E3,1.8087964E3,4.0582715E2,8.475E2,8.817344E2,1.6623477E3,1.8773752E2,0E0,2.380354E2,1.5458313E2,1.19226074E2,1.417699E2,0E0,3.9286035E2,1.2141367E3,1.3221807E3,1.4092661E3,1.672543E3,3.0675525E2,6.4459766E2,1.6095581E1,0E0,0E0,1.5460547E2,4.7847656E2,4.019619E2,0E0,1.3903125E2,0E0,5.3911914E2,8.014807E1,1.0574927E2,1.8781384E2,2.178454E2,2.7410631E1,1.4215149E2,0E0,0E0,2.7345185E0,4.0657043E1,1.8288344E2,3.7913623E2,1.0375352E3,8.1135876E2,0E0,7.465332E2,6.725127E2,6.589984E2,2.347334E2,1.4027695E3,4.027063E1,0E0,6.006172E2,5.9407154E1,0E0,0E0,2.5854004E1,0E0,1.3761133E2,0E0,0E0,0E0,7.4640625E1,0E0,0E0,2.0318481E1,0E0,0E0,0E0,0E0,0E0,0E0,0E0,0E0,0E0,0E0,0E0,0E0,0E0,0E0,0E0,0E0,0E0,0E0,0E0,0E0,0E0,0E0,0E0,0E0,0E0,0E0,0E0,0E0,0E0,0E0,0E0,0E0,0E0,0E0,0E0,0E0,0E0,0E0,0E0,0E0,0E0,0E0,0E0,0E0,0E0,0E0,0E0,0E0],"parents":[2147483647,0,0,1,1,2,2,3,3,4,4,5,5,6,6,7,7,8,8,9,9,10,10,11,11,12,12,13,13,14,14,15,15,16,16,17,17,18,18,19,19,22,22,25,25,26,26,27,27,28,28,29,29,30,30,31,31,33,33,34,34,35,35,36,36,38,38,39,39,40,40,41,41,42,42,43,43,44,44,45,45,48,48,49,49,50,50,52,52,54,54,55,55,56,56,57,57,58,58,59,59,60,60,63,63,64,64,65,65,66,66,67,67,68,68,70,70,71,71,72,72,73,73,74,74,75,75,77,77,78,78,81,81,83,83,87,87,90,90],"right_children":[2,4,6,8,10,12,14,16,18,20,22,24,26,28,30,32,34,36,38,40,-1,-1,42,-1,-1,44,46,48,50,52,54,56,-1,58,60,62,64,-1,66,68,70,72,74,76,78,80,-1,-1,82,84,86,-1,88,-1,90,92,94,96,98,100,102,-1,-1,104,106,108,110,112,114,-1,116,118,120,122,124,126,-1,128,130,-1,-1,132,-1,134,-1,-1,-1,136,-1,-1,138,-1,-1,-1,-1,-1,-1,-1,-1,-1,-1,-1,-1,-1,-1,-1,-1,-1,-1,-1,-1,-1,-1,-1,-1,-1,-1,-1,-1,-1,-1,-1,-1,-1,-1,-1,-1,-1,-1,-1,-1,-1,-1,-1,-1,-1,-1,-1,-1],"split_conditions":[9.5215E1,2.948E1,1.57295E2,1.8395E1,5.235E1,1.1205E1,1.806E2,1.108E1,5.635E0,2.675E2,8.29E0,7.87E0,2.515E2,1.475E2,1.6185E2,1.52155E2,1.4495E1,1.4969999E1,2.675E0,7.47E1,1.4171393E1,1.09916935E1,2.71E1,4.1902294E0,1.3274316E1,1.1264999E1,2.415E2,1.483E1,2.455E2,5.585E1,3.845E1,1.97E0,3.321255E0,6.848E1,5.99E0,8.13E0,2.2515E1,5.2773743E0,1.015E1,5.5199997E1,6.665E0,2.0490002E1,1.905E1,2.78E1,2.565E2,1.473E2,1.481374E1,2.2928922E0,5.6629997E1,2.52E2,1.14850006E2,7.180117E0,2.61E2,-2.6633961E0,1.7815E2,2.5965E1,6.5634995E1,3.82E0,3.2802692E1,6.05E0,1.8220001E1,5.2982086E-1,4.689205E0,1.051E1,1.1965E1,1.01E1,3.1349998E1,4.205E1,5.11E1,8.815208E0,2.695E2,1.2285E1,1.3715E1,1.93E1,3.88E1,2.0349998E1,-3.3240533E0,2.238E2,2.2625E2,1.7813256E0,4.8298125E0,1.4905E2,3.6707418E0,5.225E0,2.5282211E0,2.3665965E0,6.2865534E0,2.565E2,5.7916994E0,8.278068E0,4.74E1,3.025796E0,-3.8039304E-2,1.6562712E-1,1.2050908E0,2.2104566E0,6.2139684E-1,3.4683016E-1,3.3026586E0,3.3581322E-1,-4.5802727E-1,4.94453E-1,1.389545E-1,1.8746588E-1,-1.9221054E-1,7.2513676E-1,2.4433706E0,7.082987E-1,-1.9876409E-1,9.228905E-1,2.853748E-1,1.2740247E0,2.0024328E0,-7.031151E-1,2.1844652E0,2.0497274E0,8.131645E0,3.968659E0,2.061589E0,-6.3439167E-1,1.3858606E0,3.3026252E0,6.7621527E0,1.9261885E0,3.4567263E0,2.1508409E-2,1.7703294E0,4.2909365E0,-6.542458E-1,1.1219869E0,-9.9420553E-1,6.8611445E0,2.7192247E0,2.2278695E0,9.262897E0,1.2634253E1,5.114844E0,1.1263573E0,4.4864874E0],"split_indices":[167,167,167,167,167,43,143,145,94,147,164,34,71,163,111,20,140,105,122,156,0,0,100,0,0,66,75,38,162,86,26,140,0,25,99,2,160,0,159,166,53,7,92,0,52,10,0,0,105,147,142,0,160,0,64,12,137,154,4,103,166,0,0,70,28,155,166,147,52,0,13,103,87,162,84,0,0,164,0,0,0,141,0,2,0,0,0,27,0,0,2,0,0,0,0,0,0,0,0,0,0,0,0,0,0,0,0,0,0,0,0,0,0,0,0,0,0,0,0,0,0,0,0,0,0,0,0,0,0,0,0,0,0,0,0,0,0,0,0],"split_type":[0,0,0,0,0,0,0,0,0,0,0,0,0,0,0,0,0,0,0,0,0,0,0,0,0,0,0,0,0,0,0,0,0,0,0,0,0,0,0,0,0,0,0,0,0,0,0,0,0,0,0,0,0,0,0,0,0,0,0,0,0,0,0,0,0,0,0,0,0,0,0,0,0,0,0,0,0,0,0,0,0,0,0,0,0,0,0,0,0,0,0,0,0,0,0,0,0,0,0,0,0,0,0,0,0,0,0,0,0,0,0,0,0,0,0,0,0,0,0,0,0,0,0,0,0,0,0,0,0,0,0,0,0,0,0,0,0,0,0],"sum_hessian":[5.298E3,4.996E3,3.02E2,2.494E3,2.502E3,1.46E2,1.56E2,1.559E3,9.35E2,2.074E3,4.28E2,8E0,1.38E2,7.5E1,8.1E1,5.08E2,1.051E3,1.9E1,9.16E2,2.073E3,1E0,4E0,4.24E2,4E0,4E0,1.31E2,7E0,2.8E1,4.7E1,4.3E1,3.8E1,5.07E2,1E0,3.65E2,6.86E2,6E0,1.3E1,1E0,9.15E2,1.994E3,7.9E1,1.81E2,2.43E2,5E0,1.26E2,5E0,2E0,6E0,2.2E1,3E1,1.7E1,1.1E1,3.2E1,1E0,3.7E1,3E0,5.04E2,3.56E2,9E0,2.5E1,6.61E2,1E0,5E0,5E0,8E0,8.2E1,8.33E2,1.942E3,5.2E1,2E0,7.7E1,8.2E1,9.9E1,1.7E1,2.26E2,4E0,1E0,1.23E2,3E0,2E0,3E0,1.4E1,8E0,2.8E1,2E0,5E0,1.2E1,2.9E1,3E0,3E1,7E0,2E0,1E0,4.96E2,8E0,6E0,3.5E2,4E0,5E0,4E0,2.1E1,5.35E2,1.26E2,2E0,3E0,3E0,5E0,3.2E1,5E1,7.37E2,9.6E1,1.743E3,1.99E2,4.2E1,1E1,7.6E1,1E0,2.7E1,5.5E1,1.7E1,8.2E1,6E0,1.1E1,1.13E2,1.13E2,2E0,2E0,1.21E2,2E0,1E0,2E0,1.2E1,2E0,1E0,2.7E1,2.7E1,2E0,1E0,6E0],"tree_param":{"num_deleted":"0","num_feature":"168","num_nodes":"139","size_leaf_vector":"0"}},{"base_weights":[3.264594E0,2.576629E0,1.6375683E1,1.9954727E0,5.416183E0,1.2522428E1,2.1037148E1,1.976743E0,4.0152283E1,3.05888E1,5.291645E0,5.2036443E0,1.4200767E1,2.3993315E1,1.6536894E1,1.0961974E0,2.7297814E0,4.283452E0,7.2306824E0,-1.5299602E0,7.4156985E0,1.8920317E1,1.1840478E1,1.5444645E1,2.6707655E1,-7.5462875E0,1.7182392E1,5.35297E-1,1.48393E0,1.4297653E0,3.0689065E0,8.624664E0,3.5465543E0,2.014054E1,6.745525E0,2.3717895E0,-6.0246572E0,8.419987E0,-1.7514559E0,1.2670341E1,2.337647E1,1.0916447E1,2.3887274E1,1.7027136E1,1.3289782E0,3.936911E1,2.379858E1,1.4415791E1,2.2492306E1,5.1212186E-1,9.410222E0,7.942933E0,1.4139637E0,1.9423246E1,1.3496438E0,3.0447347E0,2.3107851E1,5.9011335E0,1.4159013E1,3.4087853E0,1.919218E1,2.198904E1,8.497688E0,6.2703E0,1.422455E1,3.1879807E0,-4.4648743E-1,-1.6783218E0,9.635262E0,-9.19323E-2,-2.5352516E0,1.8826012E1,8.85462E0,2.7433664E1,1.3354324E1,5.9040065E0,1.2905212E1,5.6632333E0,1.8164774E1,3.4350357E0,-1.4415684E0,9.129555E0,4.2384827E1,1.0289088E1,2.5660892E1,1.5222223E1,7.9809966E0,2.487896E1,9.709267E0,4.5310062E-1,3.5274122E0,5.0125474E-1,9.381144E0,1.5127759E1,1.388395E0,2.6682215E0,5.282769E-1,3.0206122E0,2.303966E1,7.5408773E0,-2.3957763E0,1.9006416E1,7.8495774E0,5.5718546E0,2.6063857E0,7.2943535E0,1.2274591E-1,1.5562902E1,3.2373886E0,-3.4456558E0,9.2817307E-1,2.000819E0,1.0464516E1,9.881655E0,2.137286E0,2.0150795E1,4.0603138E1,3.3720584E0,7.1983714E0,8.3202E0,1.4910889E1,2.1908081E1,1.0756984E1,2.6069403E1,5.272995E0,7.759018E0,1.6071985E1,2.5799208E1,7.378113E0],"categories":[],"categories_nodes":[],"categories_segments":[],"categories_sizes":[],"default_left":[1,1,1,1,1,1,1,1,0,0,1,1,1,1,1,1,1,1,1,1,1,1,1,1,1,0,1,1,1,1,1,1,1,1,1,1,0,1,1,1,1,1,0,1,1,1,1,1,1,1,0,1,1,0,1,1,0,1,1,1,0,0,0,1,1,0,0,1,1,0,0,0,1,1,0,1,1,0,1,0,0,0,0,0,1,1,0,1,0,0,0,0,0,0,0,0,0,0,0,0,0,0,0,0,0,0,0,0,0,0,0,0,0,0,0,0,0,0,0,0,0,0,0,0,0,0,0,0,0],"id":7,"left_children":[1,3,5,7,9,11,13,15,-1,-1,17,19,21,23,25,27,29,31,33,35,37,39,41,43,45,-1,47,49,51,53,55,57,59,61,63,65,-1,67,69,71,73,75,-1,77,79,81,83,85,87,89,-1,91,93,-1,95,97,-1,99,101,103,-1,-1,-1,105,107,-1,-1,109,111,-1,-1,-1,113,115,-1,117,119,-1,121,-1,-1,-1,-1,-1,123,125,-1,127,-1,-1,-1,-1,-1,-1,-1,-1,-1,-1,-1,-1,-1,-1,-1,-1,-1,-1,-1,-1,-1,-1,-1,-1,-1,-1,-1,-1,-1,-1,-1,-1,-1,-1,-1,-1,-1,-1,-1,-1,-1],"loss_changes":[4.775464E4,8.299723E3,4.4784844E3,2.9093691E3,2.5185234E3,1.7317637E3,1.1730352E3,2.7693633E3,0E0,0E0,1.634623E3,4.4330347E2,1.1015742E3,1.1885859E3,9.069463E2,4.187234E2,9.888887E2,1.7704668E3,1.680501E3,1.5458667E2,2.1728955E2,7.621455E2,6.520283E2,4.017915E2,9.415625E2,0E0,3.9558594E2,1.5766582E2,5.0394946E2,6.484844E2,7.9474414E2,1.1373564E3,9.756753E2,2.8362305E1,9.095449E2,1.2924654E1,0E0,2.6161536E2,3.6691103E0,2.5609253E2,4.8754004E2,7.0135547E2,0E0,1.1690527E2,2.2456629E1,3.425957E2,8.429629E2,6.0134277E1,2.1607422E2,1.388171E2,0E0,1.2373004E2,3.748745E2,0E0,5.043683E2,7.913613E2,0E0,7.7993555E2,6.4600146E2,8.185879E2,0E0,0E0,0E0,1.6736885E3,1.8489185E2,0E0,0E0,1.7017807E1,9.3018555E1,0E0,0E0,0E0,6.856622E1,5.245762E2,0E0,5.438098E1,3.8172168E2,0E0,1.802793E2,0E0,0E0,0E0,0E0,0E0,1.7902734E2,6.5555664E1,0E0,2.9121094E0,0E0,0E0,0E0,0E0,0E0,0E0,0E0,0E0,0E0,0E0,0E0,0E0,0E0,0E0,0E0,0E0,0E0,0E0,0E0,0E0,0E0,0E0,0E0,0E0,0E0,0E0,0E0,0E0,0E0,0E0,0E0,0E0,0E0,0E0,0E0,0E0,0E0,0E0,0E0,0E0,0E0],"parents":[2147483647,0,0,1,1,2,2,3,3,4,4,5,5,6,6,7,7,10,10,11,11,12,12,13,13,14,14,15,15,16,16,17,17,18,18,19,19,20,20,21,21,22,22,23,23,24,24,26,26,27,27,28,28,29,29,30,30,31,31,32,32,33,33,34,34,35,35,37,37,38,38,39,39,40,40,41,41,43,43,44,44,45,45,46,46,47,47,48,48,49,49,51,51,52,52,54,54,55,55,57,57,58,58,59,59,63,63,64,64,67,67,68,68,72,72,73,73,75,75,76,76,78,78,84,84,85,85,87,87],"right_children":[2,4,6,8,10,12,14,16,-1,-1,18,20,22,24,26,28,30,32,34,36,38,40,42,44,46,-1,48,50,52,54,56,58,60,62,64,66,-1,68,70,72,74,76,-1,78,80,82,84,86,88,90,-1,92,94,-1,96,98,-1,100,102,104,-1,-1,-1,106,108,-1,-1,110,112,-1,-1,-1,114,116,-1,118,120,-1,122,-1,-1,-1,-1,-1,124,126,-1,128,-1,-1,-1,-1,-1,-1,-1,-1,-1,-1,-1,-1,-1,-1,-1,-1,-1,-1,-1,-1,-1,-1,-1,-1,-1,-1,-1,-1,-1,-1,-1,-1,-1,-1,-1,-1,-1,-1,-1,-1,-1],"split_conditions":[1.03729996E2,3.8489998E1,1.4545E2,2.655E2,5.065E0,1.0592E2,1.736E2,2.2515E1,1.2045686E1,9.1766405E0,4.6885002E1,1.782E1,5.215E1,8.48E1,3.845E1,1.1705E1,2.2075E1,1.293E1,2.9485E1,2.5585E1,1.053E2,3.0305E1,2.4115E2,1.948E2,5.1699997E1,-2.2638865E0,2.3025E2,1.51055E2,5.295E0,2.05E0,2.39E2,7.0845E1,2.00495E2,3.635269E1,2.385E2,6.33E1,-1.8073972E0,7.7E0,2.0865E2,1.3105E1,3.599E1,8.5850006E1,7.1661825E0,1.545E1,1.5995E2,2.772E1,4.69E1,2.51E2,2.54E2,9.1345E1,2.8230667E0,1.008E1,1.385E0,5.826974E0,1.445E1,2.615E2,6.9323554E0,3.925E1,7.7899994E1,2.102E1,5.757654E0,6.5967126E0,2.5493066E0,1.3716501E2,2.495E2,9.5639426E-1,-1.3394624E-1,1.1364E2,9.585E0,-2.757969E-2,-7.6057553E-1,5.647804E0,3.5940002E1,5.452E1,4.0062976E0,6.6815E1,4.1050003E1,1.6989701E0,9.42E1,1.0305108E0,-4.3247053E-1,2.7388666E0,1.2715448E1,3.0867267E0,2.61E2,4.4699997E1,2.394299E0,2.505E2,2.91278E0,1.359302E-1,1.0582237E0,1.5037642E-1,2.8143432E0,4.5383277E0,4.165185E-1,8.004665E-1,1.5848309E-1,9.061837E-1,6.911898E0,2.2622633E0,-7.187329E-1,5.7019253E0,2.3548734E0,1.6715565E0,7.819157E-1,2.188306E0,3.6823776E-2,4.668871E0,9.712166E-1,-1.0336968E0,2.7845192E-1,6.002457E-1,3.139355E0,2.9644966E0,6.411858E-1,6.045239E0,1.2180942E1,1.0116175E0,2.1595116E0,2.4960601E0,4.4732666E0,6.5724244E0,3.2270954E0,7.8208213E0,1.5818986E0,2.3277054E0,4.8215957E0,7.739763E0,2.213434E0],"split_indices":[167,167,145,147,163,166,110,167,0,0,147,103,140,122,26,167,48,118,166,55,164,138,26,11,89,0,0,20,165,100,94,167,83,4,108,0,0,38,0,13,5,143,0,12,0,13,84,64,163,15,0,0,64,0,59,19,0,36,166,139,0,0,0,108,13,0,0,0,16,0,0,0,114,153,0,144,63,0,139,0,0,0,0,0,37,4,0,4,0,0,0,0,0,0,0,0,0,0,0,0,0,0,0,0,0,0,0,0,0,0,0,0,0,0,0,0,0,0,0,0,0,0,0,0,0,0,0,0,0],"split_type":[0,0,0,0,0,0,0,0,0,0,0,0,0,0,0,0,0,0,0,0,0,0,0,0,0,0,0,0,0,0,0,0,0,0,0,0,0,0,0,0,0,0,0,0,0,0,0,0,0,0,0,0,0,0,0,0,0,0,0,0,0,0,0,0,0,0,0,0,0,0,0,0,0,0,0,0,0,0,0,0,0,0,0,0,0,0,0,0,0,0,0,0,0,0,0,0,0,0,0,0,0,0,0,0,0,0,0,0,0,0,0,0,0,0,0,0,0,0,0,0,0,0,0,0,0,0,0,0,0],"sum_hessian":[5.298E3,5.035E3,2.63E2,4.181E3,8.54E2,1.46E2,1.17E2,4.18E3,1E0,3E0,8.51E2,2.8E1,1.18E2,6.8E1,4.9E1,1.928E3,2.252E3,5.62E2,2.89E2,7E0,2.1E1,3.7E1,8.1E1,1.8E1,5E1,1E0,4.8E1,7.89E2,1.139E3,4.67E2,1.785E3,8E1,4.82E2,9E0,2.8E2,4E0,3E0,1.9E1,2E0,1.7E1,2E1,7.7E1,4E0,1.6E1,2E0,7E0,4.3E1,3.4E1,1.4E1,7.88E2,1E0,1.1E1,1.128E3,1E0,4.66E2,1.784E3,1E0,5.5E1,2.5E1,4.79E2,3E0,7E0,2E0,2.65E2,1.5E1,3E0,1E0,2E0,1.7E1,1E0,1E0,5E0,1.2E1,1.3E1,7E0,2.3E1,5.4E1,2E0,1.4E1,1E0,1E0,1E0,6E0,6E0,3.7E1,2.9E1,5E0,1.1E1,3E0,7.74E2,1.4E1,2E0,9E0,1E0,1.127E3,1.78E2,2.88E2,1.783E3,1E0,4.6E1,9E0,1.3E1,1.2E1,1.28E2,3.51E2,2.27E2,3.8E1,1.3E1,2E0,1E0,1E0,2E0,1.5E1,1E1,2E0,1E1,3E0,9E0,1.4E1,1.8E1,3.6E1,8E0,6E0,3.6E1,1E0,4E0,2.5E1,1E1,1E0],"tree_param":{"num_deleted":"0","num_feature":"168","num_nodes":"129","size_leaf_vector":"0"}},{"base_weights":[2.3229032E0,1.7807515E0,1.1256267E1,9.188078E-1,2.624915E0,8.761866E0,1.5039527E1,5.212514E-1,1.3543304E0,2.9202293E1,2.5922594E0,1.2645431E1,7.385682E0,1.7570698E1,1.1667365E1,4.5984295E-1,7.048518E0,2.7003586E0,1.1405413E0,2.5662115E0,3.412944E1,7.1204095E0,1.4773608E1,6.7041693E0,1.9279333E1,1.5529142E1,2.54636E1,-6.993154E0,1.2519562E1,9.28355E0,4.3193144E-1,8.172711E0,9.5170146E-1,2.1809504E0,6.253139E0,1.283894E0,-1.020849E0,2.1889281E0,4.21226E0,3.1547022E0,1.1201975E1,1.7672508E1,8.227824E0,-8.491943E0,7.000995E0,2.5971577E1,7.7672577E0,9.8150425E0,1.7827158E1,3.070686E1,1.5102531E1,1.0589337E1,1.700236E1,2.6765144E0,1.4552328E1,7.0971525E-1,-1.0247333E-1,1.0366185E1,3.9060009E0,1.9790363E-1,1.2296486E0,2.387973E0,-3.9690628E0,3.2626457E0,1.2687182E1,1.2474695E0,1.2451019E1,-3.719961E0,3.4573667E-2,2.1316667E0,9.3458E0,7.182241E0,3.5737271E0,-1.081899E-1,4.1024127E0,1.10177E1,2.1432169E1,1.0372548E1,3.1507003E0,4.572982E0,8.218293E0,1.0536555E1,-1.2253323E0,2.2913631E1,1.3905315E1,5.4593267E0,1.1356632E1,9.375551E0,2.1550522E1,6.642834E-1,8.19124E0,-5.132757E-1,7.4266535E-1,8.8675547E-1,3.2578046E0,-4.988751E0,-1.6263537E0,-1.5963155E0,5.17466E0,1.4404255E1,2.05091E0,1.2858595E1,1.22182E0,-4.066318E-1,-4.963039E0,1.8305565E0,-1.4864339E0,-1.1119809E0,2.2613177E0,2.7256737E0,2.3364944E1,1.257661E1,5.1189895E0,1.1032535E0,4.729922E0,5.939903E-1,-7.562752E-1,1.2383545E1,3.7028809E0,2.3327997E1,7.3367386E0,5.839157E-2,3.9091797E0,7.8172617E0,2.0004416E0,9.310654E0,3.2369056E0,4.9339466E0,1.1384689E1,2.43308E1,1.536644E0,1.0576965E1,1.9239895E1,1.4834213E0,5.8747406E0,1.2077673E1,4.903273E0,2.5050812E0,1.0103116E1],"categories":[],"categories_nodes":[],"categories_segments":[],"categories_sizes":[],"default_left":[1,1,1,1,1,1,1,1,1,0,1,1,1,1,1,1,1,1,1,1,0,1,1,1,1,1,1,0,1,1,1,1,1,1,1,1,1,1,1,1,0,1,1,0,1,0,0,1,1,0,0,1,1,0,0,1,1,0,0,0,0,1,1,1,1,1,0,1,1,1,1,1,1,1,0,1,1,0,1,1,1,1,0,1,1,1,1,1,0,0,0,0,0,0,0,0,0,0,0,0,0,0,0,0,0,0,0,0,0,0,0,0,0,0,0,0,0,0,0,0,0,0,0,0,0,0,0,0,0,0,0,0,0,0,0,0,0,0,0],"id":8,"left_children":[1,3,5,7,9,11,13,15,17,-1,19,21,23,25,27,29,31,33,35,37,-1,39,41,43,45,47,49,-1,51,53,55,57,59,61,63,65,67,69,71,73,-1,75,77,-1,79,-1,-1,81,83,-1,-1,85,87,-1,-1,89,91,-1,-1,-1,-1,93,95,97,99,101,-1,103,105,107,109,111,113,115,-1,117,119,-1,121,123,125,127,-1,129,131,133,135,137,-1,-1,-1,-1,-1,-1,-1,-1,-1,-1,-1,-1,-1,-1,-1,-1,-1,-1,-1,-1,-1,-1,-1,-1,-1,-1,-1,-1,-1,-1,-1,-1,-1,-1,-1,-1,-1,-1,-1,-1,-1,-1,-1,-1,-1,-1,-1,-1,-1,-1,-1],"loss_changes":[2.5644273E4,3.6335127E3,2.727629E3,4.276543E2,2.114871E3,8.953369E2,8.1072266E2,5.158328E2,3.3648413E2,0E0,1.9841777E3,4.4744287E2,9.97438E2,6.6808203E2,9.4628174E2,3.122177E2,7.447003E1,2.8346252E2,3.173485E2,1.5563867E3,0E0,2.074555E2,4.807881E2,6.593613E2,3.37563E2,5.472363E2,1.8815771E2,0E0,2.6990186E2,1.00294495E2,1.9023586E2,5.3098877E1,3.8519573E-1,1.9027118E2,3.4342554E2,3.7373267E2,1.8244566E2,8.214238E2,8.637578E2,2.8274338E1,0E0,3.1430225E2,9.798755E1,0E0,3.4960352E2,0E0,0E0,1.5629456E2,4.3941602E2,0E0,0E0,9.151367E1,2.8358325E2,0E0,0E0,2.8109412E2,1.527954E2,0E0,0E0,0E0,0E0,1.7731244E2,3.8306885E0,1.4761647E2,8.003766E1,2.687079E2,0E0,7.211896E1,1.3111105E2,8.5958105E2,1.4212511E3,8.482759E2,1.1030454E3,1.8144382E0,0E0,5.405432E1,1.762417E2,0E0,1.1499001E1,3.682799E2,4.378296E2,2.4608643E1,0E0,4.1703418E2,2.226289E2,2.846817E0,9.433301E1,9.681824E0,0E0,0E0,0E0,0E0,0E0,0E0,0E0,0E0,0E0,0E0,0E0,0E0,0E0,0E0,0E0,0E0,0E0,0E0,0E0,0E0,0E0,0E0,0E0,0E0,0E0,0E0,0E0,0E0,0E0,0E0,0E0,0E0,0E0,0E0,0E0,0E0,0E0,0E0,0E0,0E0,0E0,0E0,0E0,0E0,0E0,0E0,0E0,0E0,0E0,0E0,0E0],"parents":[2147483647,0,0,1,1,2,2,3,3,4,4,5,5,6,6,7,7,8,8,10,10,11,11,12,12,13,13,14,14,15,15,16,16,17,17,18,18,19,19,21,21,22,22,23,23,24,24,25,25,26,26,28,28,29,29,30,30,31,31,32,32,33,33,34,34,35,35,36,36,37,37,38,38,39,39,41,41,42,42,44,44,47,47,48,48,51,51,52,52,55,55,56,56,61,61,62,62,63,63,64,64,65,65,67,67,68,68,69,69,70,70,71,71,72,72,73,73,75,75,76,76,78,78,79,79,80,80,81,81,83,83,84,84,85,85,86,86,87,87],"right_children":[2,4,6,8,10,12,14,16,18,-1,20,22,24,26,28,30,32,34,36,38,-1,40,42,44,46,48,50,-1,52,54,56,58,60,62,64,66,68,70,72,74,-1,76,78,-1,80,-1,-1,82,84,-1,-1,86,88,-1,-1,90,92,-1,-1,-1,-1,94,96,98,100,102,-1,104,106,108,110,112,114,116,-1,118,120,-1,122,124,126,128,-1,130,132,134,136,138,-1,-1,-1,-1,-1,-1,-1,-1,-1,-1,-1,-1,-1,-1,-1,-1,-1,-1,-1,-1,-1,-1,-1,-1,-1,-1,-1,-1,-1,-1,-1,-1,-1,-1,-1,-1,-1,-1,-1,-1,-1,-1,-1,-1,-1,-1,-1,-1,-1,-1,-1],"split_conditions":[9.5215E1,2.9130001E1,1.4545E2,1.8895E1,4.785E0,1.3195E1,1.6185E2,1.07395004E2,1.125E1,8.760689E0,2.675E2,1.2855E1,2.515E2,2.54E2,3.845E1,1.425E0,1.3869E2,5.3010002E1,7.09E1,4.257E1,1.0238832E1,1.1049999E1,3.44E1,1.3450001E1,1.826E2,8.48E1,1.0165E2,-2.0979464E0,2.465E2,1.724E1,1.761E1,1.15935E2,7.6955E1,1.4339E2,2.7475E1,1.00399994E2,2.115E1,1.027E2,3.004E1,8.4E0,3.3605926E0,2.51E1,5.86E1,-2.547583E0,3.7807693E1,7.7914734E0,2.3301773E0,2.635E2,1.6355E2,9.212058E0,4.53076E0,1.9575E2,2.3575E2,8.029544E-1,4.365699E0,4.484E1,2.371E1,3.1098557E0,1.1718003E0,5.937109E-2,3.6889458E-1,1.1200001E1,1.3789E2,1.748E1,4.1502693E1,1.4449999E0,3.735306E0,1.476E1,3.439E1,9.45E0,3.091E1,1.81E1,4.275E1,8.1E0,1.2307239E0,1.915E1,1.5525E1,3.1117647E0,2.995E1,1.9085E1,2.202E2,8.6899994E1,-3.675997E-1,2.65E2,2.5E2,3.91E1,2.65E2,5.2550003E1,6.465157E0,1.9928503E-1,2.4573722E0,-1.5398271E-1,2.2279961E-1,2.6602665E-1,9.773414E-1,-1.4966253E0,-4.8790613E-1,-4.7889468E-1,1.5523981E0,4.3212767E0,6.15273E-1,3.8575785E0,3.66546E-1,-1.2198954E-1,-1.4889117E0,5.49167E-1,-4.4593018E-1,-3.335943E-1,6.7839533E-1,8.177021E-1,7.009484E0,3.772983E0,1.5356969E0,3.3097607E-1,1.4189765E0,1.781971E-1,-2.2688256E-1,3.7150636E0,1.1108643E0,6.9983993E0,2.2010217E0,1.7517472E-2,1.1727539E0,2.3451786E0,6.0013247E-1,2.7931962E0,9.710717E-1,1.4801841E0,3.415407E0,7.29924E0,4.609932E-1,3.1730897E0,5.771969E0,4.4502643E-1,1.7624222E0,3.623302E0,1.470982E0,7.515244E-1,3.030935E0],"split_indices":[167,167,145,146,165,10,111,27,93,0,147,31,71,145,26,120,22,148,146,146,0,7,31,10,60,122,89,0,98,0,140,3,0,1,21,145,127,155,165,0,0,151,77,0,34,0,0,2,124,0,0,137,142,0,0,165,123,0,0,0,0,85,0,127,2,64,0,167,51,149,24,139,167,0,0,33,16,0,0,41,65,141,0,165,125,3,92,8,0,0,0,0,0,0,0,0,0,0,0,0,0,0,0,0,0,0,0,0,0,0,0,0,0,0,0,0,0,0,0,0,0,0,0,0,0,0,0,0,0,0,0,0,0,0,0,0,0,0,0],"split_type":[0,0,0,0,0,0,0,0,0,0,0,0,0,0,0,0,0,0,0,0,0,0,0,0,0,0,0,0,0,0,0,0,0,0,0,0,0,0,0,0,0,0,0,0,0,0,0,0,0,0,0,0,0,0,0,0,0,0,0,0,0,0,0,0,0,0,0,0,0,0,0,0,0,0,0,0,0,0,0,0,0,0,0,0,0,0,0,0,0,0,0,0,0,0,0,0,0,0,0,0,0,0,0,0,0,0,0,0,0,0,0,0,0,0,0,0,0,0,0,0,0,0,0,0,0,0,0,0,0,0,0,0,0,0,0,0,0,0,0],"sum_hessian":[5.298E3,4.996E3,3.02E2,2.473E3,2.523E3,1.84E2,1.18E2,1.294E3,1.179E3,2E0,2.521E3,4.6E1,1.38E2,6.5E1,5.3E1,1.283E3,1.1E1,1.6E2,1.019E3,2.52E3,1E0,1.4E1,3.2E1,1.32E2,6E0,5.4E1,1.1E1,2E0,5.1E1,3E0,1.28E3,9E0,2E0,1.41E2,1.9E1,9.56E2,6.3E1,2.052E3,4.68E2,8E0,6E0,2.1E1,1.1E1,2E0,1.3E2,3E0,3E0,1.7E1,3.7E1,6E0,5E0,3.8E1,1.3E1,2E0,1E0,8.42E2,4.38E2,5E0,4E0,1E0,1E0,1.37E2,4E0,1.4E1,5E0,9.54E2,2E0,1.7E1,4.6E1,2.037E3,1.5E1,8.1E1,3.87E2,2E0,6E0,9E0,1.2E1,7E0,4E0,4.5E1,8.5E1,1.6E1,1E0,1.4E1,2.3E1,6E0,3.2E1,6E0,7E0,8.38E2,4E0,2.95E2,1.43E2,5.1E1,8.6E1,2E0,2E0,4E0,1E1,4E0,1E0,1E0,9.53E2,5E0,1.2E1,2.1E1,2.5E1,7.8E1,1.959E3,1.1E1,4E0,2.1E1,6E1,1.24E2,2.63E2,1E0,1E0,7E0,2E0,1E1,2E0,1E0,3E0,1.9E1,2.6E1,6.9E1,1.6E1,3E0,1.3E1,1.3E1,1E0,1.6E1,7E0,1E0,5E0,2.8E1,4E0,1E0,5E0],"tree_param":{"num_deleted":"0","num_feature":"168","num_nodes":"139","size_leaf_vector":"0"}},{"base_weights":[1.6536105E0,1.2267458E0,7.817792E0,9.729885E-1,2.5802803E0,5.899346E0,1.0659402E1,9.5932454E-1,2.9010025E1,2.9071991E1,2.509136E0,1.0520929E1,4.930243E0,2.1891497E1,1.0068099E1,4.623934E-1,1.3818194E0,5.5995803E0,2.1236658E0,1.4408461E1,3.6604576E0,1.8046174E0,6.371809E0,1.8062388E0,3.1482567E1,5.6610665E0,1.0898042E1,4.35611E-1,1.3182257E1,2.7542078E-1,1.5579283E0,-9.946201E-1,7.6128926E0,1.4610354E0,3.759684E0,1.027597E1,2.1795801E1,6.3059554E0,-2.3626297E0,3.4086905E0,-4.3610415E0,6.8447328E0,-2.10523E0,8.364591E0,2.4857872E0,1.0038281E1,1.6541002E1,4.1033444E-1,1.0019307E1,1.8668024E1,5.1309934E0,8.463111E0,2.2170852E-1,1.5388222E0,1.3419414E1,4.747418E0,-4.2047405E0,8.776361E0,-7.3089683E-1,1.8764693E0,-2.7534666E0,2.4426914E1,3.32096E0,2.8728428E0,1.1763396E1,2.6418186E1,6.8265586E0,2.3922596E0,7.6415024E0,-5.609207E-1,-3.3767955E0,-4.8224993E0,4.3293552E0,-9.228356E0,2.0443325E0,3.5095072E0,7.8628693E0,-3.0073801E-2,-7.278084E0,2.1491375E0,1.0197615E1,-2.3637059E0,3.6920562E0,7.9911294E0,1.2178733E1,1.7413189E1,3.0373764E0,5.023624E-1,-1.8834724E0,-1.2278452E0,1.7926691E1,6.471226E-2,2.6228244E0,-5.1920924E0,1.5693178E0,1.6078968E1,4.050152E0,8.072261E0,2.2937603E0,-2.3962238E0,-6.9808254E0,1.3454304E0,1.011377E1,4.144623E0,-2.7159915E0,8.435573E0,1.5380971E0,-8.214599E0,-5.186733E-1,2.8247993E0,1.0126253E1,3.42873E0,1.2172225E1,5.0489044E-1,2.8530858E0,-2.142952E0,-5.8945465E0,6.860219E0,1.3289375E0,-1.0086615E1,-2.039402E0,1.8292618E-1,2.9293041E0,4.6261334E0,-2.5522003E0,9.032667E0,3.6093922E0,1.9001923E0,-1.4702549E0,5.7520294E-1,2.482048E0,1.1629903E1,3.4564056E0,-3.026413E0,-5.1914597E-1,1.8617004E0,4.6020103E0,8.351166E0,-5.3653717E0,1.344445E1,5.4813976E0],"categories":[],"categories_nodes":[],"categories_segments":[],"categories_sizes":[],"default_left":[1,1,1,1,1,1,1,1,0,0,1,1,1,1,1,1,1,1,1,1,1,1,1,0,0,1,1,1,1,1,1,1,1,1,1,1,1,1,1,1,1,1,1,1,1,1,1,1,1,0,0,0,1,1,1,1,1,1,1,1,1,0,1,0,1,0,0,1,0,0,0,1,1,1,1,1,1,1,0,1,1,1,1,1,1,0,0,0,0,0,0,0,0,0,0,0,0,0,0,0,0,0,0,0,0,0,0,0,0,0,0,0,0,0,0,0,0,0,0,0,0,0,0,0,0,0,0,0,0,0,0,0,0,0,0,0,0,0,0,0,0],"id":9,"left_children":[1,3,5,7,9,11,13,15,-1,-1,17,19,21,23,25,27,29,31,33,35,37,39,41,-1,-1,43,45,47,49,51,53,55,57,59,61,63,65,67,69,71,73,75,77,79,81,83,85,87,89,-1,-1,-1,91,93,95,97,99,101,103,105,107,-1,109,-1,111,-1,-1,113,-1,-1,-1,115,117,119,121,123,125,127,-1,129,131,133,135,137,139,-1,-1,-1,-1,-1,-1,-1,-1,-1,-1,-1,-1,-1,-1,-1,-1,-1,-1,-1,-1,-1,-1,-1,-1,-1,-1,-1,-1,-1,-1,-1,-1,-1,-1,-1,-1,-1,-1,-1,-1,-1,-1,-1,-1,-1,-1,-1,-1,-1,-1,-1,-1,-1,-1,-1,-1],"loss_changes":[1.3933515E4,1.7000669E3,1.8069727E3,1.5719834E3,1.400917E3,8.752383E2,6.8948926E2,8.7590576E2,0E0,0E0,9.1849365E2,8.80719E2,7.680044E2,1.0989697E3,4.2110645E2,6.4834106E2,4.3914502E2,1.149324E3,7.4902344E2,4.476455E2,2.3797556E2,5.687148E2,4.874707E2,0E0,0E0,1.766496E2,3.6763184E2,4.6026862E2,8.088385E1,1.3489503E2,4.203672E2,4.0704694E2,6.47126E2,8.7533777E2,1.7323206E3,1.4239136E2,3.0400977E2,3.39888E1,7.2420464E0,3.618958E2,3.9298944E2,3.527251E2,7.492248E1,1.1480084E2,7.892446E1,3.3209668E2,1.0021973E2,4.0476953E2,4.6668893E2,0E0,0E0,0E0,1.16689804E2,4.071797E2,9.631897E0,4.6748383E1,5.356073E1,5.628071E2,9.836207E1,9.924214E2,5.449419E2,0E0,6.365698E2,0E0,2.5615234E0,0E0,0E0,2.0384998E0,0E0,0E0,0E0,1.7312775E0,3.0222284E2,2.2619202E1,9.347906E0,2.0132938E2,3.9033252E2,1.9473364E1,0E0,6.682358E-1,4.67005E1,2.096058E0,8.087845E0,2.996748E2,3.1624512E2,0E0,0E0,0E0,0E0,0E0,0E0,0E0,0E0,0E0,0E0,0E0,0E0,0E0,0E0,0E0,0E0,0E0,0E0,0E0,0E0,0E0,0E0,0E0,0E0,0E0,0E0,0E0,0E0,0E0,0E0,0E0,0E0,0E0,0E0,0E0,0E0,0E0,0E0,0E0,0E0,0E0,0E0,0E0,0E0,0E0,0E0,0E0,0E0,0E0,0E0,0E0,0E0,0E0,0E0,0E0,0E0],"parents":[2147483647,0,0,1,1,2,2,3,3,4,4,5,5,6,6,7,7,10,10,11,11,12,12,13,13,14,14,15,15,16,16,17,17,18,18,19,19,20,20,21,21,22,22,25,25,26,26,27,27,28,28,29,29,30,30,31,31,32,32,33,33,34,34,35,35,36,36,37,37,38,38,39,39,40,40,41,41,42,42,43,43,44,44,45,45,46,46,47,47,48,48,52,52,53,53,54,54,55,55,56,56,57,57,58,58,59,59,60,60,62,62,64,64,67,67,71,71,72,72,73,73,74,74,75,75,76,76,77,77,79,79,80,80,81,81,82,82,83,83,84,84],"right_children":[2,4,6,8,10,12,14,16,-1,-1,18,20,22,24,26,28,30,32,34,36,38,40,42,-1,-1,44,46,48,50,52,54,56,58,60,62,64,66,68,70,72,74,76,78,80,82,84,86,88,90,-1,-1,-1,92,94,96,98,100,102,104,106,108,-1,110,-1,112,-1,-1,114,-1,-1,-1,116,118,120,122,124,126,128,-1,130,132,134,136,138,140,-1,-1,-1,-1,-1,-1,-1,-1,-1,-1,-1,-1,-1,-1,-1,-1,-1,-1,-1,-1,-1,-1,-1,-1,-1,-1,-1,-1,-1,-1,-1,-1,-1,-1,-1,-1,-1,-1,-1,-1,-1,-1,-1,-1,-1,-1,-1,-1,-1,-1,-1,-1,-1,-1,-1,-1],"split_conditions":[8.918E1,3.839E1,1.5064E2,2.655E2,3.1E0,1.2715E1,1.6065E2,2.8465E1,8.703008E0,8.721598E0,2.945E1,2.4665E1,2.799E1,5.0175E1,1.681E2,1.5873999E2,1.3264999E1,1.8105E1,4.536E1,4.9525E1,5.0405E1,5.22E1,2.605E2,5.4187167E-1,9.444771E0,1.2225E2,2.565E2,2.545E2,1.94075E2,3.42E0,2.505E2,1.4674999E1,7.43E1,8.145E1,2.609E1,1.1995E1,1.3440001E1,2.1855E1,8.75E0,6.8E0,7.53E1,2.393E1,2.505E2,6.8E0,2.2505E2,8.095E1,2.605E2,3.8182693E1,1.39E1,5.6004076E0,1.539298E0,2.5389333E0,8.63E1,3.69E0,2.395E2,8.530001E0,2.698E1,1.229E1,1.8900002E1,8.045E0,2.295E1,7.3280745E0,1.09399994E2,8.618529E-1,6.33E0,7.925456E0,2.0479677E0,8.615E0,2.292451E0,-1.6827622E-1,-1.0130388E0,1.278E1,1.65E1,3.8557693E1,2.175E1,8.02E1,1.3425E2,1.4135E2,-2.1834252E0,5.59E1,1.63E2,7.055E1,1.917E2,1.58E2,2.4755E2,5.223957E0,9.11213E-1,1.5070872E-1,-5.650418E-1,-3.6835358E-1,5.3780074E0,1.941368E-2,7.8684735E-1,-1.5576278E0,4.7079536E-1,4.8236904E0,1.2150456E0,2.4216783E0,6.881281E-1,-7.188672E-1,-2.0942478E0,4.0362912E-1,3.034131E0,1.2433869E0,-8.1479746E-1,2.5306718E0,4.6142915E-1,-2.4643798E0,-1.55602E-1,8.474398E-1,3.0378761E0,1.028619E0,3.6516676E0,1.5146714E-1,8.5592574E-1,-6.428856E-1,-1.7683641E0,2.058066E0,3.9868128E-1,-3.0259845E0,-6.1182064E-1,5.4877855E-2,8.787913E-1,1.38784E0,-7.656601E-1,2.7098002E0,1.0828177E0,5.700577E-1,-4.410765E-1,1.7256089E-1,7.446144E-1,3.488971E0,1.0369217E0,-9.0792394E-1,-1.557438E-1,5.585101E-1,1.3806031E0,2.5053499E0,-1.6096116E0,4.033335E0,1.6444193E0],"split_indices":[167,167,161,147,67,18,161,14,0,0,165,114,81,20,167,0,167,123,131,157,112,120,17,0,0,12,125,100,0,10,47,22,70,166,133,128,17,90,0,112,46,40,0,15,86,38,4,166,13,0,0,0,26,148,0,12,161,76,116,106,156,0,165,0,9,0,0,0,0,0,0,3,9,16,4,121,117,0,0,0,167,0,156,64,132,0,0,0,0,0,0,0,0,0,0,0,0,0,0,0,0,0,0,0,0,0,0,0,0,0,0,0,0,0,0,0,0,0,0,0,0,0,0,0,0,0,0,0,0,0,0,0,0,0,0,0,0,0,0,0,0],"split_type":[0,0,0,0,0,0,0,0,0,0,0,0,0,0,0,0,0,0,0,0,0,0,0,0,0,0,0,0,0,0,0,0,0,0,0,0,0,0,0,0,0,0,0,0,0,0,0,0,0,0,0,0,0,0,0,0,0,0,0,0,0,0,0,0,0,0,0,0,0,0,0,0,0,0,0,0,0,0,0,0,0,0,0,0,0,0,0,0,0,0,0,0,0,0,0,0,0,0,0,0,0,0,0,0,0,0,0,0,0,0,0,0,0,0,0,0,0,0,0,0,0,0,0,0,0,0,0,0,0,0,0,0,0,0,0,0,0,0,0,0,0],"sum_hessian":[5.298E3,4.956E3,3.42E2,4.175E3,7.81E2,2.06E2,1.36E2,4.174E3,1E0,1E0,7.8E2,3.4E1,1.72E2,5E0,1.31E2,1.919E3,2.255E3,8.5E1,6.95E2,2.1E1,1.3E1,5.5E1,1.17E2,2E0,3E0,2.2E1,1.09E2,1.916E3,3E0,3.1E2,1.945E3,2E1,6.5E1,4.96E2,1.99E2,1.5E1,6E0,9E0,4E0,4.4E1,1.1E1,1.11E2,6E0,1.1E1,1.1E1,9.7E1,1.2E1,1.912E3,4E0,1E0,2E0,1E0,3.09E2,1.943E3,2E0,7E0,1.3E1,5.7E1,8E0,4.52E2,4.4E1,3E0,1.96E2,3E0,1.2E1,4E0,2E0,3E0,6E0,2E0,2E0,4E0,4E1,6E0,5E0,2.7E1,8.4E1,5E0,1E0,3E0,8E0,2E0,9E0,5.2E1,4.5E1,1.1E1,1E0,1.839E3,7.3E1,2E0,2E0,2.91E2,1.8E1,8E0,1.935E3,1E0,1E0,2E0,5E0,9E0,4E0,9E0,4.8E1,2E0,6E0,2.1E1,4.31E2,1.2E1,3.2E1,1.84E2,1.2E1,1E0,1.1E1,1E0,2E0,2E0,2E0,2.1E1,1.9E1,5E0,1E0,2E0,3E0,2.3E1,4E0,6.5E1,1.9E1,2E0,3E0,1E0,2E0,6E0,2E0,1E0,1E0,4E0,5E0,5.1E1,1E0,3.7E1,8E0],"tree_param":{"num_deleted":"0","num_feature":"168","num_nodes":"141","size_leaf_vector":"0"}},{"base_weights":[1.1763148E0,7.8890634E-1,4.81261E0,7.7877307E-1,2.4658524E1,3.5526292E0,7.2896914E0,3.719522E-1,1.1742147E0,2.6768158E1,3.3360634E0,6.491375E0,1.0974849E1,3.4516236E-1,8.211717E0,1.2295202E0,-3.6101668E0,1.3277795E1,3.0857012E0,6.0734243E0,1.5022351E1,1.9156006E1,8.007765E0,7.9691416E-1,3.967915E-2,1.1039747E0,1.9689962E1,1.0277544E0,2.688963E0,-6.1090207E0,1.4986718E0,5.1182847E0,2.0157734E1,1.1112318E0,4.1178594E0,5.673246E0,1.1178953E1,1.7021103E1,2.5142975E0,2.07046E1,4.9322205E0,-4.560566E0,8.78635E0,7.0324314E-1,8.729083E0,7.203122E0,-1.3124314E-3,8.067036E-2,2.1003888E0,1.0123296E0,1.6787184E1,4.111273E0,7.672449E-1,-1.7635324E0,-9.843607E0,-3.6526356E0,4.22818E0,1.5750235E0,-7.5768228E0,9.630364E0,3.5402431E0,5.854697E0,-1.5061436E0,-1.004982E0,1.2827568E1,1.0002289E1,4.75187E0,2.2269152E-1,1.4266804E0,5.741989E-1,1.3306989E1,8.816292E0,-2.0445328E0,1.3120128E0,-2.1384116E-1,-2.406826E-1,2.6801553E-1,1.1444046E1,9.9204516E-1,3.487597E0,1.1231158E1,1.6814302E0,-3.8402176E0,2.5881004E0,-3.1749532E0,-1.1519726E1,-2.0927544E0,-3.5934258E-1,-4.630619E0,1.8502668E0,9.247829E0,2.4301515E0,-4.0027957E0,-1.0669382E1,-9.2780304E-1,2.309424E0,1.131626E1,3.0079968E0,8.396251E0,4.9182568E0,7.11075E0,5.6455994E-1,-2.3845646E0,1.1476193E1,5.633082E0],"categories":[],"categories_nodes":[],"categories_segments":[],"categories_sizes":[],"default_left":[1,1,1,1,0,1,1,1,1,0,1,1,1,1,1,1,1,1,1,1,1,1,1,1,1,1,0,1,1,1,1,0,0,1,1,1,1,0,0,0,0,0,1,1,1,1,1,1,0,1,0,1,1,1,1,1,1,1,1,1,1,1,1,0,0,1,0,0,0,0,0,0,0,0,0,0,0,0,0,0,0,0,0,0,0,0,0,0,0,0,0,0,0,0,0,0,0,0,0,0,0,0,0,0,0],"id":10,"left_children":[1,3,5,7,-1,9,11,13,15,-1,17,19,21,23,25,27,29,31,33,35,37,39,41,43,45,47,-1,49,51,53,55,-1,-1,57,59,61,63,-1,-1,-1,-1,-1,65,67,69,71,73,75,-1,77,-1,79,81,83,85,87,89,91,93,95,97,99,101,-1,-1,103,-1,-1,-1,-1,-1,-1,-1,-1,-1,-1,-1,-1,-1,-1,-1,-1,-1,-1,-1,-1,-1,-1,-1,-1,-1,-1,-1,-1,-1,-1,-1,-1,-1,-1,-1,-1,-1,-1,-1],"loss_changes":[7.4610737E3,1.1393865E3,1.5658506E3,7.699883E2,0E0,1.6201133E3,4.3182715E2,4.932471E2,6.468938E2,0E0,8.0032227E2,4.186338E2,5.505547E2,3.249645E2,6.309379E2,7.0424756E2,3.6661014E2,3.4592236E2,6.6999023E2,2.1852979E2,1.0720691E2,5.206836E1,2.6513794E2,6.997251E2,4.128685E2,5.94837E0,0E0,4.9616504E2,7.9222974E2,2.9098383E2,1.5604935E2,0E0,0E0,4.7532025E2,6.5685767E2,1.7816992E2,1.9367114E2,0E0,0E0,0E0,0E0,0E0,6.0395386E1,3.264723E2,4.0301434E2,1.3736948E2,3.9076852E2,3.053224E-1,0E0,4.35125E2,0E0,7.023938E2,5.3296643E2,6.963695E1,1.058056E2,1.1219166E1,6.644308E1,5.343998E2,1.1347586E2,2.2071289E2,4.8649365E2,1.1440723E2,8.622028E0,0E0,0E0,3.839026E1,0E0,0E0,0E0,0E0,0E0,0E0,0E0,0E0,0E0,0E0,0E0,0E0,0E0,0E0,0E0,0E0,0E0,0E0,0E0,0E0,0E0,0E0,0E0,0E0,0E0,0E0,0E0,0E0,0E0,0E0,0E0,0E0,0E0,0E0,0E0,0E0,0E0,0E0,0E0],"parents":[2147483647,0,0,1,1,2,2,3,3,5,5,6,6,7,7,8,8,10,10,11,11,12,12,13,13,14,14,15,15,16,16,17,17,18,18,19,19,20,20,21,21,22,22,23,23,24,24,25,25,27,27,28,28,29,29,30,30,33,33,34,34,35,35,36,36,42,42,43,43,44,44,45,45,46,46,47,47,49,49,51,51,52,52,53,53,54,54,55,55,56,56,57,57,58,58,59,59,60,60,61,61,62,62,65,65],"right_children":[2,4,6,8,-1,10,12,14,16,-1,18,20,22,24,26,28,30,32,34,36,38,40,42,44,46,48,-1,50,52,54,56,-1,-1,58,60,62,64,-1,-1,-1,-1,-1,66,68,70,72,74,76,-1,78,-1,80,82,84,86,88,90,92,94,96,98,100,102,-1,-1,104,-1,-1,-1,-1,-1,-1,-1,-1,-1,-1,-1,-1,-1,-1,-1,-1,-1,-1,-1,-1,-1,-1,-1,-1,-1,-1,-1,-1,-1,-1,-1,-1,-1,-1,-1,-1,-1,-1,-1],"split_conditions":[6.86E1,2.675E2,1.4454999E2,2.8235E1,7.3975573E0,2.808E1,2.475E2,1.849E2,7.2275E1,8.030448E0,7.5249996E0,2.655E2,5.245E1,1.4844999E1,5.155E1,4.045E1,3.45E1,6.425E0,2.7805E1,2.54E2,9.9E1,2.635E2,4.47E1,5.94E1,2.44E0,8.83E1,5.906989E0,2.665E2,3.71E1,3.025E1,8.03E1,1.5354855E0,6.0473204E0,6.9E1,1.5795E1,2.61E2,8.5899994E1,5.106331E0,7.5428927E-1,6.21138E0,1.4796662E0,-1.3681698E0,2.465E2,1.6880001E1,2.01E1,5.4275E1,1.0105E1,2.0481E2,6.3011664E-1,2.65E0,5.036155E0,7.9545E1,6.1800003E1,9.65E0,5.275E1,4.2629997E1,1.3929E2,8.59E1,2.909E1,1.23E1,2.51E2,2.345E2,1.7735E2,-3.014946E-1,3.8482707E0,1.3185E2,1.4255611E0,6.680746E-2,4.2800415E-1,1.7225967E-1,3.9920967E0,2.6448877E0,-6.1335987E-1,3.9360386E-1,-6.415235E-2,-7.220478E-2,8.040466E-2,3.433214E0,2.9761356E-1,1.0462792E0,3.3693476E0,5.044291E-1,-1.1520653E0,7.764302E-1,-9.52486E-1,-3.4559178E0,-6.2782633E-1,-1.0780278E-1,-1.3891858E0,5.5508006E-1,2.774349E0,7.2904545E-1,-1.2008388E0,-3.2008147E0,-2.7834094E-1,6.928272E-1,3.3948781E0,9.0239906E-1,2.5188754E0,1.4754771E0,2.1332252E0,1.6936798E-1,-7.153694E-1,3.4428582E0,1.6899246E0],"split_indices":[167,147,167,147,0,166,145,0,166,0,33,96,47,139,122,167,106,33,76,48,7,2,17,164,46,102,0,100,108,41,165,0,0,87,55,20,7,0,0,0,0,0,164,122,129,7,56,0,0,100,0,61,166,4,68,0,48,138,2,10,62,167,3,0,0,89,0,0,0,0,0,0,0,0,0,0,0,0,0,0,0,0,0,0,0,0,0,0,0,0,0,0,0,0,0,0,0,0,0,0,0,0,0,0,0],"split_type":[0,0,0,0,0,0,0,0,0,0,0,0,0,0,0,0,0,0,0,0,0,0,0,0,0,0,0,0,0,0,0,0,0,0,0,0,0,0,0,0,0,0,0,0,0,0,0,0,0,0,0,0,0,0,0,0,0,0,0,0,0,0,0,0,0,0,0,0,0,0,0,0,0,0,0,0,0,0,0,0,0,0,0,0,0,0,0,0,0,0,0,0,0,0,0,0,0,0,0,0,0,0,0,0,0],"sum_hessian":[5.298E3,4.789E3,5.09E2,4.788E3,1E0,3.39E2,1.7E2,2.361E3,2.427E3,2E0,3.37E2,1.42E2,2.8E1,2.354E3,7E0,2.4E3,2.7E1,7E0,3.3E2,1.37E2,5E0,6E0,2.2E1,9.49E2,1.405E3,5E0,2E0,2.11E3,2.9E2,1.8E1,9E0,4E0,3E0,1.14E2,2.16E2,1.29E2,8E0,4E0,1E0,5E0,1E0,1E0,2.1E1,9.39E2,1E1,7E0,1.398E3,3E0,2E0,2.109E3,1E0,1.66E2,1.24E2,9E0,9E0,3E0,6E0,1.09E2,5E0,1.9E1,1.97E2,1.26E2,3E0,1E0,7E0,1.5E1,6E0,5.65E2,3.74E2,4E0,6E0,6E0,1E0,1.94E2,1.204E3,1E0,2E0,3E0,2.106E3,1.54E2,1.2E1,1.04E2,2E1,2E0,7E0,7E0,2E0,1E0,2E0,5E0,1E0,9.5E1,1.4E1,3E0,2E0,4E0,1.5E1,1.79E2,1.8E1,7.5E1,5.1E1,1E0,2E0,1E1,5E0],"tree_param":{"num_deleted":"0","num_feature":"168","num_nodes":"105","size_leaf_vector":"0"}},{"base_weights":[8.3768564E-1,5.444813E-1,3.3942897E0,5.3577805E-1,2.0959747E1,1.6005913E1,3.2478747E0,-4.6450783E-2,7.061219E-1,2.1965155E1,2.7249527E0,2.246417E0,5.2054324E0,1.3949951E1,-7.242323E-2,6.838246E-1,6.105538E0,5.9673753E0,1.7611327E0,3.13626E0,6.0768356E0,-4.2620566E-2,-8.0488825E0,7.220746E-1,-2.7137828E0,7.4473524E0,-1.7441711E0,3.5032156E0,1.0469454E1,-2.3279458E-1,2.7685997E0,7.159675E0,1.0420192E0,1.1643288E1,4.864206E0,2.6461614E-2,-3.06319E0,-9.566455E-1,-1.0094079E1,6.849435E-1,3.6600137E0,-4.801222E0,2.2023477E-1,2.966046E0,9.109484E0,9.235115E-1,-3.5397682E0,1.0181086E1,1.9660254E0,2.6714833E0,1.4504828E1,8.7491643E-1,-3.945392E0,7.903807E0,2.2221088E0,1.6689987E0,9.565449E0,3.5133183E-1,4.050587E0,1.39341135E1,3.212064E0,5.182716E0,-2.6062424E0,-3.1263316E-1,6.8838406E-1,1.5251834E0,-4.67738E0,1.9380314E0,6.137491E-1,2.3009186E0,1.2110646E1,-5.531073E0,2.3080277E-1,1.7362372E0,-2.4100885E0,-1.3637421E0,4.054802E0,3.6902237E0,1.2395573E0,-3.085823E-1,1.6395077E1,-5.3011665E0,1.6867286E0,2.3460796E0,-6.05565E0,1.8628984E1,3.0868154E0,8.088012E0,1.8231367E0,7.003174E-2,3.7776108E0,1.0173684E1,1.133316E0,1.9361863E0,-4.5706508E-1,5.3449097E0,5.4318744E-1,7.7231197E0,1.8596872E1,-2.9503885E-1,5.0393753E0,6.7303925E0,4.117799E0,-6.169637E-1,-3.7267735E0],"categories":[],"categories_nodes":[],"categories_segments":[],"categories_sizes":[],"default_left":[1,1,1,1,0,1,1,1,1,0,0,1,1,0,1,1,1,1,1,1,1,1,1,1,1,1,1,1,1,1,1,1,1,1,1,1,1,0,0,1,1,1,1,0,0,0,0,0,1,1,1,1,1,1,1,1,1,1,1,1,1,1,1,0,0,0,0,0,0,0,0,0,0,0,0,0,0,0,0,0,0,0,0,0,0,0,0,0,0,0,0,0,0,0,0,0,0,0,0,0,0,0,0,0,0],"id":11,"left_children":[1,3,5,7,-1,9,11,13,15,-1,-1,17,19,-1,21,23,25,27,29,31,33,35,37,39,41,43,45,47,49,51,53,55,57,59,61,63,65,-1,-1,67,69,71,73,-1,-1,-1,-1,-1,75,77,79,81,83,85,87,89,91,93,95,97,99,101,103,-1,-1,-1,-1,-1,-1,-1,-1,-1,-1,-1,-1,-1,-1,-1,-1,-1,-1,-1,-1,-1,-1,-1,-1,-1,-1,-1,-1,-1,-1,-1,-1,-1,-1,-1,-1,-1,-1,-1,-1,-1,-1],"loss_changes":[3.970322E3,8.336299E2,9.5437354E2,4.7153027E2,0E0,4.150127E2,1.0469287E3,3.9252222E2,4.386283E2,0E0,0E0,6.377451E2,3.0910254E2,0E0,2.554434E2,4.781277E2,1.709823E2,4.1817065E2,6.4145685E2,4.643955E2,8.006206E2,2.2398131E2,4.8363647E1,3.928313E2,2.5216525E2,6.9811584E1,1.7639267E1,2.6740805E2,4.0179883E2,4.4760025E2,5.7738196E2,2.3501245E2,7.754014E1,3.801609E2,2.657251E2,2.3589236E2,1.8489005E2,0E0,0E0,3.181925E2,4.8896912E2,8.941968E1,7.596086E1,0E0,0E0,0E0,0E0,0E0,1.7245306E2,4.178322E0,2.5706848E2,4.3010242E2,3.4612277E2,9.757578E2,4.369386E2,2.3336655E1,5.5143433E1,4.1883087E1,2.8874664E1,3.4870068E2,3.9938225E1,1.4039648E2,8.845959E0,0E0,0E0,0E0,0E0,0E0,0E0,0E0,0E0,0E0,0E0,0E0,0E0,0E0,0E0,0E0,0E0,0E0,0E0,0E0,0E0,0E0,0E0,0E0,0E0,0E0,0E0,0E0,0E0,0E0,0E0,0E0,0E0,0E0,0E0,0E0,0E0,0E0,0E0,0E0,0E0,0E0,0E0],"parents":[2147483647,0,0,1,1,2,2,3,3,5,5,6,6,7,7,8,8,11,11,12,12,14,14,15,15,16,16,17,17,18,18,19,19,20,20,21,21,22,22,23,23,24,24,25,25,26,26,27,27,28,28,29,29,30,30,31,31,32,32,33,33,34,34,35,35,36,36,39,39,40,40,41,41,42,42,48,48,49,49,50,50,51,51,52,52,53,53,54,54,55,55,56,56,57,57,58,58,59,59,60,60,61,61,62,62],"right_children":[2,4,6,8,-1,10,12,14,16,-1,-1,18,20,-1,22,24,26,28,30,32,34,36,38,40,42,44,46,48,50,52,54,56,58,60,62,64,66,-1,-1,68,70,72,74,-1,-1,-1,-1,-1,76,78,80,82,84,86,88,90,92,94,96,98,100,102,104,-1,-1,-1,-1,-1,-1,-1,-1,-1,-1,-1,-1,-1,-1,-1,-1,-1,-1,-1,-1,-1,-1,-1,-1,-1,-1,-1,-1,-1,-1,-1,-1,-1,-1,-1,-1,-1,-1,-1,-1,-1,-1],"split_conditions":[6.51E1,2.675E2,3.1335001E1,1.4959999E1,6.2879243E0,1.9925E1,1.1965E2,1.8499999E0,2.4715E2,6.5895467E0,8.1748587E-1,1.2195E1,4.7440002E1,4.1849856E0,2.515E2,1.13875E2,2.68E2,1.103E1,2.7805E1,2.105E1,1.1615E2,5.1225E1,7.45E0,9.439E1,8.326E1,4.6050003E1,2.39E2,9.565001E0,1.9915E1,3.8739998E1,2.735E1,8.55E0,1.9295001E2,1.824E2,2.59E2,2.152E1,2.46E1,-2.8699365E-1,-3.0282238E0,1.3315001E1,1.20595E2,9.1E1,2.54E2,8.8981384E-1,2.7328453E0,2.7705348E-1,-1.0619305E0,3.0543258E0,1.3924999E1,1.9425E1,8.13E0,1.0825E1,3.345E1,1.9E1,1.902E1,1.895E1,3.67E1,3.4795E1,1.369E2,8.955E1,1.13350006E2,1.475E2,1.8155E2,-9.378995E-2,2.0651522E-1,4.5755506E-1,-1.4032141E0,5.8140945E-1,1.8412474E-1,6.902756E-1,3.633194E0,-1.659322E0,6.924084E-2,5.2087116E-1,-7.230266E-1,-4.0912265E-1,1.2164407E0,1.1070671E0,3.7186718E-1,-9.257469E-2,4.9185233E0,-1.59035E0,5.060186E-1,7.038239E-1,-1.8166951E0,5.5886955E0,9.2604464E-1,2.4264035E0,5.4694104E-1,2.1009523E-2,1.1332833E0,3.0521054E0,3.3999482E-1,5.808559E-1,-1.3711953E-1,1.603473E0,1.6295624E-1,2.316936E0,5.579062E0,-8.851166E-2,1.5118127E0,2.0191178E0,1.2353396E0,-1.8508911E-1,-1.1180321E0],"split_indices":[167,147,166,49,0,8,161,100,48,0,0,57,93,0,124,141,16,56,76,90,135,43,0,147,125,138,0,130,140,16,77,78,135,162,53,94,139,0,0,47,131,118,138,0,0,0,0,0,35,6,0,36,14,28,144,2,69,117,79,134,5,111,4,0,0,0,0,0,0,0,0,0,0,0,0,0,0,0,0,0,0,0,0,0,0,0,0,0,0,0,0,0,0,0,0,0,0,0,0,0,0,0,0,0,0],"split_type":[0,0,0,0,0,0,0,0,0,0,0,0,0,0,0,0,0,0,0,0,0,0,0,0,0,0,0,0,0,0,0,0,0,0,0,0,0,0,0,0,0,0,0,0,0,0,0,0,0,0,0,0,0,0,0,0,0,0,0,0,0,0,0,0,0,0,0,0,0,0,0,0,0,0,0,0,0,0,0,0,0,0,0,0,0,0,0,0,0,0,0,0,0,0,0,0,0,0,0,0,0,0,0,0,0],"sum_hessian":[5.298E3,4.754E3,5.44E2,4.753E3,1E0,5E0,5.39E2,1.076E3,3.677E3,3E0,2E0,3.58E2,1.81E2,1E0,1.075E3,3.663E3,1.4E1,4E1,3.18E2,5.5E1,1.26E2,1.072E3,3E0,3.623E3,4E1,1.2E1,2E0,2.7E1,1.3E1,1.07E2,2.11E2,1.8E1,3.7E1,2.1E1,1.05E2,1.049E3,2.3E1,1E0,2E0,3.579E3,4.4E1,2.3E1,1.7E1,4E0,8E0,1E0,1E0,4E0,2.3E1,5E0,8E0,8.3E1,2.4E1,1.9E1,1.92E2,6E0,1.2E1,3.1E1,6E0,1.6E1,5E0,1.01E2,4E0,6.94E2,3.55E2,6E0,1.7E1,1.91E2,3.388E3,3.9E1,5E0,2E1,3E0,1.1E1,6E0,9E0,1.4E1,2E0,3E0,1E0,7E0,9E0,7.4E1,6E0,1.8E1,5E0,1.4E1,1.1E1,1.81E2,4E0,2E0,1.1E1,1E0,1E1,2.1E1,4E0,2E0,8E0,8E0,2E0,3E0,3.9E1,6.2E1,2E0,2E0],"tree_param":{"num_deleted":"0","num_feature":"168","num_nodes":"105","size_leaf_vector":"0"}},{"base_weights":[5.968258E-1,3.623126E-1,2.3532152E0,3.5476834E-1,1.7815788E1,1.2438641E1,2.2516549E0,3.5651892E-2,6.127636E-1,1.7022991E1,2.1799595E0,1.6483089E0,3.8227117E0,2.6604372E-1,-8.954391E-1,6.844063E-1,-2.0899336E0,5.60215E-1,2.7097244E0,2.7983608E0,7.1333396E-1,1.2041611E1,3.6541946E0,2.768782E-2,1.0850824E0,-5.3243965E-1,-3.8682694E0,6.3791776E-1,4.797445E0,5.2501473E0,-2.7665555E0,2.3290524E0,1.0692864E1,-2.1576593E0,1.5383973E0,2.8647788E0,5.424514E0,2.6744595E-1,-8.1949836E-1,1.5207491E1,9.695178E-1,9.192292E0,-6.634784E-1,-7.6038337E0,-8.4597886E-1,1.894647E0,4.8562542E-1,2.133777E0,1.1189893E1,1.1961771E0,6.978088E0,-4.326331E0,9.911647E-1,2.8136034E0,-3.146572E0,1.4290365E1,3.5177917E0,3.9841547E0,-3.7475286E0,-5.556419E0,1.9541831E0,8.74604E0,2.530109E0,1.3342221E1,4.4667892E0,-3.500071E-2,1.2927738E0,7.770748E0,-9.0704656E-1,4.4084644E0,7.014576E-1,-1.13845274E-1,-1.930075E0,-1.0872155E1,-3.941375E0,9.337093E-1,-5.8099484E0,-5.4813135E-1,3.6142452E0,4.5860863E-1,7.083804E0,4.496368E0,-1.5159408E0,1.833055E1,3.239389E0,6.272837E0,-4.9804068E0,3.4713676E0,-2.1503239E0,3.5742247E-1,3.9870899E0,6.876194E0,-5.0695524E0,1.666462E1,5.569819E0,1.0539805E0,4.8090057E0,-1.8416309E0,8.408521E0,5.286334E-1,-5.318516E0,-8.052879E0,8.2560635E-1,5.465525E0,1.0028371E0,2.5994797E0,9.455457E0,1.9480807E0,5.3377194E0,5.161274E0,4.36018E-1],"categories":[],"categories_nodes":[],"categories_segments":[],"categories_sizes":[],"default_left":[1,1,1,1,0,1,1,1,1,0,1,1,1,1,1,1,1,0,0,1,1,0,1,1,1,1,1,1,1,1,1,1,1,1,1,1,1,1,1,0,1,0,1,1,1,1,1,1,1,0,0,1,1,1,1,1,1,1,1,1,1,1,1,0,1,0,0,0,0,0,0,0,0,0,0,0,0,0,0,0,0,0,0,0,0,0,0,0,0,0,0,0,0,0,0,0,0,0,0,0,0,0,0,0,0,0,0,0,0,0,0],"id":12,"left_children":[1,3,5,7,-1,9,11,13,15,-1,17,19,21,23,25,27,29,-1,-1,31,33,-1,35,37,39,41,43,45,47,49,51,53,55,57,59,61,63,65,67,-1,69,-1,71,73,75,77,79,81,83,-1,-1,85,87,89,91,93,95,97,99,101,103,105,107,-1,109,-1,-1,-1,-1,-1,-1,-1,-1,-1,-1,-1,-1,-1,-1,-1,-1,-1,-1,-1,-1,-1,-1,-1,-1,-1,-1,-1,-1,-1,-1,-1,-1,-1,-1,-1,-1,-1,-1,-1,-1,-1,-1,-1,-1,-1,-1],"loss_changes":[2.181787E3,6.093825E2,6.1114185E2,3.8487335E2,0E0,2.4506696E2,5.804431E2,4.487907E2,5.019602E2,0E0,1.0562229E0,4.8080005E2,1.9283716E2,3.2735846E2,4.457818E2,4.785957E2,3.4727756E2,0E0,0E0,7.19792E2,5.931384E2,0E0,2.2064062E2,2.6427487E2,6.021714E2,4.788704E2,5.0161548E2,4.7602423E2,4.5288922E2,3.368309E1,3.6768256E2,5.156179E2,2.3366504E2,5.617528E2,5.8314343E2,2.1209686E2,3.2713525E2,3.1449374E2,2.2288988E2,0E0,3.435213E2,0E0,2.5527226E2,1.9655066E2,2.3511707E2,1.1319418E3,3.9320532E2,1.878948E2,3.947948E2,0E0,0E0,3.3627808E2,1.5550362E2,5.0585876E2,3.4323657E2,5.2114624E1,1.083794E1,3.2479022E2,3.051123E2,1.8190573E2,6.0917126E2,1.5835571E0,1.7589008E2,0E0,1.2931702E2,0E0,0E0,0E0,0E0,0E0,0E0,0E0,0E0,0E0,0E0,0E0,0E0,0E0,0E0,0E0,0E0,0E0,0E0,0E0,0E0,0E0,0E0,0E0,0E0,0E0,0E0,0E0,0E0,0E0,0E0,0E0,0E0,0E0,0E0,0E0,0E0,0E0,0E0,0E0,0E0,0E0,0E0,0E0,0E0,0E0,0E0],"parents":[2147483647,0,0,1,1,2,2,3,3,5,5,6,6,7,7,8,8,10,10,11,11,12,12,13,13,14,14,15,15,16,16,19,19,20,20,22,22,23,23,24,24,25,25,26,26,27,27,28,28,29,29,30,30,31,31,32,32,33,33,34,34,35,35,36,36,37,37,38,38,40,40,42,42,43,43,44,44,45,45,46,46,47,47,48,48,51,51,52,52,53,53,54,54,55,55,56,56,57,57,58,58,59,59,60,60,61,61,62,62,64,64],"right_children":[2,4,6,8,-1,10,12,14,16,-1,18,20,22,24,26,28,30,-1,-1,32,34,-1,36,38,40,42,44,46,48,50,52,54,56,58,60,62,64,66,68,-1,70,-1,72,74,76,78,80,82,84,-1,-1,86,88,90,92,94,96,98,100,102,104,106,108,-1,110,-1,-1,-1,-1,-1,-1,-1,-1,-1,-1,-1,-1,-1,-1,-1,-1,-1,-1,-1,-1,-1,-1,-1,-1,-1,-1,-1,-1,-1,-1,-1,-1,-1,-1,-1,-1,-1,-1,-1,-1,-1,-1,-1,-1,-1,-1],"split_conditions":[5.91E1,2.675E2,3.1335001E1,2.6369999E1,5.3447366E0,1.9925E1,1.2859E2,2.8765E1,5.5275E1,5.1068974E0,2.5412691E1,2.799E1,5.05E0,3.615E1,4.085E1,7.7100006E1,1.191E1,1.680645E-1,8.1291735E-1,6.8E1,3.15E1,3.6124833E0,1.5595001E2,2.629E1,5.0150003E0,3.78E0,2.895E1,1.834E1,4.605E1,1.288E1,4.795E1,5.2665E1,4.007E1,1.6150002E1,1.48E1,2.075E1,1.475E2,2.479E1,3.1E0,4.5622473E0,1.0405001E1,2.7576878E0,3.6449997E1,3.375E1,5.9800003E1,1.639E1,2.2895001E2,4.7905E1,3.296E1,3.5885316E-1,2.0934265E0,1.1985001E1,6.0949997E1,1.1610001E1,1.9099998E1,3E1,1.1200001E1,2.825E1,2.86E1,1.825E1,2.623E1,7.95E0,2.41E2,4.0026665E0,2.575E2,-1.0500214E-2,3.8783216E-1,2.3312244E0,-2.7211398E-1,1.3225393E0,2.104373E-1,-3.4153584E-2,-5.790225E-1,-3.2616467E0,-1.1824125E0,2.801128E-1,-1.7429847E0,-1.6443941E-1,1.0842736E0,1.375826E-1,2.1251414E0,1.3489105E0,-4.5478225E-1,5.499165E0,9.718167E-1,1.8818512E0,-1.494122E0,1.0414103E0,-6.450972E-1,1.07226744E-1,1.196127E0,2.0628583E0,-1.5208658E0,4.999386E0,1.6709458E0,3.1619415E-1,1.4427018E0,-5.524893E-1,2.5225563E0,1.5859003E-1,-1.5955548E0,-2.415864E0,2.4768192E-1,1.6396576E0,3.0085114E-1,7.798439E-1,2.836637E0,5.844242E-1,1.6013159E0,1.5483823E0,1.308054E-1],"split_indices":[167,147,166,121,0,8,161,115,166,0,0,114,1,11,167,164,30,0,0,125,156,0,25,8,34,10,118,130,167,4,34,37,132,139,93,109,162,144,60,0,26,0,46,59,165,36,48,143,5,0,0,45,126,112,123,9,31,119,91,101,47,0,146,0,40,0,0,0,0,0,0,0,0,0,0,0,0,0,0,0,0,0,0,0,0,0,0,0,0,0,0,0,0,0,0,0,0,0,0,0,0,0,0,0,0,0,0,0,0,0,0],"split_type":[0,0,0,0,0,0,0,0,0,0,0,0,0,0,0,0,0,0,0,0,0,0,0,0,0,0,0,0,0,0,0,0,0,0,0,0,0,0,0,0,0,0,0,0,0,0,0,0,0,0,0,0,0,0,0,0,0,0,0,0,0,0,0,0,0,0,0,0,0,0,0,0,0,0,0,0,0,0,0,0,0,0,0,0,0,0,0,0,0,0,0,0,0,0,0,0,0,0,0,0,0,0,0,0,0,0,0,0,0,0,0],"sum_hessian":[5.298E3,4.675E3,6.23E2,4.674E3,1E0,5E0,6.18E2,2.09E3,2.584E3,3E0,2E0,4.48E2,1.7E2,1.676E3,4.14E2,2.518E3,6.6E1,1E0,1E0,2E2,2.48E2,2E0,1.68E2,1.299E3,3.77E2,3.7E2,4.4E1,2.491E3,2.7E1,5E0,6.1E1,1.9E2,1E1,5.5E1,1.93E2,1.18E2,5E1,1.013E3,2.86E2,2E0,3.75E2,4E0,3.66E2,1.9E1,2.5E1,2.68E2,2.223E3,2E1,7E0,2E0,3E0,4.3E1,1.8E1,1.75E2,1.5E1,6E0,4E0,1.1E1,4.4E1,1E1,1.83E2,5E0,1.13E2,4E0,4.6E1,7.83E2,2.3E2,2E0,2.84E2,2.6E1,3.49E2,2.56E2,1.1E2,9E0,1E1,1.9E1,6E0,1.11E2,1.57E2,2.215E3,8E0,1.2E1,8E0,3E0,4E0,2E0,4.1E1,1E1,8E0,5.7E1,1.18E2,2E0,1.3E1,4E0,2E0,2E0,2E0,5E0,6E0,1.2E1,3.2E1,7E0,3E0,3.8E1,1.45E2,1E0,4E0,9.5E1,1.8E1,3.9E1,7E0],"tree_param":{"num_deleted":"0","num_feature":"168","num_nodes":"111","size_leaf_vector":"0"}},{"base_weights":[4.282827E-1,3.1391138E-1,2.4026694E0,2.086985E-1,1.1063267E0,8.852032E0,2.092438E0,2.763245E-1,-9.409672E-1,8.226169E0,9.81232E-1,1.1573256E1,-1.6403532E-1,2.602851E-1,2.7077763E0,2.6475188E-1,1.2289063E1,1.0028784E1,-1.1637267E0,2.342318E0,1.1758349E1,4.1413126E0,7.1950346E-1,3.2644958E0,1.3242384E1,-1.0750313E0,4.9797377E-1,3.370139E0,-1.1132562E0,1.0485553E1,2.4248447E0,2.2997421E-1,2.6466672E0,-1.8196182E0,1.8534258E1,-3.6880753E0,-5.15046E-2,2.8556595E0,1.0482038E0,-7.573624E-2,6.1117935E0,7.986209E-1,-7.826669E0,6.966286E-1,5.033207E-2,1.630922E0,8.957292E0,1.1977339E-1,-2.8217149E0,1.1612412E1,1.8621979E0,-1.5363456E-1,2.9111092E0,-3.188399E-1,3.5632786E-1,3.9668171E0,-1.231671E0,-2.87953E0,1.5010262E-1,-1.9226663E0,-6.5197234E0,4.263498E0,-8.658652E-1,2.1892433E0,-1.8289719E0,1.0374395E1,2.6937037E0,-2.979101E-1,1.3906577E0,-2.0587158E0,-8.753979E0,9.7734666E-1,3.674099E0,1.1933295E1,-1.473362E0,-1.3208134E0,1.4628377E0,-4.51636E0,-1.174368E0,3.652637E0,-1.7331797E0,8.197016E0,2.5647106E0,-1.9222376E-1,-1.963657E0,-7.4156137E0,3.7017447E-1,6.9712734E0,2.0687973E0,4.091825E0,-2.2844436E0,-2.6731462E0,6.81328E0,-8.656746E0,-9.507513E-2,6.552654E0,-3.213041E0,5.0264926E0,-1.2991316E0,5.454817E-1,3.2856941E0,-2.3637753E0,1.2247276E0,1.617981E1,5.9964542E0,-2.4116447E0,4.324635E0,3.747937E-1,-3.6952195E0,5.4921937E0,1.0251429E0,3.2105145E-1,1.3792044E0,-3.8091774E0,-6.966491E-2,3.0613E0,1.9763026E-1,-5.189961E0,7.7302647E-1,-1.5740749E-1,-2.1650941E0,4.7987638E0,7.3375607E-1,-3.192254E0,1.0533061E0,1.3131222E0,1.2567424E1,1.64073E0,3.9394822E0],"categories":[],"categories_nodes":[],"categories_segments":[],"categories_sizes":[],"default_left":[1,1,1,1,1,1,1,1,1,1,1,1,1,1,1,1,0,1,1,1,0,1,1,0,0,0,1,1,1,1,1,1,1,1,0,1,1,0,0,1,1,1,1,0,0,1,1,1,1,0,0,1,1,1,1,1,1,0,0,1,1,1,1,1,1,1,1,1,1,0,0,1,0,0,0,1,1,1,1,1,1,1,1,0,0,0,0,0,0,0,0,0,0,0,0,0,0,0,0,0,0,0,0,0,0,0,0,0,0,0,0,0,0,0,0,0,0,0,0,0,0,0,0,0,0,0,0,0,0],"id":13,"left_children":[1,3,5,7,9,11,13,15,17,19,21,23,25,27,29,31,-1,33,35,37,-1,39,41,-1,-1,-1,43,45,47,49,51,53,55,57,-1,59,61,-1,-1,63,65,67,69,-1,-1,71,73,75,77,-1,-1,79,81,83,85,87,89,-1,-1,91,93,95,97,99,101,103,105,107,109,-1,-1,111,-1,-1,-1,113,115,117,119,121,123,125,127,-1,-1,-1,-1,-1,-1,-1,-1,-1,-1,-1,-1,-1,-1,-1,-1,-1,-1,-1,-1,-1,-1,-1,-1,-1,-1,-1,-1,-1,-1,-1,-1,-1,-1,-1,-1,-1,-1,-1,-1,-1,-1,-1,-1,-1,-1],"loss_changes":[1.1958303E3,4.174643E2,5.617085E2,3.44214E2,5.147425E2,3.2085004E2,3.1271082E2,5.7770654E2,6.128003E2,1.8028638E2,4.7507446E2,9.54541E1,2.9476879E0,3.0702924E2,4.322948E2,3.4532062E2,0E0,5.376067E2,6.79258E2,3.2829857E-1,0E0,3.6608594E2,3.679915E2,0E0,0E0,0E0,2.3171574E-1,1.991713E2,1.0566697E2,4.6396545E1,2.5371948E2,2.8560565E2,3.1208508E2,6.6954155E0,0E0,3.5739197E2,5.975522E2,0E0,0E0,6.3569706E1,4.0915308E2,3.451324E2,8.721436E0,0E0,0E0,2.0445793E1,1.727904E2,5.9976154E1,5.332115E1,0E0,0E0,2.0473253E2,2.9025232E2,1.6019131E2,3.6293225E2,2.421911E2,9.901843E1,0E0,0E0,3.2635208E2,3.836062E2,4.8315796E2,3.7160352E2,1.0823841E1,1.759314E1,2.333833E2,1.6030597E2,4.2875153E2,5.1158392E2,0E0,0E0,3.5132637E0,0E0,0E0,0E0,4.6434326E1,3.1753181E1,3.9641373E1,1.1749548E1,2.9932968E1,1.0093899E2,2.8435168E2,1.9804858E2,0E0,0E0,0E0,0E0,0E0,0E0,0E0,0E0,0E0,0E0,0E0,0E0,0E0,0E0,0E0,0E0,0E0,0E0,0E0,0E0,0E0,0E0,0E0,0E0,0E0,0E0,0E0,0E0,0E0,0E0,0E0,0E0,0E0,0E0,0E0,0E0,0E0,0E0,0E0,0E0,0E0,0E0,0E0,0E0,0E0,0E0],"parents":[2147483647,0,0,1,1,2,2,3,3,4,4,5,5,6,6,7,7,8,8,9,9,10,10,11,11,12,12,13,13,14,14,15,15,17,17,18,18,19,19,21,21,22,22,26,26,27,27,28,28,29,29,30,30,31,31,32,32,33,33,35,35,36,36,39,39,40,40,41,41,42,42,45,45,46,46,47,47,48,48,51,51,52,52,53,53,54,54,55,55,56,56,59,59,60,60,61,61,62,62,63,63,64,64,65,65,66,66,67,67,68,68,71,71,75,75,76,76,77,77,78,78,79,79,80,80,81,81,82,82],"right_children":[2,4,6,8,10,12,14,16,18,20,22,24,26,28,30,32,-1,34,36,38,-1,40,42,-1,-1,-1,44,46,48,50,52,54,56,58,-1,60,62,-1,-1,64,66,68,70,-1,-1,72,74,76,78,-1,-1,80,82,84,86,88,90,-1,-1,92,94,96,98,100,102,104,106,108,110,-1,-1,112,-1,-1,-1,114,116,118,120,122,124,126,128,-1,-1,-1,-1,-1,-1,-1,-1,-1,-1,-1,-1,-1,-1,-1,-1,-1,-1,-1,-1,-1,-1,-1,-1,-1,-1,-1,-1,-1,-1,-1,-1,-1,-1,-1,-1,-1,-1,-1,-1,-1,-1,-1,-1,-1,-1],"split_conditions":[9.8134995E1,4.8324997E1,1.5014999E1,4.155E1,6.75E0,2.6985E1,3.1724998E1,4.1455E1,7.75E0,1.9595E1,9.7E0,1.375E1,1.1042E2,1.3255E1,2.0485E1,4.7440002E1,3.6867192E0,1.2205E1,3.311E1,9.09E0,3.527505E0,1.3424999E1,2.595E2,9.793488E-1,3.9727154E0,-3.225094E-1,1.694E2,1.5469999E1,1.1955E2,1.5094E2,8.27E1,1.1719999E1,4.567E1,9.275E0,5.5602775E0,3.345E1,1.383E1,8.5669786E-1,3.1446117E-1,1.302E1,1.6665E1,2.1349998E1,1.77E1,2.0898858E-1,1.5099621E-2,1.924E1,7.155E1,1.3232999E2,1.3166E2,3.4837239E0,5.586594E-1,4.545E1,8.715E1,5.3E1,2.05E0,3.5295E1,2.5099998E1,-8.63859E-1,4.5030788E-2,5.2050003E1,5.605E1,3.9949997E1,1.132E1,1.73E1,2.2494999E1,1.9E1,2.575E1,4.16E1,2.1605E1,-6.1761475E-1,-2.6261938E0,1.11E1,1.1022297E0,3.5799887E0,-4.420086E-1,6.2495E1,1.088E2,7.155E1,2.87E1,1.2115769E2,1.8315E2,5.3449997E1,1.202E2,-5.766713E-2,-5.8909714E-1,-2.2246842E0,1.1105234E-1,2.091382E0,6.206392E-1,1.2275475E0,-6.8533313E-1,-8.019439E-1,2.0439842E0,-2.597024E0,-2.852254E-2,1.9657962E0,-9.6391237E-1,1.5079478E0,-3.897395E-1,1.6364451E-1,9.857083E-1,-7.091326E-1,3.674183E-1,4.853943E0,1.7989364E0,-7.2349346E-1,1.2973906E0,1.1243812E-1,-1.1085659E0,1.6476582E0,3.075429E-1,9.6315436E-2,4.1376135E-1,-1.1427532E0,-2.0899475E-2,9.1839004E-1,5.928908E-2,-1.5569884E0,2.3190795E-1,-4.722225E-2,-6.4952826E-1,1.4396292E0,2.2012682E-1,-9.5767623E-1,3.1599185E-1,3.9393666E-1,3.7702272E0,4.9221903E-1,1.1818447E0],"split_indices":[144,167,130,166,96,19,58,166,124,43,57,15,0,42,41,165,0,12,162,0,0,40,52,0,0,0,0,39,148,0,154,167,115,0,0,90,31,0,0,130,75,101,0,0,0,54,0,144,145,0,0,123,149,83,102,166,159,0,0,77,45,144,139,16,0,28,73,82,102,0,0,74,0,0,0,146,137,16,89,0,41,101,2,0,0,0,0,0,0,0,0,0,0,0,0,0,0,0,0,0,0,0,0,0,0,0,0,0,0,0,0,0,0,0,0,0,0,0,0,0,0,0,0,0,0,0,0,0,0],"split_type":[0,0,0,0,0,0,0,0,0,0,0,0,0,0,0,0,0,0,0,0,0,0,0,0,0,0,0,0,0,0,0,0,0,0,0,0,0,0,0,0,0,0,0,0,0,0,0,0,0,0,0,0,0,0,0,0,0,0,0,0,0,0,0,0,0,0,0,0,0,0,0,0,0,0,0,0,0,0,0,0,0,0,0,0,0,0,0,0,0,0,0,0,0,0,0,0,0,0,0,0,0,0,0,0,0,0,0,0,0,0,0,0,0,0,0,0,0,0,0,0,0,0,0,0,0,0,0,0,0],"sum_hessian":[5.298E3,5.009E3,2.89E2,4.423E3,5.86E2,1.2E1,2.77E2,4.178E3,2.45E2,9E0,5.77E2,9E0,3E0,7E1,2.07E2,4.175E3,3E0,4E0,2.41E2,4E0,5E0,4.3E1,5.34E2,2E0,7E0,1E0,2E0,2.1E1,4.9E1,6E0,2.01E2,4.116E3,5.9E1,2E0,2E0,7.3E1,1.68E2,2E0,2E0,1.4E1,2.9E1,5.3E2,4E0,1E0,1E0,1.7E1,4E0,2.9E1,2E1,5E0,1E0,3.2E1,1.69E2,7.7E2,3.346E3,4.4E1,1.5E1,1E0,1E0,4.6E1,2.7E1,2.6E1,1.42E2,6E0,8E0,1.2E1,1.7E1,1.86E2,3.44E2,1E0,3E0,1.4E1,3E0,3E0,1E0,1.4E1,1.5E1,9E0,1.1E1,9E0,2.3E1,9E0,1.6E2,7.16E2,5.4E1,5E0,3.341E3,1.6E1,2.8E1,2E0,1.3E1,4.3E1,3E0,2E1,7E0,2E1,6E0,9E0,1.33E2,3E0,3E0,7E0,1E0,4E0,8E0,4E0,1.3E1,1.56E2,3E1,2.7E1,3.17E2,6E0,8E0,4E0,1E1,6E0,9E0,8E0,1E0,6E0,5E0,6E0,3E0,1.5E1,8E0,4E0,5E0,9.7E1,6.3E1],"tree_param":{"num_deleted":"0","num_feature":"168","num_nodes":"129","size_leaf_vector":"0"}},{"base_weights":[3.0704483E-1,2.2774039E-1,1.9145135E0,2.164523E-1,6.5275326E0,1.0917894E1,1.7603344E0,-2.1625808E-1,3.3990264E-1,8.356852E0,8.327738E-2,2.6772003E0,1.2772392E1,1.3157059E1,1.6601149E0,-1.4471667E-1,-3.0012045E0,1.1497037E0,2.2724025E-1,6.637802E-1,-5.3886414E-1,-7.7591944E-1,1.9528674E0,-5.616368E-2,-2.415487E0,-9.868395E-1,-4.681198E0,9.056754E-1,5.738338E0,-3.091013E0,2.5532746E-1,-2.5291507E0,1.0327346E0,2.3433716E0,-2.4085718E-1,-1.1288117E-1,4.8734856E0,-4.5600853E0,-1.002831E0,-2.5530398E0,9.440807E-1,-7.779801E0,-2.3539171E0,6.1096725E0,7.148146E-1,2.6796806E0,1.0538358E1,1.6943102E0,-4.158551E0,2.437145E-1,8.133589E0,-7.887475E-1,-5.504127E0,2.7411656E0,-1.7020344E0,1.5653678E0,3.8019824E0,1.6497672E-1,-4.489466E0,-7.142358E-1,2.1376088E-1,8.928969E0,3.1694918E0,-5.0247993E0,1.2053127E0,-4.573494E0,-1.4573337E-1,-9.4995594E-1,-2.929075E0,1.4418668E0,2.1027446E-1,-3.1372268E0,5.1954776E-1,3.1166923E0,1.430944E1,-1.0524725E0,1.1459109E0,5.854471E0,-4.4009748E-1,1.283043E1,1.6774038E0,3.64519E0,-1.9242716E-1,-8.20698E-3,-5.5415435E0,-1.1646242E0,3.042924E-1,2.2157288E-1,1.00562E1,1.8023872E-1,-1.2297757E0,1.0509608E0,3.8831375E0,-6.02654E-1,-2.60053E0,2.0631645E0,-1.8925941E0,4.856309E0,-1.7194381E0,-7.437793E-1,1.7415518E0],"categories":[],"categories_nodes":[],"categories_segments":[],"categories_sizes":[],"default_left":[1,1,1,1,1,1,1,1,1,0,1,0,0,0,1,1,1,1,1,0,0,1,1,1,1,1,1,1,1,1,1,1,1,1,1,1,1,1,1,1,1,0,1,1,1,1,1,1,1,1,1,1,0,1,1,1,1,1,0,0,0,0,0,0,0,0,0,0,0,0,0,0,0,0,0,0,0,0,0,0,0,0,0,0,0,0,0,0,0,0,0,0,0,0,0,0,0,0,0,0,0],"id":14,"left_children":[1,3,5,7,9,11,13,15,17,-1,19,-1,-1,-1,21,23,25,27,29,-1,-1,31,33,35,37,39,41,43,45,47,49,51,53,55,57,59,61,63,65,67,69,-1,71,73,75,77,79,81,83,85,87,89,-1,91,93,95,97,99,-1,-1,-1,-1,-1,-1,-1,-1,-1,-1,-1,-1,-1,-1,-1,-1,-1,-1,-1,-1,-1,-1,-1,-1,-1,-1,-1,-1,-1,-1,-1,-1,-1,-1,-1,-1,-1,-1,-1,-1,-1,-1,-1],"loss_changes":[6.750774E2,3.5777716E2,3.2642578E2,2.6946173E2,1.0540146E2,2.693515E1,2.591327E2,2.2271335E2,3.5774152E2,0E0,1.4411521E0,0E0,0E0,0E0,1.7623828E2,2.196486E2,9.013579E1,5.3116644E2,3.2195807E2,0E0,0E0,8.8228645E1,1.8817267E2,2.9496613E2,1.196398E2,4.4749184E1,8.985678E1,4.4854974E2,3.241194E2,1.5519287E2,3.1073026E2,6.814585E1,7.007586E1,2.0512213E2,5.936446E1,2.0483034E2,5.4625916E1,4.892462E1,7.890407E1,2.0400352E0,2.2537622E0,0E0,2.413807E1,3.4806976E2,3.371911E2,1.6105078E2,1.6126764E2,2.2786219E1,1.37712E2,2.9161707E2,7.3830444E1,4.495156E0,0E0,1.3290466E1,4.3595104E0,2.1563217E2,3.809184E2,4.7142437E1,0E0,0E0,0E0,0E0,0E0,0E0,0E0,0E0,0E0,0E0,0E0,0E0,0E0,0E0,0E0,0E0,0E0,0E0,0E0,0E0,0E0,0E0,0E0,0E0,0E0,0E0,0E0,0E0,0E0,0E0,0E0,0E0,0E0,0E0,0E0,0E0,0E0,0E0,0E0,0E0,0E0,0E0,0E0],"parents":[2147483647,0,0,1,1,2,2,3,3,4,4,5,5,6,6,7,7,8,8,10,10,14,14,15,15,16,16,17,17,18,18,21,21,22,22,23,23,24,24,25,25,26,26,27,27,28,28,29,29,30,30,31,31,32,32,33,33,34,34,35,35,36,36,37,37,38,38,39,39,40,40,42,42,43,43,44,44,45,45,46,46,47,47,48,48,49,49,50,50,51,51,53,53,54,54,55,55,56,56,57,57],"right_children":[2,4,6,8,10,12,14,16,18,-1,20,-1,-1,-1,22,24,26,28,30,-1,-1,32,34,36,38,40,42,44,46,48,50,52,54,56,58,60,62,64,66,68,70,-1,72,74,76,78,80,82,84,86,88,90,-1,92,94,96,98,100,-1,-1,-1,-1,-1,-1,-1,-1,-1,-1,-1,-1,-1,-1,-1,-1,-1,-1,-1,-1,-1,-1,-1,-1,-1,-1,-1,-1,-1,-1,-1,-1,-1,-1,-1,-1,-1,-1,-1,-1,-1,-1,-1],"split_conditions":[1.112E2,2.66E2,5.2E0,1.4469999E1,2.51E2,6.55E0,5.8E0,8.88E1,1.1815001E1,2.5070555E0,1.0855E2,8.0316013E-1,3.8317177E0,3.9471178E0,9.178E1,8.0399994E1,7.0255005E1,1.154E1,5.9300003E0,1.9913407E-1,-1.6165924E-1,4.2515E1,2.44E2,9.384E1,2.8925E1,2.86E1,2.695E1,5.15E0,1.38E1,8.625E0,2.64E2,3.2559998E1,2.06E2,1.0215E2,2.63E2,1.2995E1,1.9895E1,1.14795E2,2.719E1,1.8305E1,3.007E1,-2.3339403E0,1.33865E2,3.2225E1,1.26E1,9.969999E0,3.4949997E1,8.715E0,8.764999E0,8.865E0,2.62E1,1.965E1,-1.6512382E0,3.635E1,2.1725E2,7.62E1,2.44E2,2.3815E2,-1.3468399E0,-2.1427074E-1,6.4128265E-2,2.678691E0,9.5084757E-1,-1.5074399E0,3.6159384E-1,-1.3720483E0,-4.3720014E-2,-2.849868E-1,-8.7872255E-1,4.3256006E-1,6.308234E-2,-9.4116807E-1,1.5586433E-1,9.3500775E-1,4.292832E0,-3.1574175E-1,