{"learner":{"attributes":{"best_iteration":"16","best_ntree_limit":"17","best_score":"10.487557755034208","scikit_learn":"{\"n_estimators\": 200, \"objective\": \"reg:squarederror\", \"max_depth\": 7, \"max_leaves\": null, \"max_bin\": null, \"grow_policy\": null, \"learning_rate\": 0.3, \"verbosity\": null, \"booster\": null, \"tree_method\": null, \"gamma\": null, \"min_child_weight\": null, \"max_delta_step\": null, \"subsample\": null, \"sampling_method\": null, \"colsample_bytree\": null, \"colsample_bylevel\": null, \"colsample_bynode\": null, \"reg_alpha\": null, \"reg_lambda\": null, \"scale_pos_weight\": null, \"base_score\": null, \"missing\": NaN, \"num_parallel_tree\": null, \"random_state\": null, \"n_jobs\": null, \"monotone_constraints\": null, \"interaction_constraints\": null, \"importance_type\": null, \"gpu_id\": null, \"validate_parameters\": null, \"predictor\": null, \"enable_categorical\": false, \"max_cat_to_onehot\": null, \"eval_metric\": null, \"early_stopping_rounds\": null, \"callbacks\": null, \"kwargs\": {\"max_features\": \"auto\", \"min_samples_split\": 7, \"min_samples_leaf\": 3}, \"evals_result_\": {\"validation_0\": {\"rmse\": [41.42601213500242, 29.877840606525123, 21.901253484341506, 16.414098964996274, 12.72611127905275, 10.16007057184261, 8.47770059761581, 7.304567299649447, 6.490505155901874, 5.885719047869281, 5.483355597910804, 5.189372841682783, 4.994251424755824, 4.846340359542831, 4.66303251177003, 4.461272681770874, 4.294090157886876, 4.175532564373522, 4.084013841805074, 4.0272820153504725, 3.9602651652013585, 3.8432343549140127, 3.717318051975329, 3.5919300708262565, 3.5298553298400175, 3.3928088676872377, 3.322186142574236, 3.2542842031441137, 3.15908719622936, 3.1169845558850544, 3.034423078245612, 3.002373912569484, 2.9384122570980895, 2.8918032676443763, 2.828149234058873, 2.7978136326396266, 2.7320649353342663]}, \"validation_1\": {\"rmse\": [41.05113900274983, 29.803859370407544, 22.18279184879312, 17.219699313599623, 14.173980438478122, 12.39257743535634, 11.40679142499757, 10.913333914859281, 10.65538149030958, 10.567364393552962, 10.5248247916569, 10.493807032488935, 10.492364457903518, 10.506213718493946, 10.49818732188289, 10.492713480834809, 10.487557755034208, 10.496963158424746, 10.518599830253008, 10.513653197138943, 10.519633224975184, 10.515394817754029, 10.515688179243291, 10.544134340620056, 10.548159350978809, 10.5496091275329, 10.558408733880185, 10.558964313783072, 10.561130265766758, 10.561863053262094, 10.56591059548484, 10.562391878362293, 10.564658110888383, 10.557664863855747, 10.559026464127607, 10.567875147383639, 10.569244367265386]}}, \"_estimator_type\": \"regressor\"}"},"feature_names":[],"feature_types":[],"gradient_booster":{"model":{"gbtree_model_param":{"num_parallel_tree":"1","num_trees":"37","size_leaf_vector":"0"},"tree_info":[0,0,0,0,0,0,0,0,0,0,0,0,0,0,0,0,0,0,0,0,0,0,0,0,0,0,0,0,0,0,0,0,0,0,0,0,0],"trees":[{"base_weights":[4.516806E1,3.2880035E1,1.1017381E2,1.7970469E1,4.57501E1,9.360957E1,1.6393182E2,1.3479286E1,2.4270666E1,4.3218132E1,6.106158E1,8.212394E1,1.1269725E2,1.4777179E2,2.0011241E2,9.673705E0,1.596312E1,2.2066338E1,2.9023405E1,3.552154E1,4.4947613E1,5.5056957E1,6.670489E1,7.689438E1,9.2090935E1,4.9E1,1.1329679E2,9.4136246E1,1.4988692E2,9.6655E1,2.0399818E2,7.753043E0,1.1454114E1,1.42494135E1,1.7139032E1,1.9822548E1,2.3260069E1,4.433268E1,2.856553E1,3.0471819E1,3.6907486E1,4.4835518E1,1.163E2,5.5406143E1,1.7266666E1,6.156E1,7.832718E1,3.8775E1,9.300891E1,2.465E1,1.1356796E2,1.5040349E2,4.085E1,7.4914684E0,3.435E1,1.0328119E1,1.2372336E1,1.3865172E1,2.1190868E1,1.8742834E1,1.6460732E1,1.8761646E1,2.2509819E1,3.9395E1,2.2939882E1,4.32E0,2.8641293E1,1.07E1,3.1043764E1,3.699833E1,5.1E0,4.485305E1,7.75E0,4.6014866E1,5.7635696E1,2.99275E1,6.41588E1,7.846368E1,2.2443037E1,9.4E0,4.5433334E1,9.337626E1,2.2443037E1,1.1380187E2,2.93E1,4.085E1,1.5092793E2,4.7561336E0,8.734605E0,4.775E0,1.0432368E1,7.927273E0,1.2674183E1,7.0857143E0,1.3983451E1,3.0928692E1,1.2344444E1,1.8837395E1,3.745E0,9.171429E0,1.6574806E1,1.889458E1,8.92E0,2.090306E1,3.054143E1,2.1978504E1,2.529751E1,2.9119753E1,2.1740953E1,3.1654568E1,1.494E1,3.465079E1,3.9470825E1,4.4462276E1,4.8975628E1,4.6676388E1,1.11E1,5.7901356E1,1.155E1,6.530708E1,1.83E1,3.065E1,1.1402624E2],"categories":[],"categories_nodes":[],"categories_segments":[],"categories_sizes":[],"default_left":[1,1,1,1,1,1,1,1,1,1,1,1,1,1,1,1,1,1,1,1,1,1,0,1,1,0,1,0,1,0,0,1,1,1,1,1,1,0,1,1,1,1,0,1,0,1,1,1,1,0,1,1,0,1,0,1,1,1,1,1,1,1,1,0,1,0,1,0,1,1,0,1,0,1,1,0,1,0,0,0,0,0,0,1,0,0,0,0,0,0,0,0,0,0,0,0,0,0,0,0,0,0,0,0,0,0,0,0,0,0,0,0,0,0,0,0,0,0,0,0,0,0,0],"id":0,"left_children":[1,3,5,7,9,11,13,15,17,19,21,23,25,27,29,31,33,35,37,39,41,43,-1,45,47,-1,49,-1,51,-1,-1,53,55,57,59,61,63,-1,65,67,69,71,-1,73,-1,75,77,79,81,-1,83,85,-1,87,-1,89,91,93,95,97,99,101,103,-1,105,-1,107,-1,109,111,-1,113,-1,115,117,-1,119,-1,-1,-1,-1,-1,-1,121,-1,-1,-1,-1,-1,-1,-1,-1,-1,-1,-1,-1,-1,-1,-1,-1,-1,-1,-1,-1,-1,-1,-1,-1,-1,-1,-1,-1,-1,-1,-1,-1,-1,-1,-1,-1,-1,-1,-1],"loss_changes":[4.229178E6,8.546105E5,7.34423E5,5.8159312E4,9.0094E4,1.3237E5,8.5611E4,1.1273578E4,8.3589375E3,2.577125E4,7.747E3,1.413275E4,3.614E3,1.77275E3,3.59925E3,1.5525859E3,1.2268438E3,1.1219062E3,6.192344E2,1.5488438E3,8.18325E3,1.2734062E3,0E0,1.17625E3,3.000875E3,0E0,2.89775E3,0E0,1.34725E3,0E0,0E0,1.3706289E3,1.2759375E2,5.1434375E2,1.5708594E2,1.8207812E2,1.0594219E3,0E0,3.6121875E2,6.6297656E2,6.636875E2,7.4075E2,0E0,8.4459375E2,0E0,3.8166406E2,1.155E2,3.5528125E2,1.326125E3,0E0,1.31725E3,1.41875E3,0E0,7.50749E2,0E0,1.7916992E1,7.529297E1,1.3345703E2,8.2423145E2,9.9640625E1,1.04921875E2,3.816797E1,7.1359375E1,0E0,2.9396875E2,0E0,2.3520312E2,0E0,3.6315625E2,3.3878125E2,0E0,5.1775E2,0E0,3.3648438E2,9.3509375E2,0E0,1.21359375E2,0E0,0E0,0E0,0E0,0E0,0E0,8.8925E2,0E0,0E0,0E0,0E0,0E0,0E0,0E0,0E0,0E0,0E0,0E0,0E0,0E0,0E0,0E0,0E0,0E0,0E0,0E0,0E0,0E0,0E0,0E0,0E0,0E0,0E0,0E0,0E0,0E0,0E0,0E0,0E0,0E0,0E0,0E0,0E0,0E0,0E0,0E0],"parents":[2147483647,0,0,1,1,2,2,3,3,4,4,5,5,6,6,7,7,8,8,9,9,10,10,11,11,12,12,13,13,14,14,15,15,16,16,17,17,18,18,19,19,20,20,21,21,23,23,24,24,26,26,28,28,31,31,32,32,33,33,34,34,35,35,36,36,38,38,39,39,40,40,41,41,43,43,45,45,46,46,47,47,48,48,50,50,51,51,53,53,55,55,56,56,57,57,58,58,59,59,60,60,61,61,62,62,64,64,66,66,68,68,69,69,71,71,73,73,74,74,76,76,83,83],"right_children":[2,4,6,8,10,12,14,16,18,20,22,24,26,28,30,32,34,36,38,40,42,44,-1,46,48,-1,50,-1,52,-1,-1,54,56,58,60,62,64,-1,66,68,70,72,-1,74,-1,76,78,80,82,-1,84,86,-1,88,-1,90,92,94,96,98,100,102,104,-1,106,-1,108,-1,110,112,-1,114,-1,116,118,-1,120,-1,-1,-1,-1,-1,-1,122,-1,-1,-1,-1,-1,-1,-1,-1,-1,-1,-1,-1,-1,-1,-1,-1,-1,-1,-1,-1,-1,-1,-1,-1,-1,-1,-1,-1,-1,-1,-1,-1,-1,-1,-1,-1,-1,-1,-1],"split_conditions":[7.0505005E1,3.136E1,1.3445E2,1.869E1,5.375E1,1.00649994E2,1.8261E2,1.2370001E1,2.575E1,4.055E1,6.0995003E1,8.745E1,1.558E1,5.42E1,4.1949997E1,9.459999E0,1.507E1,2.0654999E1,1.595E1,1.8650002E1,1.8835E2,1.7635E2,2.0011467E1,1.8325E1,1.56E1,1.4700001E1,2.175E0,2.8240875E1,2.37E2,2.89965E1,6.119946E1,1.5045E2,1.4309999E1,3.5449997E1,1.4465E1,3.6114998E1,1.335E1,1.3299805E1,8.385E0,5.8500004E0,1.70095E2,2.333E2,3.4890003E1,2.115E1,5.1800003E0,1.3475E1,2.0970001E2,2.5743036E1,1.8086499E2,7.395E0,2.035E2,2.275E1,1.2255E1,6.45E0,1.0305E1,6.15E0,8.7E0,7.05E0,1.7925E1,1.52185E2,6.8999996E0,3.4295E1,1.034E2,1.18185005E1,3.645E1,1.2960001E0,7.171E1,3.21E0,1.1765E2,3.642E1,1.5300001E0,4.745E1,2.325E0,1.239E2,1.8335E2,8.9782505E0,1.13399994E2,2.3539104E1,6.7329116E0,2.82E0,1.3630001E1,2.8012878E1,6.7329116E0,7.25E0,8.79E0,1.2255E1,4.527838E1,1.4268401E0,2.6203816E0,1.4325001E0,3.1297107E0,2.378182E0,3.802255E0,2.1257143E0,4.1950355E0,9.278608E0,3.7033334E0,5.6512184E0,1.1235E0,2.7514286E0,4.972442E0,5.6683745E0,2.676E0,6.2709184E0,9.162429E0,6.5935516E0,7.5892534E0,8.735927E0,6.5222864E0,9.49637E0,4.482E0,1.0395238E1,1.1841248E1,1.3338683E1,1.4692689E1,1.4002917E1,3.3300002E0,1.7370407E1,3.4650002E0,1.9592125E1,5.49E0,9.195001E0,3.4207874E1],"split_indices":[167,167,167,167,167,167,167,167,167,167,167,167,153,160,108,167,167,167,166,147,159,113,0,74,139,0,10,0,33,0,0,2,145,164,164,98,166,0,165,60,80,112,0,145,0,43,50,0,12,0,54,111,0,167,0,97,98,146,1,72,108,166,4,0,123,0,146,0,21,167,0,167,0,62,140,0,0,0,0,0,0,0,0,87,0,0,0,0,0,0,0,0,0,0,0,0,0,0,0,0,0,0,0,0,0,0,0,0,0,0,0,0,0,0,0,0,0,0,0,0,0,0,0],"split_type":[0,0,0,0,0,0,0,0,0,0,0,0,0,0,0,0,0,0,0,0,0,0,0,0,0,0,0,0,0,0,0,0,0,0,0,0,0,0,0,0,0,0,0,0,0,0,0,0,0,0,0,0,0,0,0,0,0,0,0,0,0,0,0,0,0,0,0,0,0,0,0,0,0,0,0,0,0,0,0,0,0,0,0,0,0,0,0,0,0,0,0,0,0,0,0,0,0,0,0,0,0,0,0,0,0,0,0,0,0,0,0,0,0,0,0,0,0,0,0,0,0,0,0],"sum_hessian":[5.298E3,4.457E3,8.41E2,2.066E3,2.391E3,6.45E2,1.96E2,1.208E3,8.58E2,2.055E3,3.36E2,4.06E2,2.39E2,1.39E2,5.7E1,4.79E2,7.29E2,5.9E2,2.68E2,3.81E2,1.674E3,1.68E2,1.68E2,2.72E2,1.34E2,3E0,2.36E2,7E0,1.32E2,3E0,5.4E1,2.33E2,2.46E2,3.02E2,4.27E2,2.11E2,3.79E2,5E0,2.63E2,8.7E1,2.94E2,1.673E3,1E0,1.66E2,2E0,2.7E1,2.45E2,3E0,1.31E2,1E0,2.35E2,1.31E2,1E0,2.32E2,1E0,1.16E2,1.3E2,2.89E2,1.3E1,1.19E2,3.08E2,1.57E2,5.4E1,5E0,3.74E2,1E0,2.62E2,3E0,8.4E1,2.93E2,1E0,1.672E3,1E0,3.6E1,1.3E2,3E0,2.4E1,2.44E2,1E0,1E0,2E0,1.3E2,1E0,2.34E2,1E0,1E0,1.3E2,7.4E1,1.58E2,3E0,1.13E2,1E1,1.2E2,6E0,2.83E2,5E0,8E0,1.18E2,1E0,6E0,3.02E2,1.54E2,3E0,4.8E1,6E0,2.73E2,1.01E2,2.42E2,2E1,8E1,4E0,1.58E2,1.35E2,1.538E3,1.34E2,3.5E1,1E0,1.29E2,1E0,2.3E1,1E0,1E0,2.33E2],"tree_param":{"num_deleted":"0","num_feature":"168","num_nodes":"123","size_leaf_vector":"0"}},{"base_weights":[3.1747124E1,2.368575E1,8.1301865E1,1.3140119E1,3.3284454E1,7.119725E1,1.25330986E2,9.861768E0,1.8284575E1,3.0850306E1,4.543877E1,6.1783012E1,8.627793E1,1.1194482E2,1.4163379E2,7.116676E0,1.185511E1,1.640237E1,2.2147114E1,2.6403345E1,3.1903341E1,3.9470474E1,4.8077793E1,5.6416893E1,6.6372444E1,6.774384E1,8.8614975E1,1.1268688E2,2.6660809E1,7.842621E1,1.448635E2,5.488465E0,8.253104E0,1.102466E1,1.318133E1,3.7234333E1,1.6263952E1,2.0526936E1,2.4847363E1,2.254443E1,2.8427853E1,3.179997E1,9.8855E1,4.123962E1,2.7943548E1,7.48925E1,4.728924E1,8.075447E0,5.664184E1,7.230977E1,5.9506027E1,9.063204E1,6.700997E1,6.0604797E1,1.1465653E2,5.261398E0,2.9197498E1,2.303507E1,8.092251E0,9.251179E0,1.1618071E1,1.2994881E1,2.6748884E1,1.5204405E1,1.772038E1,1.2883601E1,2.0859713E1,2.6827753E1,2.1014437E1,2.5229918E1,1.9493292E1,3.1763548E1,2.5490452E1,3.133309E1,3.543334E1,1.8582169E1,4.193239E1,3.1604479E1,1.4133964E1,1.8325298E1,4.766292E1,5.72635E1,3.3186375E1,2.6330706E1,7.297267E1,2.111678E1,6.050657E1,9.0902824E1,2.0946062E1,1.7646063E1,6.859586E1,1.1532322E2,3.266081E1,8.199791E-1,5.720598E0,2.054191E1,7.99105E0,3.3619678E0,9.468546E0,2.3072865E1,1.1487808E1,1.939377E1,1.2696017E1,1.6694613E1,1.42118635E1,1.8659037E1,1.3117067E1,1.3585771E1,3.2820368E0,8.43917E0,2.1111195E1,2.4184917E1,3.2749176E1,2.3366037E1,1.5850913E1,8.345987E0,2.5861347E1,1.0356197E1,2.1047634E1,2.7181572E1,3.5639877E1,9.081315E0,2.578783E1,3.1357841E1,-2.0193415E0,3.2531532E1,4.007573E1,2.8569862E1,4.3205696E1,4.8365307E0,1.7573547E1,2.1304474E0,2.1841398E1,3.4540863E1,4.8378887E1,5.74077E1,1.6230448E1,3.430257E1,7.38238E1,9.346064E0,6.095619E1,2.3546064E1,9.1147575E1],"categories":[],"categories_nodes":[],"categories_segments":[],"categories_sizes":[],"default_left":[1,1,1,1,1,1,1,1,1,1,1,1,1,1,1,1,1,1,1,1,1,1,1,1,1,0,1,1,0,0,0,1,1,1,1,0,1,1,1,1,1,1,0,1,1,0,1,0,1,1,1,1,1,0,1,1,0,0,1,1,1,1,0,1,1,1,1,1,1,1,1,1,1,1,1,0,1,0,1,1,1,1,0,0,1,0,1,1,0,0,0,0,0,0,0,0,0,0,0,0,0,0,0,0,0,0,0,0,0,0,0,0,0,0,0,0,0,0,0,0,0,0,0,0,0,0,0,0,0,0,0,0,0,0,0,0,0,0,0,0,0,0,0],"id":1,"left_children":[1,3,5,7,9,11,13,15,17,19,21,23,25,27,29,31,33,35,37,39,41,43,45,47,49,-1,51,53,-1,-1,-1,55,57,59,61,-1,63,65,67,69,71,73,-1,75,77,-1,79,-1,81,83,85,87,89,-1,91,93,-1,-1,95,97,99,101,-1,103,105,107,109,111,113,115,117,119,121,123,125,-1,127,-1,129,131,133,135,-1,-1,137,-1,139,141,-1,-1,-1,-1,-1,-1,-1,-1,-1,-1,-1,-1,-1,-1,-1,-1,-1,-1,-1,-1,-1,-1,-1,-1,-1,-1,-1,-1,-1,-1,-1,-1,-1,-1,-1,-1,-1,-1,-1,-1,-1,-1,-1,-1,-1,-1,-1,-1,-1,-1,-1,-1,-1,-1,-1],"loss_changes":[2.1149155E6,4.6104475E5,3.20746E5,3.6484906E4,6.9189E4,8.056325E4,1.404275E4,7.1932656E3,5.7799375E3,8.481125E3,4.3395625E3,5.515375E3,3.95925E3,2.058625E3,4.79125E2,9.945957E2,7.01625E2,1.0437969E3,6.886875E2,2.3825E3,7.964375E3,1.4375156E3,2.1674375E3,1.5E3,3.7284375E3,0E0,2.68625E3,1.1553125E3,0E0,0E0,0E0,1.106127E3,5.958672E2,3.966211E2,3.8853516E2,0E0,6.1015625E2,1.8146094E2,1.8011719E2,6.389297E2,1.6399062E3,1.61075E3,0E0,9.160156E2,5.644219E2,0E0,1.99475E3,0E0,7.096875E2,1.1570625E3,2.4480938E3,1.51125E3,4.335547E2,0E0,3.33375E2,4.705127E2,0E0,0E0,2.478418E2,1.2818262E2,2.6464844E2,3.0645312E2,0E0,2.611953E2,7.6635156E2,2.2830322E1,3.4659375E2,1.6257422E2,9.104492E1,5.304297E2,7.6197656E2,1.0382734E3,4.3921875E2,1.243875E3,1.05375E3,0E0,5.351406E2,0E0,1.0688086E2,2.3818176E2,7.81E2,9.19375E1,0E0,0E0,7.260625E2,0E0,1.5925312E3,8.21375E2,0E0,0E0,0E0,0E0,0E0,0E0,0E0,0E0,0E0,0E0,0E0,0E0,0E0,0E0,0E0,0E0,0E0,0E0,0E0,0E0,0E0,0E0,0E0,0E0,0E0,0E0,0E0,0E0,0E0,0E0,0E0,0E0,0E0,0E0,0E0,0E0,0E0,0E0,0E0,0E0,0E0,0E0,0E0,0E0,0E0,0E0,0E0,0E0,0E0,0E0,0E0,0E0,0E0,0E0,0E0],"parents":[2147483647,0,0,1,1,2,2,3,3,4,4,5,5,6,6,7,7,8,8,9,9,10,10,11,11,12,12,13,13,14,14,15,15,16,16,17,17,18,18,19,19,20,20,21,21,22,22,23,23,24,24,26,26,27,27,31,31,32,32,33,33,34,34,36,36,37,37,38,38,39,39,40,40,41,41,43,43,44,44,46,46,48,48,49,49,50,50,51,51,52,52,54,54,55,55,58,58,59,59,60,60,61,61,63,63,64,64,65,65,66,66,67,67,68,68,69,69,70,70,71,71,72,72,73,73,74,74,76,76,78,78,79,79,80,80,81,81,84,84,86,86,87,87],"right_children":[2,4,6,8,10,12,14,16,18,20,22,24,26,28,30,32,34,36,38,40,42,44,46,48,50,-1,52,54,-1,-1,-1,56,58,60,62,-1,64,66,68,70,72,74,-1,76,78,-1,80,-1,82,84,86,88,90,-1,92,94,-1,-1,96,98,100,102,-1,104,106,108,110,112,114,116,118,120,122,124,126,-1,128,-1,130,132,134,136,-1,-1,138,-1,140,142,-1,-1,-1,-1,-1,-1,-1,-1,-1,-1,-1,-1,-1,-1,-1,-1,-1,-1,-1,-1,-1,-1,-1,-1,-1,-1,-1,-1,-1,-1,-1,-1,-1,-1,-1,-1,-1,-1,-1,-1,-1,-1,-1,-1,-1,-1,-1,-1,-1,-1,-1,-1,-1,-1,-1],"split_conditions":[7.645E1,3.365E1,1.5004999E2,1.969E1,5.555E1,1.0775E2,1.8261E2,1.3095E1,2.775E1,4.385E1,6.0995003E1,8.8020004E1,2.324E1,2.37E2,5.4199997E1,9.459999E0,1.6974998E1,9.455E0,3.695E1,2.3845E1,1.8835E2,7.2295E1,2.4060001E1,1.5895E1,9.2325E1,2.0323154E1,1.296E2,2.3619999E1,7.998243E0,2.3527863E1,4.345905E1,1.5045E2,4.15E0,1.471E1,1.8515E2,1.11703005E1,2.3560001E1,7.55E0,5.5005E1,1.9585E1,3.635E1,4.998E1,2.9656502E1,9.55E0,7.76E1,2.246775E1,8.5E0,2.4226341E0,1.4417E2,2.65E0,1.82E1,2.3825E2,1.3115E2,1.818144E1,2.21E2,3.935E0,8.75925E0,6.9105215E0,2.05E0,6.6499996E0,5.7E0,8.549999E0,8.024666E0,2.0015E1,3.5605E1,5.485E1,8.45E0,5.915E1,3.225E1,9.23E0,1.57E1,3.735E1,1.0799999E1,9.895E1,4.9215E1,5.574651E0,1.5549999E1,9.481344E0,8.284E1,2.34E1,1.2950001E1,1.6095E2,9.955913E0,7.899212E0,1.558E1,6.335034E0,1.5200001E1,9.65E0,6.2838187E0,5.293819E0,2.057876E1,3.4596966E1,9.798243E0,2.4599373E-1,1.7161795E0,6.1625733E0,2.397315E0,1.0085903E0,2.8405638E0,6.9218597E0,3.4463427E0,5.8181314E0,3.8088052E0,5.0083838E0,4.2635593E0,5.597711E0,3.9351203E0,4.0757313E0,9.846111E-1,2.5317512E0,6.333359E0,7.2554755E0,9.824753E0,7.0098114E0,4.7552743E0,2.5037963E0,7.7584043E0,3.1068594E0,6.3142905E0,8.154472E0,1.0691963E1,2.7243946E0,7.7363496E0,9.407352E0,-6.058025E-1,9.75946E0,1.2022719E1,8.570959E0,1.2961709E1,1.4509592E0,5.272064E0,6.391342E-1,6.5524197E0,1.0362259E1,1.4513667E1,1.7222311E1,4.8691344E0,1.02907715E1,2.214714E1,2.8038192E0,1.8286858E1,7.0638194E0,2.7344275E1],"split_indices":[167,167,167,167,167,167,167,167,167,167,167,167,111,82,138,167,167,166,146,121,159,166,165,163,166,0,71,37,0,0,0,2,139,49,109,0,167,102,127,115,166,97,0,75,151,0,26,0,19,32,152,147,71,0,45,167,0,0,90,147,116,129,0,166,165,22,86,122,166,85,6,167,146,106,167,0,149,0,88,4,83,6,0,0,73,0,64,63,0,0,0,0,0,0,0,0,0,0,0,0,0,0,0,0,0,0,0,0,0,0,0,0,0,0,0,0,0,0,0,0,0,0,0,0,0,0,0,0,0,0,0,0,0,0,0,0,0,0,0,0,0,0,0],"split_type":[0,0,0,0,0,0,0,0,0,0,0,0,0,0,0,0,0,0,0,0,0,0,0,0,0,0,0,0,0,0,0,0,0,0,0,0,0,0,0,0,0,0,0,0,0,0,0,0,0,0,0,0,0,0,0,0,0,0,0,0,0,0,0,0,0,0,0,0,0,0,0,0,0,0,0,0,0,0,0,0,0,0,0,0,0,0,0,0,0,0,0,0,0,0,0,0,0,0,0,0,0,0,0,0,0,0,0,0,0,0,0,0,0,0,0,0,0,0,0,0,0,0,0,0,0,0,0,0,0,0,0,0,0,0,0,0,0,0,0,0,0,0,0],"sum_hessian":[5.298E3,4.558E3,7.4E2,2.173E3,2.385E3,6.04E2,1.36E2,1.329E3,8.44E2,1.99E3,3.95E2,3.75E2,2.29E2,7.9E1,5.7E1,5.61E2,7.68E2,5.71E2,2.73E2,3.86E2,1.604E3,1.26E2,2.69E2,1.79E2,1.96E2,2.9E1,2E2,7.8E1,1E0,4E0,5.3E1,2.33E2,3.28E2,4.78E2,2.9E2,2E0,5.69E2,1.76E2,9.7E1,1.37E2,2.49E2,1.603E3,1E0,1.07E2,1.9E1,5E0,2.64E2,1E0,1.78E2,1E2,9.6E1,1.8E2,2E1,4E0,7.4E1,2.32E2,1E0,2E0,3.26E2,1.24E2,3.54E2,2.88E2,2E0,3.36E2,2.33E2,9E0,1.67E2,6E1,3.7E1,6.9E1,6.8E1,1.12E2,1.37E2,1.429E3,1.74E2,4E0,1.03E2,1.4E1,5E0,4E0,2.6E2,1.72E2,6E0,2E0,9.8E1,3E0,9.3E1,1.79E2,1E0,1E0,1.9E1,7.3E1,1E0,2.2E1,2.1E2,1E0,3.25E2,5E0,1.19E2,2E0,3.52E2,1E1,2.78E2,1.28E2,2.08E2,1.91E2,4.2E1,8E0,1E0,4E0,1.63E2,4.5E1,1.5E1,2.3E1,1.4E1,3E0,6.6E1,1.1E1,5.7E1,5.5E1,5.7E1,3E0,1.34E2,1.428E3,1E0,1.12E2,6.2E1,1.1E1,9.2E1,2E0,3E0,1E0,3E0,1.6E1,2.44E2,1.71E2,1E0,3E0,9.5E1,1E0,9.2E1,1E0,1.78E2],"tree_param":{"num_deleted":"0","num_feature":"168","num_nodes":"143","size_leaf_vector":"0"}},{"base_weights":[2.23484E1,1.6533928E1,5.6683025E1,8.576886E0,2.2685137E1,4.6591404E1,7.9611496E1,6.452728E0,1.1325124E1,2.1155766E1,3.166366E1,4.1775497E1,5.420067E1,7.023243E1,9.7701126E1,4.40723E0,7.5296097E0,2.487242E1,1.1152825E1,1.7538681E1,2.2319433E1,7.359539E1,3.1350578E1,4.3704216E1,3.349468E1,5.4475803E1,-8.260727E-1,3.2873383E1,7.124507E1,1.0938882E2,8.3508286E1,4.2903605E0,2.4817873E1,6.313113E0,7.9949145E0,1.2559282E1,3.46737E1,9.780218E0,1.2521781E1,1.8001104E1,1.1343054E1,2.223111E1,8.402675E1,2.3389542E1,3.222055E1,4.2350224E1,5.9077145E1,3.1965675E0,3.437775E1,5.467566E1,7.0526333E0,1.4657425E1,7.152275E1,5.1978195E1,1.12729195E2,1.722016E0,4.737904E0,1.3926053E1,6.1709085E0,9.609874E0,7.5585256E0,3.8879326E1,8.9256E0,9.604533E0,2.608954E1,2.2690516E1,1.2321054E1,1.6768478E1,2.0180359E1,6.813554E0,1.4394703E1,2.6760448E1,2.190597E1,3.3216793E1,1.8516556E1,3.2727962E1,1.9383041E1,3.5497189E0,4.249294E1,7.9541885E1,4.6086746E1,4.2947197E0,5.001316E-1,4.219396E1,2.9092827E1,3.4289516E1,5.5448643E1,7.177282E1,1.7006683E1,1.1430599E2,2.8770744E1,1.4165856E0,9.718491E0,4.4387116E0,9.660692E0,2.9571738E0,6.3378873E0,7.065004E0,1.1122291E1,6.344276E0,8.140736E0,1.496782E1,9.386485E0,3.3465694E1,1.1687305E1,1.0423606E1,1.3232284E1,1.7809565E1,1.4110384E1,1.4650394E1,2.1269098E1,1.1893555E0,8.885218E0,1.5627458E1,4.632255E0,1.7396988E1,2.8231764E1,1.8955246E1,2.2165936E1,3.465231E1,8.713062E0,1.9606789E1,6.800906E0,2.8338224E1,3.414514E1,2.2662197E1,-1.32625675E1,3.9020267E1,4.5367012E1,4.3252888E1,8.919292E0,2.0976118E1,3.282522E1,3.6343323E1,7.9026356E0,5.637426E1,3.6789387E1,2.035867E1,7.198124E1],"categories":[],"categories_nodes":[],"categories_segments":[],"categories_sizes":[],"default_left":[1,1,1,1,1,1,1,1,1,1,1,1,1,1,1,1,1,1,1,1,1,0,1,1,1,1,0,0,1,1,0,1,0,1,1,0,1,1,1,1,1,1,0,1,1,1,1,1,1,1,0,0,1,0,1,1,1,0,1,1,1,0,0,1,0,1,1,1,1,1,1,1,1,1,1,1,1,0,1,0,0,0,0,1,1,1,1,1,0,0,0,0,0,0,0,0,0,0,0,0,0,0,0,0,0,0,0,0,0,0,0,0,0,0,0,0,0,0,0,0,0,0,0,0,0,0,0,0,0,0,0,0,0,0,0,0,0,0,0],"id":2,"left_children":[1,3,5,7,9,11,13,15,17,19,21,23,25,27,29,31,33,35,37,39,41,-1,43,45,47,49,-1,-1,51,53,-1,55,-1,57,59,-1,61,63,65,67,69,71,-1,73,75,77,79,81,83,85,-1,-1,87,-1,89,91,93,-1,95,97,99,-1,-1,101,-1,103,105,107,109,111,113,115,117,119,121,123,125,-1,127,-1,-1,-1,-1,129,131,133,135,137,-1,-1,-1,-1,-1,-1,-1,-1,-1,-1,-1,-1,-1,-1,-1,-1,-1,-1,-1,-1,-1,-1,-1,-1,-1,-1,-1,-1,-1,-1,-1,-1,-1,-1,-1,-1,-1,-1,-1,-1,-1,-1,-1,-1,-1,-1,-1,-1,-1,-1,-1],"loss_changes":[1.0569432E6,2.2167512E5,1.7376325E5,1.1473875E4,3.4427875E4,1.7341125E4,3.2669875E4,2.4295E3,1.7323281E3,8.8138125E3,2.550125E3,3.838625E3,3.1335625E3,3.5975E3,3.6380625E3,8.190508E2,3.633047E2,7.7136816E2,1.4784766E3,1.3343125E3,7.1303125E3,0E0,1.802E3,3.0348125E3,1.6827266E3,1.538375E3,0E0,0E0,1.3400625E3,1.6197188E3,0E0,4.3667725E2,0E0,1.3816016E2,2.9735547E2,0E0,1.944126E2,9.815E2,5.838281E2,9.9934375E2,4.5481836E2,1.843625E3,0E0,1.3004609E3,1.5152188E3,1.2224375E3,1.3852266E3,6.735363E0,1.4574766E3,1.2818125E3,0E0,0E0,8.37875E2,0E0,1.4771562E3,1.3033255E2,4.4169043E2,0E0,9.126611E1,3.3710352E2,2.4385742E2,0E0,0E0,3.5886328E2,0E0,4.3880713E2,5.830703E2,6.453125E2,7.420156E2,1.9915845E2,2.0440771E2,9.691797E2,7.65E2,1.2017871E2,2.3706738E2,9.9825E2,1.9063096E3,0E0,6.95E2,0E0,0E0,0E0,0E0,4.598672E2,5.8383594E2,2.5472656E2,1.2594375E3,1.419375E2,0E0,0E0,0E0,0E0,0E0,0E0,0E0,0E0,0E0,0E0,0E0,0E0,0E0,0E0,0E0,0E0,0E0,0E0,0E0,0E0,0E0,0E0,0E0,0E0,0E0,0E0,0E0,0E0,0E0,0E0,0E0,0E0,0E0,0E0,0E0,0E0,0E0,0E0,0E0,0E0,0E0,0E0,0E0,0E0,0E0,0E0,0E0,0E0,0E0,0E0,0E0],"parents":[2147483647,0,0,1,1,2,2,3,3,4,4,5,5,6,6,7,7,8,8,9,9,10,10,11,11,12,12,13,13,14,14,15,15,16,16,17,17,18,18,19,19,20,20,22,22,23,23,24,24,25,25,28,28,29,29,31,31,33,33,34,34,36,36,37,37,38,38,39,39,40,40,41,41,43,43,44,44,45,45,46,46,47,47,48,48,49,49,52,52,54,54,55,55,56,56,58,58,59,59,60,60,63,63,65,65,66,66,67,67,68,68,69,69,70,70,71,71,72,72,73,73,74,74,75,75,76,76,78,78,83,83,84,84,85,85,86,86,87,87],"right_children":[2,4,6,8,10,12,14,16,18,20,22,24,26,28,30,32,34,36,38,40,42,-1,44,46,48,50,-1,-1,52,54,-1,56,-1,58,60,-1,62,64,66,68,70,72,-1,74,76,78,80,82,84,86,-1,-1,88,-1,90,92,94,-1,96,98,100,-1,-1,102,-1,104,106,108,110,112,114,116,118,120,122,124,126,-1,128,-1,-1,-1,-1,130,132,134,136,138,-1,-1,-1,-1,-1,-1,-1,-1,-1,-1,-1,-1,-1,-1,-1,-1,-1,-1,-1,-1,-1,-1,-1,-1,-1,-1,-1,-1,-1,-1,-1,-1,-1,-1,-1,-1,-1,-1,-1,-1,-1,-1,-1,-1,-1,-1,-1,-1,-1,-1,-1],"split_conditions":[7.495E1,2.924E1,1.281E2,1.7665E1,5.555E1,1.00649994E2,1.7375E2,1.132E1,1.11E1,4.2690002E1,1.7845001E1,9.618E1,2.4615E2,1.895E1,4.685E1,1.5045E2,1.399E1,2.78E1,2.2085E1,4.9E1,1.8835E2,2.2078617E1,1.885E1,1.3815E2,1.4035E1,2.1415E2,-2.4782182E-1,9.862015E0,1.542E1,2.243E1,2.5052486E1,5.6499996E0,7.445362E0,3.9E0,1.3514999E1,3.7677848E0,3.6195E1,1.7895001E2,4.6000004E0,3.735E1,4.3543037E1,4.1675E1,2.5208025E1,1.1450001E1,9.53E1,9.45E0,5.565E1,5.1395E1,4.5343037E1,1.514E1,2.1157901E0,4.397228E0,2.5735E2,1.5593459E1,1.936E2,1.67765E2,6.91E1,4.177816E0,6.6499996E0,1.7865E1,1.4095E1,1.1663798E1,2.67768E0,8.86E0,7.8268623E0,4.5893036E1,1.9095001E1,3.5295E1,1.848E1,2.205E1,1.24095E2,1.5665001E1,3.0275002E1,6.085E1,4.7565E1,6.005E1,9.355E1,1.0649157E0,8.4149994E1,2.3862566E1,1.3826024E1,1.2884159E0,1.500395E-1,1.3885E2,5.03E1,7.325E1,1.465E2,2.2380001E1,5.102005E0,3.4291798E1,8.631224E0,4.249757E-1,2.9155474E0,1.3316135E0,2.8982077E0,8.871522E-1,1.9013662E0,2.1195014E0,3.3366873E0,1.9032829E0,2.4422207E0,4.4903464E0,2.8159456E0,1.0039709E1,3.5061917E0,3.1270819E0,3.9696853E0,5.3428698E0,4.233115E0,4.3951187E0,6.3807297E0,3.5680667E-1,2.6655655E0,4.6882377E0,1.3896766E0,5.2190967E0,8.469529E0,5.686574E0,6.6497808E0,1.0395693E1,2.6139188E0,5.8820367E0,2.040272E0,8.501468E0,1.0243543E1,6.7986593E0,-3.9787705E0,1.170608E1,1.3610105E1,1.2975867E1,2.675788E0,6.2928357E0,9.847566E0,1.0902997E1,2.3707907E0,1.691228E1,1.1036817E1,6.107601E0,2.1594372E1],"split_indices":[167,167,167,167,167,167,167,167,166,167,166,166,157,126,84,2,145,75,167,166,159,0,146,48,43,108,0,0,154,70,0,167,0,139,91,0,25,58,117,167,34,166,0,141,166,64,89,0,118,44,0,0,15,0,144,14,145,0,147,123,167,0,0,18,0,1,74,166,144,71,0,103,145,5,2,167,13,0,167,0,0,0,0,32,147,36,63,140,0,0,0,0,0,0,0,0,0,0,0,0,0,0,0,0,0,0,0,0,0,0,0,0,0,0,0,0,0,0,0,0,0,0,0,0,0,0,0,0,0,0,0,0,0,0,0,0,0,0,0],"split_type":[0,0,0,0,0,0,0,0,0,0,0,0,0,0,0,0,0,0,0,0,0,0,0,0,0,0,0,0,0,0,0,0,0,0,0,0,0,0,0,0,0,0,0,0,0,0,0,0,0,0,0,0,0,0,0,0,0,0,0,0,0,0,0,0,0,0,0,0,0,0,0,0,0,0,0,0,0,0,0,0,0,0,0,0,0,0,0,0,0,0,0,0,0,0,0,0,0,0,0,0,0,0,0,0,0,0,0,0,0,0,0,0,0,0,0,0,0,0,0,0,0,0,0,0,0,0,0,0,0,0,0,0,0,0,0,0,0,0,0],"sum_hessian":[5.298E3,4.532E3,7.66E2,1.977E3,2.555E3,5.34E2,2.32E2,1.117E3,8.6E2,2.186E3,3.69E2,3.31E2,2.03E2,1.56E2,7.6E1,3.87E2,7.3E2,9E0,8.51E2,5.36E2,1.65E3,1E0,3.68E2,2.65E2,6.6E1,2.02E2,1E0,5E0,1.51E2,3.8E1,3.8E1,3.86E2,1E0,2.06E2,5.24E2,5E0,4E0,4.29E2,4.22E2,4.97E2,3.9E1,1.649E3,1E0,3.9E1,3.29E2,2.47E2,1.8E1,2E0,6.4E1,2.01E2,1E0,1E0,1.5E2,3E0,3.5E1,5.8E1,3.28E2,2E0,2.04E2,1.07E2,4.17E2,3E0,1E0,4.26E2,3E0,6E0,4.16E2,3.23E2,1.74E2,1.7E1,2.2E1,1.05E2,1.544E3,1.1E1,2.8E1,3.15E2,1.4E1,1E0,2.46E2,5E0,1.3E1,1E0,1E0,2.3E1,4.1E1,9E0,1.92E2,1.49E2,1E0,3.4E1,1E0,5.7E1,1E0,3.11E2,1.7E1,1.1E1,1.93E2,4.2E1,6.5E1,1.39E2,2.78E2,1.4E1,4.12E2,2E0,4E0,1.39E2,2.77E2,2.28E2,9.5E1,3.1E1,1.43E2,5E0,1.2E1,1.9E1,3E0,1.6E1,8.9E1,1.31E2,1.413E3,1E1,1E0,2.5E1,3E0,8.2E1,2.33E2,1.3E1,1E0,1.18E2,1.28E2,2.2E1,1E0,1.5E1,2.6E1,8E0,1E0,1.81E2,1.1E1,1E0,1.48E2],"tree_param":{"num_deleted":"0","num_feature":"168","num_nodes":"139","size_leaf_vector":"0"}},{"base_weights":[1.57386055E1,1.173849E1,4.0758865E1,6.4997215E0,1.6484983E1,3.544516E1,6.350033E1,5.0341125E0,9.32723E0,1.51259165E1,2.234765E1,3.1192734E1,4.3729164E1,6.021368E1,9.0218124E1,3.5259109E0,5.9992614E0,2.2817163E1,9.167494E0,1.5060351E1,7.142274E1,6.2556084E1,2.2118265E1,2.8457561E1,3.5049255E1,4.4064598E1,7.1259017E0,6.0803314E1,1.5967479E1,3.4569902E0,2.1095192E1,5.792057E0,8.6625E0,1.1547137E1,3.1200405E1,8.227524E0,1.0743061E1,1.2736945E1,1.5533264E1,2.044003E1,2.5011343E1,3.1607443E1,2.332947E1,3.3918644E1,5.841517E1,1.844062E1,4.4635845E1,1.0253176E1,4.3567657E-1,4.8784378E1,6.4668205E1,1.7390225E0,3.9304597E0,4.8313575E0,6.21994E0,1.1433486E1,4.9883566E0,1.2754913E1,3.358016E0,7.0070753E0,9.235288E0,8.63796E0,1.1691462E1,1.3017238E1,-3.4714222E-1,1.5302815E1,2.0397701E1,2.1794281E1,1.4545632E1,2.5299238E1,1.5116705E0,2.8718102E1,3.772617E1,1.3760458E1,2.678585E1,-5.228506E0,3.4206795E1,6.35917E1,1.6266253E1,4.7678375E1,3.9022976E1,5.006901E1,1.882018E1,5.1078934E1,6.9681404E1,5.2028184E0,1.3523746E0,1.8825653E1,3.8534715E0,5.594782E0,4.223083E0,8.177327E0,5.885525E0,7.5533085E0,1.4099241E1,5.5584073E0,-1.6148683E0,7.8838973E0,4.8758388E0,1.8131262E1,8.9057665E0,1.0167152E1,5.3426175E0,1.2976287E1,9.362024E0,1.3479728E1,6.2981324E0,3.8838995E0,-8.693511E0,1.5493708E1,1.1613424E1,2.1192698E1,1.9820943E0,1.9717045E1,2.499294E1,9.8180685E0,2.0204191E1,1.1492109E1,2.5863197E1,2.4851168E1,3.409057E1,5.388733E1,3.249255E1,1.9324099E1,6.2823763E0,3.0298454E1,1.8064114E1,3.4593033E1,3.2353008E0,3.6033775E1,5.051588E1,1.2888555E1,4.0351227E1,5.091869E1,1.1864502E1,5.4519104E1,2.9378464E1,7.038773E1,1.2944504E1],"categories":[],"categories_nodes":[],"categories_segments":[],"categories_sizes":[],"default_left":[1,1,1,1,1,1,1,1,1,1,1,1,1,1,0,1,1,1,1,1,0,0,1,1,1,1,1,1,0,1,0,1,1,1,0,1,1,1,1,1,1,1,1,1,1,0,1,0,0,1,1,1,1,1,1,1,1,0,0,1,1,1,1,1,1,1,1,1,1,1,0,1,1,1,1,0,1,0,0,1,1,1,0,1,1,0,0,0,0,0,0,0,0,0,0,0,0,0,0,0,0,0,0,0,0,0,0,0,0,0,0,0,0,0,0,0,0,0,0,0,0,0,0,0,0,0,0,0,0,0,0,0,0,0,0,0,0,0,0],"id":3,"left_children":[1,3,5,7,9,11,13,15,17,19,21,23,25,27,-1,29,31,33,35,37,-1,-1,39,41,43,45,47,49,-1,51,-1,53,55,57,-1,59,61,63,65,67,69,71,73,75,77,-1,79,-1,-1,81,83,85,87,89,91,93,95,-1,-1,97,99,101,103,105,107,109,111,113,115,117,-1,119,121,123,125,-1,127,-1,-1,129,131,133,-1,135,137,-1,-1,-1,-1,-1,-1,-1,-1,-1,-1,-1,-1,-1,-1,-1,-1,-1,-1,-1,-1,-1,-1,-1,-1,-1,-1,-1,-1,-1,-1,-1,-1,-1,-1,-1,-1,-1,-1,-1,-1,-1,-1,-1,-1,-1,-1,-1,-1,-1,-1,-1,-1,-1,-1],"loss_changes":[5.2986625E5,1.135295E5,8.59635E4,8.962156E3,1.8760688E4,1.9560875E4,6.597875E3,2.0662344E3,1.3875586E3,6.11825E3,2.7575938E3,3.1796562E3,2.1293125E3,2.29025E3,0E0,6.075918E2,4.3157617E2,3.9555957E2,9.9865625E2,1.9425312E3,0E0,0E0,1.6639375E3,3.0908594E3,2.2454688E3,2.0605E3,5.8299423E1,2.5587812E3,0E0,4.4948535E2,0E0,3.0414648E2,5.6400635E2,6.6219482E0,0E0,5.0597266E2,4.4005664E2,1.2330859E3,1.4971562E3,1.9899219E3,1.0442266E3,1.462375E3,2.7403828E3,1.9273125E3,2.747129E2,0E0,1.4183125E3,0E0,0E0,3.664453E2,2.5720625E3,1.57694E2,4.3088135E2,9.47876E1,3.1778125E2,2.4518652E2,1.14372986E2,0E0,0E0,3.6146387E2,5.7431055E2,3.8913135E2,4.292129E2,9.343711E2,3.1627542E2,9.0815625E2,9.828164E2,1.0553516E3,1.3264521E3,9.330703E2,0E0,1.2718516E3,1.8860625E3,1.00194385E3,1.5359336E3,0E0,1.7302812E3,0E0,0E0,2.1447188E3,2.0139766E3,4.3464062E2,0E0,4.8860156E2,1.6135938E3,0E0,0E0,0E0,0E0,0E0,0E0,0E0,0E0,0E0,0E0,0E0,0E0,0E0,0E0,0E0,0E0,0E0,0E0,0E0,0E0,0E0,0E0,0E0,0E0,0E0,0E0,0E0,0E0,0E0,0E0,0E0,0E0,0E0,0E0,0E0,0E0,0E0,0E0,0E0,0E0,0E0,0E0,0E0,0E0,0E0,0E0,0E0,0E0,0E0,0E0,0E0,0E0,0E0,0E0],"parents":[2147483647,0,0,1,1,2,2,3,3,4,4,5,5,6,6,7,7,8,8,9,9,10,10,11,11,12,12,13,13,15,15,16,16,17,17,18,18,19,19,22,22,23,23,24,24,25,25,26,26,27,27,29,29,31,31,32,32,33,33,35,35,36,36,37,37,38,38,39,39,40,40,41,41,42,42,43,43,44,44,46,46,49,49,50,50,51,51,52,52,53,53,54,54,55,55,56,56,59,59,60,60,61,61,62,62,63,63,64,64,65,65,66,66,67,67,68,68,69,69,71,71,72,72,73,73,74,74,76,76,79,79,80,80,81,81,83,83,84,84],"right_children":[2,4,6,8,10,12,14,16,18,20,22,24,26,28,-1,30,32,34,36,38,-1,-1,40,42,44,46,48,50,-1,52,-1,54,56,58,-1,60,62,64,66,68,70,72,74,76,78,-1,80,-1,-1,82,84,86,88,90,92,94,96,-1,-1,98,100,102,104,106,108,110,112,114,116,118,-1,120,122,124,126,-1,128,-1,-1,130,132,134,-1,136,138,-1,-1,-1,-1,-1,-1,-1,-1,-1,-1,-1,-1,-1,-1,-1,-1,-1,-1,-1,-1,-1,-1,-1,-1,-1,-1,-1,-1,-1,-1,-1,-1,-1,-1,-1,-1,-1,-1,-1,-1,-1,-1,-1,-1,-1,-1,-1,-1,-1,-1,-1,-1,-1,-1],"split_conditions":[7.735E1,3.365E1,1.5004999E2,2.074E1,5.375E1,1.12149994E2,2.3535E2,1.3095E1,1.335E1,1.8835E2,1.7845001E1,7.85E1,2.035E2,2.2865E2,2.706544E1,1.5143E2,5.205E1,1.7650002E1,2.775E1,3.0349998E1,2.1426823E1,1.8766827E1,6.755E1,5.71E1,1.44205E2,2.9744999E1,7.394304E1,8.3899994E1,4.7902436E0,7.55E0,6.328558E0,1.559E1,7.115E1,2.2885E1,9.360122E0,2.3720001E1,2.075E1,9.465E1,4.825E1,7.041E1,1.955E2,9.785E1,4.605E1,1.7599998E1,1.364E2,5.5321865E0,7.095E1,3.0759528E0,1.3070297E-1,1.171E2,3.82E1,1.005E1,7.6499996E0,1.7665E1,1.321E1,5.8E1,1.0665E2,3.8264742E0,1.0074048E0,2.609E1,7.9E0,2.765E1,4.7050003E1,5.975E1,4.7993034E1,4.835E1,9.215E1,5.9215E1,4.9475E1,1.3465E1,4.5350116E-1,5.0865E1,8.335E1,4.525E1,8.725E1,-1.5685519E0,1.4679999E2,1.907751E1,4.879876E0,2.175E1,4.135E1,2.2875E2,5.6460543E0,1.1335E2,1.781E2,1.5608456E0,4.057124E-1,5.647696E0,1.1560415E0,1.6784346E0,1.266925E0,2.4531982E0,1.7656577E0,2.2659926E0,4.2297726E0,1.6675223E0,-4.844605E-1,2.3651693E0,1.4627516E0,5.4393787E0,2.67173E0,3.0501459E0,1.6027853E0,3.8928862E0,2.8086073E0,4.0439186E0,1.8894398E0,1.1651698E0,-2.6080534E0,4.6481123E0,3.4840274E0,6.3578095E0,5.9462833E-1,5.9151134E0,7.4978824E0,2.9454207E0,6.061258E0,3.447633E0,7.7589593E0,7.4553504E0,1.0227171E1,1.6166199E1,9.747766E0,5.79723E0,1.8847129E0,9.089537E0,5.4192343E0,1.0377911E1,9.705903E-1,1.0810133E1,1.5154765E1,3.8665664E0,1.2105369E1,1.5275607E1,3.5593507E0,1.6355732E1,8.8135395E0,2.1116322E1,3.8833513E0],"split_indices":[167,167,167,167,167,167,167,167,166,159,166,148,54,116,0,2,147,8,167,122,0,0,167,117,9,162,0,143,0,167,0,120,122,0,0,25,111,153,167,166,113,167,83,125,5,0,112,0,0,0,80,67,167,81,166,146,18,0,0,166,128,43,69,166,6,165,165,144,21,89,0,143,166,127,161,0,7,0,0,51,121,82,0,131,67,0,0,0,0,0,0,0,0,0,0,0,0,0,0,0,0,0,0,0,0,0,0,0,0,0,0,0,0,0,0,0,0,0,0,0,0,0,0,0,0,0,0,0,0,0,0,0,0,0,0,0,0,0,0],"split_type":[0,0,0,0,0,0,0,0,0,0,0,0,0,0,0,0,0,0,0,0,0,0,0,0,0,0,0,0,0,0,0,0,0,0,0,0,0,0,0,0,0,0,0,0,0,0,0,0,0,0,0,0,0,0,0,0,0,0,0,0,0,0,0,0,0,0,0,0,0,0,0,0,0,0,0,0,0,0,0,0,0,0,0,0,0,0,0,0,0,0,0,0,0,0,0,0,0,0,0,0,0,0,0,0,0,0,0,0,0,0,0,0,0,0,0,0,0,0,0,0,0,0,0,0,0,0,0,0,0,0,0,0,0,0,0,0,0,0,0],"sum_hessian":[5.298E3,4.569E3,7.29E2,2.173E3,2.396E3,5.93E2,1.36E2,1.433E3,7.4E2,1.948E3,4.48E2,3.95E2,1.98E2,1.24E2,1.2E1,5.61E2,8.72E2,7E0,7.33E2,1.947E3,1E0,1E0,4.47E2,2.36E2,1.59E2,1.96E2,2E0,1.22E2,2E0,5.6E2,1E0,8.12E2,6E1,4E0,3E0,4.63E2,2.7E2,3.34E2,1.613E3,2.88E2,1.59E2,1.43E2,9.3E1,1.54E2,5E0,5E0,1.91E2,1E0,1E0,3.3E1,8.9E1,1.22E2,4.38E2,2.54E2,5.58E2,3.3E1,2.7E1,3E0,1E0,2.13E2,2.5E2,8.7E1,1.83E2,3.27E2,7E0,1.544E3,6.9E1,2.32E2,5.6E1,1.57E2,2E0,1.01E2,4.2E1,2.6E1,6.7E1,1E0,1.53E2,4E0,1E0,1.19E2,7.2E1,3.1E1,2E0,2.7E1,6.2E1,1.1E1,1.11E2,1E0,4.37E2,1.09E2,1.45E2,7.8E1,4.8E2,1.5E1,1.8E1,2.5E1,2E0,1.49E2,6.4E1,7E0,2.43E2,5.8E1,2.9E1,1.15E2,6.8E1,3.05E2,2.2E1,5E0,2E0,1.465E3,7.9E1,6.6E1,3E0,1.45E2,8.7E1,3.2E1,2.4E1,7E0,1.5E2,6.2E1,3.9E1,8E0,3.4E1,1.4E1,1.2E1,4.6E1,2.1E1,1.51E2,2E0,2.6E1,9.3E1,4E0,6.8E1,3E1,1E0,2.2E1,5E0,6.1E1,1E0],"tree_param":{"num_deleted":"0","num_feature":"168","num_nodes":"139","size_leaf_vector":"0"}},{"base_weights":[1.1095903E1,8.43417E0,3.0153883E1,4.731996E0,1.1986137E1,2.6069555E1,4.522765E1,3.2523308E0,6.3891134E0,1.0953022E1,1.730883E1,2.295725E1,3.0865067E1,4.27851E1,6.523464E1,2.148971E0,3.7710745E0,5.457536E0,7.5262604E0,1.0897484E1,6.0709328E1,5.317267E1,1.7076359E1,2.2421104E1,4.683187E1,2.3061464E1,3.244708E1,2.1760744E1,4.366229E1,2.0618577E0,1.7930912E1,1.7406828E1,3.7331252E0,2.5243639E1,5.3816004E0,1.834498E1,7.350982E0,1.0491602E1,1.2943317E1,1.6768862E1,3.696937E1,2.5526144E1,1.9912004E1,5.313364E1,7.6615143E0,2.6210386E1,1.1938337E1,5.2036156E1,3.1234518E1,2.3421442E1,5.8982773E0,2.9123352E1,4.532345E1,1.2053029E1,1.9786489E0,1.1031308E1,3.6837099E0,5.2670374E0,1.7800817E1,8.067577E0,5.819511E0,1.0669955E1,7.6539836E0,1.5130459E1,1.0258302E1,1.9901932E1,1.5185779E1,2.3990158E1,3.477652E1,6.705623E0,2.0924135E1,6.422617E0,2.8328014E1,1.5890238E1,-2.5795085E0,2.274276E1,5.8010162E1,3.465442E1,2.617443E1,1.3560083E1,3.1884163E1,4.5831455E1,1.2773982E1,1.9106189E0,1.0004267E1,1.7098179E0,1.2934226E1,1.5214258E1,3.6508136E0,4.3346887E0,5.951361E0,5.2397223E0,8.76512E0,1.7486079E0,6.664556E0,7.7974215E0,1.0829771E1,6.5438156E0,1.1624449E1,1.3528639E1,1.9153505E1,3.8443785E0,1.145902E1,2.289483E1,1.5317631E1,6.398531E0,1.5943794E1,2.4506363E1,7.319415E0,3.5645943E0,3.870047E1,-2.461666E0,1.0618706E1,2.5056076E1,1.7026625E1,2.882198E1,8.23642E0,6.3582E0,1.8007883E1,4.9032974E-1,-4.3595924E0,4.091182E1,3.0673214E1,1.6218138E0,2.7299995E1,4.729581E1,2.9284506E1],"categories":[],"categories_nodes":[],"categories_segments":[],"categories_sizes":[],"default_left":[1,1,1,1,1,1,1,1,1,1,1,1,1,1,0,1,1,1,1,1,0,0,1,1,1,1,1,1,1,1,0,0,1,0,1,0,1,1,1,1,0,1,1,0,0,1,1,1,1,0,0,1,1,0,1,1,1,1,0,1,1,1,1,1,1,1,1,1,1,1,1,0,1,1,1,0,0,1,1,0,0,1,0,0,0,0,0,0,0,0,0,0,0,0,0,0,0,0,0,0,0,0,0,0,0,0,0,0,0,0,0,0,0,0,0,0,0,0,0,0,0,0,0,0,0,0,0],"id":4,"left_children":[1,3,5,7,9,11,13,15,17,19,21,23,25,27,-1,29,31,33,35,37,-1,-1,39,41,43,45,47,49,51,53,-1,-1,55,-1,57,-1,59,61,63,65,-1,67,69,-1,-1,71,73,75,77,-1,-1,79,81,-1,83,85,87,89,-1,91,93,95,97,99,101,103,105,107,109,111,113,-1,115,117,119,-1,-1,121,123,-1,-1,125,-1,-1,-1,-1,-1,-1,-1,-1,-1,-1,-1,-1,-1,-1,-1,-1,-1,-1,-1,-1,-1,-1,-1,-1,-1,-1,-1,-1,-1,-1,-1,-1,-1,-1,-1,-1,-1,-1,-1,-1,-1,-1,-1,-1,-1],"loss_changes":[2.685495E5,6.1103938E4,3.8777375E4,5.5672812E3,1.28594375E4,6.948E3,3.9038438E3,6.821631E2,1.0966562E3,4.837547E3,2.2935312E3,2.9820625E3,1.7084531E3,1.3551562E3,0E0,4.9645813E2,3.5882422E2,7.5661523E2,7.7725977E2,1.5158125E3,0E0,0E0,1.7228906E3,1.906875E3,1.0739707E3,9.830469E2,2.2464062E3,4.6253174E1,1.5540625E3,2.978849E2,0E0,0E0,2.5436816E2,0E0,7.499531E2,0E0,4.743379E2,7.609844E2,1.7533516E3,1.5775859E3,0E0,1.0838438E3,2.212211E3,0E0,0E0,9.9134766E2,6.1471985E2,8.067969E1,1.7925156E3,0E0,0E0,2.1215625E2,1.1507812E3,0E0,1.9108923E2,6.657495E1,2.5321777E2,3.5000195E2,0E0,5.872617E2,5.215615E2,6.335625E2,3.7353564E2,8.815E2,1.1034424E3,1.3506328E3,1.6031641E3,8.446797E2,1.9441074E3,5.2835266E2,2.198375E3,0E0,1.0724609E1,4.6986084E1,1.8531347E1,0E0,0E0,9.871875E2,1.8073008E3,0E0,0E0,1.1107188E3,0E0,0E0,0E0,0E0,0E0,0E0,0E0,0E0,0E0,0E0,0E0,0E0,0E0,0E0,0E0,0E0,0E0,0E0,0E0,0E0,0E0,0E0,0E0,0E0,0E0,0E0,0E0,0E0,0E0,0E0,0E0,0E0,0E0,0E0,0E0,0E0,0E0,0E0,0E0,0E0,0E0,0E0,0E0,0E0,0E0],"parents":[2147483647,0,0,1,1,2,2,3,3,4,4,5,5,6,6,7,7,8,8,9,9,10,10,11,11,12,12,13,13,15,15,16,16,17,17,18,18,19,19,22,22,23,23,24,24,25,25,26,26,27,27,28,28,29,29,32,32,34,34,36,36,37,37,38,38,39,39,41,41,42,42,45,45,46,46,47,47,48,48,51,51,52,52,54,54,55,55,56,56,57,57,59,59,60,60,61,61,62,62,63,63,64,64,65,65,66,66,67,67,68,68,69,69,70,70,72,72,73,73,74,74,77,77,78,78,81,81],"right_children":[2,4,6,8,10,12,14,16,18,20,22,24,26,28,-1,30,32,34,36,38,-1,-1,40,42,44,46,48,50,52,54,-1,-1,56,-1,58,-1,60,62,64,66,-1,68,70,-1,-1,72,74,76,78,-1,-1,80,82,-1,84,86,88,90,-1,92,94,96,98,100,102,104,106,108,110,112,114,-1,116,118,120,-1,-1,122,124,-1,-1,126,-1,-1,-1,-1,-1,-1,-1,-1,-1,-1,-1,-1,-1,-1,-1,-1,-1,-1,-1,-1,-1,-1,-1,-1,-1,-1,-1,-1,-1,-1,-1,-1,-1,-1,-1,-1,-1,-1,-1,-1,-1,-1,-1,-1,-1],"split_conditions":[8.2535E1,3.642E1,1.5004999E2,1.8675E1,6.005E1,1.12149994E2,2.3535E2,1.132E1,2.575E1,1.8835E2,1.7845001E1,1.9665E2,2.4695E1,2.105E1,1.9570393E1,1.5045E2,3.05E0,5.87E0,1.595E1,4.585E1,1.82128E1,1.5951801E1,2.08E2,8.795E1,1.627E2,3.535E1,2.86E1,1.0475E2,4.3199997E1,3.35E0,5.379274E0,5.2220488E0,4.1E0,7.573092E0,1.5729E2,5.5034943E0,3.535E1,4.5493034E1,5.395E1,3.565E1,1.1090812E1,1.019E2,3.75E1,1.5940093E1,2.2984543E0,1.3065001E1,6.1899998E1,1.9765E1,1.2675E2,7.026433E0,1.7694832E0,1.5545E2,2.2865E2,3.6159089E0,1.7695E2,3.9499998E0,2.85E0,2.0814999E1,5.3402452E0,1.4525E1,2.345E1,1.7795E1,8.225E1,7.95E1,1.6810001E1,3.5050003E1,1.645E1,1.4370001E2,1.3165E1,1.4E1,8.519E1,1.9267851E0,9.245E1,2.866E1,4.12E1,6.8228283E0,1.740305E1,5.1949997E1,4.4993034E1,4.068025E0,9.565249E0,2.1795E2,3.8321948E0,5.731857E-1,3.00128E0,5.129454E-1,3.8802679E0,4.5642776E0,1.0952442E0,1.3004067E0,1.7854084E0,1.5719167E0,2.629536E0,5.245824E-1,1.9993669E0,2.3392265E0,3.2489314E0,1.9631448E0,3.4873347E0,4.058592E0,5.746052E0,1.1533136E0,3.437706E0,6.8684497E0,4.595289E0,1.9195594E0,4.7831383E0,7.351909E0,2.1958246E0,1.0693784E0,1.1610142E1,-7.384999E-1,3.185612E0,7.5168233E0,5.1079874E0,8.646594E0,2.470926E0,1.9074601E0,5.402365E0,1.4709893E-1,-1.3078778E0,1.2273546E1,9.201964E0,4.8654416E-1,8.189999E0,1.4188744E1,8.785352E0],"split_indices":[167,167,167,167,167,167,167,167,167,159,166,56,84,51,0,2,61,165,166,167,0,0,37,166,0,95,83,13,111,141,0,0,117,0,97,0,165,166,166,93,0,167,160,0,0,60,27,52,165,0,0,167,116,0,107,0,87,49,0,105,139,120,73,96,74,56,152,4,82,8,161,0,38,25,0,0,0,92,145,0,0,157,0,0,0,0,0,0,0,0,0,0,0,0,0,0,0,0,0,0,0,0,0,0,0,0,0,0,0,0,0,0,0,0,0,0,0,0,0,0,0,0,0,0,0,0,0],"split_type":[0,0,0,0,0,0,0,0,0,0,0,0,0,0,0,0,0,0,0,0,0,0,0,0,0,0,0,0,0,0,0,0,0,0,0,0,0,0,0,0,0,0,0,0,0,0,0,0,0,0,0,0,0,0,0,0,0,0,0,0,0,0,0,0,0,0,0,0,0,0,0,0,0,0,0,0,0,0,0,0,0,0,0,0,0,0,0,0,0,0,0,0,0,0,0,0,0,0,0,0,0,0,0,0,0,0,0,0,0,0,0,0,0,0,0,0,0,0,0,0,0,0,0,0,0,0,0],"sum_hessian":[5.298E3,4.65E3,6.48E2,2.278E3,2.372E3,5.12E2,1.36E2,1.205E3,1.073E3,1.989E3,3.83E2,3.14E2,1.98E2,1.24E2,1.2E1,3.87E2,8.18E2,5.93E2,4.8E2,1.988E3,1E0,1E0,3.82E2,3.09E2,5E0,3.6E1,1.62E2,6E0,1.18E2,3.86E2,1E0,1E0,8.17E2,1E0,5.92E2,6E0,4.74E2,1.664E3,3.24E2,3.78E2,4E0,1.34E2,1.75E2,4E0,1E0,2.7E1,9E0,7E0,1.55E2,5E0,1E0,1.4E1,1.04E2,2E0,3.84E2,4E0,8.13E2,5.88E2,4E0,3.2E2,1.54E2,1.563E3,1.01E2,1.76E2,1.48E2,1.23E2,2.55E2,1.18E2,1.6E1,1.3E1,1.62E2,3E0,2.4E1,7E0,2E0,2E0,5E0,8.9E1,6.6E1,3E0,1.1E1,1.02E2,2E0,3.82E2,2E0,1E0,3E0,1E0,8.12E2,2.52E2,3.36E2,6.5E1,2.55E2,2.7E1,1.27E2,8.5E1,1.478E3,8.1E1,2E1,1.29E2,4.7E1,2.4E1,1.24E2,7.2E1,5.1E1,2.1E1,2.34E2,1.14E2,4E0,2E0,1.4E1,4E0,9E0,7.6E1,8.6E1,2.3E1,1E0,2E0,5E0,1E0,1E0,3.1E1,5.8E1,3E0,6.3E1,9.2E1,1E1],"tree_param":{"num_deleted":"0","num_feature":"168","num_nodes":"127","size_leaf_vector":"0"}},{"base_weights":[7.831832E0,5.590328E0,1.9443466E1,3.0473745E0,7.738112E0,1.5619548E1,2.797363E1,1.904995E0,3.8513765E0,7.698449E0,5.160293E1,1.5206418E1,2.874717E1,2.3664515E1,3.5148457E1,1.8710549E0,1.5241276E1,2.1457092E1,3.8186333E0,7.199879E0,1.0159824E1,1.3067203E1,1.7666449E1,1.6290577E1,4.4215076E1,1.913079E1,2.7115036E1,3.9826145E1,2.6116087E1,1.129572E1,1.8238919E0,3.5321429E0,5.5455413E0,5.8949146E0,7.5651383E0,4.519677E1,9.960238E0,1.43642E1,8.759877E0,2.015836E1,1.4737671E1,8.410313E0,1.8194386E1,5.2753983E0,4.982579E1,2.1881811E1,1.1383656E1,3.7033787E1,2.3707708E1,2.7938208E1,4.942651E1,2.863098E1,1.1607112E1,1.3728303E1,1.9989862E0,1.6940362E0,4.3754086E0,1.5853299E1,3.4925964E0,1.1615E1,4.6936307E0,6.193533E0,-1.0949703E0,1.256749E1,7.485567E0,7.678016E0,1.1500602E1,1.5447663E1,8.411881E0,3.4530706E0,1.118949E1,1.6855484E1,2.4870663E1,1.517857E1,-8.398702E0,1.6760998E1,2.6571508E1,1.419356E1,1.5249838E0,4.2488544E1,1.9275229E1,7.7978015E0,2.5035915E1,3.189338E1,1.0386441E1,5.6061413E1,2.55044E1,4.8643036E0,2.9282785E1,3.00029E0,1.4449783E1,1.2932119E1,1.6637857E0,2.6405096E0,1.9329372E1,2.5510788E0,2.122887E1,4.614091E0,3.0828497E0,1.8182837E1,4.5883307E0,4.3129616E0,1.1799641E1,1.1101998E1,5.8458586E0,6.236909E0,-2.8595047E0,8.586108E0,1.8959318E1,5.4210052E0,7.6189766E0,5.829776E0,1.1812374E1,1.9569117E1,1.0461719E1,1.1845737E1,1.704385E1,-1.6223093E0,9.935212E0,8.179057E0,-8.444233E-1,-2.6440544E0,1.2750616E1,2.4516357E1,1.3313873E1,1.2085481E1,2.7727362E1,1.7396427E1,1.0434265E1,-1.0849842E1,-1.7482109E0,1.8142689E1,-1.2612203E0,2.850108E1,8.351208E0,1.9970684E1,6.839373E0,-1.3850275E0,3.3262463E0,2.6937225E0,1.3705333E1,2.5977543E1,8.352542E0,3.3945034E1,1.3148853E1,2.6329575E0,1.12398615E1,6.8026047E0,5.783042E1,2.8451586E1,1.0126164E1,3.034999E1,9.917012E0,3.9084625E0,5.9197235E-1],"categories":[],"categories_nodes":[],"categories_segments":[],"categories_sizes":[],"default_left":[1,1,1,1,1,1,1,1,1,1,0,1,1,1,1,1,0,0,1,1,1,1,1,1,1,1,1,1,1,1,1,1,1,1,1,0,1,1,1,1,1,0,0,0,0,1,1,1,1,1,1,1,1,0,0,1,1,1,1,1,1,1,1,1,1,1,1,1,1,1,1,1,1,1,1,1,1,1,1,0,0,1,1,1,1,1,1,0,1,1,0,0,0,0,0,0,0,0,0,0,0,0,0,0,0,0,0,0,0,0,0,0,0,0,0,0,0,0,0,0,0,0,0,0,0,0,0,0,0,0,0,0,0,0,0,0,0,0,0,0,0,0,0,0,0,0,0,0,0,0,0,0,0,0,0],"id":5,"left_children":[1,3,5,7,9,11,13,15,17,19,-1,21,23,25,27,29,-1,-1,31,33,35,37,39,41,43,45,47,49,51,53,55,57,59,61,63,-1,65,67,69,71,73,-1,-1,-1,-1,75,77,79,81,83,85,87,89,-1,-1,91,93,95,97,99,101,103,105,107,109,111,113,115,117,119,121,123,125,127,129,131,133,135,137,-1,-1,139,141,143,145,147,149,-1,151,153,-1,-1,-1,-1,-1,-1,-1,-1,-1,-1,-1,-1,-1,-1,-1,-1,-1,-1,-1,-1,-1,-1,-1,-1,-1,-1,-1,-1,-1,-1,-1,-1,-1,-1,-1,-1,-1,-1,-1,-1,-1,-1,-1,-1,-1,-1,-1,-1,-1,-1,-1,-1,-1,-1,-1,-1,-1,-1,-1,-1,-1,-1,-1,-1,-1],"loss_changes":[1.3781116E5,2.4242812E4,2.751725E4,1.8626797E3,3.7921406E3,2.784375E3,7.330375E3,3.530537E2,6.0636914E2,2.8806562E3,0E0,2.8108906E3,2.5552275E3,2.109414E3,3.0582031E3,3.5366235E2,0E0,0E0,5.706406E2,9.1108594E2,2.3679688E3,1.6227773E3,1.64425E3,1.2007324E1,1.2665049E3,1.3706562E3,2.2650781E3,5.695086E3,9.812637E2,6.301758E1,2.70573E2,4.445586E2,8.141504E2,9.3145996E2,5.280703E2,0E0,1.3249102E3,1.4113945E3,9.2837354E2,1.7753398E3,1.4127832E3,0E0,0E0,0E0,0E0,8.7546484E2,5.8779736E2,1.3121328E3,1.3262539E3,1.7513477E3,3.8079688E3,3.2229688E2,1.2791107E2,0E0,0E0,2.5045044E2,9.867054E2,1.6036456E2,4.56333E2,8.395713E2,3.5215942E2,6.603828E2,2.6364413E2,4.2252417E2,3.8314062E2,1.1919482E3,1.7902461E3,9.5372266E2,6.1224854E2,5.146541E2,1.135104E3,2.0069297E3,1.7102109E3,1.1232324E3,2.993605E1,7.4501514E2,7.1123047E2,5.856758E2,3.605711E1,0E0,0E0,1.7414917E2,8.1985156E2,4.7663672E2,1.6724792E1,1.7850859E3,1.1979736E2,0E0,2.9836914E2,4.2478027E0,0E0,0E0,0E0,0E0,0E0,0E0,0E0,0E0,0E0,0E0,0E0,0E0,0E0,0E0,0E0,0E0,0E0,0E0,0E0,0E0,0E0,0E0,0E0,0E0,0E0,0E0,0E0,0E0,0E0,0E0,0E0,0E0,0E0,0E0,0E0,0E0,0E0,0E0,0E0,0E0,0E0,0E0,0E0,0E0,0E0,0E0,0E0,0E0,0E0,0E0,0E0,0E0,0E0,0E0,0E0,0E0,0E0,0E0,0E0,0E0,0E0,0E0,0E0,0E0,0E0],"parents":[2147483647,0,0,1,1,2,2,3,3,4,4,5,5,6,6,7,7,8,8,9,9,11,11,12,12,13,13,14,14,15,15,18,18,19,19,20,20,21,21,22,22,23,23,24,24,25,25,26,26,27,27,28,28,29,29,30,30,31,31,32,32,33,33,34,34,36,36,37,37,38,38,39,39,40,40,45,45,46,46,47,47,48,48,49,49,50,50,51,51,52,52,55,55,56,56,57,57,58,58,59,59,60,60,61,61,62,62,63,63,64,64,65,65,66,66,67,67,68,68,69,69,70,70,71,71,72,72,73,73,74,74,75,75,76,76,77,77,78,78,81,81,82,82,83,83,84,84,85,85,86,86,88,88,89,89],"right_children":[2,4,6,8,10,12,14,16,18,20,-1,22,24,26,28,30,-1,-1,32,34,36,38,40,42,44,46,48,50,52,54,56,58,60,62,64,-1,66,68,70,72,74,-1,-1,-1,-1,76,78,80,82,84,86,88,90,-1,-1,92,94,96,98,100,102,104,106,108,110,112,114,116,118,120,122,124,126,128,130,132,134,136,138,-1,-1,140,142,144,146,148,150,-1,152,154,-1,-1,-1,-1,-1,-1,-1,-1,-1,-1,-1,-1,-1,-1,-1,-1,-1,-1,-1,-1,-1,-1,-1,-1,-1,-1,-1,-1,-1,-1,-1,-1,-1,-1,-1,-1,-1,-1,-1,-1,-1,-1,-1,-1,-1,-1,-1,-1,-1,-1,-1,-1,-1,-1,-1,-1,-1,-1,-1,-1,-1,-1,-1,-1,-1],"split_conditions":[6.9425E1,3.0525E1,1.2245E2,1.554E1,1.9355E2,1.7915E2,1.6295E2,1.597E2,5.38E0,4.9555E1,1.5480879E1,9.03E1,1.392E2,6.2199997E1,7.615E1,3.9499998E0,4.572383E0,6.437128E0,6.43E1,3.785E1,1.7845001E1,8.8E1,1.0275E2,5.035E1,3.295E1,6.1300003E1,3.865E1,7.8149994E1,1.9265E2,2.5599998E1,4.32E1,2.4250002E0,1.695E1,5.9215E1,1.37E1,1.35590315E1,3.785E1,1.01350006E2,5.14E1,6.0199997E1,2.0585E2,2.523094E0,5.458316E0,1.5826195E0,1.4947738E1,4.89E1,7.9E1,8.5E1,5.42E1,4.9949997E1,2.1205E2,1.885E1,1.0175E2,4.118491E0,5.996959E-1,2.05E0,7.2100006E1,4.5343037E1,1.6515E1,2.15E1,1.5729E2,1.075E1,1.28E1,4.695804E1,2.775E1,5.305E1,2.805E1,3.3550003E1,4.1425E1,3.7E1,2.06E1,3.385E1,3.85E1,7.895E1,2.45E1,4.5493034E1,1.36915E2,5.9E1,2.475E1,1.2746564E1,5.782569E0,2.2854999E2,1.781E2,4.7393036E1,2.05E1,3.824304E1,2.2855E2,1.4592911E0,1.9625E2,1.2005E2,4.334935E0,3.879636E0,4.9913573E-1,7.9215294E-1,5.798812E0,7.653237E-1,6.3686614E0,1.3842273E0,9.2485493E-1,5.454851E0,1.3764993E0,1.2938886E0,3.5398924E0,3.3305995E0,1.7537576E0,1.8710728E0,-8.5785145E-1,2.5758326E0,5.6877956E0,1.6263016E0,2.2856932E0,1.7489328E0,3.5437124E0,5.870735E0,3.1385157E0,3.5537214E0,5.1131554E0,-4.8669282E-1,2.9805636E0,2.4537172E0,-2.53327E-1,-7.9321635E-1,3.825185E0,7.3549075E0,3.994162E0,3.6256444E0,8.318209E0,5.2189283E0,3.1302798E0,-3.2549527E0,-5.244633E-1,5.4428067E0,-3.783661E-1,8.550324E0,2.5053625E0,5.991205E0,2.051812E0,-4.1550827E-1,9.978739E-1,8.081168E-1,4.1116E0,7.793263E0,2.5057626E0,1.0183511E1,3.9446561E0,7.8988725E-1,3.3719585E0,2.0407815E0,1.7349127E1,8.535476E0,3.0378494E0,9.104998E0,2.9751039E0,1.1725388E0,1.7759171E-1],"split_indices":[167,167,167,167,159,58,167,122,165,167,0,167,64,121,71,139,0,0,100,157,166,166,166,108,10,109,47,124,165,4,163,121,70,166,138,0,149,103,158,61,121,0,0,0,0,65,102,101,160,85,162,32,76,0,0,90,93,0,165,114,97,20,107,88,123,25,160,49,30,80,77,48,148,83,0,124,158,12,10,0,0,0,100,77,0,97,42,0,56,0,0,0,0,0,0,0,0,0,0,0,0,0,0,0,0,0,0,0,0,0,0,0,0,0,0,0,0,0,0,0,0,0,0,0,0,0,0,0,0,0,0,0,0,0,0,0,0,0,0,0,0,0,0,0,0,0,0,0,0,0,0,0,0,0,0],"split_type":[0,0,0,0,0,0,0,0,0,0,0,0,0,0,0,0,0,0,0,0,0,0,0,0,0,0,0,0,0,0,0,0,0,0,0,0,0,0,0,0,0,0,0,0,0,0,0,0,0,0,0,0,0,0,0,0,0,0,0,0,0,0,0,0,0,0,0,0,0,0,0,0,0,0,0,0,0,0,0,0,0,0,0,0,0,0,0,0,0,0,0,0,0,0,0,0,0,0,0,0,0,0,0,0,0,0,0,0,0,0,0,0,0,0,0,0,0,0,0,0,0,0,0,0,0,0,0,0,0,0,0,0,0,0,0,0,0,0,0,0,0,0,0,0,0,0,0,0,0,0,0,0,0,0,0],"sum_hessian":[5.298E3,4.442E3,8.56E2,2.035E3,2.407E3,5.93E2,2.63E2,8.42E2,1.193E3,2.406E3,1E0,5.77E2,1.6E1,1.67E2,9.6E1,8.41E2,1E0,1E0,1.192E3,2.004E3,4.02E2,3.12E2,2.65E2,1E1,6E0,7.5E1,9.2E1,6.1E1,3.5E1,3E0,8.38E2,1.025E3,1.67E2,4.42E2,1.562E3,1E0,4.01E2,2.38E2,7.4E1,1.4E2,1.25E2,3E0,7E0,1E0,5E0,5.4E1,2.1E1,2.1E1,7.1E1,2.9E1,3.2E1,2.9E1,6E0,2E0,1E0,7.99E2,3.9E1,2E0,1.023E3,1.9E1,1.48E2,4.24E2,1.8E1,2.2E1,1.54E3,1.64E2,2.37E2,2E2,3.8E1,2.4E1,5E1,8.5E1,5.5E1,1.23E2,2E0,2.8E1,2.6E1,1.6E1,5E0,1.5E1,6E0,6E0,6.5E1,2.3E1,6E0,2.4E1,8E0,1E0,2.8E1,2E0,4E0,1E0,7.98E2,3.6E1,3E0,1E0,1E0,2.71E2,7.52E2,9E0,1E1,1.42E2,6E0,2.6E1,3.98E2,3E0,1.5E1,1.5E1,7E0,9.6E1,1.444E3,1.15E2,4.9E1,2.5E1,2.12E2,6.4E1,1.36E2,5E0,3.3E1,1.1E1,1.3E1,5E0,4.5E1,2.5E1,6E1,1.1E1,4.4E1,8.2E1,4.1E1,1E0,1E0,2.6E1,2E0,2.3E1,3E0,8E0,8E0,2E0,3E0,4E0,2E0,6.1E1,4E0,2E1,3E0,1E0,5E0,1E0,2.3E1,6E0,2E0,2.6E1,2E0,1E0,1E0],"tree_param":{"num_deleted":"0","num_feature":"168","num_nodes":"155","size_leaf_vector":"0"}},{"base_weights":[5.5398703E0,4.0352077E0,1.4425261E1,2.0327969E0,5.5031204E0,1.2830278E1,2.5309875E1,1.4452724E0,2.7233813E0,5.036723E0,7.510435E0,1.0654402E1,1.6022398E1,2.003716E1,3.0492823E1,1.4215533E0,1.3032925E1,9.493594E0,2.6347525E0,4.997054E0,2.4822077E1,1.45351E1,6.627233E0,1.0240214E1,2.3262125E1,-1.9074879E0,1.6231003E1,2.4196178E1,1.2380877E1,4.3331608E1,2.3732986E1,1.2955084E1,1.3979384E0,4.8684134E0,2.0204605E1,1.8051473E0,3.1524014E0,3.6540914E0,5.4229617E0,8.967473E0,3.6192944E1,1.1462269E1,2.5505049E1,6.431129E0,2.6296755E1,1.1804363E1,8.262395E0,1.110757E1,3.805699E1,-8.008991E0,2.7960103E0,2.7510618E1,1.5776379E1,2.68189E1,8.361237E0,1.3403353E1,2.1190593E0,1.59549055E1,4.631611E1,2.6380524E1,1.013063E1,2.21842E-1,1.6059397E0,1.9930236E-1,6.1739736E0,4.9288654E0,1.6443255E0,5.363842E0,2.6688657E0,4.9947224E0,2.5678725E0,1.2238752E1,5.333818E0,1.2583638E1,1.9886437E-1,3.3811787E1,8.774606E0,1.2868804E0,7.050956E0,4.3862488E1,5.820681E0,1.7111408E1,1.06836E1,6.61328E0,1.2647983E1,3.605097E1,7.8224373E0,1.6218842E1,7.497723E0,1.9891209E1,3.2749397E1,3.7836761E0,9.704098E0,3.7103806E0,1.4383076E1,2.675415E0,5.031738E-1,2.7526093E0,2.718342E1,3.7562676E-2,9.668993E0,9.516392E0,1.5680722E0,-6.096482E-1,9.0860176E-1,7.324095E0,1.6181242E0,-2.180508E0,1.7994174E0,4.6511793E0,1.726154E1,2.5797725E0,1.1757365E1,3.3673687E0,7.816725E0,-5.5762205E0,2.7326295E0,1.8468435E1,5.4627895E0,5.1632915E0,8.6629505E0,7.968976E0,1.7264635E1,-1.5022492E0,3.5016594E0,1.9480629E0,9.9942255E0,4.2697053E0,-8.017403E0,1.0163627E1,5.9348774E0,7.6860876E0,2.1503815E1,6.846134E0,1.20170765E1,1.0912758E1,3.3148258E0,7.47941E-1,1.4711791E1,4.3848038E-1,1.0137596E1,1.5222334E1,2.1246595E1,9.459163E-1,1.1760492E1,2.0689949E1,4.3544235E0,6.5477524E0,3.438722E1,2.7114944E0,1.4980414E1,3.4119446E1,2.0715939E1],"categories":[],"categories_nodes":[],"categories_segments":[],"categories_sizes":[],"default_left":[1,1,1,1,1,1,1,1,1,1,1,1,1,1,1,1,0,1,1,1,1,1,1,1,1,1,1,1,1,1,1,0,1,1,0,1,1,1,1,0,0,1,1,1,1,1,1,0,0,0,0,1,1,1,1,1,1,0,0,1,0,1,1,1,0,1,1,1,1,1,1,1,1,1,1,0,1,1,1,0,0,1,1,1,1,0,1,1,1,1,1,0,0,0,1,0,0,0,1,0,0,0,0,0,0,0,0,0,0,0,0,0,0,0,0,0,0,0,0,0,0,0,0,0,0,0,0,0,0,0,0,0,0,0,0,0,0,0,0,0,0,0,0,0,0,0,0,0,0,0,0,0,0],"id":6,"left_children":[1,3,5,7,9,11,13,15,17,19,21,23,25,27,29,31,-1,33,35,37,39,41,43,45,47,49,51,53,55,57,59,-1,61,63,-1,65,67,69,71,-1,-1,73,75,77,79,81,83,-1,-1,-1,-1,85,87,89,91,93,95,-1,-1,97,-1,99,101,103,-1,105,107,109,111,113,115,117,119,121,123,-1,125,127,129,-1,-1,131,133,135,137,-1,139,141,143,145,147,-1,-1,-1,149,-1,-1,-1,151,-1,-1,-1,-1,-1,-1,-1,-1,-1,-1,-1,-1,-1,-1,-1,-1,-1,-1,-1,-1,-1,-1,-1,-1,-1,-1,-1,-1,-1,-1,-1,-1,-1,-1,-1,-1,-1,-1,-1,-1,-1,-1,-1,-1,-1,-1,-1,-1,-1,-1,-1,-1,-1,-1],"loss_changes":[7.078683E4,1.3312953E4,1.2990969E4,7.746699E2,2.4103516E3,4.489828E3,2.0398477E3,2.6704248E2,5.0361865E2,1.5438125E3,2.9499336E3,1.8610156E3,1.0408281E3,1.3244043E3,3.0506484E3,2.646023E2,0E0,4.465796E2,3.6835547E2,1.1939219E3,3.9656323E2,1.5279297E3,1.5203691E3,1.1120664E3,1.7351792E3,1.3718686E2,9.3514844E2,1.1047402E3,1.8144678E2,4.8661914E2,9.211699E2,0E0,2.533247E2,5.363176E1,0E0,1.611914E2,5.577661E2,7.356699E2,9.123281E2,0E0,0E0,5.532363E2,1.232044E3,1.3779414E3,1.1833994E3,1.1019434E3,1.1892471E3,0E0,0E0,0E0,0E0,1.2312891E3,8.271133E2,4.5785938E2,1.6497803E-1,1.1756885E2,1.3508224E0,0E0,0E0,4.3738672E2,0E0,2.729604E2,2.4898096E2,2.2752922E0,0E0,1.1502847E2,1.9493433E2,7.252229E2,3.2675708E2,1.0253369E3,3.989912E2,7.433528E2,8.579258E2,7.264673E2,3.3352512E1,0E0,2.2159576E1,1.3663782E3,1.2875879E3,0E0,0E0,1.3251143E3,8.4393555E2,1.8074385E3,1.1432886E3,0E0,6.3934982E1,9.040742E2,4.0780817E2,9.6055176E1,3.3271875E2,0E0,0E0,0E0,7.093091E1,0E0,0E0,0E0,4.5950977E2,0E0,0E0,0E0,0E0,0E0,0E0,0E0,0E0,0E0,0E0,0E0,0E0,0E0,0E0,0E0,0E0,0E0,0E0,0E0,0E0,0E0,0E0,0E0,0E0,0E0,0E0,0E0,0E0,0E0,0E0,0E0,0E0,0E0,0E0,0E0,0E0,0E0,0E0,0E0,0E0,0E0,0E0,0E0,0E0,0E0,0E0,0E0,0E0,0E0,0E0,0E0,0E0,0E0,0E0],"parents":[2147483647,0,0,1,1,2,2,3,3,4,4,5,5,6,6,7,7,8,8,9,9,10,10,11,11,12,12,13,13,14,14,15,15,17,17,18,18,19,19,20,20,21,21,22,22,23,23,24,24,25,25,26,26,27,27,28,28,29,29,30,30,32,32,33,33,35,35,36,36,37,37,38,38,41,41,42,42,43,43,44,44,45,45,46,46,51,51,52,52,53,53,54,54,55,55,56,56,59,59,61,61,62,62,63,63,65,65,66,66,67,67,68,68,69,69,70,70,71,71,72,72,73,73,74,74,76,76,77,77,78,78,81,81,82,82,83,83,84,84,86,86,87,87,88,88,89,89,90,90,94,94,98,98],"right_children":[2,4,6,8,10,12,14,16,18,20,22,24,26,28,30,32,-1,34,36,38,40,42,44,46,48,50,52,54,56,58,60,-1,62,64,-1,66,68,70,72,-1,-1,74,76,78,80,82,84,-1,-1,-1,-1,86,88,90,92,94,96,-1,-1,98,-1,100,102,104,-1,106,108,110,112,114,116,118,120,122,124,-1,126,128,130,-1,-1,132,134,136,138,-1,140,142,144,146,148,-1,-1,-1,150,-1,-1,-1,152,-1,-1,-1,-1,-1,-1,-1,-1,-1,-1,-1,-1,-1,-1,-1,-1,-1,-1,-1,-1,-1,-1,-1,-1,-1,-1,-1,-1,-1,-1,-1,-1,-1,-1,-1,-1,-1,-1,-1,-1,-1,-1,-1,-1,-1,-1,-1,-1,-1,-1,-1,-1,-1,-1],"split_conditions":[7.495E1,2.8035E1,1.6295E2,1.6965E1,5.027E1,1.0775E2,1.2225E2,1.82565E2,1.11E1,1.42155E2,2.308E1,1.7915E2,1.285E1,6.295E1,7.69E1,1.125E0,3.9098775E0,3.8648037E1,1.9015E1,4.435E1,3.0443037E1,7.185E1,1.9245E2,8.795E1,6.515E1,8.049999E0,8.295E1,1.25350006E2,1.2935E2,1.1735E2,1.484E2,3.8865254E0,8.360001E0,1.0940001E1,6.061382E0,9.945E0,1.4215E1,2.5650002E1,6.7E0,2.690242E0,1.0857883E1,1.13350006E2,5.7835E1,3.1E1,2.445E1,1.9099998E1,9.265E1,3.332271E0,1.1417098E1,-2.4026976E0,8.388031E-1,1.0005E2,1.418E2,1.6415E2,3.5050003E1,4.9300003E1,1.4225E2,4.786472E0,1.3894834E1,1.4200001E1,3.039189E0,9.905E1,3.9E0,2.31E1,1.8521922E0,1.4915E1,8.25E0,3.32E1,1.6020001E2,2.5349998E1,7.7E0,3.33E1,1.05E2,2.575E1,1.1255E2,1.0143537E1,4.2845E1,3.935E1,3.785E1,1.3158747E1,1.7462044E0,1.265E1,4.485E1,4.165E1,3.4300003E1,1.081529E1,3.395E1,9.94E1,1.12E2,9.43E1,1.175E1,1.1351029E0,2.9112294E0,1.1131142E0,4.425E1,8.026245E-1,1.5095216E-1,8.2578284E-1,4.11E1,1.1268803E-2,2.900698E0,2.8549175E0,4.7042167E-1,-1.8289447E-1,2.7258053E-1,2.1972284E0,4.854373E-1,-6.541524E-1,5.3982526E-1,1.3953538E0,5.178462E0,7.739318E-1,3.5272098E0,1.0102106E0,2.3450174E0,-1.6728662E0,8.197889E-1,5.5405307E0,1.638837E0,1.5489875E0,2.5988853E0,2.390693E0,5.179391E0,-4.506748E-1,1.0504979E0,5.844189E-1,2.9982677E0,1.2809117E0,-2.405221E0,3.0490882E0,1.7804633E0,2.3058264E0,6.4511447E0,2.0538404E0,3.605123E0,3.2738276E0,9.9444777E-1,2.2438231E-1,4.4135375E0,1.3154411E-1,3.041279E0,4.5667005E0,6.373979E0,2.837749E-1,3.528148E0,6.206985E0,1.3063271E0,1.9643258E0,1.0316166E1,8.1344837E-1,4.4941244E0,1.0235834E1,6.2147818E0],"split_indices":[167,167,167,167,147,167,151,106,166,158,139,58,21,96,116,146,0,54,50,167,0,144,159,166,125,8,166,134,109,160,132,0,167,19,0,163,68,69,54,0,0,34,73,164,1,15,147,0,0,0,0,75,67,164,0,143,0,0,0,16,0,160,139,0,0,15,90,166,97,121,60,93,22,16,6,0,0,166,110,0,0,14,3,119,26,0,0,77,162,0,30,0,0,0,90,0,0,0,19,0,0,0,0,0,0,0,0,0,0,0,0,0,0,0,0,0,0,0,0,0,0,0,0,0,0,0,0,0,0,0,0,0,0,0,0,0,0,0,0,0,0,0,0,0,0,0,0,0,0,0,0,0,0],"split_type":[0,0,0,0,0,0,0,0,0,0,0,0,0,0,0,0,0,0,0,0,0,0,0,0,0,0,0,0,0,0,0,0,0,0,0,0,0,0,0,0,0,0,0,0,0,0,0,0,0,0,0,0,0,0,0,0,0,0,0,0,0,0,0,0,0,0,0,0,0,0,0,0,0,0,0,0,0,0,0,0,0,0,0,0,0,0,0,0,0,0,0,0,0,0,0,0,0,0,0,0,0,0,0,0,0,0,0,0,0,0,0,0,0,0,0,0,0,0,0,0,0,0,0,0,0,0,0,0,0,0,0,0,0,0,0,0,0,0,0,0,0,0,0,0,0,0,0,0,0,0,0,0,0],"sum_hessian":[5.298E3,4.532E3,7.66E2,1.918E3,2.614E3,6.7E2,9.6E1,1.038E3,8.8E2,2.124E3,4.9E2,4.01E2,2.69E2,5E1,4.6E1,1.037E3,1E0,1E1,8.7E2,2.121E3,3E0,5.3E1,4.37E2,3.9E2,1.1E1,3E0,2.66E2,3.1E1,1.9E1,1.4E1,3.2E1,1E0,1.036E3,8E0,2E0,3.36E2,5.34E2,5.13E2,1.608E3,2E0,1E0,4.3E1,1E1,4.34E2,3E0,2.15E2,1.75E2,7E0,4E0,1E0,2E0,8E0,2.58E2,2.6E1,5E0,1.7E1,2E0,2E0,1.2E1,2.6E1,6E0,1.56E2,8.8E2,2E0,6E0,1.5E1,3.21E2,9.4E1,4.4E2,2.28E2,2.85E2,1.9E1,1.589E3,3.9E1,4E0,6E0,4E0,4.7E1,3.87E2,1E0,2E0,3.5E1,1.8E2,1.29E2,4.6E1,5E0,3E0,2.44E2,1.4E1,1.4E1,1.2E1,2E0,3E0,2E0,1.5E1,1E0,1E0,1E0,2.5E1,1.54E2,2E0,3E0,8.77E2,1E0,1E0,8E0,7E0,1.2E1,3.09E2,9E1,4E0,4.37E2,3E0,1.46E2,8.2E1,5E0,2.8E2,9E0,1E1,1.514E3,7.5E1,2.1E1,1.8E1,3E0,1E0,1E0,3E0,3.6E1,1.1E1,1E2,2.87E2,1.2E1,2.3E1,4.8E1,1.32E2,5.5E1,7.4E1,7E0,3.9E1,1E0,2E0,2.07E2,3.7E1,6E0,8E0,1.3E1,1E0,1E0,1.1E1,1E0,1.4E1,1E1,1.5E1],"tree_param":{"num_deleted":"0","num_feature":"168","num_nodes":"153","size_leaf_vector":"0"}},{"base_weights":[3.9229784E0,2.996075E0,1.1518064E1,1.6986798E0,4.347705E0,1.009511E1,1.8440739E1,1.2151073E0,2.5699468E0,3.899411E0,6.4819226E0,8.162397E0,1.1977915E1,2.5562357E1,1.60109E1,1.1887561E0,7.811207E0,2.9328656E0,8.464876E-1,3.8624709E0,3.728311E1,1.688986E1,6.032549E0,1.0115708E1,5.12706E0,1.3234152E1,6.7854342E0,1.3698163E1,3.22109E1,7.180252E0,1.6958138E1,1.8824509E0,9.4459385E-1,1.4809119E0,1.0606127E1,2.282395E0,4.289171E0,1.2010227E1,5.390454E-1,3.7681963E0,9.119064E0,2.3381028E0,2.1545603E1,1.9178097E1,5.738377E0,8.137187E0,1.633567E1,8.798295E0,1.2725261E0,1.2635804E1,2.9776688E1,1.5328813E0,1.0355026E1,1.6044477E1,2.8752697E0,2.67482E0,3.427715E1,3.8665023E0,9.057951E0,2.0517088E1,1.3323567E1,1.5914465E0,6.2071404E0,1.1011822E1,9.262002E-1,-3.903389E-3,2.2252712E0,-2.5725622E0,2.411825E0,6.0649323E0,2.171402E0,-2.8262162E0,1.789778E1,-3.299483E-1,3.6994584E0,3.8410945E0,-1.797403E0,1.8859297E1,6.256076E0,3.109253E0,-3.7324905E-1,2.4348019E1,5.0223527E0,4.8045883E0,2.3168503E1,4.9140835E0,8.896796E0,1.0675909E1,5.1096296E0,3.5808167E1,1.174358E1,1.0375485E1,-5.8174133E-1,5.0835633E0,-4.317104E0,-1.2648348E0,1.3101016E1,1.0392624E1,3.6870564E1,-9.856799E0,3.2505739E0,1.3965853E1,6.9846864E0,1.7355404E1,3.433998E0,6.73925E0,3.6010372E1,6.2953453E0,2.1771221E1,1.5051175E1,6.4683924E0,9.4968593E-1,2.7529383E0,3.0765445E0,1.5607936E1,9.871293E-1,-1.4546564E0,-4.4634585E0,1.3455632E0,3.506486E0,1.7969242E0,4.629014E0,1.0822758E1,2.7959368E0,-1.8038386E0,1.4175845E0,-1.850335E0,6.4781637E0,-3.358887E-1,6.7959833E0,3.7129169E0,-5.832882E0,8.371091E-1,7.6978164E0,2.1784327E1,2.7014155E0,9.87637E0,1.375292E1,2.9119265E1,5.0926557E0,-9.662695E0,1.4453214E1,6.2625217E0,9.267361E0,2.1808285E1,2.049794E0,1.0945433E1,1.2179393E1,4.4577705E1,1.4031402E1,-6.063158E0,-2.4175925E0,1.1785747E1,2.3847027E0,-2.8385482E0,8.143071E0,-2.6201282E0,-1.4568443E0,-1.539393E1,8.382423E0,-6.800223E0,6.6729198E0,1.3988899E1,-1.2927966E0,6.6723704E0,2.0959117E0,1.5933487E1,8.293455E0,6.5782356E-1,2.2619734E1,6.877538E0,1.03340435E1,1.903016E1,2.6437256E0,8.99938E0],"categories":[],"categories_nodes":[],"categories_segments":[],"categories_sizes":[],"default_left":[1,1,1,1,1,1,1,1,1,1,1,1,1,1,1,1,1,1,1,1,0,1,1,1,1,1,1,1,1,1,1,1,1,1,0,1,1,1,1,1,1,1,1,1,1,1,1,1,1,1,1,1,1,1,0,0,1,0,0,1,1,1,1,0,1,0,0,1,1,1,1,0,0,1,1,1,1,1,1,0,0,1,0,0,0,1,1,1,1,1,1,1,1,1,1,1,1,0,0,0,1,1,1,0,0,0,0,0,1,1,1,0,0,0,0,0,0,0,0,0,0,0,0,0,0,0,0,0,0,0,0,0,0,0,0,0,0,0,0,0,0,0,0,0,0,0,0,0,0,0,0,0,0,0,0,0,0,0,0,0,0,0,0,0,0,0,0,0,0,0,0,0,0,0,0],"id":7,"left_children":[1,3,5,7,9,11,13,15,17,19,21,23,25,27,29,31,33,35,37,39,-1,41,43,45,47,49,51,53,55,57,59,61,63,65,-1,67,69,71,73,75,77,79,81,83,85,87,89,91,93,95,97,99,101,103,-1,-1,105,-1,-1,107,109,111,113,-1,115,-1,-1,117,119,121,123,-1,-1,125,127,129,131,133,135,-1,-1,137,-1,-1,-1,139,141,143,145,147,149,151,153,155,157,159,161,-1,-1,-1,163,165,167,-1,-1,-1,-1,-1,169,171,173,-1,-1,-1,-1,-1,-1,-1,-1,-1,-1,-1,-1,-1,-1,-1,-1,-1,-1,-1,-1,-1,-1,-1,-1,-1,-1,-1,-1,-1,-1,-1,-1,-1,-1,-1,-1,-1,-1,-1,-1,-1,-1,-1,-1,-1,-1,-1,-1,-1,-1,-1,-1,-1,-1,-1,-1,-1,-1,-1,-1,-1,-1,-1,-1],"loss_changes":[3.7269984E4,8.276613E3,5.4878125E3,1.013103E3,2.1877031E3,1.6489141E3,1.26925E3,2.606494E2,5.3542676E2,2.2163477E3,1.7689336E3,1.3710869E3,1.4822383E3,1.373002E3,5.0558984E2,2.6041284E2,9.044922E1,6.1659863E2,5.117888E2,9.136465E2,0E0,1.0336118E3,1.3787627E3,1.6514922E3,1.3472905E3,1.5340977E3,9.028511E2,2.07807E2,7.627197E2,2.0977448E1,5.933008E2,4.9604028E2,2.021936E2,3.3243942E0,0E0,3.0908203E2,8.4802E2,3.9998438E2,4.076847E2,7.700664E2,8.0225854E2,1.1614822E1,4.333755E2,3.4753394E2,9.4038965E2,8.062964E2,2.619746E3,7.30947E2,1.044456E3,1.2323203E3,4.418672E2,4.428836E2,2.5537451E2,7.265283E1,0E0,0E0,3.7779785E2,0E0,0E0,4.3369434E2,3.2899316E2,2.791466E2,6.877337E2,0E0,1.6767847E2,0E0,0E0,1.0231985E2,3.100598E2,7.970503E2,2.682071E2,0E0,0E0,3.134833E2,3.6099326E2,6.781074E2,2.7067072E2,6.0841797E1,3.2078064E2,0E0,0E0,1.0504346E2,0E0,0E0,0E0,8.353159E2,1.0365459E3,7.387241E2,9.2396375E2,7.003511E2,1.2664951E3,7.8623926E2,6.0326626E1,7.048514E2,6.1122546E2,4.3081155E2,9.4539844E2,0E0,0E0,0E0,3.0400928E2,2.7022876E2,1.3531122E2,0E0,0E0,0E0,0E0,0E0,2.1091797E2,3.2888477E2,6.3329803E1,0E0,0E0,0E0,0E0,0E0,0E0,0E0,0E0,0E0,0E0,0E0,0E0,0E0,0E0,0E0,0E0,0E0,0E0,0E0,0E0,0E0,0E0,0E0,0E0,0E0,0E0,0E0,0E0,0E0,0E0,0E0,0E0,0E0,0E0,0E0,0E0,0E0,0E0,0E0,0E0,0E0,0E0,0E0,0E0,0E0,0E0,0E0,0E0,0E0,0E0,0E0,0E0,0E0,0E0,0E0,0E0,0E0,0E0,0E0,0E0,0E0,0E0,0E0,0E0],"parents":[2147483647,0,0,1,1,2,2,3,3,4,4,5,5,6,6,7,7,8,8,9,9,10,10,11,11,12,12,13,13,14,14,15,15,16,16,17,17,18,18,19,19,21,21,22,22,23,23,24,24,25,25,26,26,27,27,28,28,29,29,30,30,31,31,32,32,33,33,35,35,36,36,37,37,38,38,39,39,40,40,41,41,42,42,43,43,44,44,45,45,46,46,47,47,48,48,49,49,50,50,51,51,52,52,53,53,56,56,59,59,60,60,61,61,62,62,64,64,67,67,68,68,69,69,70,70,73,73,74,74,75,75,76,76,77,77,78,78,81,81,85,85,86,86,87,87,88,88,89,89,90,90,91,91,92,92,93,93,94,94,95,95,96,96,100,100,101,101,102,102,108,108,109,109,110,110],"right_children":[2,4,6,8,10,12,14,16,18,20,22,24,26,28,30,32,34,36,38,40,-1,42,44,46,48,50,52,54,56,58,60,62,64,66,-1,68,70,72,74,76,78,80,82,84,86,88,90,92,94,96,98,100,102,104,-1,-1,106,-1,-1,108,110,112,114,-1,116,-1,-1,118,120,122,124,-1,-1,126,128,130,132,134,136,-1,-1,138,-1,-1,-1,140,142,144,146,148,150,152,154,156,158,160,162,-1,-1,-1,164,166,168,-1,-1,-1,-1,-1,170,172,174,-1,-1,-1,-1,-1,-1,-1,-1,-1,-1,-1,-1,-1,-1,-1,-1,-1,-1,-1,-1,-1,-1,-1,-1,-1,-1,-1,-1,-1,-1,-1,-1,-1,-1,-1,-1,-1,-1,-1,-1,-1,-1,-1,-1,-1,-1,-1,-1,-1,-1,-1,-1,-1,-1,-1,-1,-1,-1,-1,-1,-1,-1,-1,-1],"split_conditions":[8.647E1,3.9754997E1,1.6295E2,2.2085E1,6.305E1,7.7399994E1,3.6415E1,1.688E2,3.81E1,1.8835E2,3.221E1,7.1E1,1.1855E2,1.1185E2,3.975E1,1.4924999E1,7.125E1,4.23E1,1.9765E1,1.4220001E2,1.1184934E1,2.43E1,6.335E1,5.221E1,8.805E1,1.1495E2,6.72E1,5.2965E1,5.4793037E1,7.005E1,7.615E1,6.318E1,1.125E0,4.815E1,3.1818383E0,5.05E0,5.5005E1,2.0415E1,5.71E1,1.3454999E2,3.5735E1,2.3305E1,4.217E1,2.14E1,9.845E1,4.308E1,3.085E1,1.098E2,4.91E1,1.6465E1,7.6E1,7.51E1,9.82E1,7.46E1,8.6258096E-1,8.02446E-1,2.655E1,1.1599507E0,2.7173853E0,7.175E1,1.9735E2,2.025E1,3.415E1,3.3035467E0,1.1705E2,-1.1710167E-3,6.675814E-1,1.785E1,1.7275E1,5.065E1,7.2399994E1,-8.478649E-1,5.369334E0,2.8475E1,8.245E1,1.495E1,1.546E2,2.2605E1,1.1365E2,9.327759E-1,-1.1197472E-1,3.9165E1,1.5067059E0,1.4413766E0,6.950551E0,9.64E1,5.4300003E1,4.2129997E1,5.84E1,2.2255001E1,1.677E2,1.395E1,7.235E1,7.28E1,7.1350006E1,2.62E1,2.125E1,3.1177874E0,1.106117E1,-2.9570398E0,1.24E2,8.41E1,1.7105E2,5.206621E0,1.0301995E0,2.0217752E0,1.0803112E1,1.8886037E0,2.16E2,8.27E1,8.17E1,2.849058E-1,8.2588154E-1,9.229634E-1,4.682381E0,2.961388E-1,-4.3639693E-1,-1.3390377E0,4.0366897E-1,1.0519458E0,5.390773E-1,1.3887043E0,3.2468274E0,8.3878106E-1,-5.411516E-1,4.252754E-1,-5.551005E-1,1.9434491E0,-1.0076662E-1,2.038795E0,1.1138752E0,-1.7498647E0,2.5113273E-1,2.309345E0,6.5352983E0,8.104247E-1,2.9629111E0,4.1258764E0,8.73578E0,1.5277967E0,-2.8988085E0,4.335964E0,1.8787566E0,2.7802083E0,6.5424857E0,6.149382E-1,3.28363E0,3.653818E0,1.3373312E1,4.2094207E0,-1.8189474E0,-7.252778E-1,3.5357242E0,7.154108E-1,-8.5156447E-1,2.4429214E0,-7.8603846E-1,-4.3705332E-1,-4.6181793E0,2.514727E0,-2.040067E0,2.001876E0,4.19667E0,-3.87839E-1,2.0017111E0,6.2877357E-1,4.7800465E0,2.4880366E0,1.9734707E-1,6.7859206E0,2.0632615E0,3.1002133E0,5.7090483E0,7.931177E-1,2.699814E0],"split_indices":[167,167,167,167,167,143,67,58,166,159,165,152,111,152,69,66,0,122,164,107,0,1,167,151,159,111,78,27,111,1,71,98,146,0,0,123,127,19,156,89,30,2,162,41,147,139,94,116,94,49,0,107,82,0,0,0,26,0,0,145,166,146,81,0,53,0,0,146,69,146,159,0,0,123,62,139,89,39,80,0,0,24,0,0,0,147,101,129,24,125,80,111,10,142,145,23,84,0,0,0,144,117,128,0,0,0,0,0,10,109,47,0,0,0,0,0,0,0,0,0,0,0,0,0,0,0,0,0,0,0,0,0,0,0,0,0,0,0,0,0,0,0,0,0,0,0,0,0,0,0,0,0,0,0,0,0,0,0,0,0,0,0,0,0,0,0,0,0,0,0,0,0,0,0,0],"split_type":[0,0,0,0,0,0,0,0,0,0,0,0,0,0,0,0,0,0,0,0,0,0,0,0,0,0,0,0,0,0,0,0,0,0,0,0,0,0,0,0,0,0,0,0,0,0,0,0,0,0,0,0,0,0,0,0,0,0,0,0,0,0,0,0,0,0,0,0,0,0,0,0,0,0,0,0,0,0,0,0,0,0,0,0,0,0,0,0,0,0,0,0,0,0,0,0,0,0,0,0,0,0,0,0,0,0,0,0,0,0,0,0,0,0,0,0,0,0,0,0,0,0,0,0,0,0,0,0,0,0,0,0,0,0,0,0,0,0,0,0,0,0,0,0,0,0,0,0,0,0,0,0,0,0,0,0,0,0,0,0,0,0,0,0,0,0,0,0,0,0,0,0,0,0,0],"sum_hessian":[5.298E3,4.723E3,5.75E2,2.411E3,2.312E3,4.79E2,9.6E1,1.552E3,8.59E2,1.913E3,3.99E2,2.39E2,2.4E2,2.2E1,7.4E1,1.547E3,5E0,7.09E2,1.5E2,1.912E3,1E0,1.5E1,3.84E2,1.44E2,9.5E1,1.92E2,4.8E1,9E0,1.3E1,8E0,6.6E1,4.01E2,1.146E3,2E0,3E0,4.81E2,2.28E2,3E0,1.47E2,1.88E3,3.2E1,4E0,1.1E1,7E0,3.77E2,1.11E2,3.3E1,4.8E1,4.7E1,1.87E2,5E0,2E1,2.8E1,7E0,2E0,1E0,1.2E1,4E0,4E0,3.1E1,3.5E1,3.77E2,2.4E1,1E0,1.145E3,1E0,1E0,1.2E1,4.69E2,1.23E2,1.05E2,1E0,2E0,1.16E2,3.1E1,1.856E3,2.4E1,6E0,2.6E1,3E0,1E0,9E0,2E0,2E0,5E0,3.01E2,7.6E1,5.9E1,5.2E1,5E0,2.8E1,4.1E1,7E0,2.8E1,1.9E1,6E0,1.81E2,2E0,3E0,2E0,1.8E1,1.2E1,1.6E1,6E0,1E0,1E0,1.1E1,3E0,2.8E1,2.7E1,8E0,2.44E2,1.33E2,1.9E1,5E0,1.117E3,2.8E1,8E0,4E0,1.67E2,3.02E2,9.6E1,2.7E1,9.1E1,1.4E1,5.4E1,6.2E1,1.8E1,1.3E1,7.5E1,1.781E3,9E0,1.5E1,2E0,4E0,1.4E1,1.2E1,4E0,5E0,2.98E2,3E0,2.3E1,5.3E1,5.4E1,5E0,3.5E1,1.7E1,2E0,3E0,2.5E1,3E0,4E0,3.7E1,3E0,4E0,2E1,8E0,1.6E1,3E0,2E0,4E0,2.3E1,1.58E2,8E0,1E1,2E0,1E1,1.3E1,3E0,2.6E1,2E0,1.4E1,1.3E1,4E0,4E0],"tree_param":{"num_deleted":"0","num_feature":"168","num_nodes":"175","size_leaf_vector":"0"}},{"base_weights":[2.7812977E0,2.1203785E0,8.348298E0,1.1168149E0,3.0039792E0,6.8527036E0,1.20631485E1,6.509668E-1,1.5770705E0,2.576558E0,4.3173966E0,8.352661E0,5.2575316E0,9.616465E0,1.6821238E1,1.0040786E1,6.248377E-1,1.5220501E0,8.17545E0,4.399907E0,2.39168E0,2.414207E1,4.2136707E0,7.9242206E0,2.8007868E1,-1.8326749E0,6.109097E0,9.213099E0,2.6388298E1,2.39571E1,1.1389669E1,5.5336823E0,5.839204E-1,1.7895006E0,3.352346E-1,2.3866148E0,1.0672099E1,-5.253418E0,4.775939E0,1.0912529E0,2.712484E0,3.0207064E1,6.0060425E0,9.61944E0,3.8906298E0,2.8987951E0,8.9181E0,1.2416034E1,-3.8783474E0,8.240245E0,3.4220765E0,7.8734546E0,1.3292194E1,2.6696297E1,9.304568E0,8.272502E0,2.3518648E1,9.266457E0,-1.4488995E0,8.390577E-2,9.6686083E-1,7.8037634E0,1.7203026E0,2.8066876E0,-3.1880042E-1,-3.317833E-3,3.184365E0,-1.6277695E-1,-6.0747285E0,1.6235376E1,4.2512975E0,1.375357E0,-6.883574E0,2.5870566E0,6.0846214E0,3.3583267E1,7.0722237E0,3.703991E0,1.32421465E1,-1.8951294E0,6.184989E0,1.0408567E1,4.1633883E0,1.6846396E-1,-7.942005E0,-5.334442E0,8.725072E0,-2.5860236E0,6.20005E0,4.654795E0,1.0239772E1,1.4409477E1,2.9562888E-1,2.8162304E1,9.978826E0,3.0298615E0,1.2477753E1,1.5808029E0,1.0535556E1,4.5932274E0,1.240861E1,2.168198E-1,-2.322536E0,1.3644571E0,3.0061954E-1,6.06171E-1,1.844861E1,1.4460955E0,3.280451E0,1.2743807E0,8.453805E0,-7.158182E-1,2.7278514E0,-2.646E0,-7.127593E0,4.978293E0,1.974255E1,-1.6936554E0,4.8694468E0,4.2785525E0,6.953693E-1,-1.0764304E1,7.02309E-1,-5.759505E0,2.622658E0,1.1185698E1,3.0492988E-1,-7.3981733E0,8.82427E0,4.2846828E0,1.6766171E0,4.329695E0,3.556545E1,-4.627294E0,2.9743335E0,8.813277E0,-3.3062744E-1,9.148551E0,1.929079E1,4.333184E-1,1.0848626E1,-1.3679848E0,1.6768354E0,-2.3769207E0,-9.987481E0,-8.029106E0,-1.759852E0,1.7819023E1,7.7992E0,6.7858183E-1,-1.0016209E1,7.881272E0,1.6094918E0,7.038835E0,-2.87958E-1,1.3893335E1,7.7063084E0,1.5274312E1,3.55248E0,-5.228424E-1,9.662857E-1,2.868262E0,-3.7157059E0,2.315899E0,1.1849854E1],"categories":[],"categories_nodes":[],"categories_segments":[],"categories_sizes":[],"default_left":[1,1,1,1,1,1,1,1,1,1,1,1,1,1,1,0,1,1,1,1,1,1,1,1,0,1,1,1,0,1,1,1,1,1,1,1,0,1,1,1,1,0,0,1,1,1,1,0,1,1,1,1,1,1,1,1,0,1,0,1,1,1,1,1,1,0,0,0,1,1,1,1,1,1,1,0,1,1,1,1,1,1,1,1,1,1,1,1,1,1,1,1,1,0,0,0,0,1,1,0,0,0,0,0,0,0,0,0,0,0,0,0,0,0,0,0,0,0,0,0,0,0,0,0,0,0,0,0,0,0,0,0,0,0,0,0,0,0,0,0,0,0,0,0,0,0,0,0,0,0,0,0,0,0,0,0,0,0,0,0,0,0,0,0,0],"id":8,"left_children":[1,3,5,7,9,11,13,15,17,19,21,23,25,27,29,-1,31,33,35,37,39,41,43,45,-1,47,49,51,-1,53,55,57,59,61,63,65,-1,67,69,71,73,-1,-1,75,77,79,81,-1,83,85,87,89,91,93,95,97,-1,99,-1,101,103,105,107,109,111,-1,-1,-1,113,115,117,119,121,123,125,-1,127,129,131,133,135,137,139,141,143,145,147,149,151,153,155,157,159,-1,-1,-1,-1,161,163,-1,-1,-1,-1,-1,-1,-1,-1,-1,-1,-1,-1,-1,-1,-1,-1,-1,-1,-1,-1,-1,-1,-1,-1,-1,-1,-1,-1,-1,-1,-1,-1,-1,-1,-1,-1,-1,-1,-1,-1,-1,-1,-1,-1,-1,-1,-1,-1,-1,-1,-1,-1,-1,-1,-1,-1,-1,-1,-1,-1,-1,-1,-1,-1,-1,-1],"loss_changes":[1.947911E4,4.1980645E3,3.0397578E3,4.749619E2,1.402998E3,9.203418E2,1.7008867E3,2.648354E2,3.927146E2,6.3097363E2,1.1670293E3,1.5128047E3,1.2066748E3,4.8752148E2,1.7813604E3,0E0,2.1831369E2,3.5109497E2,1.0460394E2,6.5670264E2,7.187656E2,1.485597E2,1.03654E3,9.880654E2,0E0,6.894139E2,9.8538086E2,4.8005078E2,0E0,6.3459863E2,1.0152998E3,2.4800577E2,2.095849E2,3.6279712E2,3.3226022E2,7.6368427E0,0E0,2.8278168E1,9.410115E2,7.888617E2,5.7090137E2,0E0,0E0,1.8378877E3,9.667471E2,5.6310315E2,1.1543252E3,0E0,3.3023508E2,6.915171E2,1.3512607E3,5.844951E2,3.5876123E2,1.6011523E2,6.174817E1,3.922246E2,0E0,3.110846E1,0E0,1.527521E2,1.6382477E2,7.549897E2,3.7814038E2,3.6131067E2,1.9911339E2,0E0,0E0,0E0,2.8003082E0,1.7807971E2,6.035757E2,6.544124E2,3.6082507E2,4.1298828E2,1.441239E3,0E0,8.765736E2,6.662207E2,2.0345211E3,2.1332576E2,3.625373E2,1.2560605E3,1.0426282E3,2.7786774E1,9.009302E1,2.4399246E1,6.609092E2,6.37469E2,4.1179126E2,4.3802454E2,3.2797363E2,1.6169678E2,2.1519551E0,0E0,0E0,0E0,0E0,6.520993E1,1.8861865E2,0E0,0E0,0E0,0E0,0E0,0E0,0E0,0E0,0E0,0E0,0E0,0E0,0E0,0E0,0E0,0E0,0E0,0E0,0E0,0E0,0E0,0E0,0E0,0E0,0E0,0E0,0E0,0E0,0E0,0E0,0E0,0E0,0E0,0E0,0E0,0E0,0E0,0E0,0E0,0E0,0E0,0E0,0E0,0E0,0E0,0E0,0E0,0E0,0E0,0E0,0E0,0E0,0E0,0E0,0E0,0E0,0E0,0E0,0E0,0E0,0E0,0E0,0E0,0E0,0E0,0E0],"parents":[2147483647,0,0,1,1,2,2,3,3,4,4,5,5,6,6,7,7,8,8,9,9,10,10,11,11,12,12,13,13,14,14,16,16,17,17,18,18,19,19,20,20,21,21,22,22,23,23,25,25,26,26,27,27,29,29,30,30,31,31,32,32,33,33,34,34,35,35,37,37,38,38,39,39,40,40,43,43,44,44,45,45,46,46,48,48,49,49,50,50,51,51,52,52,53,53,54,54,55,55,57,57,59,59,60,60,61,61,62,62,63,63,64,64,68,68,69,69,70,70,71,71,72,72,73,73,74,74,76,76,77,77,78,78,79,79,80,80,81,81,82,82,83,83,84,84,85,85,86,86,87,87,88,88,89,89,90,90,91,91,92,92,97,97,98,98],"right_children":[2,4,6,8,10,12,14,16,18,20,22,24,26,28,30,-1,32,34,36,38,40,42,44,46,-1,48,50,52,-1,54,56,58,60,62,64,66,-1,68,70,72,74,-1,-1,76,78,80,82,-1,84,86,88,90,92,94,96,98,-1,100,-1,102,104,106,108,110,112,-1,-1,-1,114,116,118,120,122,124,126,-1,128,130,132,134,136,138,140,142,144,146,148,150,152,154,156,158,160,-1,-1,-1,-1,162,164,-1,-1,-1,-1,-1,-1,-1,-1,-1,-1,-1,-1,-1,-1,-1,-1,-1,-1,-1,-1,-1,-1,-1,-1,-1,-1,-1,-1,-1,-1,-1,-1,-1,-1,-1,-1,-1,-1,-1,-1,-1,-1,-1,-1,-1,-1,-1,-1,-1,-1,-1,-1,-1,-1,-1,-1,-1,-1,-1,-1,-1,-1,-1,-1,-1,-1],"split_conditions":[8.8020004E1,3.465E1,1.4115E2,1.9314999E1,4.55E1,7.7899994E1,1.217E2,2.025E0,1.689E2,1.975E1,1.761E1,1.252E2,2.23E1,2.5375E2,5.825E1,3.0122359E0,4.3500004E0,4.935E1,7.66E1,8.5E0,4.465E1,4.9343037E1,2.02E1,3.94E1,8.402361E0,2.005E1,6.5399994E1,1.29515E2,7.9164896E0,1.471E2,1.525E2,1.77E1,1.567E1,4.95E0,2.98E1,4.815E1,3.2016299E0,6.65E0,8.549999E0,8.6E1,6.745E1,9.0621195E0,1.8018128E0,1.418E1,1.801E2,4.4255E1,7.335E1,3.7248104E0,7.8384995E1,1.775E1,7.635E1,1.604E2,1.1805E2,1.361E2,8.705E1,1.1595E2,7.055595E0,7.3E0,-4.3466988E-1,3.094E1,2.7650002E1,3.44E1,4.5393036E1,4.3618034E1,1.26965E2,-9.9535E-4,9.5530957E-1,-4.8833087E-2,8.9E0,1.02E1,1.245E1,1.6645E1,3.33E1,2.77E1,4.665E1,1.0074981E1,2.925E1,9.5899994E1,9.95E1,4.3643036E1,5.735E1,8.605E1,1.267E2,1.2445E2,2.3645E1,2.6565E1,2.4900002E1,1.007E2,1.1305E2,7.69E1,3.7949997E1,1.6404999E2,9.785E1,8.448691E0,2.9936478E0,9.089585E-1,3.743326E0,1.323E2,2.57E1,1.3779683E0,3.7225833E0,6.504594E-2,-6.9676083E-1,4.0933716E-1,9.0185866E-2,1.8185131E-1,5.534583E0,4.3382865E-1,9.841353E-1,3.8231423E-1,2.5361416E0,-2.1474548E-1,8.1835544E-1,-7.938E-1,-2.138278E0,1.493488E0,5.9227653E0,-5.0809664E-1,1.460834E0,1.2835658E0,2.086108E-1,-3.2292914E0,2.1069272E-1,-1.7278515E0,7.8679746E-1,3.3557093E0,9.1478966E-2,-2.2194521E0,2.6472812E0,1.2854049E0,5.029852E-1,1.2989086E0,1.0669635E1,-1.3881882E0,8.9230007E-1,2.6439834E0,-9.918824E-2,2.7445655E0,5.787237E0,1.2999552E-1,3.254588E0,-4.1039544E-1,5.030506E-1,-7.1307623E-1,-2.9962444E0,-2.408732E0,-5.2795565E-1,5.345707E0,2.33976E0,2.0357455E-1,-3.0048628E0,2.3643816E0,4.8284757E-1,2.1116507E0,-8.63874E-2,4.1680007E0,2.3118925E0,4.582294E0,1.065744E0,-1.5685272E-1,2.8988573E-1,8.6047864E-1,-1.1147118E0,6.947697E-1,3.5549564E0],"split_indices":[167,167,167,146,148,156,132,166,58,140,146,159,49,164,92,0,32,139,6,12,158,0,160,160,0,86,49,148,0,142,91,10,122,166,126,0,0,0,14,131,167,0,0,104,158,31,108,0,149,29,47,167,132,122,31,124,0,12,0,166,82,54,146,165,68,0,0,0,19,0,4,9,157,165,132,0,124,137,49,101,5,117,89,159,105,2,66,134,144,128,10,119,0,0,0,0,0,46,28,0,0,0,0,0,0,0,0,0,0,0,0,0,0,0,0,0,0,0,0,0,0,0,0,0,0,0,0,0,0,0,0,0,0,0,0,0,0,0,0,0,0,0,0,0,0,0,0,0,0,0,0,0,0,0,0,0,0,0,0,0,0,0,0,0,0],"split_type":[0,0,0,0,0,0,0,0,0,0,0,0,0,0,0,0,0,0,0,0,0,0,0,0,0,0,0,0,0,0,0,0,0,0,0,0,0,0,0,0,0,0,0,0,0,0,0,0,0,0,0,0,0,0,0,0,0,0,0,0,0,0,0,0,0,0,0,0,0,0,0,0,0,0,0,0,0,0,0,0,0,0,0,0,0,0,0,0,0,0,0,0,0,0,0,0,0,0,0,0,0,0,0,0,0,0,0,0,0,0,0,0,0,0,0,0,0,0,0,0,0,0,0,0,0,0,0,0,0,0,0,0,0,0,0,0,0,0,0,0,0,0,0,0,0,0,0,0,0,0,0,0,0,0,0,0,0,0,0,0,0,0,0,0,0],"sum_hessian":[5.298E3,4.737E3,5.61E2,2.219E3,2.518E3,4.02E2,1.59E2,1.104E3,1.115E3,1.902E3,6.16E2,2.05E2,1.97E2,1.07E2,5.2E1,2E0,1.102E3,1.107E3,8E0,1.73E2,1.729E3,2E0,6.14E2,2.02E2,3E0,2.1E1,1.76E2,1.06E2,1E0,2.1E1,3.1E1,8E0,1.094E3,9.03E2,2.04E2,3E0,5E0,6E0,1.67E2,3.43E2,1.386E3,1E0,1E0,3.3E1,5.81E2,3.4E1,1.68E2,2E0,1.9E1,9.7E1,7.9E1,8.2E1,2.4E1,1.7E1,4E0,2.6E1,5E0,5E0,3E0,4.75E2,6.19E2,9E0,8.94E2,4.2E1,1.62E2,1E0,2E0,1E0,5E0,6E0,1.61E2,3.32E2,1.1E1,1.338E3,4.8E1,2E0,3.1E1,5.71E2,1E1,1.4E1,2E1,1.27E2,4.1E1,1E1,9E0,3E0,9.4E1,2.5E1,5.4E1,3.6E1,4.6E1,2.2E1,2E0,1.5E1,2E0,2E0,2E0,7E0,1.9E1,3E0,2E0,4.51E2,2.4E1,3.87E2,2.32E2,6E0,3E0,7.62E2,1.32E2,3.4E1,8E0,1.44E2,1.8E1,2E0,3E0,2E0,4E0,1.5E1,1.46E2,6.2E1,2.7E2,7E0,4E0,5E0,1.333E3,2.5E1,2.3E1,3E0,2.8E1,4.43E2,1.28E2,8E0,2E0,9E0,5E0,1.4E1,6E0,1.13E2,1.4E1,2.7E1,1.4E1,5E0,5E0,3E0,6E0,1E0,2E0,7E0,8.7E1,1.8E1,7E0,3.9E1,1.5E1,2.4E1,1.2E1,1.7E1,2.9E1,2E1,2E0,1E0,1E0,6E0,1E0,3E0,1.6E1],"tree_param":{"num_deleted":"0","num_feature":"168","num_nodes":"165","size_leaf_vector":"0"}},{"base_weights":[1.9734169E0,1.5381234E0,6.411448E0,1.193386E0,3.0575721E0,5.2000613E0,8.816532E0,1.1802937E0,2.6355827E1,2.6278715E0,5.8538475E0,6.486828E0,3.1449583E0,7.0562654E0,1.223522E1,5.778837E-1,1.602486E0,4.656111E0,1.8458762E0,2.789555E0,1.0264491E1,1.5667331E0,7.7950444E0,-2.35751E0,4.1015806E0,6.3440995E0,1.4026932E1,1.7790257E1,8.2073765E0,1.0127235E1,5.657527E-1,1.2128283E1,1.578999E0,5.5488334E0,-1.7653937E0,3.566063E-1,3.0592723E0,4.156896E0,-3.6306503E0,7.928845E0,2.0951616E1,6.6123767E0,-1.1922451E0,2.8316154E1,7.195848E0,5.635119E0,-6.479886E0,1.4551094E1,3.5491378E0,1.0562547E1,5.392176E0,2.0953363E1,4.295114E0,2.6321339E1,1.2623068E1,5.0633082E0,1.3749387E1,-1.2183501E-1,7.22517E-1,1.7364702E0,4.409475E-1,3.561828E0,8.043541E0,-1.4142145E1,1.0019606E0,1.5900159E-1,1.6770666E1,5.1180816E0,1.3678468E0,1.2657697E1,2.76914E0,-1.2928824E0,-6.1425657E0,5.3881316E0,1.4368233E1,2.873946E1,5.9789076E0,9.616464E0,5.0350314E-1,-2.6723237E0,6.1505814E0,3.2388973E1,8.048851E0,7.958832E0,7.5845695E-1,8.085787E0,-3.277003E-1,-8.14875E0,1.7992426E0,3.3215714E0,1.6528082E1,-3.883386E0,4.0541224E0,1.1947378E1,1.1754354E-1,-1.712678E0,6.078131E0,4.8513527E0,1.03508E0,1.4358348E1,4.261463E0,-1.8340988E0,6.248904E0,1.6198292E1,1.8195444E0,6.424084E0,-1.8688808E-1,1.6769259E0,5.656133E-1,1.7119929E0,2.5676004E1,-7.926135E0,7.4581885E-1,6.7018256E0,1.2624352E0,1.4133552E1,5.1748548E0,-5.739245E0,-1.7830996E1,-2.700659E0,4.6210837E0,-6.4926763E0,5.2014303E-1,4.114459E0,1.0561558E1,3.3964765E0,-2.9080924E-1,1.4698524E0,1.4045981E1,4.7349515E0,-1.2071124E0,6.198018E-1,-2.033744E0,9.987831E0,3.0524442E0,1.676255E1,2.395869E0,1.279975E1,3.873227E0,1.311503E0,-2.2837257E-1,-2.2272745E-3,-6.410236E0,7.638422E0,9.9609375E-2,6.942839E0,1.5017851E1,5.9352036E0,-3.458786E0,3.523491E0,9.95282E0,-1.4269981E0,9.354477E-1,-1.0377395E1,-4.56198E0,-5.9449525E0,8.4702045E-1,3.501101E-1,4.904406E0,3.3645477E0,1.2320112E1,1.658989E0,-1.4826736E0,-4.8773785E0,1.161618E0,4.5045977E0,9.909856E0,-3.398997E-1,-3.158348E0,1.8731207E0,7.67789E0],"categories":[],"categories_nodes":[],"categories_segments":[],"categories_sizes":[],"default_left":[1,1,1,1,1,1,1,1,0,1,1,1,1,1,1,1,1,1,1,1,1,1,1,1,1,1,1,1,1,0,1,0,1,1,1,1,1,1,1,1,1,1,1,1,1,1,1,1,1,1,1,0,1,0,1,1,1,1,1,1,1,1,1,1,1,1,0,1,1,1,1,1,0,1,1,0,0,1,1,1,1,0,0,1,1,1,1,1,0,0,0,1,1,1,1,1,1,0,0,0,0,1,1,0,0,0,0,0,0,0,0,0,0,0,0,0,0,0,0,0,0,0,0,0,0,0,0,0,0,0,0,0,0,0,0,0,0,0,0,0,0,0,0,0,0,0,0,0,0,0,0,0,0,0,0,0,0,0,0,0,0,0,0,0,0,0,0,0,0,0,0],"id":9,"left_children":[1,3,5,7,9,11,13,15,-1,17,19,21,23,25,27,29,31,33,35,37,39,41,43,45,47,49,51,53,55,-1,57,-1,59,61,63,65,67,69,71,73,75,77,79,81,83,85,87,89,91,93,95,-1,97,-1,99,101,103,105,107,109,111,113,115,117,119,121,-1,123,125,127,129,131,-1,133,135,-1,-1,137,139,141,143,-1,-1,145,147,149,151,153,-1,-1,-1,155,157,159,161,163,165,-1,-1,-1,-1,167,169,-1,-1,-1,-1,-1,-1,-1,-1,-1,-1,-1,-1,-1,-1,-1,-1,-1,-1,-1,-1,-1,-1,-1,-1,-1,-1,-1,-1,-1,-1,-1,-1,-1,-1,-1,-1,-1,-1,-1,-1,-1,-1,-1,-1,-1,-1,-1,-1,-1,-1,-1,-1,-1,-1,-1,-1,-1,-1,-1,-1,-1,-1,-1,-1,-1,-1,-1,-1],"loss_changes":[1.0226994E4,2.5247861E3,1.3322324E3,1.2655474E3,1.0564092E3,8.1788574E2,8.5845996E2,9.9987354E2,0E0,1.2206123E3,1.5661958E3,1.2364785E3,6.6237866E2,4.372246E2,1.0174795E3,1.8228497E2,5.526675E2,1.2423091E3,1.01267786E3,6.383736E2,1.0320225E3,5.9255804E2,1.6775566E3,6.625387E2,5.6026843E2,3.365774E2,5.166637E2,5.9345996E2,4.8796533E2,0E0,1.7492218E2,0E0,4.1303125E2,9.0822314E2,9.3894293E2,8.179378E2,1.0690369E3,6.609742E2,6.8397964E1,5.9336816E2,7.610105E2,2.704319E2,3.2073926E2,6.9486084E1,7.3070703E2,1.0493996E2,1.9427924E2,5.6104004E1,3.9858142E2,2.4449329E2,4.1004614E2,0E0,4.04525E0,0E0,1.564585E2,1.9136694E2,2.9189185E2,1.2980191E2,1.9687152E2,1.1444014E3,7.2526074E2,7.6408887E2,1.3768984E3,5.2648743E1,3.206854E2,6.0632855E2,0E0,7.1592896E2,5.763684E2,1.0360974E2,4.1217688E2,1.2596794E1,0E0,3.0255994E2,2.7516113E2,0E0,0E0,1.3324731E2,3.8476446E0,2.3951978E2,4.425354E1,0E0,0E0,8.567705E2,3.9166577E2,7.521118E0,5.50061E0,4.0588562E1,0E0,0E0,0E0,7.329983E1,3.006311E2,6.5351562E0,9.859681E0,7.8435936E1,4.0756104E2,0E0,0E0,0E0,0E0,6.8412466E0,1.0442413E2,0E0,0E0,0E0,0E0,0E0,0E0,0E0,0E0,0E0,0E0,0E0,0E0,0E0,0E0,0E0,0E0,0E0,0E0,0E0,0E0,0E0,0E0,0E0,0E0,0E0,0E0,0E0,0E0,0E0,0E0,0E0,0E0,0E0,0E0,0E0,0E0,0E0,0E0,0E0,0E0,0E0,0E0,0E0,0E0,0E0,0E0,0E0,0E0,0E0,0E0,0E0,0E0,0E0,0E0,0E0,0E0,0E0,0E0,0E0,0E0,0E0,0E0,0E0,0E0,0E0,0E0,0E0,0E0],"parents":[2147483647,0,0,1,1,2,2,3,3,4,4,5,5,6,6,7,7,9,9,10,10,11,11,12,12,13,13,14,14,15,15,16,16,17,17,18,18,19,19,20,20,21,21,22,22,23,23,24,24,25,25,26,26,27,27,28,28,30,30,32,32,33,33,34,34,35,35,36,36,37,37,38,38,39,39,40,40,41,41,42,42,43,43,44,44,45,45,46,46,47,47,48,48,49,49,50,50,52,52,54,54,55,55,56,56,57,57,58,58,59,59,60,60,61,61,62,62,63,63,64,64,65,65,67,67,68,68,69,69,70,70,71,71,73,73,74,74,77,77,78,78,79,79,80,80,83,83,84,84,85,85,86,86,87,87,91,91,92,92,93,93,94,94,95,95,96,96,101,101,102,102],"right_children":[2,4,6,8,10,12,14,16,-1,18,20,22,24,26,28,30,32,34,36,38,40,42,44,46,48,50,52,54,56,-1,58,-1,60,62,64,66,68,70,72,74,76,78,80,82,84,86,88,90,92,94,96,-1,98,-1,100,102,104,106,108,110,112,114,116,118,120,122,-1,124,126,128,130,132,-1,134,136,-1,-1,138,140,142,144,-1,-1,146,148,150,152,154,-1,-1,-1,156,158,160,162,164,166,-1,-1,-1,-1,168,170,-1,-1,-1,-1,-1,-1,-1,-1,-1,-1,-1,-1,-1,-1,-1,-1,-1,-1,-1,-1,-1,-1,-1,-1,-1,-1,-1,-1,-1,-1,-1,-1,-1,-1,-1,-1,-1,-1,-1,-1,-1,-1,-1,-1,-1,-1,-1,-1,-1,-1,-1,-1,-1,-1,-1,-1,-1,-1,-1,-1,-1,-1,-1,-1,-1,-1,-1,-1],"split_conditions":[9.5149994E1,4.555E1,1.426E2,1.8835E2,1.1025E2,8.3149994E1,1.217E2,2.283E1,7.9067483E0,2.61E1,6.6399994E1,2.23E1,8.215E1,1.512E2,1.02E2,2.05E0,3.125E0,8.645E1,4.79E1,1.1335E2,1.175E2,2.295E1,2.135E1,8.685E1,2.5529999E1,3.2699997E1,1.662E2,1.6825E2,1.7625E2,3.0381708E0,1.0389999E1,3.638485E0,4.857E1,4.2565002E1,1.815E1,1.6648999E2,5.425E1,2.085E1,1.10600006E2,1.402E2,1.18649994E2,2.0465E1,9.4E1,2.1599998E1,1.3929501E2,5.6949997E1,1.089E2,2.17E1,2.45E1,4.0449997E1,8.11E1,6.2860093E0,4.775E1,7.896402E0,1.6865E2,1.0205E2,1.3825E2,3.35E0,1.1615E1,1.43555E2,1.56E1,1.8615E1,2.455E1,4.8793037E1,4.0993034E1,2.2E1,5.0312E0,1.0805E2,6.695E1,1.325E1,1.328E2,2.373E1,-1.8427697E0,8.225E1,1.9565E2,8.621839E0,1.7936723E0,1.6564999E1,1.2675E1,2.215E1,3.6449997E1,9.716692E0,2.4146554E0,7.945E1,3.56E1,4.16E1,6.1949997E1,4.2E1,5.397728E-1,9.9647146E-1,4.9584246E0,5.426E1,4.815E1,7.9E0,1.1741E2,6.3850002E1,8.495E1,1.4554058E0,3.10524E-1,4.3075047E0,1.278439E0,4.9393036E1,1E2,4.8594875E0,5.4586333E-1,1.9272254E0,-5.6066427E-2,5.030778E-1,1.6968401E-1,5.135979E-1,7.7028017E0,-2.3778405E0,2.2374566E-1,2.0105479E0,3.7873057E-1,4.2400656E0,1.5524565E0,-1.7217735E0,-5.349299E0,-8.101978E-1,1.3863251E0,-1.9478029E0,1.5604292E-1,1.2343378E0,3.1684675E0,1.018943E0,-8.7242775E-2,4.4095576E-1,4.2137947E0,1.4204855E0,-3.6213374E-1,1.8594055E-1,-6.101233E-1,2.9963493E0,9.157333E-1,5.028765E0,7.187607E-1,3.8399253E0,1.1619681E0,3.9345095E-1,-6.851178E-2,-6.681824E-4,-1.9230708E0,2.2915268E0,2.9882813E-2,2.082852E0,4.5053554E0,1.7805611E0,-1.0376358E0,1.0570474E0,2.985846E0,-4.2809945E-1,2.806343E-1,-3.1132185E0,-1.3685939E0,-1.7834858E0,2.5410613E-1,1.0503304E-1,1.4713218E0,1.0093644E0,3.6960337E0,4.976967E-1,-4.448021E-1,-1.4632136E0,3.484854E-1,1.3513794E0,2.972957E0,-1.0196991E-1,-9.4750446E-1,5.619362E-1,2.3033671E0],"split_indices":[167,167,167,159,149,134,132,167,0,113,10,124,136,116,120,90,134,166,97,163,47,91,123,161,64,106,115,166,155,0,167,0,140,147,94,20,7,78,143,150,18,87,76,1,162,3,125,1,25,108,163,0,8,0,141,152,19,141,140,158,164,118,10,2,61,163,0,157,81,2,145,17,0,152,151,0,0,85,6,122,5,0,0,134,15,0,0,30,0,0,0,8,110,85,0,37,32,0,0,0,0,27,124,0,0,0,0,0,0,0,0,0,0,0,0,0,0,0,0,0,0,0,0,0,0,0,0,0,0,0,0,0,0,0,0,0,0,0,0,0,0,0,0,0,0,0,0,0,0,0,0,0,0,0,0,0,0,0,0,0,0,0,0,0,0,0,0,0,0,0,0],"split_type":[0,0,0,0,0,0,0,0,0,0,0,0,0,0,0,0,0,0,0,0,0,0,0,0,0,0,0,0,0,0,0,0,0,0,0,0,0,0,0,0,0,0,0,0,0,0,0,0,0,0,0,0,0,0,0,0,0,0,0,0,0,0,0,0,0,0,0,0,0,0,0,0,0,0,0,0,0,0,0,0,0,0,0,0,0,0,0,0,0,0,0,0,0,0,0,0,0,0,0,0,0,0,0,0,0,0,0,0,0,0,0,0,0,0,0,0,0,0,0,0,0,0,0,0,0,0,0,0,0,0,0,0,0,0,0,0,0,0,0,0,0,0,0,0,0,0,0,0,0,0,0,0,0,0,0,0,0,0,0,0,0,0,0,0,0,0,0,0,0,0,0],"sum_hessian":[5.298E3,4.826E3,4.72E2,3.935E3,8.91E2,3.16E2,1.56E2,3.934E3,1E0,7.74E2,1.17E2,1.93E2,1.23E2,1.05E2,5.1E1,1.622E3,2.312E3,2.14E2,5.6E2,7E1,4.7E1,4.1E1,1.52E2,1.8E1,1.05E2,9.7E1,8E0,2E1,3.1E1,1E0,1.621E3,4E0,2.308E3,1.88E2,2.6E1,2.52E2,3.08E2,5.8E1,1.2E1,4E1,7E0,1.4E1,2.7E1,3E0,1.49E2,6E0,1.2E1,4E0,1.01E2,1.6E1,8.1E1,4E0,4E0,6E0,1.4E1,2.1E1,1E1,3.01E2,1.32E3,2.027E3,2.81E2,1.06E2,8.2E1,4E0,2.2E1,2.5E2,2E0,1.38E2,1.7E2,7E0,5.1E1,7E0,5E0,3E1,1E1,4E0,3E0,9E0,5E0,2.3E1,4E0,2E0,1E0,1.33E2,1.6E1,4E0,2E0,1E1,2E0,1E0,3E0,6E0,9.5E1,1.4E1,2E0,7E0,7.4E1,3E0,1E0,1.1E1,3E0,3E0,1.8E1,8E0,2E0,2E0,2.99E2,1.85E2,1.135E3,2.026E3,1E0,9E0,2.72E2,4.4E1,6.2E1,2.5E1,5.7E1,2E0,2E0,1.1E1,1.1E1,1.2E1,2.38E2,1.18E2,2E1,7.6E1,9.4E1,1E0,6E0,3.4E1,1.7E1,2E0,5E0,9E0,2.1E1,8E0,2E0,5E0,4E0,2E0,3E0,1.4E1,9E0,3E0,1E0,1.18E2,1.5E1,7E0,9E0,2E0,2E0,1E0,1E0,5E0,5E0,4E0,2E0,1.8E1,7.7E1,1E0,1.3E1,1E0,1E0,3E0,4E0,5.4E1,2E1,2E0,1E0,5E0,1.3E1],"tree_param":{"num_deleted":"0","num_feature":"168","num_nodes":"171","size_leaf_vector":"0"}},{"base_weights":[1.4049499E0,1.1206844E0,5.061004E0,8.412612E-1,2.2383742E0,1.2470635E1,4.7452283E0,8.300888E-1,2.240245E1,2.1820068E1,2.1962135E0,4.220686E0,1.9161755E1,3.155147E0,6.18637E0,4.570814E-1,1.2334448E0,1.3451514E-1,2.4885306E0,6.375679E0,-1.4961954E0,2.1418232E1,1.6832085E0,4.0455575E0,1.9679025E-1,8.547191E0,4.730457E0,5.7563543E0,4.2036378E-1,1.2122104E0,8.99637E0,5.4072533E0,-8.807664E-1,5.8631773E0,2.177424E0,6.9750166E0,1.6894951E0,1.6402895E0,5.979972E0,-3.597774E0,3.8099291E0,1.0953538E1,5.011264E0,2.307205E0,7.59641E0,2.3563635E0,1.1405066E1,2.621865E-1,1.2662872E0,1.2412812E0,-4.3655686E0,-1.868871E-1,1.5180837E1,1.6739289E0,8.309616E0,-4.6642118E0,3.7556705E-1,9.325633E0,1.7190905E0,-1.4316086E0,2.4817958E0,4.3053284E0,-1.1636311E0,1.6811018E1,4.7945037E0,-1.3207327E0,-7.1328745E0,-8.3288574E-1,5.60304E0,4.1148086E0,1.5911135E1,2.6926024E0,9.611193E0,9.678436E0,1.556647E0,-1.3458252E-1,9.11192E0,7.238337E0,2.3107791E-1,3.5872427E-1,-1.0832275E0,1.1742397E1,1.0965188E0,1.2887093E0,-1.8254776E0,-1.7173174E1,9.829798E-1,-5.5355453E-1,2.7322388E-1,3.2802815E0,-1.5556707E0,9.736273E0,3.3788996E0,1.0276514E0,-8.9067545E0,2.9176424E0,-2.3065012E0,-6.994599E-1,1.1935317E1,6.212449E0,-7.000137E-1,-5.442894E-1,-1.4161663E1,2.2796752E0,6.9527106E0,6.544166E0,-1.2745308E0,-3.0719779E0,3.151095E0,8.6509705E-1,1.932449E1,8.3941895E-1,6.507365E0,-4.3278008E0,8.3072746E-1,-1.0232262E1,-1.4754219E0,1.6469218E0,-2.1541932E0,8.09121E0,2.7687733E0,6.334884E0,2.7034378E-1,2.0974337E1,9.100071E0,-2.583627E0,4.3964124E0,1.0699385E1,-9.127045E-2,2.4914906E0,1.2649036E1,6.1342106E-3,4.812417E0,3.2020404E0,-4.1116133E0,1.8219889E1,8.2838335E0],"categories":[],"categories_nodes":[],"categories_segments":[],"categories_sizes":[],"default_left":[1,1,1,1,1,1,1,1,0,0,1,1,1,1,1,1,1,1,1,1,0,0,0,1,1,1,1,1,1,1,1,1,1,1,1,0,0,1,1,1,1,1,1,1,1,1,0,1,1,1,1,1,0,1,1,1,1,1,1,1,1,1,1,1,1,1,1,1,1,1,1,1,1,1,1,1,1,0,0,0,0,0,0,0,0,0,0,0,0,0,0,0,0,0,0,0,0,0,0,0,0,0,0,0,0,0,0,0,0,0,0,0,0,0,0,0,0,0,0,0,0,0,0,0,0,0,0,0,0,0,0,0,0,0,0,0,0],"id":10,"left_children":[1,3,5,7,9,11,13,15,-1,-1,17,19,21,23,25,27,29,31,33,35,-1,-1,-1,37,39,41,43,45,47,49,51,53,55,57,59,-1,-1,61,63,65,67,69,71,73,75,77,-1,79,81,83,85,87,-1,89,91,93,95,97,99,101,103,105,107,109,111,113,115,117,119,121,123,125,127,129,131,133,135,-1,-1,-1,-1,-1,-1,-1,-1,-1,-1,-1,-1,-1,-1,-1,-1,-1,-1,-1,-1,-1,-1,-1,-1,-1,-1,-1,-1,-1,-1,-1,-1,-1,-1,-1,-1,-1,-1,-1,-1,-1,-1,-1,-1,-1,-1,-1,-1,-1,-1,-1,-1,-1,-1,-1,-1,-1,-1,-1,-1],"loss_changes":[5.5015264E3,1.5340498E3,8.346211E2,9.295532E2,7.636211E2,7.4714526E2,8.2376465E2,5.914758E2,0E0,0E0,5.914868E2,1.0809798E2,2.7946802E2,4.6544873E2,6.19501E2,3.9568408E2,3.0064404E2,6.632201E2,8.901255E2,5.067398E0,0E0,0E0,0E0,6.2297E2,5.8953937E2,5.577329E2,8.228096E2,2.4200348E2,2.7169534E2,3.112329E2,2.8680484E2,2.0279956E2,4.9609164E2,1.0170762E3,8.702595E2,0E0,0E0,4.683084E2,8.8238916E2,1.5962036E2,1.8781851E2,1.3584824E3,3.047569E2,3.5561404E2,6.4562866E2,1.0208325E2,0E0,2.2300851E2,5.562485E2,2.7536353E2,7.0190186E2,6.573674E-1,0E0,5.6981796E1,4.4480896E1,6.3700037E2,5.453531E2,1.0286792E3,3.7392548E2,6.926205E2,6.420176E2,4.0809747E2,2.6493387E2,2.6383984E2,4.61979E2,9.416945E1,1.25180176E2,2.6483904E1,9.043143E1,1.6045245E2,6.367905E2,2.0913194E2,1.0655792E2,9.6582275E1,3.1295343E2,1.4586407E2,1.9601025E2,0E0,0E0,0E0,0E0,0E0,0E0,0E0,0E0,0E0,0E0,0E0,0E0,0E0,0E0,0E0,0E0,0E0,0E0,0E0,0E0,0E0,0E0,0E0,0E0,0E0,0E0,0E0,0E0,0E0,0E0,0E0,0E0,0E0,0E0,0E0,0E0,0E0,0E0,0E0,0E0,0E0,0E0,0E0,0E0,0E0,0E0,0E0,0E0,0E0,0E0,0E0,0E0,0E0,0E0,0E0,0E0,0E0,0E0,0E0,0E0],"parents":[2147483647,0,0,1,1,2,2,3,3,4,4,5,5,6,6,7,7,10,10,11,11,12,12,13,13,14,14,15,15,16,16,17,17,18,18,19,19,23,23,24,24,25,25,26,26,27,27,28,28,29,29,30,30,31,31,32,32,33,33,34,34,37,37,38,38,39,39,40,40,41,41,42,42,43,43,44,44,45,45,47,47,48,48,49,49,50,50,51,51,53,53,54,54,55,55,56,56,57,57,58,58,59,59,60,60,61,61,62,62,63,63,64,64,65,65,66,66,67,67,68,68,69,69,70,70,71,71,72,72,73,73,74,74,75,75,76,76],"right_children":[2,4,6,8,10,12,14,16,-1,-1,18,20,22,24,26,28,30,32,34,36,-1,-1,-1,38,40,42,44,46,48,50,52,54,56,58,60,-1,-1,62,64,66,68,70,72,74,76,78,-1,80,82,84,86,88,-1,90,92,94,96,98,100,102,104,106,108,110,112,114,116,118,120,122,124,126,128,130,132,134,136,-1,-1,-1,-1,-1,-1,-1,-1,-1,-1,-1,-1,-1,-1,-1,-1,-1,-1,-1,-1,-1,-1,-1,-1,-1,-1,-1,-1,-1,-1,-1,-1,-1,-1,-1,-1,-1,-1,-1,-1,-1,-1,-1,-1,-1,-1,-1,-1,-1,-1,-1,-1,-1,-1,-1,-1,-1,-1,-1,-1],"split_conditions":[1.0675E2,4.555E1,8.4525E1,1.8835E2,1.7845001E1,7.785E1,1.3494E2,3.805E1,6.7207355E0,6.546021E0,1.905E1,5.59E1,1.177E2,1.1E2,4.3199997E1,4.55E0,2.041E2,1.225E1,1.8439999E1,7.33E1,-4.4885865E-1,6.42547E0,5.0496256E-1,4.1705E1,6.65E1,4.765E1,8.055E1,3.57E1,5.195E1,1.8161499E2,1.3505E2,2.22E1,1.5395E1,5.0800003E1,2.07E1,2.092505E0,5.068486E-1,2.6685001E1,4.2550003E1,4.6E1,3.175E1,5.805E1,5.275E1,3.093E1,1.212E2,1.165E1,3.4215198E0,5.915E1,7.5550003E0,1.133E2,8.005E1,1.4195E2,4.554251E0,3.465E1,8.025E1,1.6325E1,2.975E1,1.265E1,3.043E1,8.92E1,1.552E2,4.475E1,7.875E1,2.823E1,6.115E1,1.17649994E2,8.2399994E1,5.3800003E1,1.22100006E2,4.9118034E1,1.1595E2,1.0055E2,2.453E2,5.2050003E1,1.1725E2,8.0149994E1,4.61E1,2.1715012E0,6.9323376E-2,1.0761728E-1,-3.2496828E-1,3.5227194E0,3.2895565E-1,3.866128E-1,-5.476433E-1,-5.1519523E0,2.9489395E-1,-1.6606636E-1,8.196717E-2,9.840845E-1,-4.6670124E-1,2.920882E0,1.01367E0,3.0829543E-1,-2.6720264E0,8.752927E-1,-6.919504E-1,-2.0983799E-1,3.5805953E0,1.8637348E0,-2.1000412E-1,-1.6328683E-1,-4.248499E0,6.839026E-1,2.0858133E0,1.9632499E0,-3.8235924E-1,-9.2159337E-1,9.4532853E-1,2.595291E-1,5.797347E0,2.518257E-1,1.9522096E0,-1.2983403E0,2.4921824E-1,-3.0696785E0,-4.426266E-1,4.9407655E-1,-6.46258E-1,2.4273632E0,8.3063203E-1,1.9004654E0,8.110314E-2,6.292301E0,2.7300215E0,-7.7508813E-1,1.3189237E0,3.2098155E0,-2.7381135E-2,7.474472E-1,3.794711E0,1.8402633E-3,1.4437251E0,9.606122E-1,-1.233484E0,5.4659667E0,2.48515E0],"split_indices":[167,167,166,159,166,166,167,157,0,0,72,104,3,120,35,117,47,92,82,0,0,0,0,80,56,67,37,51,7,17,9,56,85,141,79,0,0,48,83,8,15,123,60,130,165,102,0,139,102,148,0,0,0,13,55,130,11,90,73,156,143,10,32,21,145,164,21,25,144,0,136,117,2,24,146,10,150,0,0,0,0,0,0,0,0,0,0,0,0,0,0,0,0,0,0,0,0,0,0,0,0,0,0,0,0,0,0,0,0,0,0,0,0,0,0,0,0,0,0,0,0,0,0,0,0,0,0,0,0,0,0,0,0,0,0,0,0],"split_type":[0,0,0,0,0,0,0,0,0,0,0,0,0,0,0,0,0,0,0,0,0,0,0,0,0,0,0,0,0,0,0,0,0,0,0,0,0,0,0,0,0,0,0,0,0,0,0,0,0,0,0,0,0,0,0,0,0,0,0,0,0,0,0,0,0,0,0,0,0,0,0,0,0,0,0,0,0,0,0,0,0,0,0,0,0,0,0,0,0,0,0,0,0,0,0,0,0,0,0,0,0,0,0,0,0,0,0,0,0,0,0,0,0,0,0,0,0,0,0,0,0,0,0,0,0,0,0,0,0,0,0,0,0,0,0,0,0],"sum_hessian":[5.298E3,4.917E3,3.81E2,3.935E3,9.82E2,1.4E1,3.67E2,3.934E3,1E0,1E0,9.81E2,7E0,7E0,1.76E2,1.91E2,2.045E3,1.889E3,1.22E2,8.59E2,5E0,2E0,6E0,1E0,1.35E2,4.1E1,7.1E1,1.2E2,1.3E1,2.032E3,1.885E3,4E0,1.9E1,1.03E2,7.1E1,7.88E2,4E0,1E0,6.1E1,7.4E1,2E1,2.1E1,4.1E1,3E1,6.6E1,5.4E1,9E0,4E0,1.713E3,3.19E2,1.876E3,9E0,2E0,2E0,9E0,1E1,2.5E1,7.8E1,3.8E1,3.3E1,6.1E1,7.27E2,3.1E1,3E1,6E0,6.8E1,1.3E1,7E0,6E0,1.5E1,1.8E1,2.3E1,2.1E1,9E0,5E0,6.1E1,9E0,4.5E1,2E0,7E0,1.599E3,1.14E2,4E0,3.15E2,1.848E3,2.8E1,2E0,7E0,1E0,1E0,6E0,3E0,7E0,3E0,1.1E1,1.4E1,4E1,3.8E1,8E0,3E1,1.1E1,2.2E1,5.8E1,3E0,6.97E2,3E1,2.2E1,9E0,2.1E1,9E0,1E0,5E0,2.1E1,4.7E1,5E0,8E0,4E0,3E0,2E0,4E0,7E0,8E0,1.1E1,7E0,1.2E1,1.1E1,5E0,1.6E1,8E0,1E0,2E0,3E0,4.2E1,1.9E1,5E0,4E0,2E0,4.3E1],"tree_param":{"num_deleted":"0","num_feature":"168","num_nodes":"137","size_leaf_vector":"0"}},{"base_weights":[9.973467E-1,7.9010594E-1,3.6628249E0,5.9729105E-1,1.6444361E0,9.792381E0,3.4375627E0,6.1607823E0,5.762787E-1,3.8008528E0,1.2280134E0,3.2232924E0,1.6919104E1,2.2595172E0,4.506239E0,-2.781928E-1,1.0484343E1,-5.390165E-4,7.826488E-1,1.4529041E0,6.1288986E0,-5.958274E0,1.331775E0,4.8962007E0,-1.1969553E0,2.7186112E0,-1.7254598E0,6.000102E0,2.9968805E0,2.6177175E0,-3.104555E0,6.0441337E0,1.28276825E1,1.0031568E1,-2.9120006E-2,8.0447185E-1,-6.428323E0,3.6649978E0,1.783326E-1,8.580521E0,1.6342639E0,-1.4669765E1,-2.3924127E0,9.5621586E-1,3.1155474E0,6.485868E0,2.4799004E0,2.3185437E0,1.1131729E1,-5.9006524E0,2.6222787E0,6.432213E0,-3.1507568E0,4.6881658E-1,6.0888495E0,1.6859198E-1,3.3778954E0,-4.3453197E0,-1.2425267E0,-7.670276E-2,4.485237E0,7.805523E-1,6.1263123E0,8.580532E-2,-1.1656787E1,5.4576383E0,-2.2364955E0,-4.9003756E-1,4.9385967E0,-2.3551361E-1,9.876416E0,-7.5546813E0,2.6715667E0,-3.1254697E0,1.736021E0,1.609264E0,-4.6804312E-1,2.4133642E0,1.3522171E1,3.0814059E0,-1.0759116E0,1.4244123E1,2.2338283E0,-6.9716473E0,-1.0777817E0,5.593694E-1,4.5733137E0,5.7822113E0,1.4785199E1,-6.9249115E0,-4.759903E-1,4.067333E0,-5.2325195E-1,7.2776947E0,-1.7066383E-1,1.749068E-1,-8.630524E-1,8.95204E0,6.539158E-1,8.064531E-1,-3.980554E0,2.1109772E1,1.482977E0,-1.2431612E0,1.38617E0,1.9745402E0,8.444588E0,-4.350667E0,4.368E-1,5.380128E-1,-3.9364052E0,6.0206466E0,-2.3582649E-1,-3.023748E0,2.611599E0,1.5858408E0,1.1536657E1,2.7792633E-1,6.234235E0,-4.2895074E0,-1.5691454E0,6.340094E-1,3.3102963E0,-1.7089486E0,2.1787724E0,7.490905E0,1.1067795E0,2.6876628E0,1.668573E1,2.4692893E0,1.0764558E1,6.3871408E0,-1.8652911E0,-1.0155754E0,1.0774734E0,4.5917215E0,9.801242E0,1.7805862E0,1.7030005E1,-1.0448812E0,6.153412E-1,-4.0479738E-1,6.353998E0,-3.4165447E0,9.408361E-1,4.6270723E0,9.818514E0,4.991989E-1,-1.4535013E0],"categories":[],"categories_nodes":[],"categories_segments":[],"categories_sizes":[],"default_left":[1,1,1,1,1,1,1,1,1,1,1,1,0,1,1,1,1,1,1,1,1,1,1,1,0,1,1,1,1,1,1,0,0,0,1,1,1,1,1,1,1,0,1,1,1,0,0,1,1,1,1,1,1,1,1,0,0,0,0,1,1,1,1,1,0,1,1,1,1,1,1,0,1,1,0,1,1,1,1,1,1,0,0,0,0,1,0,1,1,0,1,1,1,1,1,0,0,0,0,0,0,0,0,0,0,0,0,0,0,0,0,0,0,0,0,0,0,0,0,0,0,0,0,0,0,0,0,0,0,0,0,0,0,0,0,0,0,0,0,0,0,0,0,0,0,0,0,0,0],"id":11,"left_children":[1,3,5,7,9,11,13,15,17,19,21,23,-1,25,27,29,31,33,35,37,39,41,43,45,-1,47,49,51,53,55,57,-1,-1,-1,59,61,63,65,67,69,71,-1,73,75,77,-1,-1,79,81,83,85,87,89,91,93,-1,-1,-1,-1,95,97,99,101,103,-1,105,107,109,111,113,115,-1,117,119,-1,121,123,125,127,129,131,-1,-1,-1,-1,133,-1,135,137,-1,139,141,143,145,147,-1,-1,-1,-1,-1,-1,-1,-1,-1,-1,-1,-1,-1,-1,-1,-1,-1,-1,-1,-1,-1,-1,-1,-1,-1,-1,-1,-1,-1,-1,-1,-1,-1,-1,-1,-1,-1,-1,-1,-1,-1,-1,-1,-1,-1,-1,-1,-1,-1,-1,-1,-1,-1,-1],"loss_changes":[2.924251E3,8.091477E2,4.937876E2,4.6569592E2,8.080054E2,5.540737E2,4.556294E2,4.205061E2,4.7615222E2,7.891504E2,5.7463684E2,6.501791E1,0E0,3.303382E2,4.1718994E2,6.542108E1,1.611206E1,3.0278967E2,4.6876978E2,2.0798729E2,7.90375E2,3.0660754E2,4.994547E2,6.962372E0,0E0,5.1272144E2,3.603734E2,3.9986792E2,7.6318164E2,6.877596E0,3.8421822E0,0E0,0E0,0E0,2.2653424E2,3.692129E2,3.0753015E2,2.978459E2,1.5513779E2,5.392849E2,2.7753925E2,0E0,3.2663277E1,5.7835144E2,9.173225E2,0E0,0E0,4.0209863E2,1.6203754E2,4.4138794E1,3.768992E1,4.140188E2,4.717872E1,1.9847687E2,3.28672E2,0E0,0E0,0E0,0E0,2.0651173E2,1.8239743E2,3.640338E2,8.7314667E2,1.0363938E1,0E0,2.018064E2,4.1463005E1,1.5446854E2,3.5013733E1,6.3465736E1,5.4604297E2,0E0,2.1146098E2,7.7621E0,0E0,7.046095E2,6.474752E2,8.077204E2,2.2935925E2,5.6599536E2,1.827581E2,0E0,0E0,0E0,0E0,5.990167E0,0E0,3.7125708E2,1.448335E2,0E0,3.1263523E0,1.2528728E2,1.8959996E2,2.0375488E2,7.600187E0,0E0,0E0,0E0,0E0,0E0,0E0,0E0,0E0,0E0,0E0,0E0,0E0,0E0,0E0,0E0,0E0,0E0,0E0,0E0,0E0,0E0,0E0,0E0,0E0,0E0,0E0,0E0,0E0,0E0,0E0,0E0,0E0,0E0,0E0,0E0,0E0,0E0,0E0,0E0,0E0,0E0,0E0,0E0,0E0,0E0,0E0,0E0,0E0,0E0,0E0,0E0,0E0,0E0,0E0],"parents":[2147483647,0,0,1,1,2,2,3,3,4,4,5,5,6,6,7,7,8,8,9,9,10,10,11,11,13,13,14,14,15,15,16,16,17,17,18,18,19,19,20,20,21,21,22,22,23,23,25,25,26,26,27,27,28,28,29,29,30,30,34,34,35,35,36,36,37,37,38,38,39,39,40,40,42,42,43,43,44,44,47,47,48,48,49,49,50,50,51,51,52,52,53,53,54,54,59,59,60,60,61,61,62,62,63,63,65,65,66,66,67,67,68,68,69,69,70,70,72,72,73,73,75,75,76,76,77,77,78,78,79,79,80,80,85,85,87,87,88,88,90,90,91,91,92,92,93,93,94,94],"right_children":[2,4,6,8,10,12,14,16,18,20,22,24,-1,26,28,30,32,34,36,38,40,42,44,46,-1,48,50,52,54,56,58,-1,-1,-1,60,62,64,66,68,70,72,-1,74,76,78,-1,-1,80,82,84,86,88,90,92,94,-1,-1,-1,-1,96,98,100,102,104,-1,106,108,110,112,114,116,-1,118,120,-1,122,124,126,128,130,132,-1,-1,-1,-1,134,-1,136,138,-1,140,142,144,146,148,-1,-1,-1,-1,-1,-1,-1,-1,-1,-1,-1,-1,-1,-1,-1,-1,-1,-1,-1,-1,-1,-1,-1,-1,-1,-1,-1,-1,-1,-1,-1,-1,-1,-1,-1,-1,-1,-1,-1,-1,-1,-1,-1,-1,-1,-1,-1,-1,-1,-1,-1,-1,-1,-1],"split_conditions":[1.0675E2,5.0800003E1,8.295E1,2.85E0,3.24E1,7.785E1,1.3494E2,4.669304E1,1.7425E1,3.4735E1,1.0799999E1,5.59E1,5.0757313E0,1.204E2,4.675E1,2.655E1,5.375E1,2.4250002E0,4.998E1,3.0380001E1,5.956E1,1.14E1,1.1359E2,3.635E1,-3.590866E-1,1.252E2,1.464E2,1.411E2,8.275E1,3.0343037E1,6.919304E1,1.8132402E0,3.848305E0,3.0094705E0,1.4035E2,1.34465E2,5.05E1,1.975E1,1.241E2,2.7525002E1,3.325E1,-4.40093E0,7.86E1,7.57E1,1.4325E2,1.9457605E0,7.4397016E-1,1.331E2,1.2215E2,1.0395E2,8.88E1,1.4279999E2,4.015E1,3.7699997E1,1.028E2,5.0577596E-2,1.0133686E0,-1.303596E0,-3.72758E-1,2.1045E1,1.3950001E1,1.2155E2,2.6779999E1,6.1199997E1,-3.4970362E0,2.1400002E1,3.46E1,5.225E1,6.235E1,2.8904999E1,1.2845E1,-2.2664044E0,8.28E1,2.225E1,5.208063E-1,6.235E1,9.77E1,2.92E1,5.675E1,8.87E1,6.3999996E0,4.273237E0,6.701485E-1,-2.0914943E0,-3.2333452E-1,3.255E1,1.3719941E0,1.5005E2,2.335E1,-2.0774736E0,1.369E2,7.76E1,8.42E1,4.965E1,8.855E1,5.2472044E-2,-2.5891575E-1,2.685612E0,1.9617476E-1,2.4193594E-1,-1.1941663E0,6.332932E0,4.4489312E-1,-3.7294838E-1,4.1585103E-1,5.923621E-1,2.5333765E0,-1.3052001E0,1.3104E-1,1.6140385E-1,-1.1809216E0,1.8061941E0,-7.074795E-2,-9.071244E-1,7.8347975E-1,4.7575226E-1,3.4609973E0,8.33779E-2,1.8702705E0,-1.2868522E0,-4.7074366E-1,1.9020283E-1,9.930889E-1,-5.126846E-1,6.5363175E-1,2.2472715E0,3.3203384E-1,8.062989E-1,5.005719E0,7.407868E-1,3.2293675E0,1.9161423E0,-5.5958736E-1,-3.0467263E-1,3.2324204E-1,1.3775165E0,2.9403727E0,5.341759E-1,5.1090016E0,-3.1346437E-1,1.8460236E-1,-1.2143922E-1,1.9061996E0,-1.0249635E0,2.8225082E-1,1.3881217E0,2.9455543E0,1.4975968E-1,-4.3605042E-1],"split_indices":[167,146,166,150,140,166,167,13,144,119,159,104,0,69,84,108,3,120,146,28,47,16,157,1,0,70,69,101,81,84,0,0,0,0,49,158,145,113,61,143,70,0,0,156,56,0,0,166,117,27,43,119,0,67,34,0,0,0,0,140,141,164,145,0,0,133,120,167,6,32,65,0,64,6,0,165,134,31,0,45,1,0,0,0,0,5,0,147,0,0,0,130,145,26,4,0,0,0,0,0,0,0,0,0,0,0,0,0,0,0,0,0,0,0,0,0,0,0,0,0,0,0,0,0,0,0,0,0,0,0,0,0,0,0,0,0,0,0,0,0,0,0,0,0,0,0,0,0,0],"split_type":[0,0,0,0,0,0,0,0,0,0,0,0,0,0,0,0,0,0,0,0,0,0,0,0,0,0,0,0,0,0,0,0,0,0,0,0,0,0,0,0,0,0,0,0,0,0,0,0,0,0,0,0,0,0,0,0,0,0,0,0,0,0,0,0,0,0,0,0,0,0,0,0,0,0,0,0,0,0,0,0,0,0,0,0,0,0,0,0,0,0,0,0,0,0,0,0,0,0,0,0,0,0,0,0,0,0,0,0,0,0,0,0,0,0,0,0,0,0,0,0,0,0,0,0,0,0,0,0,0,0,0,0,0,0,0,0,0,0,0,0,0,0,0,0,0,0,0,0,0],"sum_hessian":[5.298E3,4.917E3,3.81E2,4.013E3,9.04E2,1.2E1,3.69E2,1.4E1,3.999E3,1.45E2,7.59E2,7E0,5E0,1.77E2,1.92E2,6E0,8E0,1.054E3,2.945E3,7.3E1,7.2E1,1E1,7.49E2,5E0,2E0,1.59E2,1.8E1,9.5E1,9.7E1,3E0,3E0,4E0,4E0,2E0,1.052E3,2.937E3,8E0,2.6E1,4.7E1,4.6E1,2.6E1,2E0,8E0,6.2E2,1.29E2,2E0,3E0,1.53E2,6E0,9E0,9E0,9.1E1,4E0,5.4E1,4.3E1,1E0,2E0,1E0,2E0,1.042E3,1E1,2.925E3,1.2E1,4E0,4E0,2E1,6E0,4.2E1,5E0,6E0,4E1,2E0,2.4E1,7E0,1E0,4.25E2,1.95E2,1.22E2,7E0,1.25E2,2.8E1,4E0,2E0,7E0,2E0,5E0,4E0,8.6E1,5E0,1E0,3E0,1.1E1,4.3E1,3.6E1,7E0,7.9E2,2.52E2,4E0,6E0,2.91E3,1.5E1,2E0,1E1,2E0,2E0,1E1,1E1,3E0,3E0,3.3E1,9E0,4E0,1E0,3E0,3E0,7E0,3.3E1,1.5E1,9E0,3E0,4E0,2.71E2,1.54E2,1.33E2,6.2E1,2.4E1,9.8E1,2E0,5E0,1.17E2,8E0,2E0,2.6E1,1E0,4E0,6.8E1,1.8E1,1E0,4E0,2E0,1E0,4E0,7E0,1.4E1,2.9E1,1.9E1,1.7E1,5E0,2E0],"tree_param":{"num_deleted":"0","num_feature":"168","num_nodes":"149","size_leaf_vector":"0"}},{"base_weights":[7.08116E-1,5.363766E-1,2.4592323E0,5.1837176E-1,7.1638255E0,2.376895E0,1.456644E1,5.526543E-1,-2.3530161E0,1.2716433E1,3.283063E0,3.9036367E0,1.8140442E0,4.109957E-1,1.383207E0,2.2835567E0,-5.1211157E0,1.5727997E0,1.5109141E1,1.4934635E-1,4.82503E0,-8.661702E-1,4.811772E0,1.6135068E0,7.261213E0,4.572942E-1,-3.3948157E0,9.42748E-2,2.1474605E0,9.5259327E-1,6.618314E0,-1.4438208E0,-8.718198E0,-1.0317001E0,8.8692856E-1,5.467946E0,8.052254E-1,5.120767E0,-2.576083E0,1.4956828E1,4.267291E0,4.157877E0,1.2245828E0,1.2605122E1,4.0793405E0,9.988676E0,4.4768694E-1,-4.0179496E0,7.499224E0,2.058922E0,-5.6109107E-1,1.7055088E1,2.0044558E0,3.5071301E0,-9.918511E-1,-4.823662E0,9.297247E-1,1.9565226E0,-1.0174821E1,5.755516E0,1.2908859E0,7.835757E-1,-4.041239E0,3.8803775E0,1.5741974E1,2.0611057E0,1.2082974E1,-1.8759267E0,1.8884912E0,1.9961586E0,4.7882385E0,1.7837286E-1,7.3293024E-1,-1.1064116E0,-7.007972E0,1.3310472E0,1.0527212E1,6.475635E-1,-1.9783833E0,7.2997885E0,1.6888263E0,4.175311E0,1.7951212E0,-1.8136168E0,8.9964294E-1,-6.0174336E0,-8.2823056E-1,4.382229E0,-7.080243E-1,-1.0220375E0,3.9568214E0,-1.1848048E1,-5.4114347E0,-8.025258E-1,1.7772579E0,-4.6994143E0,-5.002416E-1,5.029819E0,8.9278567E-1,3.2746477E0,-2.595622E0,5.0554714E0,1.4754148E1,-5.300076E0,6.146287E-1,6.076058E0,1.4400778E0],