{"learner":{"attributes":{"best_iteration":"58","best_ntree_limit":"59","best_score":"7.636613932862248","scikit_learn":"{\"n_estimators\": 200, \"objective\": \"reg:squarederror\", \"max_depth\": 7, \"max_leaves\": null, \"max_bin\": null, \"grow_policy\": null, \"learning_rate\": 0.15, \"verbosity\": null, \"booster\": null, \"tree_method\": null, \"gamma\": null, \"min_child_weight\": null, \"max_delta_step\": null, \"subsample\": null, \"sampling_method\": null, \"colsample_bytree\": null, \"colsample_bylevel\": null, \"colsample_bynode\": null, \"reg_alpha\": null, \"reg_lambda\": null, \"scale_pos_weight\": null, \"base_score\": null, \"missing\": NaN, \"num_parallel_tree\": null, \"random_state\": null, \"n_jobs\": null, \"monotone_constraints\": null, \"interaction_constraints\": null, \"importance_type\": null, \"gpu_id\": null, \"validate_parameters\": null, \"predictor\": null, \"enable_categorical\": false, \"max_cat_to_onehot\": null, \"eval_metric\": null, \"early_stopping_rounds\": null, \"callbacks\": null, \"kwargs\": {\"max_features\": \"auto\", \"min_samples_split\": 7, \"min_samples_leaf\": 3}, \"evals_result_\": {\"validation_0\": {\"rmse\": [41.56026854390712, 35.56700557877325, 30.48814927750028, 26.186589994938167, 22.552856942980362, 19.482727466704347, 16.88352154093171, 14.699354988768006, 12.869463390678483, 11.328163356410348, 10.052940216917664, 8.981411817958096, 8.097197931580824, 7.377310161883977, 6.769064647085502, 6.288635258667542, 5.894474085111138, 5.560522788956983, 5.285955611805316, 5.040116796380803, 4.860346712169606, 4.695913117721319, 4.559889021635019, 4.435329542831629, 4.3393815991606255, 4.25579690835252, 4.142213288297675, 4.0447091877937, 3.9583836923329656, 3.8731316566540817, 3.8210938841439734, 3.7625465067584405, 3.6951841200755466, 3.6358667806763245, 3.5911078189101198, 3.5533362139838873, 3.5260938093433833, 3.49825402655873, 3.4646718023934886, 3.445813233355142, 3.4190615255026926, 3.3838917383171574, 3.352348976160658, 3.3336191866803215, 3.296883511941784, 3.2760910027629238, 3.2380529590372733, 3.2150553481422266, 3.205333257906785, 3.189018412939857, 3.1827989914075054, 3.137256396522301, 3.112624512057355, 3.092353092758372, 3.082310923175799, 3.0512272113669017, 3.0200751977898155, 2.988843645890365, 2.9487518037870704, 2.9314161549676463, 2.9222373496212524, 2.918709869756902, 2.888140055688162, 2.849126819021983, 2.8370331812589447, 2.7935499732361055, 2.7816034967593457, 2.7765390430226704, 2.766178856783238, 2.7559836549276047, 2.738507783433356, 2.733459988550314, 2.7262735702164815, 2.7214633434709543, 2.698164758708732, 2.6800436836314274, 2.675083355970131, 2.6383741735252566, 2.6124012614096017]}, \"validation_1\": {\"rmse\": [42.53815877165023, 36.50589751368559, 31.497552905960426, 27.191152073019193, 23.58580187933842, 20.582282912965972, 18.08193519110383, 16.01385975384167, 14.254318667087224, 12.880920423839166, 11.781013973478514, 10.908095707295102, 10.204611619798545, 9.653986359800186, 9.215792549040987, 8.870539293703013, 8.584266833687584, 8.334463357849385, 8.17085075724537, 8.080250552911517, 7.991059854708251, 7.918940897066678, 7.857466089680096, 7.825667311745195, 7.810158224748852, 7.772588459693007, 7.741239622163693, 7.720479967681528, 7.705698634390644, 7.691485889203047, 7.689044546877013, 7.680157212226996, 7.67862451446329, 7.666663440481188, 7.656810738260251, 7.649148497890118, 7.650415808282149, 7.656374352811017, 7.662275828578277, 7.660291272022913, 7.654388373018875, 7.649907819645394, 7.657360746211809, 7.663031222138224, 7.663775538407179, 7.657730592883032, 7.65304983549911, 7.653944601827592, 7.6515653023496535, 7.650186916577104, 7.6518299497941795, 7.6539160768724175, 7.656382021639031, 7.658657260213613, 7.656043879614487, 7.644147263683325, 7.648494852698186, 7.640285649155983, 7.636613932862248, 7.637919066273455, 7.640055486918871, 7.64083854451663, 7.651323933186539, 7.658246874950383, 7.654306569977797, 7.651676081169307, 7.651663552453171, 7.6532392878813065, 7.653369959840322, 7.65347038583559, 7.65491237582338, 7.6546820807081195, 7.65397741529219, 7.6578042377849584, 7.661498293166647, 7.661217298905603, 7.6586872543544215, 7.6572918814457065, 7.653793027344]}}, \"_estimator_type\": \"regressor\"}"},"feature_names":[],"feature_types":[],"gradient_booster":{"model":{"gbtree_model_param":{"num_parallel_tree":"1","num_trees":"79","size_leaf_vector":"0"},"tree_info":[0,0,0,0,0,0,0,0,0,0,0,0,0,0,0,0,0,0,0,0,0,0,0,0,0,0,0,0,0,0,0,0,0,0,0,0,0,0,0,0,0,0,0,0,0,0,0,0,0,0,0,0,0,0,0,0,0,0,0,0,0,0,0,0,0,0,0,0,0,0,0,0,0,0,0,0,0,0,0],"trees":[{"base_weights":[4.102177E1,3.017197E1,8.1150116E1,2.263988E1,4.212424E1,7.167931E1,1.1245539E2,1.1669397E1,2.4323633E1,3.8710575E1,4.913638E1,6.311994E1,8.047516E1,9.950416E1,1.26194626E2,7.393353E0,1.4099541E1,2.2006262E1,2.8209911E1,3.4393524E1,4.064952E1,4.5866528E1,5.1724808E1,5.946715E1,6.600302E1,7.504333E1,8.6382675E1,9.978995E1,2.0458387E1,1.2200517E2,1.7256154E2,5.7630963E0,9.668617E0,1.2753491E1,1.5886276E1,2.0258026E1,2.354631E1,2.6623375E1,2.994646E1,3.277806E1,3.604694E1,1.8499999E0,4.068254E1,4.607302E1,1.6125E1,2.0833334E1,5.1820038E1,6.60817E1,1.88E1,7.514399E1,2.0458387E1,1.00206604E2,3.8333332E1,3.535E0,6.498997E0,2.727785E1,8.835333E0,2.1323355E1,1.245615E1,3.6333334E0,1.6042042E1,1.9145018E1,2.0904041E1,3.15E0,2.3561934E1,7.35E0,2.664155E1,1.4175E1,3.00035E1,9E0,4.070283E1,1.67E1,4.619247E1,1.84E1,4.65E0,2.105E1,7.524175E1,1.0042495E2,2.805E1,3.6589286E0,1.1999999E0,9.200729E0,5.3737707E0,9.224218E0,6.025E0,6.2E0,2.3554193E1,1.0541177E1,1.3078102E1,1.7E0,1.6137094E1,1.9170609E1,4.8E0,6.8666663E0,2.0938751E1,2.3301678E1,2.6110392E1,3.002523E1,8.7E0,4.0767956E1,2.4542856E1,7.533951E1,2.115E1],"categories":[],"categories_nodes":[],"categories_segments":[],"categories_sizes":[],"default_left":[1,1,1,1,1,1,1,1,1,1,1,1,1,1,1,1,1,1,1,1,1,1,1,0,1,1,0,1,0,0,0,1,1,1,1,1,1,1,1,0,0,0,1,1,1,0,0,0,0,1,0,1,0,1,1,0,1,1,1,0,1,1,1,0,1,0,0,0,1,0,1,0,0,0,0,0,1,0,0,0,0,0,0,0,0,0,0,0,0,0,0,0,0,0,0,0,0,0,0,0,0,0,0],"id":0,"left_children":[1,3,5,7,9,11,13,15,17,19,21,23,25,27,29,31,33,35,37,39,41,43,45,-1,47,49,-1,51,-1,-1,-1,53,55,57,59,61,63,65,67,-1,-1,-1,69,71,73,-1,-1,-1,-1,75,-1,77,-1,79,81,-1,83,85,87,-1,89,91,93,-1,95,-1,-1,-1,97,-1,99,-1,-1,-1,-1,-1,101,-1,-1,-1,-1,-1,-1,-1,-1,-1,-1,-1,-1,-1,-1,-1,-1,-1,-1,-1,-1,-1,-1,-1,-1,-1,-1],"loss_changes":[3.457987E6,5.624265E5,4.93298E5,7.0665625E4,5.5978E4,9.28685E4,5.70175E4,5.226547E3,2.936E4,1.22545E4,4.297125E3,3.06775E3,1.399E4,2.612125E3,1.507725E4,6.416211E2,5.814336E2,5.1500625E3,2.6190625E3,1.86E2,1.359625E3,1.4495625E3,1.91375E2,0E0,1.02E2,3.31E2,0E0,1.408E3,0E0,0E0,0E0,1.6066772E2,8.888501E2,2.2109375E2,2.0128125E2,3.0875E2,2.77875E2,3.434375E1,1.000625E2,0E0,0E0,0E0,3.53E2,4.706875E2,1.8862549E1,0E0,0E0,0E0,0E0,2.09E2,0E0,3.815E2,0E0,4.290497E0,2.0288257E2,0E0,2.6391602E1,2.2652832E1,8.486328E1,0E0,1.5524219E2,4.5265625E1,1.549375E2,0E0,1.238125E2,0E0,0E0,0E0,7.71875E0,0E0,1.76E2,0E0,0E0,0E0,0E0,0E0,1.9375E2,0E0,0E0,0E0,0E0,0E0,0E0,0E0,0E0,0E0,0E0,0E0,0E0,0E0,0E0,0E0,0E0,0E0,0E0,0E0,0E0,0E0,0E0,0E0,0E0,0E0,0E0],"parents":[2147483647,0,0,1,1,2,2,3,3,4,4,5,5,6,6,7,7,8,8,9,9,10,10,11,11,12,12,13,13,14,14,15,15,16,16,17,17,18,18,19,19,20,20,21,21,22,22,24,24,25,25,27,27,31,31,32,32,33,33,34,34,35,35,36,36,37,37,38,38,42,42,43,43,44,44,49,49,51,51,53,53,54,54,56,56,57,57,58,58,60,60,61,61,62,62,64,64,68,68,70,70,76,76],"right_children":[2,4,6,8,10,12,14,16,18,20,22,24,26,28,30,32,34,36,38,40,42,44,46,-1,48,50,-1,52,-1,-1,-1,54,56,58,60,62,64,66,68,-1,-1,-1,70,72,74,-1,-1,-1,-1,76,-1,78,-1,80,82,-1,84,86,88,-1,90,92,94,-1,96,-1,-1,-1,98,-1,100,-1,-1,-1,-1,-1,102,-1,-1,-1,-1,-1,-1,-1,-1,-1,-1,-1,-1,-1,-1,-1,-1,-1,-1,-1,-1,-1,-1,-1,-1,-1,-1],"split_conditions":[5.645E1,3.225E1,9.5149994E1,1.7650002E1,4.405E1,7.17E1,1.14850006E2,9.95E0,2.5435001E1,3.712E1,4.892E1,6.295E1,8.2149994E1,1.5615E2,1.706E2,7.125E0,1.465E1,2.1835E1,2.849E1,3.464E1,2.75E0,7.11E1,5.7E0,8.9200735E0,1.1195E2,1.415E2,1.2957402E1,1.3965E2,3.0687582E0,1.8300777E1,2.5884232E1,4.3500004E0,4.3500004E0,5.55E0,4.6E0,2.0005001E1,4.4E0,6.25E0,6.2E0,4.9167094E0,5.407041E0,2.775E-1,3.6E0,6.8999996E0,7.67E1,3.1250002E0,7.773006E0,9.912256E0,2.82E0,4.3500004E0,3.0687582E0,1.319E2,5.75E0,5.3E1,1.3E1,4.0916777E0,1.215E1,7.55E0,1.145E1,5.45E-1,4.35E0,1.15399994E2,5.65E0,4.7250003E-1,4.5365E1,1.1025001E0,3.9962327E0,2.12625E0,1.404E2,1.35E0,1.038E2,2.505E0,6.9288707E0,2.76E0,6.9750005E-1,3.1575E0,1.129E2,1.5063743E1,4.2075E0,5.4883933E-1,1.7999999E-1,1.3801094E0,8.060656E-1,1.3836328E0,9.0375006E-1,9.3E-1,3.5331292E0,1.5811766E0,1.9617153E0,2.5500003E-1,2.4205642E0,2.8755913E0,7.2E-1,1.03E0,3.1408129E0,3.495252E0,3.916559E0,4.5037847E0,1.3050001E0,6.115194E0,3.6814287E0,1.1300926E1,3.1725001E0],"split_indices":[167,167,167,167,167,167,167,167,167,167,167,167,167,143,167,167,167,167,167,167,141,166,144,0,166,22,0,166,0,0,0,167,144,115,31,167,84,81,158,0,0,0,132,82,9,0,0,0,0,2,0,25,0,136,140,0,166,24,167,0,22,56,74,0,123,0,0,0,29,0,164,0,0,0,0,0,166,0,0,0,0,0,0,0,0,0,0,0,0,0,0,0,0,0,0,0,0,0,0,0,0,0,0],"split_type":[0,0,0,0,0,0,0,0,0,0,0,0,0,0,0,0,0,0,0,0,0,0,0,0,0,0,0,0,0,0,0,0,0,0,0,0,0,0,0,0,0,0,0,0,0,0,0,0,0,0,0,0,0,0,0,0,0,0,0,0,0,0,0,0,0,0,0,0,0,0,0,0,0,0,0,0,0,0,0,0,0,0,0,0,0,0,0,0,0,0,0,0,0,0,0,0,0,0,0,0,0,0,0],"sum_hessian":[7.947E3,6.257E3,1.69E3,3.84E3,2.417E3,1.3E3,3.9E2,5.12E2,3.328E3,1.63E3,7.87E2,6.63E2,6.37E2,2.05E2,1.85E2,1.87E2,3.25E2,2.089E3,1.239E3,5.11E2,1.119E3,3.56E2,4.31E2,3.02E2,3.61E2,3.39E2,2.98E2,2.04E2,1E0,1.73E2,1.2E1,1.11E2,7.6E1,1.9E2,1.35E2,9.85E2,1.104E3,6.56E2,5.83E2,2.69E2,2.42E2,1E0,1.118E3,3.53E2,3E0,2E0,4.29E2,3.6E2,1E0,3.38E2,1E0,2.02E2,2E0,2.9E1,8.2E1,2E0,7.4E1,4E0,1.86E2,2E0,1.33E2,3.73E2,6.12E2,1E0,1.103E3,1E0,6.55E2,3E0,5.8E2,1E0,1.117E3,2E0,3.51E2,2E0,1E0,1E0,3.37E2,2.01E2,1E0,2.7E1,2E0,2.2E1,6E1,6.3E1,1.1E1,1E0,3E0,5E1,1.36E2,1E0,1.32E2,3.72E2,1E0,2E0,6.1E2,1.01E3,9.3E1,5.79E2,1E0,1.111E3,6E0,3.36E2,1E0],"tree_param":{"num_deleted":"0","num_feature":"168","num_nodes":"103","size_leaf_vector":"0"}},{"base_weights":[3.4896477E1,2.5757277E1,6.9420906E1,1.975972E1,3.6825336E1,6.1272697E1,9.577193E1,1.4681941E1,2.2621174E1,3.3992977E1,4.256028E1,5.4650192E1,6.926764E1,8.8808846E1,1.1568391E2,8.648908E0,1.674928E1,2.0662537E1,2.574296E1,3.0810143E1,3.502717E1,3.838023E1,4.3759647E1,5.193692E1,5.8002712E1,6.444816E1,7.3468605E1,8.4292885E1,9.685246E1,1.09352715E2,1.486684E2,5.0399685E0,1.02674265E1,1.3553064E1,1.7191751E1,1.9603945E1,2.1802055E1,2.44413E1,2.7463806E1,3.439093E1,3.8733532E1,3.8556427E1,4.30125E0,4.3822388E1,1.756604E1,5.295991E1,4.35908E1,2.4772835E1,5.825078E1,6.462196E1,2.714903E1,7.357306E1,2.1171299E1,8.453107E1,1.8924007E1,4.344881E0,7.3591313E0,1.886097E1,1.0059477E1,1.4764119E1,1.15730715E1,1.6197514E1,1.7687618E1,2.47638E1,1.9422503E1,1.1974938E1,2.1863962E1,2.445989E1,6.8481083E0,1.7112498E0,3.442329E1,4.2389668E1,3.4580814E1,2.377485E1,3.92393E1,1.21975E1,4.3857456E1,5.834368E1,1.5143872E1,8.4728386E1,2.3125E1,3.2048748E0,5.166303E0,1.1228844E1,4.6499395E0,6.884884E0,2.4550064E1,7.979137E0,1.1101684E1,1.4917486E1,5.752957E0,3.23875E0,1.1976112E1,1.6237608E1,6.4014697E0,9.352927E0,1.7739414E1,1.8423048E1,3.243262E1,5.4440827E0,1.9450058E1,8.00075E0,2.189002E1,1.0266661E1,2.4491348E1,8.325E0,3.4441883E1,3.4998688E1,1.2467792E1,6.9505644E0,3.939866E1,4.389223E1,1.2313498E1,8.4917465E1,2.4118128E1],"categories":[],"categories_nodes":[],"categories_segments":[],"categories_sizes":[],"default_left":[1,1,1,1,1,1,1,1,1,1,1,1,1,1,1,1,1,1,1,0,1,1,1,1,1,1,1,1,0,0,0,1,1,1,1,1,1,1,0,1,1,1,0,1,0,0,0,0,1,0,0,0,0,1,0,1,1,1,1,1,1,1,1,1,1,0,1,1,0,0,1,0,1,0,1,0,1,0,0,1,0,0,0,0,0,0,0,0,0,0,0,0,0,0,0,0,0,0,0,0,0,0,0,0,0,0,0,0,0,0,0,0,0,0,0],"id":1,"left_children":[1,3,5,7,9,11,13,15,17,19,21,23,25,27,29,31,33,35,37,-1,39,41,43,45,47,49,51,53,-1,-1,-1,55,57,59,61,63,65,67,-1,69,71,73,-1,75,-1,-1,-1,-1,77,-1,-1,-1,-1,79,-1,81,83,85,87,89,91,93,95,97,99,-1,101,103,-1,-1,105,-1,107,-1,109,-1,111,-1,-1,113,-1,-1,-1,-1,-1,-1,-1,-1,-1,-1,-1,-1,-1,-1,-1,-1,-1,-1,-1,-1,-1,-1,-1,-1,-1,-1,-1,-1,-1,-1,-1,-1,-1,-1,-1],"loss_changes":[2.50601E6,4.165455E5,3.512005E5,5.8935E4,3.44185E4,6.36155E4,4.393775E4,1.8226844E4,1.54085E4,3.80225E3,1.96025E3,3.364E3,6.8665E3,2.5155E3,4.208125E3,2.1562031E3,1.317E3,1.511125E3,1.5709375E3,0E0,1.290125E3,8.549531E2,1.45625E2,1.081E3,1.0711875E3,2.8375E1,7.5625E1,1.451875E3,0E0,0E0,0E0,1.5985596E2,2.7489453E2,1.6004297E2,1.863125E2,3.0828125E2,2.0359375E2,2.184375E1,0E0,9.5425E2,8.874844E2,7.7296875E2,0E0,8.05E1,0E0,0E0,0E0,0E0,3.25875E2,0E0,0E0,0E0,0E0,4.035E2,0E0,7.1466675E1,2.2036523E2,1.7164099E2,4.6646484E2,2.7503906E1,1.526792E2,2.6054688E1,1.05625E2,6.1814355E2,2.095625E2,0E0,9.903125E1,6.625E0,0E0,0E0,1.77625E2,0E0,2.8439062E2,0E0,5.494375E2,0E0,6.725E1,0E0,0E0,1.75125E2,0E0,0E0,0E0,0E0,0E0,0E0,0E0,0E0,0E0,0E0,0E0,0E0,0E0,0E0,0E0,0E0,0E0,0E0,0E0,0E0,0E0,0E0,0E0,0E0,0E0,0E0,0E0,0E0,0E0,0E0,0E0,0E0,0E0,0E0,0E0],"parents":[2147483647,0,0,1,1,2,2,3,3,4,4,5,5,6,6,7,7,8,8,9,9,10,10,11,11,12,12,13,13,14,14,15,15,16,16,17,17,18,18,20,20,21,21,22,22,23,23,24,24,25,25,26,26,27,27,31,31,32,32,33,33,34,34,35,35,36,36,37,37,39,39,40,40,41,41,43,43,48,48,53,53,55,55,56,56,57,57,58,58,59,59,60,60,61,61,62,62,63,63,64,64,66,66,67,67,70,70,72,72,74,74,76,76,79,79],"right_children":[2,4,6,8,10,12,14,16,18,20,22,24,26,28,30,32,34,36,38,-1,40,42,44,46,48,50,52,54,-1,-1,-1,56,58,60,62,64,66,68,-1,70,72,74,-1,76,-1,-1,-1,-1,78,-1,-1,-1,-1,80,-1,82,84,86,88,90,92,94,96,98,100,-1,102,104,-1,-1,106,-1,108,-1,110,-1,112,-1,-1,114,-1,-1,-1,-1,-1,-1,-1,-1,-1,-1,-1,-1,-1,-1,-1,-1,-1,-1,-1,-1,-1,-1,-1,-1,-1,-1,-1,-1,-1,-1,-1,-1,-1,-1,-1],"split_conditions":[5.695E1,3.439E1,9.5149994E1,2.1785E1,4.5285E1,7.3850006E1,1.25850006E2,1.465E1,2.7485E1,3.829E1,3.345E1,6.5649994E1,8.2149994E1,1.135E2,1.706E2,7.3500004E0,1.775E1,2.4395E1,3.0715E1,4.6215215E0,5.995E1,4.3008385E1,1.5070001E2,7.0850006E1,1.33E1,1.3554999E2,1.66E2,1.504E2,1.452787E1,1.6402908E1,2.230026E1,3.9058388E1,4.55E0,1.6849998E1,1.9904999E1,1.9565E1,1.125E1,1.2815E2,4.119571E0,2.75E0,4.225E1,1.885E1,6.451875E-1,6.3E0,2.634906E0,7.943987E0,6.5386205E0,3.7159255E0,1.5075E2,9.693295E0,4.072355E0,1.1035959E1,3.175695E0,1.6965E2,2.838601E0,5.25E0,6.4E0,2.475E1,1.065E1,8.18E1,6.75E0,1.12E2,8.299999E0,2.07E1,5.9750004E0,1.7962408E0,1.035E1,6.4E0,1.0272163E0,2.566875E-1,3.6E0,6.3584504E0,8.92E1,3.5662277E0,2.171E1,1.8296251E0,1.4170001E2,8.751553E0,2.271581E0,1.675E2,3.4687502E0,4.8073122E-1,7.749455E-1,1.6843266E0,6.9749093E-1,1.0327326E0,3.6825097E0,1.1968706E0,1.6652526E0,2.237623E0,8.629436E-1,4.8581252E-1,1.7964169E0,2.4356413E0,9.602205E-1,1.4029391E0,2.6609123E0,2.7634573E0,4.8648934E0,8.166124E-1,2.9175088E0,1.2001125E0,3.2835033E0,1.5399991E0,3.6737025E0,1.24875E0,5.1662827E0,5.2498035E0,1.8701688E0,1.0425847E0,5.909799E0,6.583835E0,1.8470247E0,1.273762E1,3.6177194E0],"split_indices":[167,167,167,167,167,167,167,167,167,167,146,167,167,167,167,167,167,167,167,0,72,145,85,166,126,24,50,137,0,0,0,122,139,166,167,166,78,162,0,141,165,67,0,34,0,0,0,0,109,0,0,0,0,164,0,167,164,93,167,81,27,132,73,112,11,0,33,104,0,0,132,0,162,0,165,0,150,0,0,100,0,0,0,0,0,0,0,0,0,0,0,0,0,0,0,0,0,0,0,0,0,0,0,0,0,0,0,0,0,0,0,0,0,0,0],"split_type":[0,0,0,0,0,0,0,0,0,0,0,0,0,0,0,0,0,0,0,0,0,0,0,0,0,0,0,0,0,0,0,0,0,0,0,0,0,0,0,0,0,0,0,0,0,0,0,0,0,0,0,0,0,0,0,0,0,0,0,0,0,0,0,0,0,0,0,0,0,0,0,0,0,0,0,0,0,0,0,0,0,0,0,0,0,0,0,0,0,0,0,0,0,0,0,0,0,0,0,0,0,0,0,0,0,0,0,0,0,0,0,0,0,0,0],"sum_hessian":[7.947E3,6.285E3,1.662E3,4.078E3,2.207E3,1.272E3,3.9E2,1.472E3,2.606E3,1.482E3,7.25E2,7E2,5.72E2,2.93E2,9.7E1,3.77E2,1.095E3,1.606E3,1E3,3.71E2,1.111E3,1.69E2,5.56E2,3.96E2,3.04E2,2.74E2,2.98E2,1.95E2,9.8E1,8.5E1,1.2E1,1.18E2,2.59E2,1.37E2,9.58E2,8.42E2,7.64E2,5.78E2,4.22E2,9.57E2,1.54E2,1.68E2,1E0,5.54E2,2E0,3.48E2,4.8E1,3E0,3.01E2,2.72E2,2E0,2.97E2,1E0,1.94E2,1E0,9.3E1,2.5E1,4E0,2.55E2,8.1E1,5.6E1,3.3E2,6.28E2,2.4E1,8.18E2,6E0,7.58E2,5.77E2,1E0,1E0,9.56E2,7.7E1,7.7E1,9E0,1.59E2,1E0,5.53E2,3E2,1E0,1.93E2,1E0,4.1E1,5.2E1,9E0,1.6E1,2E0,2E0,8.8E1,1.67E2,7.9E1,2E0,3E0,5.3E1,3.28E2,2E0,5E0,6.23E2,1.5E1,9E0,2E0,8.16E2,2E0,7.56E2,2E0,5.75E2,1E0,9.55E2,7.5E1,2E0,1E0,1.58E2,5.52E2,1E0,1.92E2,1E0],"tree_param":{"num_deleted":"0","num_feature":"168","num_nodes":"115","size_leaf_vector":"0"}},{"base_weights":[2.9691446E1,2.1612144E1,5.804385E1,1.6213375E1,2.9918621E1,4.955699E1,7.720873E1,8.497256E0,1.7430088E1,2.7365719E1,3.449058E1,4.4481285E1,5.5456703E1,6.937925E1,9.16949E1,5.379655E0,1.0239259E1,1.5693103E1,1.9884398E1,2.4529427E1,2.8974428E1,3.2613285E1,3.7041977E1,4.1275078E1,4.649924E1,5.5870415E1,3.890711E1,6.955154E1,2.603776E1,8.7118095E1,1.16509155E2,1.1593941E1,4.998172E0,9.271985E0,1.1536645E1,1.4227251E1,1.654844E1,1.8679945E1,2.1045052E1,2.3514917E1,2.6201519E1,1.5829061E0,2.9000393E1,1.7212267E1,3.2824852E1,3.7098156E1,8.408597E0,4.1340313E1,1.2026358E1,4.7891293E1,4.062238E1,5.2556747E1,5.8046455E1,4.0063385E1,1.020332E1,6.964995E1,1.7504707E1,8.736839E1,2.3535677E1,1.1917367E2,2.4948156E1,2.7780194E0,1.7008219E1,2.5210147E0,5.4467583E0,1.7685276E1,9.000353E0,1.2574827E1,9.877151E0,2.481748E0,1.4240355E1,3.1072275E1,1.6498047E1,1.1419425E1,1.8762022E1,2.0063112E1,2.1855747E1,2.354617E1,6.0383224E0,2.8671566E1,2.4530794E1,2.945627E1,2.5959175E1,2.9332682E1,3.356974E1,3.718094E1,1.485345E1,2.3657143E1,4.8047485E1,4.087815E1,9.824561E0,1.8112038E1,5.2782425E1,1.575289E1,5.8129654E1,5.5103348E1,7.050198E1,1.2159356E2,3.0548159E1,5.676193E0,2.1255184E1,2.623366E0,7.595125E-1,7.5510225E0,4.8974156E0,4.9023733E0,1.9655407E1,4.4321094E0,9.177777E0,1.2698117E1,5.1776614E0,3.5161164E0,1.0290887E1,6.161149E0,1.4266031E1,1.5977022E1,1.7302198E1,3.7106223E0,1.877931E1,3.599972E1,2.1675165E1,2.8992008E1,3.2794903E1,1.2675083E1,2.6160488E1,3.0808893E1,2.0660358E1,9.043646E0,3.3607967E1,2.6644415E1,3.746936E1,2.6130953E0,2.9800795E1,4.1113174E1,1.0920652E1,5.2881428E1,1.5302889E1,5.820709E1,1.675289E1,7.060472E1,1.845332E1],"categories":[],"categories_nodes":[],"categories_segments":[],"categories_sizes":[],"default_left":[1,1,1,1,1,1,1,1,1,1,1,1,1,1,1,1,1,1,1,1,1,1,1,1,1,1,1,1,0,1,1,1,1,1,1,1,1,1,1,1,1,0,1,0,1,1,0,0,0,1,1,1,1,0,0,1,0,0,0,1,0,0,1,1,1,1,1,1,1,0,1,0,1,0,1,0,1,0,0,0,0,1,1,1,1,1,0,1,0,1,0,0,1,0,1,0,1,0,0,0,0,0,0,0,0,0,0,0,0,0,0,0,0,0,0,0,0,0,0,0,0,0,0,0,0,0,0,0,0,0,0,0,0,0,0,0,0,0,0,0,0],"id":2,"left_children":[1,3,5,7,9,11,13,15,17,19,21,23,25,27,29,31,33,35,37,39,41,43,45,47,49,51,53,55,-1,57,59,61,63,65,67,69,71,73,75,77,79,-1,81,-1,83,85,-1,-1,-1,87,89,91,93,-1,-1,95,-1,-1,-1,97,-1,-1,99,101,103,105,107,109,111,-1,113,-1,115,-1,117,-1,119,-1,-1,-1,-1,121,123,125,127,129,-1,131,-1,133,-1,-1,135,-1,137,-1,139,-1,-1,-1,-1,-1,-1,-1,-1,-1,-1,-1,-1,-1,-1,-1,-1,-1,-1,-1,-1,-1,-1,-1,-1,-1,-1,-1,-1,-1,-1,-1,-1,-1,-1,-1,-1,-1,-1,-1,-1,-1,-1,-1,-1],"loss_changes":[1.819375E6,2.7696925E5,2.827625E5,3.5076875E4,2.748875E4,3.4186E4,5.4771E4,2.7309531E3,1.3500375E4,6.443625E3,2.9541875E3,2.370375E3,1.67425E3,8.32375E2,1.0974E4,3.829917E2,3.0464844E2,2.1492812E3,1.4786875E3,3.5759375E2,6.616875E2,1.0935E3,2.6875E2,8.46875E0,1.3186875E3,8.86375E2,1.5544336E2,5.83875E2,0E0,5.05875E2,3.3699375E3,4.3006934E2,1.8295459E2,2.8189258E2,1.1010547E2,7.3609375E1,3.6203125E2,1.8264062E2,9.80625E1,5.8265625E1,1.5503125E2,0E0,6.134375E2,0E0,3.185625E2,1.1065625E2,0E0,0E0,0E0,6.325E1,2.521875E2,8.085E2,2.1025E2,0E0,0E0,4.655E2,0E0,0E0,0E0,1.647125E3,0E0,0E0,1.681117E2,3.2360077E0,1.3525781E2,2.956189E1,1.1251074E2,7.213867E0,1.13828125E2,0E0,5.878125E1,0E0,2.23375E2,0E0,1.01265625E2,0E0,1.3409375E2,0E0,0E0,0E0,0E0,3.775625E2,3.746875E1,5.924844E2,7.671875E1,8.9625E1,0E0,4.3927686E2,0E0,1.2835938E2,0E0,0E0,2.56875E1,0E0,4.7E1,0E0,4.51E2,0E0,0E0,0E0,0E0,0E0,0E0,0E0,0E0,0E0,0E0,0E0,0E0,0E0,0E0,0E0,0E0,0E0,0E0,0E0,0E0,0E0,0E0,0E0,0E0,0E0,0E0,0E0,0E0,0E0,0E0,0E0,0E0,0E0,0E0,0E0,0E0,0E0,0E0,0E0,0E0,0E0,0E0,0E0,0E0],"parents":[2147483647,0,0,1,1,2,2,3,3,4,4,5,5,6,6,7,7,8,8,9,9,10,10,11,11,12,12,13,13,14,14,15,15,16,16,17,17,18,18,19,19,20,20,21,21,22,22,23,23,24,24,25,25,26,26,27,27,29,29,30,30,31,31,32,32,33,33,34,34,35,35,36,36,37,37,38,38,39,39,40,40,42,42,44,44,45,45,49,49,50,50,51,51,52,52,55,55,59,59,62,62,63,63,64,64,65,65,66,66,67,67,68,68,70,70,72,72,74,74,76,76,81,81,82,82,83,83,84,84,85,85,87,87,89,89,92,92,94,94,96,96],"right_children":[2,4,6,8,10,12,14,16,18,20,22,24,26,28,30,32,34,36,38,40,42,44,46,48,50,52,54,56,-1,58,60,62,64,66,68,70,72,74,76,78,80,-1,82,-1,84,86,-1,-1,-1,88,90,92,94,-1,-1,96,-1,-1,-1,98,-1,-1,100,102,104,106,108,110,112,-1,114,-1,116,-1,118,-1,120,-1,-1,-1,-1,122,124,126,128,130,-1,132,-1,134,-1,-1,136,-1,138,-1,140,-1,-1,-1,-1,-1,-1,-1,-1,-1,-1,-1,-1,-1,-1,-1,-1,-1,-1,-1,-1,-1,-1,-1,-1,-1,-1,-1,-1,-1,-1,-1,-1,-1,-1,-1,-1,-1,-1,-1,-1,-1,-1,-1,-1],"split_conditions":[5.521E1,3.1505001E1,8.7850006E1,1.7650002E1,4.2165E1,6.997E1,1.14850006E2,9.85E0,2.4795E1,3.685E1,4.892E1,6.065E1,1.035E2,1.25100006E2,1.4765E2,4.55E0,1.465E1,2.1064999E1,2.7485E1,3.8785E1,2.75E0,8.35E0,2.032E2,1.9379999E2,7.22E1,7.6149994E1,1.218E2,1.5615E2,3.9056642E0,1.755E2,1.059E2,1.23E1,4.3500004E0,5.55E0,1.6849998E1,3.7E0,5.7E0,1.37E1,2.781E1,1.2525E2,3.275E1,2.3743592E-1,4.229E1,2.58184E0,2.825E1,1.3895E2,1.2612896E0,6.2010474E0,1.8039538E0,2.91E1,1.405E2,1.39E1,8.25E0,6.009508E0,1.530498E0,3.795E1,2.6257062E0,1.310526E1,3.5303516E0,8.285E1,3.7422235E0,4.1670293E-1,1.72E1,5.3E1,1.035E1,7.55E0,5.7E0,8.18E1,7.3E0,3.7226224E-1,5.3E0,4.6608415E0,2.3185001E1,1.7129139E0,7.1E0,3.009467E0,1.425E1,3.5319254E0,9.057484E-1,4.300735E0,3.6796193E0,6.1E1,1.795E1,5.1050003E1,6.55E0,1.9689999E1,2.2280176E0,2.193E1,7.2071233E0,1.52E2,1.4736842E0,2.7168057E0,1.2995001E2,2.3629336E0,1.4035E2,8.265503E0,1.4795001E2,1.8239035E1,4.582224E0,8.5142905E-1,3.1882777E0,3.9350495E-1,1.1392688E-1,1.1326535E0,7.3461235E-1,7.3535603E-1,2.948311E0,6.6481644E-1,1.3766667E0,1.9047177E0,7.7664924E-1,5.274175E-1,1.5436331E0,9.241724E-1,2.1399047E0,2.3965535E0,2.5953298E0,5.5659336E-1,2.8168967E0,5.3999586E0,3.2512748E0,4.3488016E0,4.9192357E0,1.9012625E0,3.9240735E0,4.621334E0,3.0990539E0,1.3565469E0,5.0411954E0,3.9966624E0,5.6204042E0,3.9196432E-1,4.4701195E0,6.1669765E0,1.6380979E0,7.9322143E0,2.2954335E0,8.731064E0,2.5129335E0,1.0590709E1,2.767998E0],"split_indices":[167,167,167,167,167,167,167,167,167,167,167,167,166,103,167,139,167,167,167,147,141,134,5,110,166,167,18,143,0,41,58,111,167,115,166,159,29,78,122,9,166,0,166,0,148,136,0,0,0,166,33,126,70,0,0,157,0,0,0,35,0,0,95,136,140,24,119,81,27,0,76,0,167,0,158,0,98,0,0,0,0,96,104,164,18,133,0,4,0,157,0,0,150,0,112,0,128,0,0,0,0,0,0,0,0,0,0,0,0,0,0,0,0,0,0,0,0,0,0,0,0,0,0,0,0,0,0,0,0,0,0,0,0,0,0,0,0,0,0,0,0],"split_type":[0,0,0,0,0,0,0,0,0,0,0,0,0,0,0,0,0,0,0,0,0,0,0,0,0,0,0,0,0,0,0,0,0,0,0,0,0,0,0,0,0,0,0,0,0,0,0,0,0,0,0,0,0,0,0,0,0,0,0,0,0,0,0,0,0,0,0,0,0,0,0,0,0,0,0,0,0,0,0,0,0,0,0,0,0,0,0,0,0,0,0,0,0,0,0,0,0,0,0,0,0,0,0,0,0,0,0,0,0,0,0,0,0,0,0,0,0,0,0,0,0,0,0,0,0,0,0,0,0,0,0,0,0,0,0,0,0,0,0,0,0],"sum_hessian":[7.947E3,6.186E3,1.761E3,3.751E3,2.435E3,1.223E3,5.38E2,5.12E2,3.239E3,1.567E3,8.68E2,6.62E2,5.61E2,3.53E2,1.85E2,1.85E2,3.27E2,1.901E3,1.338E3,5.73E2,9.94E2,5.08E2,3.6E2,2.64E2,3.98E2,5.45E2,1.6E1,3.51E2,2E0,1.6E2,2.5E1,9E0,1.76E2,1.92E2,1.35E2,7.07E2,1.194E3,6.65E2,6.73E2,3.66E2,2.07E2,1E0,9.93E2,8E0,5E2,3.59E2,1E0,2.63E2,1E0,3.16E2,8.2E1,2.26E2,3.19E2,1.5E1,1E0,3.5E2,1E0,1.59E2,1E0,2.4E1,1E0,4E0,5E0,2.8E1,1.48E2,4E0,1.88E2,7.9E1,5.6E1,1E0,7.06E2,2E0,1.192E3,9E0,6.56E2,3.16E2,3.57E2,3.65E2,1E0,7.7E1,1.3E2,8.56E2,1.37E2,9.5E1,4.05E2,3.57E2,2E0,3E0,3.13E2,8.1E1,1E0,2E0,2.24E2,1E0,3.18E2,2.3E1,3.27E2,2.3E1,1E0,2E0,3E0,2.6E1,2E0,2.8E1,1.2E2,1E0,3E0,8E0,1.8E2,7.7E1,2E0,4E0,5.2E1,3E0,7.03E2,7.36E2,4.56E2,1E0,6.55E2,2E0,3.55E2,7.6E2,9.6E1,3E0,1.34E2,7.9E1,1.6E1,1E0,4.04E2,1.2E1,3.45E2,1E0,2E0,8E1,1E0,2.23E2,1E0,3.17E2,1E0,3.26E2,1E0],"tree_param":{"num_deleted":"0","num_feature":"168","num_nodes":"141","size_leaf_vector":"0"}},{"base_weights":[2.5267862E1,1.8387245E1,4.9413776E1,1.3929911E1,2.5674095E1,4.2175278E1,6.57598E1,7.920657E0,1.5077487E1,2.3618748E1,2.961161E1,3.7853363E1,4.719886E1,6.0632236E1,8.2257256E1,5.118775E0,9.66205E0,1.3775776E1,1.762393E1,2.1443146E1,2.5008406E1,2.7644339E1,3.1253056E1,3.511402E1,3.9577858E1,4.7383522E1,2.2189598E1,5.6177486E1,6.6191696E1,7.8194145E1,1.1124751E2,3.5141714E0,6.4828124E0,8.585849E0,1.08225565E1,1.2593537E1,1.4592768E1,1.701995E1,1.9130527E1,2.0277624E1,2.2692625E1,2.4629612E1,2.8924139E1,2.6115503E1,2.9743105E1,3.129483E1,6.686721E0,1.3387013E1,3.5228344E1,4.135636E1,3.5992226E1,4.5518303E1,5.0560986E1,5.671118E1,2.6178354E1,6.6749374E1,2.5105946E1,3.5952812E1,7.901934E1,2.9885197E0,5.782743E0,1.7710205E1,6.0716734E0,1.4413868E1,8.239392E0,1.0658851E0,1.0871381E1,2.946699E0,1.2612134E1,1.8793768E1,1.4464256E1,1.7048975E1,7.090769E0,3.419124E1,1.8916864E1,5.1158967E0,2.030863E1,2.5945242E1,2.1434895E1,2.4828074E1,1.7572498E1,2.6394058E1,3.7622204E1,2.6303654E1,9.19129E0,1.4298673E1,3.0068304E1,3.1355448E1,1.2255569E1,1.3612384E1,3.5341827E1,3.6000618E1,4.2617653E1,1.958923E1,3.645464E1,4.825736E1,4.2120926E1,1.4437786E1,5.0671627E1,5.701451E1,2.5167639E1,6.6967575E1,1.4282085E1,7.935469E1,2.1233047E1,2.2521837E0,3.5767248E0,1.3608975E1,2.975624E0,5.4661026E0,1.996954E1,5.5559883E0,1.3970932E1,1.5271368E1,3.3481827E0,1.7365878E0,8.332928E0,1.3196929E0,1.091789E1,5.7274866E0,1.2637061E1,1.5764879E1,2.8224503E1,1.3525919E1,1.49674635E1,7.264988E0,1.7077328E1,1.7261759E1,1.9740755E1,2.4029648E1,3.257535E1,1.0332457E1,2.1653154E1,5.0993657E0,2.486927E1,1.8930124E1,1.0989263E1,9.731389E0,2.6780844E1,4.5942436E1,2.155016E1,2.6376478E1,5.141138E0,1.0635634E1,2.4291294E0,3.0886518E1,2.148991E1,1.2276417E1,3.141649E1,3.5398396E1,1.0317447E1,1.2221015E1,3.665503E1,1.1564534E1,4.271319E1,3.658662E1,9.384606E0,2.899808E1,4.8826267E1,1.7646994E1,4.2456917E1,5.713924E1,1.4288097E1,6.715068E1,1.7553965E1,7.968491E1,2.1845528E1],"categories":[],"categories_nodes":[],"categories_segments":[],"categories_sizes":[],"default_left":[1,1,1,1,1,1,1,1,1,1,1,1,1,1,1,1,1,1,1,1,1,1,1,1,1,1,0,1,1,1,0,1,1,1,1,1,1,1,1,1,1,1,1,1,1,1,0,0,1,1,1,1,1,1,0,1,0,0,1,1,1,1,1,1,1,0,1,0,1,1,1,1,0,0,1,0,0,1,1,1,1,1,1,1,1,0,1,1,0,0,1,1,1,0,1,1,1,0,0,1,0,1,0,1,0,0,0,0,0,0,0,0,0,0,0,0,0,0,0,0,0,0,0,0,0,0,0,0,0,0,0,0,0,0,0,0,0,0,0,0,0,0,0,0,0,0,0,0,0,0,0,0,0,0,0,0,0,0,0,0,0,0,0,0,0,0,0],"id":3,"left_children":[1,3,5,7,9,11,13,15,17,19,21,23,25,27,29,31,33,35,37,39,41,43,45,47,49,51,-1,53,55,57,-1,59,61,63,65,67,69,71,73,75,77,79,81,83,85,87,-1,-1,89,91,93,95,97,99,-1,101,-1,-1,103,105,107,109,111,113,115,-1,117,-1,119,121,123,125,-1,-1,127,-1,-1,129,131,133,135,137,139,141,143,-1,145,147,-1,-1,149,151,153,-1,155,157,159,-1,-1,161,-1,163,-1,165,-1,-1,-1,-1,-1,-1,-1,-1,-1,-1,-1,-1,-1,-1,-1,-1,-1,-1,-1,-1,-1,-1,-1,-1,-1,-1,-1,-1,-1,-1,-1,-1,-1,-1,-1,-1,-1,-1,-1,-1,-1,-1,-1,-1,-1,-1,-1,-1,-1,-1,-1,-1,-1,-1,-1,-1,-1,-1,-1,-1,-1,-1,-1],"loss_changes":[1.3195625E6,2.0059575E5,2.05708E5,2.6368438E4,1.8294875E4,2.4788E4,4.06075E4,2.965875E3,1.04439375E4,4.140875E3,1.7225625E3,1.74225E3,1.544E3,6.559375E3,6.024875E3,5.0032715E2,3.8167578E2,1.8812812E3,6.6353125E2,4.281875E2,6.78875E2,4.200625E2,2.3103125E2,1.86625E2,1.0559375E3,9.9975E2,0E0,2.3098125E3,2.4255625E3,1.0979375E3,0E0,1.1627576E2,4.8331982E2,2.8910742E2,7.368164E1,1.20890625E2,4.073125E2,1.05328125E2,3.282422E2,4.8875E1,6.138594E2,7.71E2,7.0151953E2,4.7153125E2,3.2345312E2,1.0965625E2,0E0,0E0,1.6409375E2,2.2209375E2,3.4776562E2,1.3266875E3,5.578125E1,7.84875E2,0E0,1.0585E3,0E0,0E0,4.4675E2,3.2224365E1,3.9888812E2,1.4985352E0,4.3156885E2,4.3756836E1,1.0291992E2,0E0,6.466406E1,0E0,7.846875E1,5.262422E2,3.7596875E2,9.2875E1,0E0,0E0,6.969531E1,0E0,0E0,1.6976953E2,2.899922E2,5.52625E2,3.3286133E1,1.4541406E2,1.01578125E3,2.0498438E2,1.3232178E1,0E0,3.6101562E2,1.104375E2,0E0,0E0,4.21875E0,4.234922E2,1.141875E2,0E0,1.3896875E2,6.9878125E2,6.4046875E2,0E0,0E0,4.04E2,0E0,4.04625E2,0E0,3.291875E2,0E0,0E0,0E0,0E0,0E0,0E0,0E0,0E0,0E0,0E0,0E0,0E0,0E0,0E0,0E0,0E0,0E0,0E0,0E0,0E0,0E0,0E0,0E0,0E0,0E0,0E0,0E0,0E0,0E0,0E0,0E0,0E0,0E0,0E0,0E0,0E0,0E0,0E0,0E0,0E0,0E0,0E0,0E0,0E0,0E0,0E0,0E0,0E0,0E0,0E0,0E0,0E0,0E0,0E0,0E0,0E0,0E0,0E0,0E0,0E0,0E0,0E0,0E0],"parents":[2147483647,0,0,1,1,2,2,3,3,4,4,5,5,6,6,7,7,8,8,9,9,10,10,11,11,12,12,13,13,14,14,15,15,16,16,17,17,18,18,19,19,20,20,21,21,22,22,23,23,24,24,25,25,27,27,28,28,29,29,31,31,32,32,33,33,34,34,35,35,36,36,37,37,38,38,39,39,40,40,41,41,42,42,43,43,44,44,45,45,48,48,49,49,50,50,51,51,52,52,53,53,55,55,58,58,59,59,60,60,61,61,62,62,63,63,64,64,66,66,68,68,69,69,70,70,71,71,74,74,77,77,78,78,79,79,80,80,81,81,82,82,83,83,84,84,86,86,87,87,90,90,91,91,92,92,94,94,95,95,96,96,99,99,101,101,103,103],"right_children":[2,4,6,8,10,12,14,16,18,20,22,24,26,28,30,32,34,36,38,40,42,44,46,48,50,52,-1,54,56,58,-1,60,62,64,66,68,70,72,74,76,78,80,82,84,86,88,-1,-1,90,92,94,96,98,100,-1,102,-1,-1,104,106,108,110,112,114,116,-1,118,-1,120,122,124,126,-1,-1,128,-1,-1,130,132,134,136,138,140,142,144,-1,146,148,-1,-1,150,152,154,-1,156,158,160,-1,-1,162,-1,164,-1,166,-1,-1,-1,-1,-1,-1,-1,-1,-1,-1,-1,-1,-1,-1,-1,-1,-1,-1,-1,-1,-1,-1,-1,-1,-1,-1,-1,-1,-1,-1,-1,-1,-1,-1,-1,-1,-1,-1,-1,-1,-1,-1,-1,-1,-1,-1,-1,-1,-1,-1,-1,-1,-1,-1,-1,-1,-1,-1,-1,-1,-1,-1,-1],"split_conditions":[5.521E1,3.225E1,8.7850006E1,1.9005001E1,4.291E1,6.997E1,1.2195E2,1.145E1,2.6075E1,3.829E1,4.335E1,6.065E1,1.3145001E2,1.024E2,1.706E2,7.125E0,1.595E1,2.1835E1,3.0064999E1,3.525E1,6.974E1,4.892E1,2.0335E2,1.917E1,6.85E1,8.0350006E1,3.32844E0,1.2625E2,1.17350006E2,1.3299999E1,1.6687128E1,4.0908386E1,4.55E0,6.7E0,4.45E0,3.65E0,1.9895E1,1.07649994E2,7.45E0,1.24E1,3.365E1,4.9699997E1,7.565E1,6.855E1,1.9810001E1,1.5070001E2,1.0030081E0,2.008052E0,1.09E1,3.875E1,2.175E1,7.455E1,1.4950001E1,1.3155E2,3.9267533E0,1.7515E2,3.765892E0,5.392922E0,1.2105E2,5.25E0,6.4E0,2.195E1,6.97E1,7.73E1,5.8500004E0,1.5988277E-1,4.7E0,4.4200486E-1,6.175E0,4.5864998E1,2.3195E1,5.3500004E0,1.0636153E0,5.128686E0,2.6765E1,7.673845E-1,3.0462947E0,6.11E1,1.56E1,4E0,5.1E1,2.3965E1,4.2158386E1,9.9795E1,7.67E1,2.144801E0,7.575E1,2.5E1,1.8383355E0,2.0418577E0,1.223E2,2.2744999E1,4.15E0,2.9383845E0,1.2815E2,2.155E1,2.0585E1,2.165668E0,7.6007442E0,1.7954999E2,3.775146E0,1.3195001E2,2.142313E0,1.19600006E2,3.1849573E0,3.3782756E-1,5.3650874E-1,2.0413463E0,4.4634363E-1,8.199154E-1,2.995431E0,8.333983E-1,2.09564E0,2.2907052E0,5.022274E-1,2.6048818E-1,1.2499392E0,1.9795394E-1,1.6376835E0,8.5912305E-1,1.8955592E0,2.364732E0,4.2336755E0,2.028888E0,2.2451196E0,1.0897483E0,2.5615993E0,2.589264E0,2.9611135E0,3.6044474E0,4.886303E0,1.5498686E0,3.2479732E0,7.649049E-1,3.7303908E0,2.8395188E0,1.6483895E0,1.4597085E0,4.0171266E0,6.8913655E0,3.2325242E0,3.956472E0,7.7117074E-1,1.5953453E0,3.6436942E-1,4.632978E0,3.2234867E0,1.8414626E0,4.712474E0,5.3097596E0,1.5476171E0,1.8331523E0,5.498255E0,1.7346802E0,6.4069786E0,5.4879932E0,1.407691E0,4.349712E0,7.3239403E0,2.6470492E0,6.368538E0,8.570887E0,2.1432147E0,1.0072602E1,2.6330948E0,1.1952738E1,3.2768292E0],"split_indices":[167,167,167,167,167,167,167,167,167,167,146,167,27,167,167,167,167,167,167,167,91,167,53,163,165,167,0,131,3,104,0,121,139,165,22,157,166,156,17,70,166,166,37,166,61,85,0,0,19,145,81,166,118,166,0,95,0,0,104,167,164,93,124,16,18,0,104,0,10,122,167,158,0,0,148,0,0,122,125,147,127,148,165,138,9,0,62,148,0,0,144,63,29,0,15,124,157,0,0,52,0,73,0,84,0,0,0,0,0,0,0,0,0,0,0,0,0,0,0,0,0,0,0,0,0,0,0,0,0,0,0,0,0,0,0,0,0,0,0,0,0,0,0,0,0,0,0,0,0,0,0,0,0,0,0,0,0,0,0,0,0,0,0,0,0,0,0],"split_type":[0,0,0,0,0,0,0,0,0,0,0,0,0,0,0,0,0,0,0,0,0,0,0,0,0,0,0,0,0,0,0,0,0,0,0,0,0,0,0,0,0,0,0,0,0,0,0,0,0,0,0,0,0,0,0,0,0,0,0,0,0,0,0,0,0,0,0,0,0,0,0,0,0,0,0,0,0,0,0,0,0,0,0,0,0,0,0,0,0,0,0,0,0,0,0,0,0,0,0,0,0,0,0,0,0,0,0,0,0,0,0,0,0,0,0,0,0,0,0,0,0,0,0,0,0,0,0,0,0,0,0,0,0,0,0,0,0,0,0,0,0,0,0,0,0,0,0,0,0,0,0,0,0,0,0,0,0,0,0,0,0,0,0,0,0,0,0],"sum_hessian":[7.947E3,6.186E3,1.761E3,3.84E3,2.346E3,1.223E3,5.38E2,6.17E2,3.223E3,1.546E3,8E2,6.62E2,5.61E2,4.14E2,1.24E2,2.38E2,3.79E2,2.137E3,1.086E3,6.09E2,9.37E2,3.72E2,4.28E2,2.64E2,3.98E2,5.56E2,5E0,2.36E2,1.78E2,1.12E2,1.2E1,1.11E2,1.27E2,2.01E2,1.78E2,8.8E2,1.257E3,7.84E2,3.02E2,3.24E2,2.85E2,8.61E2,7.6E1,2.23E2,1.49E2,4.27E2,1E0,2E0,2.62E2,2.59E2,1.39E2,3.6E2,1.96E2,2.31E2,5E0,1.75E2,3E0,3E0,1.09E2,9.2E1,1.9E1,3E0,1.24E2,9E0,1.92E2,1E0,1.77E2,2E0,8.78E2,3.3E1,1.224E3,7.81E2,3E0,2E0,3E2,1E0,3.23E2,7.4E1,2.11E2,8.35E2,2.6E1,6.2E1,1.4E1,2.2E2,3E0,4E0,1.45E2,4.25E2,2E0,2E0,2.6E2,5.5E1,2.04E2,5E0,1.34E2,1.92E2,1.68E2,1E0,1.95E2,2.28E2,3E0,1.74E2,1E0,1.08E2,1E0,4.3E1,4.9E1,4E0,1.5E1,1E0,2E0,1.18E2,6E0,8E0,1E0,3E0,1.89E2,1E0,1.76E2,4E0,8.74E2,2.7E1,6E0,4.37E2,7.87E2,3E0,7.78E2,1.07E2,1.93E2,6.1E1,1.3E1,5E0,2.06E2,2E0,8.33E2,2E1,6E0,2E0,6E1,8E0,6E0,2.19E2,1E0,2E0,1E0,1.3E2,1.5E1,2E0,4.23E2,2.59E2,1E0,2E0,5.3E1,1E0,2.03E2,1.33E2,1E0,7E0,1.85E2,3E0,1.65E2,2.27E2,1E0,1.73E2,1E0,1.07E2,1E0],"tree_param":{"num_deleted":"0","num_feature":"168","num_nodes":"167","size_leaf_vector":"0"}},{"base_weights":[2.151054E1,1.5859332E1,4.28587E1,1.2156111E1,2.2693382E1,3.795587E1,6.0374226E1,8.552416E0,1.3689101E1,2.0916079E1,2.6285225E1,3.3774006E1,4.3087284E1,5.6099987E1,7.473967E1,5.3768435E0,9.966192E0,1.2367699E1,1.5640368E1,1.949943E1,2.180795E1,2.4734344E1,2.816972E1,3.2329903E1,3.6800316E1,3.9889988E1,4.5431873E1,2.572947E1,5.6443188E1,6.96059E1,9.584401E1,3.085821E0,6.404747E0,8.094576E0,1.0210045E1,1.1832109E1,1.3148012E1,1.4737281E1,1.6631397E1,3.3427425E1,1.9296312E1,2.1220753E1,2.5675514E1,1.823343E1,2.5094107E1,3.0017002E1,2.5629717E1,3.2996563E1,2.7558857E1,2.78731E1,3.7972984E1,4.223501E1,3.5791878E1,4.911997E1,4.3154022E1,5.662506E1,2.0835686E1,2.9153101E1,7.039004E1,2.6124215E0,5.1706166E0,1.3641798E1,6.2383795E0,1.4704927E1,7.674715E0,4.5837507E0,1.0241996E1,1.1787813E1,2.8573395E1,2.0947485E1,1.2918851E1,1.5644434E1,1.3817782E1,3.0977835E1,1.652069E1,3.5709488E1,9.867533E0,1.9789448E1,1.7100641E1,-8.830335E0,2.1270157E1,2.9056124E1,2.1910513E1,1.965246E1,5.870418E0,2.5171383E1,6.9153247E0,3.010449E1,7.1783457E0,2.5743174E1,4.8161755E0,3.0171516E1,3.4001915E1,1.8112898E1,2.8712318E1,3.0617437E1,1.8067707E1,1.5005369E0,3.8151413E1,4.250002E1,1.4552655E1,2.123758E1,3.6502502E1,4.9373344E1,9.737413E0,4.331576E1,1.7501522E1,5.680704E1,2.106848E1,7.120884E1,2.945888E1,2.7666621E0,5.121033E-1,1.1975898E1,2.8649092E0,4.7637453E0,1.7972586E1,7.018218E0,4.865543E0,3.4790173E0,7.910532E0,1.220716E0,5.0122147E0,1.0295955E1,6.719962E0,1.1261422E1,1.2538025E1,2.6128532E1,1.120511E1,1.1889364E1,1.3454875E1,1.48656845E1,1.7168411E1,1.3992986E1,8.711713E0,1.6057337E1,1.8806644E1,1.8935911E1,2.1207626E1,1.7251219E1,5.8290515E0,4.5894294E0,2.1306808E1,2.6764368E1,4.1602318E1,2.2358177E1,6.250589E0,2.0902615E1,8.801114E0,2.3107439E1,2.6411572E1,3.019028E1,7.416811E0,2.5856981E1,4.90514E0,1.770123E1,3.0553143E1,3.4185986E1,1.8978004E1,2.8993456E1,6.3437223E0,4.2326176E1,3.5329594E1,4.264806E1,9.924812E0,3.6713875E1,8.528079E0,4.961385E1,1.0737413E1,4.3477226E1,1.7735935E1,5.691794E1,1.3210929E1],"categories":[],"categories_nodes":[],"categories_segments":[],"categories_sizes":[],"default_left":[1,1,1,1,1,1,1,1,1,1,1,1,1,1,1,1,1,1,1,1,1,1,1,1,1,1,1,0,1,1,0,1,1,1,1,1,1,1,1,1,1,1,1,1,1,1,1,1,1,1,1,1,1,1,1,1,0,0,1,1,1,1,1,0,1,1,1,1,0,1,1,1,1,0,1,0,0,1,1,0,1,1,1,1,0,1,0,1,0,1,0,1,1,0,1,0,0,0,1,1,0,0,1,1,0,1,0,1,0,0,0,0,0,0,0,0,0,0,0,0,0,0,0,0,0,0,0,0,0,0,0,0,0,0,0,0,0,0,0,0,0,0,0,0,0,0,0,0,0,0,0,0,0,0,0,0,0,0,0,0,0,0,0,0,0,0,0,0,0,0,0,0,0],"id":4,"left_children":[1,3,5,7,9,11,13,15,17,19,21,23,25,27,29,31,33,35,37,39,41,43,45,47,49,51,53,-1,55,57,-1,59,61,63,65,67,69,71,73,75,77,79,81,83,85,87,89,91,93,95,97,99,101,103,105,107,-1,-1,109,111,113,115,117,-1,119,121,123,125,-1,127,129,131,133,-1,135,-1,-1,137,139,-1,141,143,145,147,-1,149,-1,151,-1,153,-1,155,157,-1,159,-1,-1,-1,161,163,-1,-1,165,167,-1,169,-1,171,-1,-1,-1,-1,-1,-1,-1,-1,-1,-1,-1,-1,-1,-1,-1,-1,-1,-1,-1,-1,-1,-1,-1,-1,-1,-1,-1,-1,-1,-1,-1,-1,-1,-1,-1,-1,-1,-1,-1,-1,-1,-1,-1,-1,-1,-1,-1,-1,-1,-1,-1,-1,-1,-1,-1,-1,-1,-1,-1,-1,-1,-1,-1,-1,-1],"loss_changes":[9.5819E5,1.5881012E5,1.405195E5,2.2417062E4,1.3545625E4,2.648425E4,1.8034375E4,5.423664E3,7.1808125E3,1.44725E3,1.428E3,1.965625E3,2.543125E3,1.4974375E3,1.9962812E3,8.704072E2,3.0210156E2,5.590781E2,7.85E2,1.00146875E3,1.5013125E3,4.9432812E2,7.368281E2,6.714375E2,1.3075E3,9.293125E2,6.3575E2,0E0,6.27E2,1.0490625E2,0E0,1.0393799E2,2.2793945E2,1.702373E2,8.64375E1,4.2254688E2,9.5728906E2,2.9348438E2,3.4745312E2,2.3990723E1,2.8525E2,1.3577188E3,8.143594E2,3.2321875E2,3.6396875E2,1.435625E2,2.1133594E2,1.9821875E2,2.099375E2,2.5409375E2,1.22475E3,5.259375E2,2.4869531E2,6.966875E2,1.1734375E2,5.955E2,0E0,0E0,1.1421875E2,3.0654663E1,2.9520087E2,1.0662793E2,2.3992383E2,0E0,6.9441895E1,2.5271454E0,7.0875E1,2.6279688E2,0E0,6.1578955E2,2.0975781E2,1.0082031E2,1.5721094E2,0E0,2.689375E2,0E0,0E0,1.6007812E2,9.1234375E1,0E0,3.83375E2,5.254492E2,2.6685156E2,1.1448242E2,0E0,3.6495312E2,0E0,1.245E2,0E0,2.0754688E2,0E0,3.9765625E1,2.0853125E2,0E0,1.808125E2,0E0,0E0,0E0,8.13625E2,3.1940625E2,0E0,0E0,2.368125E2,5.5446875E2,0E0,9.2125E1,0E0,5.77625E2,0E0,0E0,0E0,0E0,0E0,0E0,0E0,0E0,0E0,0E0,0E0,0E0,0E0,0E0,0E0,0E0,0E0,0E0,0E0,0E0,0E0,0E0,0E0,0E0,0E0,0E0,0E0,0E0,0E0,0E0,0E0,0E0,0E0,0E0,0E0,0E0,0E0,0E0,0E0,0E0,0E0,0E0,0E0,0E0,0E0,0E0,0E0,0E0,0E0,0E0,0E0,0E0,0E0,0E0,0E0,0E0,0E0,0E0,0E0,0E0,0E0,0E0,0E0,0E0,0E0],"parents":[2147483647,0,0,1,1,2,2,3,3,4,4,5,5,6,6,7,7,8,8,9,9,10,10,11,11,12,12,13,13,14,14,15,15,16,16,17,17,18,18,19,19,20,20,21,21,22,22,23,23,24,24,25,25,26,26,28,28,29,29,31,31,32,32,33,33,34,34,35,35,36,36,37,37,38,38,39,39,40,40,41,41,42,42,43,43,44,44,45,45,46,46,47,47,48,48,49,49,50,50,51,51,52,52,53,53,54,54,55,55,58,58,59,59,60,60,61,61,62,62,64,64,65,65,66,66,67,67,69,69,70,70,71,71,72,72,74,74,77,77,78,78,80,80,81,81,82,82,83,83,85,85,87,87,89,89,91,91,92,92,94,94,98,98,99,99,102,102,103,103,105,105,107,107],"right_children":[2,4,6,8,10,12,14,16,18,20,22,24,26,28,30,32,34,36,38,40,42,44,46,48,50,52,54,-1,56,58,-1,60,62,64,66,68,70,72,74,76,78,80,82,84,86,88,90,92,94,96,98,100,102,104,106,108,-1,-1,110,112,114,116,118,-1,120,122,124,126,-1,128,130,132,134,-1,136,-1,-1,138,140,-1,142,144,146,148,-1,150,-1,152,-1,154,-1,156,158,-1,160,-1,-1,-1,162,164,-1,-1,166,168,-1,170,-1,172,-1,-1,-1,-1,-1,-1,-1,-1,-1,-1,-1,-1,-1,-1,-1,-1,-1,-1,-1,-1,-1,-1,-1,-1,-1,-1,-1,-1,-1,-1,-1,-1,-1,-1,-1,-1,-1,-1,-1,-1,-1,-1,-1,-1,-1,-1,-1,-1,-1,-1,-1,-1,-1,-1,-1,-1,-1,-1,-1,-1,-1,-1,-1,-1,-1],"split_conditions":[5.695E1,3.439E1,9.675E1,2.1064999E1,4.5255E1,7.425E1,1.2820001E2,1.465E1,2.6785E1,4.0715E1,5.0475E1,6.825E1,8.2149994E1,1.35E1,1.706E2,7.3500004E0,1.705E1,2.674E1,3.0064999E1,1.1549999E1,5.95E1,2.15E1,5.285E1,7.22E1,2.9185001E1,7.92E1,8.325E1,3.8594205E0,1.319E2,1.4E1,1.4376602E1,4.0908386E1,4.55E0,1.085E1,5.3E0,9.149E1,1.948E1,2.8314999E1,8.85E0,6.09E1,4.245E1,4.9E0,4.225E1,2.165E1,1.18850006E2,1.5070001E2,1.306E2,5.985E1,2.6849998E1,5.065E1,2.074E1,1.379E2,2.634E1,1.22100006E2,1.4935E2,1.696E2,3.125353E0,4.3729653E0,1.3915E2,5.0300003E1,6.4E0,2.475E1,3.95E1,2.2057393E0,6.5E0,1.1549999E1,7.418E1,2.3705E1,4.2860093E0,5.21E1,2.3255001E1,3.453E1,6.325E1,4.6466756E0,4.8879997E1,5.3564234E0,1.48013E0,4.3199997E1,1.10850006E2,-1.3245503E0,4.05E0,6.3550003E1,1.3675E2,5.805E1,8.805627E-1,4.892E1,1.0372988E0,1.451E2,1.076752E0,1.3435E2,7.2242635E-1,2.4875E1,1.32E2,2.7169347E0,1.405E2,4.5926156E0,2.7101562E0,2.2508055E-1,6.7575E1,1.6254999E2,2.1828983E0,3.185637E0,1.129E2,1.5485E2,1.460612E0,1.27450005E2,2.6252284E0,2.032E2,3.1602721E0,1.0681326E1,4.4188323E0,4.1499934E-1,7.68155E-2,1.7963847E0,4.297364E-1,7.145618E-1,2.695888E0,1.0527327E0,7.2983146E-1,5.218526E-1,1.1865798E0,1.831074E-1,7.5183225E-1,1.5443933E0,1.0079944E0,1.6892134E0,1.8807038E0,3.91928E0,1.6807665E0,1.7834047E0,2.0182314E0,2.2298527E0,2.5752618E0,2.098948E0,1.306757E0,2.4086006E0,2.8209968E0,2.8403869E0,3.181144E0,2.587683E0,8.7435776E-1,6.8841445E-1,3.1960213E0,4.0146556E0,6.240348E0,3.3537266E0,9.375884E-1,3.1353924E0,1.3201672E0,3.466116E0,3.961736E0,4.5285425E0,1.1125216E0,3.8785474E0,7.35771E-1,2.6551845E0,4.5829716E0,5.127898E0,2.8467007E0,4.3490186E0,9.515584E-1,6.3489265E0,5.2994394E0,6.397209E0,1.4887218E0,5.5070815E0,1.2792119E0,7.4420776E0,1.610612E0,6.521584E0,2.6603904E0,8.537691E0,1.9816394E0],"split_indices":[167,167,167,167,167,167,167,167,167,167,145,167,167,14,167,167,167,74,167,46,72,82,165,166,125,166,166,0,68,104,0,121,139,166,111,107,166,166,153,1,166,163,165,83,140,85,39,167,77,9,158,154,154,76,163,43,0,0,33,135,164,93,21,0,33,77,2,167,0,70,167,123,140,0,154,0,0,146,2,0,147,162,53,118,0,167,0,41,0,8,0,163,69,0,33,0,0,0,166,63,0,0,166,161,0,52,0,96,0,0,0,0,0,0,0,0,0,0,0,0,0,0,0,0,0,0,0,0,0,0,0,0,0,0,0,0,0,0,0,0,0,0,0,0,0,0,0,0,0,0,0,0,0,0,0,0,0,0,0,0,0,0,0,0,0,0,0,0,0,0,0,0,0],"split_type":[0,0,0,0,0,0,0,0,0,0,0,0,0,0,0,0,0,0,0,0,0,0,0,0,0,0,0,0,0,0,0,0,0,0,0,0,0,0,0,0,0,0,0,0,0,0,0,0,0,0,0,0,0,0,0,0,0,0,0,0,0,0,0,0,0,0,0,0,0,0,0,0,0,0,0,0,0,0,0,0,0,0,0,0,0,0,0,0,0,0,0,0,0,0,0,0,0,0,0,0,0,0,0,0,0,0,0,0,0,0,0,0,0,0,0,0,0,0,0,0,0,0,0,0,0,0,0,0,0,0,0,0,0,0,0,0,0,0,0,0,0,0,0,0,0,0,0,0,0,0,0,0,0,0,0,0,0,0,0,0,0,0,0,0,0,0,0,0,0,0,0,0,0],"sum_hessian":[7.947E3,6.285E3,1.662E3,4.078E3,2.207E3,1.301E3,3.61E2,1.219E3,2.859E3,1.481E3,7.26E2,7.21E2,5.8E2,2.82E2,7.9E1,3.77E2,8.42E2,1.709E3,1.15E3,5.81E2,9E2,4.06E2,3.2E2,4.96E2,2.25E2,2.53E2,3.27E2,4E0,2.78E2,6.7E1,1.2E1,1.18E2,2.59E2,1.01E2,7.41E2,1.023E3,6.86E2,6.1E2,5.4E2,6E0,5.75E2,7.87E2,1.13E2,2.4E1,3.82E2,1.79E2,1.41E2,4.3E2,6.6E1,2.9E1,1.96E2,1.55E2,9.8E1,1.17E2,2.1E2,2.76E2,2E0,2E0,6.5E1,9.8E1,2E1,4E0,2.55E2,4E0,9.7E1,5E0,7.36E2,1.022E3,1E0,1.7E1,6.69E2,2.99E2,3.11E2,2E0,5.38E2,5E0,1E0,4.63E2,1.12E2,1E0,7.86E2,5.6E1,5.7E1,2.1E1,3E0,3.8E2,2E0,1.78E2,1E0,1.4E2,1E0,1.21E2,3.09E2,9E0,5.7E1,2.1E1,8E0,1E0,1.95E2,1.53E2,2E0,6E0,9.2E1,1.16E2,1E0,2.08E2,2E0,2.74E2,2E0,6.3E1,2E0,9.1E1,7E0,4E0,1.6E1,2E0,2E0,1.6E2,9.5E1,6E0,9.1E1,1E0,4E0,7.23E2,1.3E1,6.1E2,4.12E2,1E1,7E0,2.37E2,4.32E2,2.05E2,9.4E1,2.99E2,1.2E1,4.54E2,8.4E1,2.98E2,1.65E2,1.1E2,2E0,2E0,7.84E2,5E1,6E0,5.5E1,2E0,1.8E1,3E0,1.5E2,2.3E2,1.77E2,1E0,1.39E2,1E0,5E0,1.16E2,3.04E2,5E0,5.6E1,1E0,7.3E1,1.22E2,1.52E2,1E0,9.1E1,1E0,1.15E2,1E0,2.06E2,2E0,2.73E2,1E0],"tree_param":{"num_deleted":"0","num_feature":"168","num_nodes":"173","size_leaf_vector":"0"}},{"base_weights":[1.8315315E1,1.3192356E1,3.5459366E1,9.886555E0,1.8124813E1,3.0563046E1,4.8656174E1,6.144553E0,1.0816138E1,1.6713345E1,2.100779E1,2.7200947E1,3.4543976E1,4.3364616E1,5.7616695E1,3.7021482E0,7.313764E0,9.958662E0,1.2310999E1,1.4514463E1,1.7648867E1,2.0187067E1,2.3273317E1,2.5481668E1,2.892109E1,3.4907948E1,2.2707794E1,3.147465E1,4.4109375E1,5.4346634E1,7.489525E1,3.4472275E0,8.672575E0,6.295663E0,7.990702E0,9.083854E0,1.0382882E1,1.1478529E1,1.2789808E1,2.15292E1,1.4297408E1,1.8003237E1,1.5332606E1,1.1734607E1,2.0325706E1,2.5171375E1,2.090536E1,2.3313887E1,2.6899588E1,3.0465038E1,2.6091692E1,3.316665E1,3.736461E1,2.3605492E1,2.3769073E0,3.3375957E1,1.4574772E1,4.5627773E1,3.808134E1,5.5094433E1,3.0665419E1,5.778301E1,9.297712E1,8.2164E0,3.2147777E0,1.5155749E1,2.8027964E0,1.1532901E1,5.9916835E0,8.252365E0,5.9572406E0,9.11531E0,3.3979375E0,1.3291768E1,1.0222871E1,1.1503767E1,7.170334E-1,2.2574809E0,1.2818048E1,2.7045614E1,1.2937186E1,1.2140591E1,1.470412E1,1.7835175E1,2.3374233E1,1.4304613E1,1.7880192E1,7.3408523E0,1.4904886E1,2.08927E1,1.825724E1,2.7173496E1,2.141985E1,6.9928613E0,2.112236E1,1.2740069E1,2.3654173E1,1.0898972E1,2.707136E1,2.9725561E1,4.214892E1,1.5398248E1,2.674365E1,2.6287245E1,3.4011173E1,3.7795437E1,2.2298656E1,2.5137815E1,6.5430512E0,4.584334E1,1.410703E1,2.0205261E1,3.955678E1,2.1723185E1,5.540069E1,5.937654E1,1.6940014E1,4.204752E0,1.6175327E1,2.6432242E0,4.1819563E0,1.7514273E1,2.8608274E0,3.6467133E0,-1.1303523E0,5.924618E0,1.428432E1,6.0714107E0,7.067208E-1,4.299825E0,8.329717E0,4.061163E0,6.815068E0,4.8544664E0,9.156382E0,1.1451495E1,2.0782898E1,4.7666144E0,1.0278991E1,6.0679007E0,1.1557486E1,1.2878155E1,7.587178E0,1.3955466E1,3.4137526E0,1.2888714E1,7.532789E0,5.5024023E0,1.4759102E1,1.6646515E1,1.8352753E1,1.9853386E1,3.489528E1,1.4867291E1,1.0560658E1,1.8403492E1,4.942797E0,1.996595E1,2.294992E1,1.9250122E1,1.2628552E1,2.75173E1,1.0551998E1,9.691624E0,2.2057177E1,2.1254505E1,4.284272E0,2.4003656E1,1.3135572E1,1.3994774E1,8.057833E-1,2.765399E1,2.0344381E1,3.0440975E1,2.335423E1,2.7167435E1,1.3881318E1,2.693012E1,8.738866E0,3.8562332E1,3.2213108E1,3.8002228E1,1.6714523E1,2.5436796E1,-1.4032307E0,2.6582043E1,9.056003E0,2.4498985E1,4.6213715E1,4.0365242E1,1.101051E1,5.55774E1,1.4800316E1],"categories":[],"categories_nodes":[],"categories_segments":[],"categories_sizes":[],"default_left":[1,1,1,1,1,1,1,1,1,1,1,1,1,1,1,1,1,1,1,1,1,1,1,1,1,1,1,1,1,1,1,1,1,1,1,1,1,1,1,1,1,1,1,1,1,1,1,1,1,1,1,1,1,1,0,0,0,1,1,1,0,1,0,1,1,1,1,1,1,1,1,1,0,1,1,1,0,0,1,0,1,1,1,1,1,1,1,0,0,1,1,1,1,0,1,0,1,1,1,1,0,0,1,1,1,1,1,1,0,1,0,0,1,0,1,0,0,0,0,0,0,0,0,0,0,0,0,0,0,0,0,0,0,0,0,0,0,0,0,0,0,0,0,0,0,0,0,0,0,0,0,0,0,0,0,0,0,0,0,0,0,0,0,0,0,0,0,0,0,0,0,0,0,0,0,0,0,0,0,0,0,0,0,0,0,0,0,0,0,0,0,0,0],"id":5,"left_children":[1,3,5,7,9,11,13,15,17,19,21,23,25,27,29,31,33,35,37,39,41,43,45,47,49,51,53,55,57,59,61,63,65,67,69,71,73,75,77,79,81,83,85,87,89,91,93,95,97,99,101,103,105,107,-1,-1,-1,109,111,113,-1,115,-1,117,119,121,123,125,127,129,131,133,-1,135,137,139,-1,-1,141,-1,143,145,147,149,151,153,155,-1,-1,157,159,161,163,-1,165,-1,167,169,171,173,-1,-1,175,177,179,181,183,185,-1,187,-1,-1,189,-1,191,-1,-1,-1,-1,-1,-1,-1,-1,-1,-1,-1,-1,-1,-1,-1,-1,-1,-1,-1,-1,-1,-1,-1,-1,-1,-1,-1,-1,-1,-1,-1,-1,-1,-1,-1,-1,-1,-1,-1,-1,-1,-1,-1,-1,-1,-1,-1,-1,-1,-1,-1,-1,-1,-1,-1,-1,-1,-1,-1,-1,-1,-1,-1,-1,-1,-1,-1,-1,-1,-1,-1,-1,-1,-1,-1,-1,-1,-1],"loss_changes":[6.975915E5,9.9628125E4,1.1663075E5,1.2689219E4,9.638875E3,1.694175E4,2.0877E4,2.063287E3,3.6408125E3,3.1442188E3,1.02325E3,1.419E3,1.826625E3,1.3921875E3,6.1000625E3,2.7293213E2,2.901543E2,6.0003125E2,2.7809375E2,4.5196094E2,6.7203125E2,4.6107812E2,4.0414844E2,5.193594E2,7.6465625E2,1.2760625E3,3.2716406E2,2.2045312E2,9.4425E2,1.055375E3,2.6724531E3,2.274541E2,3.761242E2,2.5248535E2,1.0673828E2,7.974219E1,4.4734375E2,1.0011328E2,1.6974219E2,2.6626855E2,2.4867969E2,4.8215625E2,1.632539E2,5.7738525E1,3.058125E2,2.4415625E2,1.4815625E2,2.5635938E2,3.06875E2,6.9109375E2,5.154297E2,1.1568438E3,6.8903125E2,3.5842578E2,0E0,0E0,0E0,9.0934375E2,9.151328E2,3.193125E2,0E0,3.5515625E1,0E0,2.5127094E2,1.1056079E2,9.488403E1,2.735682E1,6.967822E1,7.703076E1,4.2759766E1,3.2503662E1,6.317578E1,0E0,6.167197E2,3.159922E2,4.609375E1,0E0,0E0,1.1169531E2,0E0,2.0242188E1,1.890293E2,1.2369531E2,2.9128125E2,4.024336E2,9.368359E1,1.9338086E2,0E0,0E0,4.0545312E2,5.0577344E2,9.822656E1,1.0764258E2,0E0,1.2255078E2,0E0,2.3242969E2,1.1370932E2,2.8396875E2,2.6907812E2,0E0,0E0,2.9878906E2,2.4976172E2,1.3027812E3,3.5875E2,7.051118E2,1.7733594E2,0E0,6.623125E2,0E0,0E0,9.171875E2,0E0,2.3209375E2,0E0,0E0,0E0,0E0,0E0,0E0,0E0,0E0,0E0,0E0,0E0,0E0,0E0,0E0,0E0,0E0,0E0,0E0,0E0,0E0,0E0,0E0,0E0,0E0,0E0,0E0,0E0,0E0,0E0,0E0,0E0,0E0,0E0,0E0,0E0,0E0,0E0,0E0,0E0,0E0,0E0,0E0,0E0,0E0,0E0,0E0,0E0,0E0,0E0,0E0,0E0,0E0,0E0,0E0,0E0,0E0,0E0,0E0,0E0,0E0,0E0,0E0,0E0,0E0,0E0,0E0,0E0,0E0,0E0,0E0,0E0,0E0,0E0,0E0,0E0,0E0,0E0,0E0],"parents":[2147483647,0,0,1,1,2,2,3,3,4,4,5,5,6,6,7,7,8,8,9,9,10,10,11,11,12,12,13,13,14,14,15,15,16,16,17,17,18,18,19,19,20,20,21,21,22,22,23,23,24,24,25,25,26,26,27,27,28,28,29,29,30,30,31,31,32,32,33,33,34,34,35,35,36,36,37,37,38,38,39,39,40,40,41,41,42,42,43,43,44,44,45,45,46,46,47,47,48,48,49,49,50,50,51,51,52,52,53,53,57,57,58,58,59,59,61,61,63,63,64,64,65,65,66,66,67,67,68,68,69,69,70,70,71,71,73,73,74,74,75,75,78,78,80,80,81,81,82,82,83,83,84,84,85,85,86,86,89,89,90,90,91,91,92,92,94,94,96,96,97,97,98,98,99,99,102,102,103,103,104,104,105,105,106,106,107,107,109,109,112,112,114,114],"right_children":[2,4,6,8,10,12,14,16,18,20,22,24,26,28,30,32,34,36,38,40,42,44,46,48,50,52,54,56,58,60,62,64,66,68,70,72,74,76,78,80,82,84,86,88,90,92,94,96,98,100,102,104,106,108,-1,-1,-1,110,112,114,-1,116,-1,118,120,122,124,126,128,130,132,134,-1,136,138,140,-1,-1,142,-1,144,146,148,150,152,154,156,-1,-1,158,160,162,164,-1,166,-1,168,170,172,174,-1,-1,176,178,180,182,184,186,-1,188,-1,-1,190,-1,192,-1,-1,-1,-1,-1,-1,-1,-1,-1,-1,-1,-1,-1,-1,-1,-1,-1,-1,-1,-1,-1,-1,-1,-1,-1,-1,-1,-1,-1,-1,-1,-1,-1,-1,-1,-1,-1,-1,-1,-1,-1,-1,-1,-1,-1,-1,-1,-1,-1,-1,-1,-1,-1,-1,-1,-1,-1,-1,-1,-1,-1,-1,-1,-1,-1,-1,-1,-1,-1,-1,-1,-1,-1,-1,-1,-1,-1,-1],"split_conditions":[5.405E1,3.0855E1,9.0149994E1,1.952E1,4.2165E1,6.997E1,1.153E2,1.145E1,2.5435001E1,3.525E1,6.075E1,6.125E1,1.035E2,3.8050003E1,1.4765E2,7.105E1,1.595E1,2.1395E1,2.599E1,2.1849998E1,4.235E1,7.75E0,7.875E1,4.235E1,6.775E1,8.0350006E1,1.218E2,4.865E1,8.8399994E1,1.232E2,7.045E1,4.55E0,1.625E1,6.7E0,2.1005001E1,8.9E1,2.0105E1,1.0635E2,1.5E1,3.25E1,2.4505001E1,8.795E1,6.05E1,2.95E1,5.24E1,6.435E1,7.9119995E1,2.2869999E1,2.0400002E1,1.1575E2,3.4629997E1,2.67E1,1.22100006E2,9.505E1,3.5653612E-1,5.006394E0,2.1862159E0,1.5225E2,5.33E1,1.01E1,4.599813E0,7.145E1,1.39465685E1,6.75E0,8.65E0,7.475E1,9.785E1,4.1158386E1,1.0145E2,6.05E0,1.7099998E1,7.55E0,5.0969064E-1,4.553E1,1.415E1,1.255E1,1.0755501E-1,3.3862215E-1,1.0345E2,4.0568423E0,4.0843388E1,4.2008385E1,2.0575E1,3.4365E1,9.28E1,6.995E1,1.152E2,1.1011279E0,2.235733E0,4.886E1,7.455E1,1.2105E2,4.325E1,1.0489292E0,1.3975E2,1.9110105E0,8.87E1,8.08E1,1.07399994E2,1.1335E2,6.322338E0,2.3097372E0,1.17649994E2,5.2300003E1,6.725E1,1.165E2,8.4649994E1,8.425E1,9.814577E-1,2.104E1,2.1160545E0,3.0307894E0,1.022E2,3.258478E0,1.22350006E2,8.906482E0,2.5410023E0,6.307128E-1,2.426299E0,3.9648366E-1,6.2729347E-1,2.627141E0,4.2912415E-1,5.47007E-1,-1.6955285E-1,8.886927E-1,2.142648E0,9.1071165E-1,1.0600813E-1,6.449738E-1,1.2494576E0,6.091745E-1,1.0222602E0,7.2817E-1,1.3734573E0,1.7177243E0,3.1174347E0,7.1499217E-1,1.5418487E0,9.1018516E-1,1.7336229E0,1.9317232E0,1.1380768E0,2.0933201E0,5.120629E-1,1.9333072E0,1.1299185E0,8.2536036E-1,2.2138653E0,2.4969773E0,2.752913E0,2.978008E0,5.234292E0,2.2300937E0,1.5840988E0,2.7605238E0,7.414196E-1,2.9948926E0,3.4424882E0,2.8875184E0,1.8942829E0,4.127595E0,1.5827998E0,1.4537436E0,3.3085766E0,3.188176E0,6.426408E-1,3.6005485E0,1.970336E0,2.0992162E0,1.208675E-1,4.1480985E0,3.0516574E0,4.5661464E0,3.5031347E0,4.075115E0,2.082198E0,4.0395184E0,1.3108299E0,5.78435E0,4.8319664E0,5.7003345E0,2.5071785E0,3.8155196E0,-2.1048461E-1,3.9873066E0,1.3584005E0,3.6748478E0,6.9320574E0,6.0547867E0,1.6515766E0,8.336611E0,2.2200475E0],"split_indices":[167,167,167,167,167,167,167,167,167,167,147,167,166,157,167,100,167,167,74,165,166,134,149,1,165,167,18,155,127,139,32,139,152,165,166,3,166,21,26,2,157,43,70,124,166,118,149,159,11,83,147,28,76,99,0,0,0,79,158,3,0,34,0,140,167,15,15,11,68,45,159,56,0,122,64,9,0,0,112,0,17,40,160,148,26,36,37,0,0,167,49,10,167,0,150,0,36,0,37,108,0,0,29,33,166,75,0,115,0,12,0,0,74,0,87,0,0,0,0,0,0,0,0,0,0,0,0,0,0,0,0,0,0,0,0,0,0,0,0,0,0,0,0,0,0,0,0,0,0,0,0,0,0,0,0,0,0,0,0,0,0,0,0,0,0,0,0,0,0,0,0,0,0,0,0,0,0,0,0,0,0,0,0,0,0,0,0,0,0,0,0,0,0],"split_type":[0,0,0,0,0,0,0,0,0,0,0,0,0,0,0,0,0,0,0,0,0,0,0,0,0,0,0,0,0,0,0,0,0,0,0,0,0,0,0,0,0,0,0,0,0,0,0,0,0,0,0,0,0,0,0,0,0,0,0,0,0,0,0,0,0,0,0,0,0,0,0,0,0,0,0,0,0,0,0,0,0,0,0,0,0,0,0,0,0,0,0,0,0,0,0,0,0,0,0,0,0,0,0,0,0,0,0,0,0,0,0,0,0,0,0,0,0,0,0,0,0,0,0,0,0,0,0,0,0,0,0,0,0,0,0,0,0,0,0,0,0,0,0,0,0,0,0,0,0,0,0,0,0,0,0,0,0,0,0,0,0,0,0,0,0,0,0,0,0,0,0,0,0,0,0,0,0,0,0,0,0,0,0,0,0,0,0,0,0,0,0,0,0],"sum_hessian":[7.947E3,6.12E3,1.827E3,3.666E3,2.454E3,1.335E3,4.92E2,7.31E2,2.935E3,1.652E3,8.02E2,7.28E2,6.07E2,3.13E2,1.79E2,2.38E2,4.93E2,1.87E3,1.065E3,4.98E2,1.154E3,5.96E2,2.06E2,3.72E2,3.56E2,5.87E2,2E1,2.1E1,2.92E2,1.54E2,2.5E1,2.28E2,1E1,2.01E2,2.92E2,6.18E2,1.252E3,3.98E2,6.67E2,1.2E1,4.86E2,9.95E2,1.59E2,1.1E1,5.85E2,1.09E2,9.7E1,1.54E2,2.18E2,2.24E2,1.32E2,3.52E2,2.35E2,1.9E1,1E0,1.8E1,3E0,2.28E2,6.4E1,1.48E2,6E0,1.5E1,1E1,9E0,2.19E2,4E0,6E0,9E0,1.92E2,2.56E2,3.6E1,6.14E2,4E0,6.1E1,1.191E3,3.97E2,1E0,2E0,6.65E2,6E0,6E0,8.2E1,4.04E2,9.69E2,2.6E1,1.18E2,4.1E1,6E0,5E0,4.52E2,1.33E2,6.7E1,4.2E1,2E0,9.5E1,6E0,1.48E2,3E0,2.15E2,2.14E2,1E1,9E0,1.23E2,4.2E1,3.1E2,2.27E2,8E0,1.7E1,2E0,2.26E2,2E0,6E0,5.8E1,2E0,1.46E2,1.4E1,1E0,7E0,2E0,1.4E2,7.9E1,3E0,1E0,5E0,1E0,4E0,5E0,1.89E2,3E0,6E0,2.5E2,1.3E1,2.3E1,7E0,6.07E2,5.1E1,1E1,1.3E1,1.178E3,5E0,3.92E2,6.56E2,9E0,5E0,1E0,6.9E1,1.3E1,3E0,4.01E2,3.04E2,6.65E2,2.2E1,4E0,1E2,1.8E1,3.9E1,2E0,3.19E2,1.33E2,1.11E2,2.2E1,6.5E1,2E0,3E0,3.9E1,9.4E1,1E0,1.42E2,6E0,2E0,1E0,1.95E2,2E1,1.89E2,2.5E1,1.18E2,5E0,4E1,2E0,8.2E1,2.28E2,2.24E2,3E0,7E0,1E0,1.5E1,2E0,5E0,2.21E2,5.6E1,2E0,1.45E2,1E0],"tree_param":{"num_deleted":"0","num_feature":"168","num_nodes":"193","size_leaf_vector":"0"}},{"base_weights":[1.5598603E1,1.1330126E1,3.0577873E1,8.493002E0,1.5695297E1,2.726469E1,4.4979828E1,5.92544E0,9.491206E0,1.4359851E1,1.8130268E1,2.409555E1,3.1451029E1,4.293664E1,6.2537544E1,3.6928277E0,6.9348826E0,8.782371E0,1.0862144E1,1.3028529E1,1.5401026E1,1.7039738E1,1.9660036E1,2.2100687E1,2.5636097E1,2.9623367E1,3.3983482E1,3.3963554E1,4.4161396E1,6.8288E1,3.6750156E1,2.1660738E0,4.456771E0,5.7740893E0,7.225638E0,2.1812153E1,8.755522E0,2.0197147E1,1.0788739E1,1.2089042E1,1.399618E1,1.5123355E1,1.9144882E1,1.810425E1,1.4689977E1,1.4240787E1,2.010388E1,2.0857079E1,2.5021116E1,2.4056644E1,2.772903E1,1.9901556E1,3.0041094E1,3.5631165E1,2.607373E1,3.6828438E1,1.7900475E1,4.1759663E1,4.9264694E1,3.9499607E1,7.530015E1,1.7606475E0,3.943002E0,1.3101966E1,4.3167143E0,1.0541838E1,5.5022264E0,4.8762007E0,7.2928076E0,8.202121E0,9.220344E0,1.0259607E1,1.1531249E1,1.3358509E1,1.12660055E1,2.6331629E1,1.3769613E1,-5.109601E-1,1.5142972E1,2.0976114E1,1.202209E1,1.7449228E1,2.1396173E1,7.473914E0,1.5110021E1,1.5341736E1,3.249179E0,2.1767006E1,1.8770805E1,2.261937E1,1.7237816E1,2.1901127E1,2.9281073E1,2.6709694E1,2.2010796E1,2.8109617E1,1.376377E1,2.3749256E1,8.247945E0,3.868807E1,2.9252047E1,3.4414425E1,4.874888E1,2.7052132E1,-9.466352E0,4.105513E1,2.4642761E1,4.20573E1,9.981524E0,4.9618088E1,1.1203419E1,1.1437677E0,2.2682889E0,1.0174758E1,1.7491407E0,1.0998815E1,4.139591E0,1.7914915E0,1.1701647E1,1.06821995E1,5.3162537E0,1.5882225E0,5.3934326E0,7.3095064E0,1.7725903E0,1.0734646E1,8.055614E0,1.5201024E0,9.259027E0,1.0579508E1,8.625834E0,1.1605138E1,5.102142E0,1.0313973E1,1.3913862E1,7.7797446E0,1.1699922E1,6.2437367E0,1.3888246E1,1.5197515E1,7.6868215E0,1.6247604E1,2.4966097E1,1.3184649E1,5.8195295E0,2.20805E1,1.68982E1,2.319662E1,1.4723744E1,7.9055586E0,1.5787354E0,1.2990158E1,1.632493E1,1.627366E1,5.9147573E0,7.453499E-1,3.8353386E0,1.7746487E1,2.3024353E1,1.8975273E1,4.723649E0,1.3116635E1,2.312189E1,1.7619942E1,4.617155E0,1.4746994E1,2.3268484E1,1.0853515E1,3.045026E1,7.498113E0,2.699083E1,2.2138855E1,1.0167904E0,2.8340656E1,1.0627676E1,9.842247E0,1.3821602E-1,6.3792427E1,3.2640003E1,1.3087078E1,2.946506E1,1.553421E1,3.473521E1,5.1824936E1,2.4748255E1,2.041183E1,4.3131035E1,2.6669996E1,1.0346802E1,4.23785E1,1.7329704E1,4.9958057E1,1.2060192E1],"categories":[],"categories_nodes":[],"categories_segments":[],"categories_sizes":[],"default_left":[1,1,1,1,1,1,1,1,1,1,1,1,1,1,1,1,1,1,1,1,1,1,1,1,1,1,1,1,1,1,0,1,1,1,1,0,1,0,1,1,1,1,1,1,1,1,1,1,1,1,1,1,1,1,1,1,0,1,1,0,0,1,1,0,1,1,1,1,1,1,1,1,1,1,1,0,1,0,1,1,1,1,1,1,1,1,1,1,1,1,1,1,1,1,1,1,0,0,1,1,1,1,0,1,0,1,1,1,0,1,0,0,0,0,0,0,0,0,0,0,0,0,0,0,0,0,0,0,0,0,0,0,0,0,0,0,0,0,0,0,0,0,0,0,0,0,0,0,0,0,0,0,0,0,0,0,0,0,0,0,0,0,0,0,0,0,0,0,0,0,0,0,0,0,0,0,0,0,0,0,0,0,0,0,0,0,0,0,0,0,0,0,0],"id":6,"left_children":[1,3,5,7,9,11,13,15,17,19,21,23,25,27,29,31,33,35,37,39,41,43,45,47,49,51,53,55,57,59,-1,61,63,65,67,-1,69,-1,71,73,75,77,79,81,83,85,87,89,91,93,95,97,99,101,103,105,-1,107,109,-1,-1,111,113,-1,115,117,119,121,123,125,127,129,131,133,135,-1,137,-1,139,141,143,145,147,149,151,153,155,157,159,161,163,165,167,169,171,173,-1,-1,175,177,179,181,-1,183,-1,185,187,189,-1,191,-1,-1,-1,-1,-1,-1,-1,-1,-1,-1,-1,-1,-1,-1,-1,-1,-1,-1,-1,-1,-1,-1,-1,-1,-1,-1,-1,-1,-1,-1,-1,-1,-1,-1,-1,-1,-1,-1,-1,-1,-1,-1,-1,-1,-1,-1,-1,-1,-1,-1,-1,-1,-1,-1,-1,-1,-1,-1,-1,-1,-1,-1,-1,-1,-1,-1,-1,-1,-1,-1,-1,-1,-1,-1,-1,-1,-1,-1,-1,-1,-1,-1,-1],"loss_changes":[5.07838E5,7.6489875E4,8.2849875E4,9.5599375E3,7.6609375E3,1.8280375E4,9.0815E3,2.3475312E3,2.528375E3,1.9866875E3,1.0980312E3,1.9565E3,1.8398125E3,1.7640625E3,2.235664E3,3.7524316E2,2.0263281E2,4.3348438E2,4.0977344E2,4.662578E2,6.252969E2,1.0072344E3,5.579531E2,8.0378125E2,8.4365625E2,8.8440625E2,2.3421875E3,1.1815078E3,1.1049688E3,2.0723828E3,0E0,7.374408E1,2.0861182E2,1.3642285E2,5.518164E1,0E0,3.8303125E2,0E0,2.3960938E2,2.2772656E2,5.820703E2,2.6045312E2,4.9130273E2,3.7272656E2,3.8416016E2,3.13188E2,3.053203E2,1.2811719E3,7.4097656E2,8.6671875E2,6.229531E2,6.1123047E2,1.2426875E3,1.5942969E3,1.8903906E3,6.8795703E2,0E0,1.3016562E3,4.7979688E2,0E0,0E0,2.652887E1,2.556351E2,0E0,2.1130078E2,5.007776E1,8.1930664E1,2.3746338E1,3.838672E1,2.1888281E2,2.721797E2,1.9149219E2,1.1703125E2,8.813086E1,2.5085742E2,0E0,2.1148438E2,0E0,2.17875E2,4.2449414E2,2.4223267E1,3.7715625E2,2.9516797E2,1.5510071E1,1.8455469E2,1.4094629E2,3.0119057E0,2.8395703E2,4.4459766E2,5.2285156E2,3.526875E2,2.8292383E2,5.528633E2,4.0253906E2,3.9957812E2,4.4198438E2,0E0,0E0,7.621579E1,1.8654688E3,7.265625E2,6.172031E2,0E0,1.3428008E3,0E0,1.0524609E2,4.2844727E1,6.9525E2,0E0,3.6789062E2,0E0,0E0,0E0,0E0,0E0,0E0,0E0,0E0,0E0,0E0,0E0,0E0,0E0,0E0,0E0,0E0,0E0,0E0,0E0,0E0,0E0,0E0,0E0,0E0,0E0,0E0,0E0,0E0,0E0,0E0,0E0,0E0,0E0,0E0,0E0,0E0,0E0,0E0,0E0,0E0,0E0,0E0,0E0,0E0,0E0,0E0,0E0,0E0,0E0,0E0,0E0,0E0,0E0,0E0,0E0,0E0,0E0,0E0,0E0,0E0,0E0,0E0,0E0,0E0,0E0,0E0,0E0,0E0,0E0,0E0,0E0,0E0,0E0,0E0,0E0,0E0,0E0,0E0,0E0,0E0,0E0,0E0,0E0],"parents":[2147483647,0,0,1,1,2,2,3,3,4,4,5,5,6,6,7,7,8,8,9,9,10,10,11,11,12,12,13,13,14,14,15,15,16,16,17,17,18,18,19,19,20,20,21,21,22,22,23,23,24,24,25,25,26,26,27,27,28,28,29,29,31,31,32,32,33,33,34,34,36,36,38,38,39,39,40,40,41,41,42,42,43,43,44,44,45,45,46,46,47,47,48,48,49,49,50,50,51,51,52,52,53,53,54,54,55,55,57,57,58,58,61,61,62,62,64,64,65,65,66,66,67,67,68,68,69,69,70,70,71,71,72,72,73,73,74,74,76,76,78,78,79,79,80,80,81,81,82,82,83,83,84,84,85,85,86,86,87,87,88,88,89,89,90,90,91,91,92,92,93,93,94,94,95,95,98,98,99,99,100,100,101,101,103,103,105,105,106,106,107,107,109,109],"right_children":[2,4,6,8,10,12,14,16,18,20,22,24,26,28,30,32,34,36,38,40,42,44,46,48,50,52,54,56,58,60,-1,62,64,66,68,-1,70,-1,72,74,76,78,80,82,84,86,88,90,92,94,96,98,100,102,104,106,-1,108,110,-1,-1,112,114,-1,116,118,120,122,124,126,128,130,132,134,136,-1,138,-1,140,142,144,146,148,150,152,154,156,158,160,162,164,166,168,170,172,174,-1,-1,176,178,180,182,-1,184,-1,186,188,190,-1,192,-1,-1,-1,-1,-1,-1,-1,-1,-1,-1,-1,-1,-1,-1,-1,-1,-1,-1,-1,-1,-1,-1,-1,-1,-1,-1,-1,-1,-1,-1,-1,-1,-1,-1,-1,-1,-1,-1,-1,-1,-1,-1,-1,-1,-1,-1,-1,-1,-1,-1,-1,-1,-1,-1,-1,-1,-1,-1,-1,-1,-1,-1,-1,-1,-1,-1,-1,-1,-1,-1,-1,-1,-1,-1,-1,-1,-1,-1,-1,-1,-1,-1,-1],"split_conditions":[5.521E1,3.1505001E1,9.955E1,2.0515E1,4.229E1,7.425E1,1.4170001E2,1.355E1,2.6314999E1,3.829E1,4.9074997E1,5.405E1,8.5850006E1,5.19E1,6.855E1,7.125E0,1.705E1,5.7E0,7.4E0,3.585E1,7.0149994E1,4.805E1,2.448E1,6.17E1,6.5649994E1,2.62E1,1.0075E2,7.475E1,1.2325E2,6.8649994E1,5.5125237E0,4.0908386E1,4.1499996E0,1.085E1,1.075E1,3.2718232E0,2.2935001E1,3.0295722E0,3.21E1,2.5545E1,1.897E1,2.75E0,9.78E1,6.98E1,2.055E1,8.425E1,4.975E1,6.6149994E1,6.73E1,5.7800003E1,1.2925E2,5.1765E1,6.375E1,1.092E2,9.925E1,6.7600006E1,2.6850712E0,1.17350006E2,1.2105E2,5.924941E0,1.1295023E1,5.25E0,6.4E0,1.965295E0,4.55E0,1.04E1,6.3E0,1.005E1,1.12E2,1.9715E1,8.275E0,3.192E1,1.0345E2,2.0455E1,2.32E1,3.9497445E0,2.2965E1,-7.664402E-2,8.375E1,6.3199997E1,1.1885E2,2.15E1,1.153E2,4.039E1,4.025E1,2.6095001E1,9.505E1,2.98E1,1.279E2,3.3615E1,7.725E1,4.2058388E1,2.345E1,2.215E1,1.377E2,1.3529999E2,2.0645657E0,3.5623887E0,6.02E1,2.895E1,2.3215E1,2.579E1,7.312332E0,1.43E1,-1.4199529E0,7.05E0,1.012E2,1.2075E2,1.4972287E0,1.3045E2,1.6805129E0,1.7156516E-1,3.4024334E-1,1.5262138E0,2.6237112E-1,1.6498222E0,6.209387E-1,2.6872373E-1,1.7552471E0,1.60233E0,7.974381E-1,2.3823339E-1,8.090149E-1,1.096426E0,2.6588854E-1,1.610197E0,1.2083422E0,2.2801536E-1,1.388854E0,1.5869262E0,1.2938752E0,1.7407707E0,7.653213E-1,1.5470961E0,2.0870795E0,1.1669618E0,1.7549883E0,9.365606E-1,2.083237E0,2.2796273E0,1.1530232E0,2.4371407E0,3.7449148E0,1.9776975E0,8.7292945E-1,3.3120751E0,2.53473E0,3.4794934E0,2.2085617E0,1.1858338E0,2.3681031E-1,1.9485238E0,2.4487395E0,2.441049E0,8.8721365E-1,1.1180249E-1,5.753008E-1,2.661973E0,3.453653E0,2.846291E0,7.0854735E-1,1.9674953E0,3.4682834E0,2.6429913E0,6.925733E-1,2.2120492E0,3.4902728E0,1.6280273E0,4.567539E0,1.124717E0,4.0486245E0,3.3208284E0,1.5251857E-1,4.2510986E0,1.5941515E0,1.4763371E0,2.0732403E-2,9.568865E0,4.896001E0,1.9630618E0,4.4197593E0,2.3301315E0,5.210282E0,7.773741E0,3.7122383E0,3.0617747E0,6.4696555E0,4.0004997E0,1.5520203E0,6.3567758E0,2.5994558E0,7.493709E0,1.8090289E0],"split_indices":[167,167,167,167,167,167,167,167,167,167,167,146,167,159,93,167,167,29,91,99,27,166,124,48,167,154,166,152,167,141,0,121,116,166,122,0,167,0,122,42,21,141,35,69,11,0,165,166,167,166,103,69,166,133,167,140,0,3,104,0,0,167,164,0,139,0,90,109,132,166,132,166,112,120,157,0,103,0,162,153,38,115,76,27,148,126,0,75,24,165,53,0,126,156,69,27,0,0,25,133,149,157,0,86,0,38,135,105,0,3,0,0,0,0,0,0,0,0,0,0,0,0,0,0,0,0,0,0,0,0,0,0,0,0,0,0,0,0,0,0,0,0,0,0,0,0,0,0,0,0,0,0,0,0,0,0,0,0,0,0,0,0,0,0,0,0,0,0,0,0,0,0,0,0,0,0,0,0,0,0,0,0,0,0,0,0,0,0,0,0,0,0,0],"split_type":[0,0,0,0,0,0,0,0,0,0,0,0,0,0,0,0,0,0,0,0,0,0,0,0,0,0,0,0,0,0,0,0,0,0,0,0,0,0,0,0,0,0,0,0,0,0,0,0,0,0,0,0,0,0,0,0,0,0,0,0,0,0,0,0,0,0,0,0,0,0,0,0,0,0,0,0,0,0,0,0,0,0,0,0,0,0,0,0,0,0,0,0,0,0,0,0,0,0,0,0,0,0,0,0,0,0,0,0,0,0,0,0,0,0,0,0,0,0,0,0,0,0,0,0,0,0,0,0,0,0,0,0,0,0,0,0,0,0,0,0,0,0,0,0,0,0,0,0,0,0,0,0,0,0,0,0,0,0,0,0,0,0,0,0,0,0,0,0,0,0,0,0,0,0,0,0,0,0,0,0,0,0,0,0,0,0,0,0,0,0,0,0,0],"sum_hessian":[7.947E3,6.186E3,1.761E3,3.751E3,2.435E3,1.434E3,3.27E2,1.052E3,2.699E3,1.577E3,8.58E2,8.2E2,6.14E2,2.96E2,3.1E1,3.29E2,7.23E2,1.784E3,9.15E2,6.98E2,8.79E2,5.08E2,3.5E2,3.64E2,4.56E2,3.64E2,2.5E2,3.9E1,2.57E2,2.4E1,7E0,1.11E2,2.18E2,1.49E2,5.74E2,2E0,1.782E3,5E0,9.1E2,3.61E2,3.37E2,8.23E2,5.6E1,3.45E2,1.63E2,2.9E1,3.21E2,2.61E2,1.03E2,2.67E2,1.89E2,1.7E1,3.47E2,2.04E2,4.6E1,3.2E1,7E0,1.81E2,7.6E1,6E0,1.8E1,9.2E1,1.9E1,2E0,2.16E2,6E0,1.43E2,1.8E1,5.56E2,8.22E2,9.6E2,5.4E2,3.7E2,1.36E2,2.25E2,4E0,3.33E2,1E0,8.22E2,4.3E1,1.3E1,2.93E2,5.2E1,1E1,1.53E2,2.6E1,3E0,1.36E2,1.85E2,1.72E2,8.9E1,6.3E1,4E1,1.11E2,1.56E2,1.83E2,6E0,1.2E1,5E0,2.5E1,3.22E2,1.9E2,1.4E1,4.5E1,1E0,2.2E1,1E1,1.79E2,2E0,7.5E1,1E0,4.3E1,4.9E1,4E0,1.5E1,4E0,2.12E2,1E0,5E0,3E0,1.4E2,3E0,1.5E1,5.54E2,2E0,4.1E1,7.81E2,5E0,9.55E2,4.47E2,9.3E1,3.65E2,5E0,2.4E1,1.12E2,2.7E1,1.98E2,6E0,3.27E2,8.15E2,7E0,2.2E1,2.1E1,1E1,3E0,2.7E1,2.66E2,3.9E1,1.3E1,9E0,1E0,6E1,9.3E1,2.3E1,3E0,1E0,2E0,3.6E1,1E2,1.82E2,3E0,1E1,1.62E2,8.6E1,3E0,1.2E1,5.1E1,3E0,3.7E1,2E0,1.09E2,1.55E2,1E0,1.8E2,3E0,4E0,1E0,3E0,2.2E1,5E0,3.17E2,4E0,1.86E2,2E0,4.3E1,3E0,1.9E1,8E0,2E0,1.76E2,3E0,7.4E1,1E0],"tree_param":{"num_deleted":"0","num_feature":"168","num_nodes":"193","size_leaf_vector":"0"}},{"base_weights":[1.3288561E1,9.856099E0,2.6900694E1,7.505705E0,1.4161282E1,2.4049301E1,3.9026794E1,5.588039E0,8.602626E0,1.2989991E1,1.6582663E1,2.1410034E1,2.7340971E1,3.732562E1,5.5715244E1,3.3478818E0,6.338433E0,7.9020867E0,1.0040475E1,1.2618051E1,1.4578447E1,1.5657928E1,1.812644E1,2.3428663E1,2.0196198E1,4.252157E1,2.7051277E1,3.7849586E1,2.2556904E1,4.2391495E1,7.003022E1,1.9127728E0,3.9918437E0,5.718906E0,6.70146E0,7.4413915E0,8.511756E0,2.2132648E1,9.971678E0,1.295498E1,1.0696756E1,1.2838096E1,1.6239529E1,1.57409935E1,2.211678E0,2.0158388E1,1.6318274E1,2.248394E1,3.0958458E1,1.7771797E1,2.1719467E1,5.304698E1,1.6103056E1,2.7244083E1,1.209161E1,3.8038654E1,8.532197E0,2.3424913E1,6.504402E0,4.3752983E1,1.0984598E1,1.541509E0,3.5719316E0,1.1791769E1,3.8856747E0,3.7946222E0,5.862132E0,2.8798006E0,6.747002E0,7.3993235E0,2.496504E1,1.3654814E1,8.345099E0,1.0307278E1,8.539424E0,1.2621581E1,1.5422524E1,-2.7862397E-1,1.0934284E1,2.6337374E1,1.2357266E1,1.7144855E1,1.0292919E1,1.3356895E1,1.6419062E1,1.502772E1,2.1404385E1,1.27451315E1,1.7209461E1,2.1973045E1,3.874671E1,3.4375965E1,1.6283304E1,7.3598614E0,1.8022919E1,1.3546166E1,2.2334616E1,2.556998E1,2.9626139E1,1.5792154E1,-8.756376E0,2.877508E1,3.8883713E1,4.5033443E1,1.2913254E1,1.3152762E-1,1.7162621E0,1.1395385E1,2.148653E0,3.7525442E0,9.871573E0,-8.206199E-1,4.129659E0,6.7816086E0,5.4950686E0,4.6227055E0,2.1235427E-1,6.355254E0,7.1138053E0,3.0175905E0,7.44455E0,1.8312927E1,7.3318877E0,7.663393E0,8.787206E0,1.0064988E1,1.3950448E1,8.763359E0,3.6344125E0,-1.0556361E1,1.2658011E1,2.813104E1,1.4968727E1,-5.188864E0,4.724491E0,1.2613219E1,9.3314495E0,1.2451528E1,-3.2539177E-1,1.5218855E1,2.1568893E1,1.1091501E1,1.8042578E0,6.928496E0,1.3806377E1,1.6538095E1,6.7785726E0,1.6861176E1,8.565617E0,2.1674557E1,5.894287E0,1.3310283E1,2.6568592E0,1.3129637E1,1.8096344E1,1.910924E1,2.3468473E1,2.2356216E1,6.0349598E1,3.6818455E1,1.9196308E1,1.7042042E1,2.1816416E1,1.9520123E1,9.45698E0,2.261575E1,1.0757336E1,2.578615E1,1.1757143E1,3.5230927E1,2.7360783E1,1.6760347E1,4.5074043E0,1.2325744E1,2.9632286E1,4.000191E1,3.0365368E1],"categories":[],"categories_nodes":[],"categories_segments":[],"categories_sizes":[],"default_left":[1,1,1,1,1,1,1,1,1,1,1,1,1,1,1,1,1,1,1,1,1,1,1,1,1,1,1,1,1,1,0,1,1,1,1,1,1,0,1,1,1,1,1,1,0,1,1,1,1,1,1,0,0,1,1,1,0,0,0,1,0,1,1,0,1,1,1,1,1,1,0,1,1,1,1,1,1,1,1,0,1,1,1,1,1,1,1,1,1,1,1,1,0,0,1,1,1,1,1,1,0,1,1,0,0,0,0,0,0,0,0,0,0,0,0,0,0,0,0,0,0,0,0,0,0,0,0,0,0,0,0,0,0,0,0,0,0,0,0,0,0,0,0,0,0,0,0,0,0,0,0,0,0,0,0,0,0,0,0,0,0,0,0,0,0,0,0,0,0,0,0,0,0,0,0,0,0],"id":7,"left_children":[1,3,5,7,9,11,13,15,17,19,21,23,25,27,29,31,33,35,37,39,41,43,45,47,49,51,53,55,57,59,-1,61,63,65,67,69,71,-1,73,75,77,79,81,83,-1,85,87,89,91,93,95,-1,-1,97,99,101,-1,-1,-1,103,-1,105,107,-1,109,111,113,115,117,119,-1,121,123,125,127,129,131,133,135,-1,137,139,141,143,145,147,149,151,153,155,157,159,-1,-1,161,163,165,167,169,171,-1,173,175,-1,-1,-1,-1,-1,-1,-1,-1,-1,-1,-1,-1,-1,-1,-1,-1,-1,-1,-1,-1,-1,-1,-1,-1,-1,-1,-1,-1,-1,-1,-1,-1,-1,-1,-1,-1,-1,-1,-1,-1,-1,-1,-1,-1,-1,-1,-1,-1,-1,-1,-1,-1,-1,-1,-1,-1,-1,-1,-1,-1,-1,-1,-1,-1,-1,-1,-1,-1,-1,-1,-1,-1,-1,-1],"loss_changes":[3.7109038E5,6.4138438E4,5.43835E4,8.595328E3,6.1404062E3,1.0691125E4,6.5225625E3,2.496918E3,2.5516562E3,7.111406E2,7.540156E2,1.3032812E3,1.3740312E3,1.2974688E3,1.9902734E3,3.416953E2,2.1379297E2,4.3127344E2,4.8808594E2,6.60875E2,6.0385156E2,4.811953E2,6.483672E2,1.1961406E3,1.3127969E3,1.648375E3,1.3030938E3,1.1554375E3,1.4839355E1,2.0355078E2,0E0,6.779611E1,1.6948975E2,9.378711E1,1.0257422E2,5.605703E2,5.2975E2,0E0,3.200703E2,6.658594E2,4.9836914E2,5.962422E2,5.772383E2,5.2271094E2,0E0,4.518711E2,2.4557422E2,1.1426719E3,7.943613E2,3.4583594E2,1.0951719E3,0E0,0E0,1.4676875E3,8.326222E2,9.5559375E2,0E0,0E0,0E0,1.0808594E1,0E0,2.4167694E1,2.0934927E2,0E0,1.6855835E2,5.286972E1,9.4362305E1,4.5509415E1,5.4226562E1,1.776875E2,0E0,5.136958E2,1.5267188E2,4.6246875E2,1.5158398E2,9.16375E2,2.7096484E2,1.4734723E2,3.828379E2,0E0,1.7022266E2,6.9423047E2,1.2234497E2,2.1351367E2,2.9297656E2,1.7546924E2,2.7032812E2,1.5278271E2,1.7489062E2,5.579531E2,7.753037E2,7.181836E1,0E0,0E0,2.9053516E2,3.5282837E2,5.931953E2,6.971094E2,1.8801406E3,1.186084E1,0E0,1.3710938E0,1.071375E3,0E0,0E0,0E0,0E0,0E0,0E0,0E0,0E0,0E0,0E0,0E0,0E0,0E0,0E0,0E0,0E0,0E0,0E0,0E0,0E0,0E0,0E0,0E0,0E0,0E0,0E0,0E0,0E0,0E0,0E0,0E0,0E0,0E0,0E0,0E0,0E0,0E0,0E0,0E0,0E0,0E0,0E0,0E0,0E0,0E0,0E0,0E0,0E0,0E0,0E0,0E0,0E0,0E0,0E0,0E0,0E0,0E0,0E0,0E0,0E0,0E0,0E0,0E0,0E0,0E0,0E0,0E0,0E0,0E0,0E0,0E0,0E0,0E0,0E0],"parents":[2147483647,0,0,1,1,2,2,3,3,4,4,5,5,6,6,7,7,8,8,9,9,10,10,11,11,12,12,13,13,14,14,15,15,16,16,17,17,18,18,19,19,20,20,21,21,22,22,23,23,24,24,25,25,26,26,27,27,28,28,29,29,31,31,32,32,33,33,34,34,35,35,36,36,38,38,39,39,40,40,41,41,42,42,43,43,45,45,46,46,47,47,48,48,49,49,50,50,53,53,54,54,55,55,59,59,61,61,62,62,64,64,65,65,66,66,67,67,68,68,69,69,71,71,72,72,73,73,74,74,75,75,76,76,77,77,78,78,80,80,81,81,82,82,83,83,84,84,85,85,86,86,87,87,88,88,89,89,90,90,91,91,94,94,95,95,96,96,97,97,98,98,99,99,101,101,102,102],"right_children":[2,4,6,8,10,12,14,16,18,20,22,24,26,28,30,32,34,36,38,40,42,44,46,48,50,52,54,56,58,60,-1,62,64,66,68,70,72,-1,74,76,78,80,82,84,-1,86,88,90,92,94,96,-1,-1,98,100,102,-1,-1,-1,104,-1,106,108,-1,110,112,114,116,118,120,-1,122,124,126,128,130,132,134,136,-1,138,140,142,144,146,148,150,152,154,156,158,160,-1,-1,162,164,166,168,170,172,-1,174,176,-1,-1,-1,-1,-1,-1,-1,-1,-1,-1,-1,-1,-1,-1,-1,-1,-1,-1,-1,-1,-1,-1,-1,-1,-1,-1,-1,-1,-1,-1,-1,-1,-1,-1,-1,-1,-1,-1,-1,-1,-1,-1,-1,-1,-1,-1,-1,-1,-1,-1,-1,-1,-1,-1,-1,-1,-1,-1,-1,-1,-1,-1,-1,-1,-1,-1,-1,-1,-1,-1,-1,-1,-1,-1],"split_conditions":[5.845E1,3.4614998E1,1.024E2,2.1835E1,4.615E1,7.605E1,1.4765E2,1.465E1,2.849E1,5.7E1,5.605E1,5.915E1,1.245E1,1.2475E2,7.045E1,7.3500004E0,1.9765E1,2.7349998E1,8.049999E0,4.765E1,4.0815002E1,1.21100006E2,5.285E1,9.42E1,6.5649994E1,3.115E1,1.22100006E2,1.388E2,8.0850006E1,1.10850006E2,1.0504534E1,4.0908386E1,4.2E0,9.25E0,1.4E1,9.149E1,2.0349998E1,3.3198974E0,3.457E1,4.775E1,1.95E1,1.864E1,5.21E1,2.655E1,3.317517E-1,2.645E1,3.5025E1,1.1655E2,8.2899994E1,2.18E1,2.35E1,7.9570475E0,2.4154584E0,8.7850006E1,6.56E1,2.5849998E1,1.2798296E0,3.5137372E0,9.756604E-1,7.145E1,1.6476898E0,6.55E0,7.2E0,1.7687654E0,7.65E1,5.95E0,1.9895E1,1.625E1,2.2685001E1,1.065E1,3.7447562E0,3.3120003E1,2.4795E1,5.695E1,8.2399994E1,4.9E0,2.22E1,3.41E1,4.39E1,3.950606E0,1.3870001E2,6.95E1,9.53E1,1.885E1,1.3375E2,4.19E1,1.3045E2,8.5399994E1,4.28E1,4.575E1,9.62E1,1.081E2,2.4424958E0,1.1039792E0,8.95E1,2.1675E1,1.228E2,1.319E2,8.4485E1,9.875E1,-1.3134565E0,1.039E2,9.18E1,6.755017E0,1.9369881E0,1.9729143E-2,2.5743932E-1,1.7093078E0,3.2229796E-1,5.6288165E-1,1.480736E0,-1.2309299E-1,6.194489E-1,1.0172414E0,8.242603E-1,6.9340587E-1,3.1853143E-2,9.5328814E-1,1.0670708E0,4.526386E-1,1.1166825E0,2.7469392E0,1.0997832E0,1.149509E0,1.3180809E0,1.5097483E0,2.0925672E0,1.3145039E0,5.451619E-1,-1.5834543E0,1.8987018E0,4.2196565E0,2.245309E0,-7.783297E-1,7.086737E-1,1.8919829E0,1.3997175E0,1.8677292E0,-4.880877E-2,2.2828283E0,3.2353342E0,1.6637253E0,2.7063867E-1,1.0392745E0,2.0709567E0,2.4807143E0,1.016786E0,2.5291765E0,1.2848425E0,3.2511837E0,8.841431E-1,1.9965425E0,3.985289E-1,1.9694456E0,2.7144518E0,2.866386E0,3.520271E0,3.3534327E0,9.05244E0,5.5227685E0,2.8794463E0,2.5563064E0,3.2724626E0,2.9280186E0,1.418547E0,3.3923626E0,1.6136004E0,3.8679225E0,1.7635715E0,5.2846394E0,4.1041174E0,2.5140522E0,6.761107E-1,1.8488616E0,4.4448433E0,6.000287E0,4.5548053E0],"split_indices":[167,167,167,167,167,167,167,167,167,96,146,165,101,138,32,167,167,74,17,116,167,140,116,33,167,142,166,5,0,43,0,121,116,82,62,107,166,0,166,147,49,136,166,77,0,38,1,149,107,65,127,0,0,167,21,14,0,0,0,34,0,0,145,0,52,96,92,15,146,12,0,79,167,154,155,163,136,42,163,0,35,27,45,67,66,6,15,162,68,146,14,13,0,0,151,116,29,110,166,79,0,167,127,0,0,0,0,0,0,0,0,0,0,0,0,0,0,0,0,0,0,0,0,0,0,0,0,0,0,0,0,0,0,0,0,0,0,0,0,0,0,0,0,0,0,0,0,0,0,0,0,0,0,0,0,0,0,0,0,0,0,0,0,0,0,0,0,0,0,0,0,0,0,0,0,0,0],"split_type":[0,0,0,0,0,0,0,0,0,0,0,0,0,0,0,0,0,0,0,0,0,0,0,0,0,0,0,0,0,0,0,0,0,0,0,0,0,0,0,0,0,0,0,0,0,0,0,0,0,0,0,0,0,0,0,0,0,0,0,0,0,0,0,0,0,0,0,0,0,0,0,0,0,0,0,0,0,0,0,0,0,0,0,0,0,0,0,0,0,0,0,0,0,0,0,0,0,0,0,0,0,0,0,0,0,0,0,0,0,0,0,0,0,0,0,0,0,0,0,0,0,0,0,0,0,0,0,0,0,0,0,0,0,0,0,0,0,0,0,0,0,0,0,0,0,0,0,0,0,0,0,0,0,0,0,0,0,0,0,0,0,0,0,0,0,0,0,0,0,0,0,0,0,0,0,0,0],"sum_hessian":[7.947E3,6.348E3,1.599E3,4.108E3,2.24E3,1.297E3,3.02E2,1.497E3,2.611E3,1.514E3,7.26E2,7.24E2,5.73E2,2.77E2,2.5E1,3.77E2,1.12E3,1.76E3,8.51E2,1.234E3,2.8E2,4.61E2,2.65E2,2.65E2,4.59E2,8E0,5.65E2,2.66E2,1.1E1,1.5E1,1E1,1.18E2,2.59E2,4.2E2,7E2,1.01E3,7.5E2,3E0,8.48E2,1.045E3,1.89E2,1.41E2,1.39E2,4.58E2,3E0,1.2E2,1.45E2,2.39E2,2.6E1,1.82E2,2.77E2,5E0,3E0,5.57E2,8E0,2.64E2,2E0,1E1,1E0,1.4E1,1E0,9.8E1,2E1,2E0,2.57E2,3.1E1,3.89E2,9E0,6.91E2,1.009E3,1E0,2.1E1,7.29E2,6.82E2,1.66E2,9.26E2,1.19E2,4E0,1.85E2,3E0,1.38E2,1.19E2,2E1,1.06E2,3.52E2,2.6E1,9.4E1,3.2E1,1.13E2,2.34E2,5E0,2E1,6E0,5E0,1.77E2,2.1E1,2.56E2,3.34E2,2.23E2,7E0,1E0,2.5E1,2.39E2,1.3E1,1E0,1.1E1,8.7E1,2E0,1.8E1,2.53E2,4E0,2E0,2.9E1,1.06E2,2.83E2,5E0,4E0,3.43E2,3.48E2,1.1E1,9.98E2,1.1E1,1E1,2.94E2,4.35E2,6.43E2,3.9E1,1.58E2,8E0,1E0,9.25E2,2E0,1.17E2,2E0,2E0,8.7E1,9.8E1,1.37E2,1E0,8.6E1,3.3E1,1.8E1,2E0,8E0,9.8E1,3.47E2,5E0,1.9E1,7E0,9.2E1,2E0,3E1,2E0,2.3E1,9E1,8.5E1,1.49E2,4E0,1E0,1.6E1,4E0,1.45E2,3.2E1,7E0,1.4E1,2.49E2,7E0,3.28E2,6E0,6E1,1.63E2,6E0,1E0,2E0,2.3E1,2.08E2,3.1E1],"tree_param":{"num_deleted":"0","num_feature":"168","num_nodes":"177","size_leaf_vector":"0"}},{"base_weights":[1.1319617E1,8.12598E0,2.1984476E1,6.073605E0,1.1171232E1,1.9297932E1,3.1702402E1,3.7982178E0,6.6407647E0,9.495905E0,1.2127081E1,1.7031153E1,2.2142082E1,2.9267986E1,4.1069584E1,2.228871E0,4.5311456E0,6.0299554E0,7.461787E0,2.354284E1,9.37516E0,1.1314049E1,1.3630717E1,1.5875767E1,1.835017E1,4.5801308E1,2.199474E1,2.9449295E1,7.7183456E0,2.5671394E1,4.318295E1,2.0226398E0,6.244616E0,8.242532E0,4.430391E0,1.8786913E1,6.0036016E0,7.1451025E0,8.11213E0,2.7384407E1,9.292613E0,8.757265E0,1.0349709E1,-9.764634E0,1.1344288E1,1.8006979E1,1.3247667E1,2.3304407E1,1.5424718E1,1.4801343E1,1.9146027E1,2.2696825E1,1.845669E1,2.968013E1,1.2653071E1,4.520349E1,2.2378433E1,6.194042E0,1.8201551E0,1.13429165E1,1.7108849E0,1.3608564E1,5.8084683E0,3.6896927E0,4.9166007E0,5.054419E0,6.1566515E0,4.3036933E0,7.215828E0,8.5316105E0,6.2710466E0,8.96152E0,6.6170177E0,1.4666975E1,9.931768E0,1.0927692E1,1.3165525E1,8.029151E0,1.886866E1,5.94585E0,1.3413675E1,1.6132414E1,2.8534367E1,6.070438E0,1.5594087E1,1.8138746E1,1.1154103E1,2.2848047E1,1.7994383E1,2.1980705E1,2.86326E1,1.5526643E1,2.1541908E1,2.1139042E1,3.0261192E1,4.635254E1,1.7241425E1,2.8365557E0,1.308266E1,1.9511437E0,-2.0918909E-1,1.3151468E1,2.0543551E0,2.541861E0,-1.637486E0,6.3317657E0,2.4768534E0,1.72566E0,3.9142327E0,1.101648E1,4.8362675E0,5.139902E0,2.583828E-2,5.5387106E0,6.4083376E0,5.99633E0,3.804586E-1,7.0971723E0,8.908305E0,8.282216E0,1.2086023E1,1.5178752E0,6.5758133E0,8.564388E0,1.0223479E1,2.8842454E0,7.916348E0,9.938151E0,1.7592459E1,1.004279E1,3.6279392E0,9.6180935E0,1.1466827E1,1.3515049E1,5.6973557E0,1.9704247E1,7.0490155E0,6.88265E0,-2.6478734E0,1.2598657E1,1.5104402E1,2.835022E0,1.7083538E1,2.958922E1,8.465492E0,4.37397E-1,6.7198935E0,1.6580212E1,1.3724412E1,2.0137077E1,8.627449E0,1.2772223E1,6.7186675E0,1.4323634E1,2.4266706E1,1.6036545E1,2.0748177E1,2.0137453E1,2.3808596E1,4.205616E1,2.4115568E1,1.663694E1,2.7611492E0,2.4761763E1,1.5762983E1,2.391851E1,-5.363594E0,3.040827E1,6.2016883E0,1.4582416E1,4.7226788E1],"categories":[],"categories_nodes":[],"categories_segments":[],"categories_sizes":[],"default_left":[1,1,1,1,1,1,1,1,1,1,1,1,1,1,1,1,1,1,1,1,1,1,1,1,1,0,1,1,0,0,1,1,1,1,1,0,1,1,1,0,0,1,1,0,1,1,1,1,1,1,1,1,1,1,0,1,0,1,1,1,1,0,1,1,1,1,1,1,1,1,1,1,1,1,1,1,1,0,1,1,1,1,1,1,1,1,1,1,1,1,1,1,1,1,1,1,0,0,0,0,0,0,0,0,0,0,0,0,0,0,0,0,0,0,0,0,0,0,0,0,0,0,0,0,0,0,0,0,0,0,0,0,0,0,0,0,0,0,0,0,0,0,0,0,0,0,0,0,0,0,0,0,0,0,0,0,0,0,0,0,0,0,0,0,0,0,0,0,0,0,0],"id":8,"left_children":[1,3,5,7,9,11,13,15,17,19,21,23,25,27,29,31,33,35,37,39,41,43,45,47,49,-1,51,53,-1,-1,55,57,59,61,63,-1,65,67,69,-1,-1,71,73,-1,75,77,79,81,83,85,87,89,91,93,-1,95,-1,97,99,101,103,-1,105,107,109,111,113,115,117,119,121,123,125,127,129,131,133,-1,135,137,139,141,143,145,147,149,151,153,155,157,159,161,163,165,167,169,-1,-1,-1,-1,-1,-1,-1,-1,-1,-1,-1,-1,-1,-1,-1,-1,-1,-1,-1,-1,-1,-1,-1,-1,-1,-1,-1,-1,-1,-1,-1,-1,-1,-1,-1,-1,-1,-1,-1,-1,-1,-1,-1,-1,-1,-1,-1,-1,-1,-1,-1,-1,-1,-1,-1,-1,-1,-1,-1,-1,-1,-1,-1,-1,-1,-1,-1,-1,-1,-1,-1,-1,-1,-1,-1],"loss_changes":[2.7052775E5,3.8169656E4,4.7191375E4,4.694172E3,3.8274062E3,8.8873125E3,7.8054062E3,8.318594E2,1.4223516E3,1.3040625E3,1.7577812E3,9.339531E2,1.2027188E3,1.01125E3,1.46225E3,1.8198999E2,1.4970508E2,4.5302734E2,1.9825E2,1.2872974E2,4.4709375E2,7.615547E2,6.73375E2,1.1014375E3,7.587969E2,0E0,1.151E3,8.41875E2,0E0,0E0,1.8468906E3,1.7877087E2,2.3485114E2,7.769025E1,1.5724512E2,0E0,2.1308203E2,1.3875781E2,2.5541602E2,0E0,0E0,1.8244922E2,4.696172E2,0E0,6.3003125E2,2.0100488E2,5.311797E2,4.023838E2,5.612422E2,6.7408496E2,8.593594E2,1.59375E3,6.5991016E2,8.9384375E2,0E0,1.1607344E3,0E0,1.9417477E2,5.78255E1,5.697638E1,2.363918E1,0E0,1.7514038E0,8.012329E1,8.931738E1,1.0260303E2,1.889336E2,1.5045273E2,1.0205078E2,1.8622656E2,1.03010254E2,1.6402734E2,2.2937256E2,2.1251807E2,1.8332422E2,4.7996875E2,4.059043E2,0E0,2.265293E2,1.2288217E2,4.8766406E2,1.0333765E2,3.5498047E0,2.998642E1,5.21E2,5.1051074E2,1.7973975E2,4.6265625E2,9.1810156E2,1.1074844E3,2.1994258E3,8.0447266E2,5.5865234E2,1.8225449E3,8.27E2,9.222578E2,0E0,0E0,0E0,0E0,0E0,0E0,0E0,0E0,0E0,0E0,0E0,0E0,0E0,0E0,0E0,0E0,0E0,0E0,0E0,0E0,0E0,0E0,0E0,0E0,0E0,0E0,0E0,0E0,0E0,0E0,0E0,0E0,0E0,0E0,0E0,0E0,0E0,0E0,0E0,0E0,0E0,0E0,0E0,0E0,0E0,0E0,0E0,0E0,0E0,0E0,0E0,0E0,0E0,0E0,0E0,0E0,0E0,0E0,0E0,0E0,0E0,0E0,0E0,0E0,0E0,0E0,0E0,0E0,0E0,0E0,0E0,0E0,0E0,0E0,0E0],"parents":[2147483647,0,0,1,1,2,2,3,3,4,4,5,5,6,6,7,7,8,8,9,9,10,10,11,11,12,12,13,13,14,14,15,15,16,16,17,17,18,18,19,19,20,20,21,21,22,22,23,23,24,24,26,26,27,27,30,30,31,31,32,32,33,33,34,34,36,36,37,37,38,38,41,41,42,42,44,44,45,45,46,46,47,47,48,48,49,49,50,50,51,51,52,52,53,53,55,55,57,57,58,58,59,59,60,60,62,62,63,63,64,64,65,65,66,66,67,67,68,68,69,69,70,70,71,71,72,72,73,73,74,74,75,75,76,76,78,78,79,79,80,80,81,81,82,82,83,83,84,84,85,85,86,86,87,87,88,88,89,89,90,90,91,91,92,92,93,93,94,94,95,95],"right_children":[2,4,6,8,10,12,14,16,18,20,22,24,26,28,30,32,34,36,38,40,42,44,46,48,50,-1,52,54,-1,-1,56,58,60,62,64,-1,66,68,70,-1,-1,72,74,-1,76,78,80,82,84,86,88,90,92,94,-1,96,-1,98,100,102,104,-1,106,108,110,112,114,116,118,120,122,124,126,128,130,132,134,-1,136,138,140,142,144,146,148,150,152,154,156,158,160,162,164,166,168,170,-1,-1,-1,-1,-1,-1,-1,-1,-1,-1,-1,-1,-1,-1,-1,-1,-1,-1,-1,-1,-1,-1,-1,-1,-1,-1,-1,-1,-1,-1,-1,-1,-1,-1,-1,-1,-1,-1,-1,-1,-1,-1,-1,-1,-1,-1,-1,-1,-1,-1,-1,-1,-1,-1,-1,-1,-1,-1,-1,-1,-1,-1,-1,-1,-1,-1,-1,-1,-1,-1,-1,-1,-1,-1,-1],"split_conditions":[5.395E1,3.0715E1,9.495E1,1.952E1,3.9415E1,7.17E1,1.2845001E2,1.135E1,2.4795E1,1.115E1,4.3324997E1,6.265E1,4.15E0,1.638E2,4.8158386E1,7.105E1,6.6499996E0,4.75E0,2.849E1,3.665E1,3.84E1,4.9E0,3.6300003E1,4.395E1,3.084E1,6.8701963E0,9.1350006E1,1.20850006E2,1.1577519E0,3.8507092E0,1.0745E2,4.55E0,1.625E1,8.2E0,1.595E1,2.818037E0,2.0075E1,1.8335E1,3.275E1,4.1076612E0,1.393892E0,5.1215E1,2.945E1,-1.4646952E0,4.375E1,2.265E1,2.6349998E1,4.170839E1,3.425E1,6.425E1,3.9725E1,9.715E1,6.6E1,2.93E1,1.8979608E0,1.26149994E2,3.356765E0,6.75E0,2.2925E1,7.475E1,9.785E1,2.0412848E0,7.73E1,7.8500004E0,5.75E0,4.4760002E1,2.1064999E1,1.85E1,8.125E1,5.275E1,2.0605E1,3.6629997E1,2.42E1,4.5699997E1,1.1875E2,2.799E1,8.43E1,1.2043726E0,9.655E1,8.1899994E1,4.9074997E1,2.688E1,7.885E1,2.454E1,6.114E1,4.915E1,4.98E1,2.7375E1,6.79E1,8.0350006E1,9.145E1,7.735E1,5.885E1,7.385E1,1.316E2,3.025E1,2.5862138E0,4.2548338E-1,1.962399E0,2.9267156E-1,-3.1378366E-2,1.9727203E0,3.0815327E-1,3.8127917E-1,-2.456229E-1,9.497649E-1,3.7152803E-1,2.58849E-1,5.8713496E-1,1.6524721E0,7.2544014E-1,7.7098536E-1,3.8757422E-3,8.308066E-1,9.6125066E-1,8.994495E-1,5.706879E-2,1.0645759E0,1.3362458E0,1.2423325E0,1.8129035E0,2.276813E-1,9.8637205E-1,1.2846583E0,1.533522E0,4.3263683E-1,1.1874522E0,1.4907228E0,2.6388688E0,1.5064186E0,5.441909E-1,1.4427141E0,1.7200242E0,2.0272574E0,8.546034E-1,2.955637E0,1.0573524E0,1.0323975E0,-3.9718103E-1,1.8897985E0,2.2656603E0,4.252533E-1,2.5625308E0,4.438383E0,1.2698239E0,6.560955E-2,1.007984E0,2.487032E0,2.058662E0,3.0205617E0,1.2941175E0,1.9158336E0,1.0078002E0,2.1485453E0,3.640006E0,2.4054818E0,3.1122267E0,3.0206182E0,3.5712895E0,6.3084245E0,3.6173353E0,2.495541E0,4.1417238E-1,3.7142646E0,2.3644476E0,3.5877767E0,-8.0453914E-1,4.5612407E0,9.3025327E-1,2.1873624E0,7.084018E0],"split_indices":[167,167,167,167,167,167,167,167,167,82,145,167,40,45,146,100,165,163,167,2,146,163,166,166,77,0,166,105,0,0,130,139,152,104,167,0,75,35,166,0,0,162,166,0,74,25,148,16,165,166,95,45,135,57,0,24,0,140,165,15,15,0,16,158,93,163,167,14,78,152,56,167,144,8,33,148,134,0,8,95,167,70,44,58,166,107,22,116,122,167,47,132,91,27,119,0,0,0,0,0,0,0,0,0,0,0,0,0,0,0,0,0,0,0,0,0,0,0,0,0,0,0,0,0,0,0,0,0,0,0,0,0,0,0,0,0,0,0,0,0,0,0,0,0,0,0,0,0,0,0,0,0,0,0,0,0,0,0,0,0,0,0,0,0,0,0,0,0,0,0,0],"split_type":[0,0,0,0,0,0,0,0,0,0,0,0,0,0,0,0,0,0,0,0,0,0,0,0,0,0,0,0,0,0,0,0,0,0,0,0,0,0,0,0,0,0,0,0,0,0,0,0,0,0,0,0,0,0,0,0,0,0,0,0,0,0,0,0,0,0,0,0,0,0,0,0,0,0,0,0,0,0,0,0,0,0,0,0,0,0,0,0,0,0,0,0,0,0,0,0,0,0,0,0,0,0,0,0,0,0,0,0,0,0,0,0,0,0,0,0,0,0,0,0,0,0,0,0,0,0,0,0,0,0,0,0,0,0,0,0,0,0,0,0,0,0,0,0,0,0,0,0,0,0,0,0,0,0,0,0,0,0,0,0,0,0,0,0,0,0,0,0,0,0,0],"sum_hessian":[7.947E3,6.117E3,1.83E3,3.656E3,2.461E3,1.436E3,3.94E2,7.31E2,2.925E3,8.98E2,1.563E3,8.03E2,6.33E2,3.16E2,7.8E1,2.34E2,4.97E2,1.682E3,1.243E3,6E0,8.92E2,1.02E3,5.43E2,4.35E2,3.68E2,2E0,6.31E2,3.13E2,3E0,1.1E1,6.7E1,2.24E2,1E1,1.1E1,4.86E2,2E0,1.68E3,8.44E2,3.99E2,4E0,2E0,5.52E2,3.4E2,1E0,1.019E3,4E1,5.03E2,2.2E1,4.13E2,7.1E1,2.97E2,5.22E2,1.09E2,3.08E2,5E0,6E1,7E0,9E0,2.15E2,4E0,6E0,2E0,9E0,1.96E2,2.9E2,2.38E2,1.442E3,2.2E1,8.22E2,3.22E2,7.7E1,5.01E2,5.1E1,2.7E1,3.13E2,8.35E2,1.84E2,4E0,3.6E1,1.2E1,4.91E2,1.1E1,1.1E1,8E0,4.05E2,3.5E1,3.6E1,6.6E1,2.31E2,4.7E2,5.2E1,5.9E1,5E1,2.2E1,2.86E2,5.7E1,3E0,7E0,2E0,2.02E2,1.3E1,3E0,1E0,5E0,1E0,7E0,2E0,2.1E1,1.75E2,2E0,2.88E2,2.34E2,4E0,4.24E2,1.018E3,1.5E1,7E0,7.73E2,4.9E1,3.04E2,1.8E1,5E0,7.2E1,3.87E2,1.14E2,1.4E1,3.7E1,1.2E1,1.5E1,3.07E2,6E0,2.49E2,5.86E2,1.75E2,9E0,3.3E1,3E0,1.1E1,1E0,3.37E2,1.54E2,1E0,1E1,1E1,1E0,1E0,7E0,2.6E2,1.45E2,2.8E1,7E0,2.5E1,1.1E1,1.1E1,5.5E1,1.39E2,9.2E1,2.4E2,2.3E2,1.1E1,4.1E1,5.4E1,5E0,3E1,2E1,2E1,2E0,2.84E2,2E0,2E0,5.5E1],"tree_param":{"num_deleted":"0","num_feature":"168","num_nodes":"171","size_leaf_vector":"0"}},{"base_weights":[9.640674E0,7.1372995E0,1.9568352E1,5.3652086E0,1.0148551E1,1.7465223E1,2.8513214E1,4.212935E0,6.2810974E0,9.293415E0,1.2046002E1,1.5960878E1,2.0423271E1,2.7173595E1,4.1740177E1,2.6082568E0,4.738662E0,5.6677713E0,6.932512E0,8.378459E0,9.785144E0,1.3727302E1,1.13178835E1,1.47344E1,1.7173023E1,1.8251637E1,2.2184565E1,2.4633545E1,2.9608E1,3.067485E1,5.404063E1,1.6135794E0,3.2166839E0,1.690822E1,4.7077184E0,4.6525607E0,5.87232E0,1.978159E1,6.890126E0,1.1124486E1,8.054814E0,-7.450422E0,9.825107E0,1.18632E1,1.5464298E1,1.110732E1,1.7568127E1,1.4294918E1,2.1405266E1,1.8405544E1,1.3563448E1,3.3518936E1,1.7524227E1,2.340017E1,1.4309959E1,2.698536E1,1.6047693E1,3.0275284E1,1.2890544E1,3.32493E1,1.4639187E1,5.6256435E1,1.5941299E1,5.503724E0,1.3603605E0,7.516649E0,3.0238736E0,3.8782518E0,4.8405232E0,2.0326927E0,4.9032545E0,5.79553E0,9.768435E0,6.5848246E0,7.810031E0,-5.0988407E0,1.1498559E1,-6.112356E0,8.09404E0,-2.1433458E0,-9.032287E0,2.3256958E1,9.764349E0,1.3018892E1,8.266008E0,9.515329E0,1.6708208E1,1.1698134E1,9.322049E0,1.8205782E1,4.320467E0,1.6071735E1,1.3095951E1,1.5675058E1,2.985063E1,2.2849579E1,1.762473E1,1.3984782E1,3.7188652E0,6.891042E0,4.124639E1,1.8267658E1,9.281555E0,4.650608E0,2.3659456E1,1.6794924E1,7.587314E0,2.7617025E1,8.19695E0,1.899467E1,4.464052E0,3.1087263E1,1.8591208E1,3.4606342E1,8.482372E0,2.4642577E0,1.1774394E1,2.557298E0,1.0411472E0,1.0092175E1,3.6883473E0,2.754939E0,4.8707495E0,7.462315E-1,4.012561E0,5.436959E0,4.593386E0,-6.6291577E-1,3.327813E0,7.974713E0,4.6561494E0,4.3657413E-1,5.8237505E0,2.0489563E1,6.0075097E0,1.0147449E1,6.5050416E0,7.20966E0,9.294209E0,1.4698319E1,9.8913765E0,8.429363E0,6.0054765E0,8.847946E0,1.033419E1,8.225145E0,1.4088811E1,1.4967225E0,9.289226E0,-4.147525E0,1.04058485E1,1.8708342E1,1.3584127E1,5.3968E0,1.1930129E1,1.2187185E0,9.777005E0,1.5325252E1,2.3448729E1,1.212845E1,1.6265623E1,1.8469448E1,9.04458E0,3.2150623E1,5.72534E0,1.9564789E1,4.0392456E1,1.13029375E1,1.8131779E1,6.4569125E0,1.4687045E1,5.2189827E0,1.6640606E0,2.2779458E0,1.8626268E1,1.2395289E1,-4.715335E0,-1.7985287E0,7.39983E0,2.396718E1,9.766458E0,1.7749765E1,7.583271E0,9.376077E0,2.1129599E0,2.787922E1,4.3388367E-2,1.6118244E1,3.0785452E1,1.9170074E0,6.531845E0,3.1484623E1,1.1593363E1,5.0823975E0,1.943385E1],"categories":[],"categories_nodes":[],"categories_segments":[],"categories_sizes":[],"default_left":[1,1,1,1,1,1,1,1,1,1,1,1,1,1,1,1,1,1,1,1,1,1,1,1,1,1,1,1,1,1,1,1,1,0,1,1,1,0,1,1,1,1,1,1,1,1,1,1,1,1,1,1,1,1,1,1,1,1,0,1,0,0,0,1,1,1,1,1,1,1,1,1,1,1,1,0,1,0,1,0,0,0,1,1,1,1,1,1,1,0,0,1,1,1,1,1,1,1,1,0,0,1,1,1,1,1,1,1,0,1,1,1,1,0,0,0,0,0,0,0,0,0,0,0,0,0,0,0,0,0,0,0,0,0,0,0,0,0,0,0,0,0,0,0,0,0,0,0,0,0,0,0,0,0,0,0,0,0,0,0,0,0,0,0,0,0,0,0,0,0,0,0,0,0,0,0,0,0,0,0,0,0,0,0,0,0,0,0,0,0,0,0,0,0,0],"id":9,"left_children":[1,3,5,7,9,11,13,15,17,19,21,23,25,27,29,31,33,35,37,39,41,43,45,47,49,51,53,55,57,59,61,63,65,-1,67,69,71,-1,73,75,77,79,81,83,85,87,89,91,93,95,97,99,101,103,105,107,109,111,-1,113,-1,-1,-1,115,117,119,121,123,125,127,129,131,133,135,137,-1,139,-1,141,-1,-1,-1,143,145,147,149,151,153,155,-1,-1,157,159,161,163,165,167,169,171,-1,-1,173,175,177,179,181,183,185,-1,187,189,191,193,-1,-1,-1,-1,-1,-1,-1,-1,-1,-1,-1,-1,-1,-1,-1,-1,-1,-1,-1,-1,-1,-1,-1,-1,-1,-1,-1,-1,-1,-1,-1,-1,-1,-1,-1,-1,-1,-1,-1,-1,-1,-1,-1,-1,-1,-1,-1,-1,-1,-1,-1,-1,-1,-1,-1,-1,-1,-1,-1,-1,-1,-1,-1,-1,-1,-1,-1,-1,-1,-1,-1,-1,-1,-1,-1,-1,-1,-1,-1,-1,-1,-1],"loss_changes":[1.9738962E5,3.3825156E4,2.96015E4,4.1939062E3,3.7027344E3,5.4500312E3,4.2346406E3,1.4842246E3,8.500547E2,6.491094E2,7.34625E2,1.0329375E3,1.2550938E3,9.896719E2,1.8811367E3,2.6109277E2,4.231172E2,2.1190625E2,4.4916406E2,4.2141797E2,7.97125E2,5.126992E2,4.800078E2,9.751797E2,1.6589297E3,1.6337266E3,1.9146562E3,2.4342578E3,1.1380078E3,1.7378418E2,3.1826172E1,1.5898776E2,2.0277954E2,0E0,1.280664E2,1.2007666E2,2.2910547E2,0E0,2.4992578E2,4.1061475E2,3.3733594E2,5.8259125E0,6.289844E2,3.4136816E2,6.402129E2,4.1728125E2,4.80542E1,6.6935156E2,7.4193164E2,6.972578E2,4.1670117E2,1.3618965E3,1.013125E3,8.72E2,4.4055957E2,1.0791094E3,1.0417188E3,6.64875E2,0E0,1.4338477E2,0E0,0E0,0E0,1.6157977E2,5.847E1,7.123535E1,1.1671387E2,7.6510254E1,1.4380078E2,6.8537674E1,9.94834E1,1.394668E2,5.623718E2,1.6478906E2,1.6644824E2,0E0,1.477417E2,0E0,3.1145312E2,0E0,0E0,0E0,4.5479688E2,2.9443066E2,1.8696375E2,2.9866602E2,2.9573828E2,4.7796875E2,4.636631E2,0E0,0E0,5.327422E2,5.7552344E2,1.4792969E2,3.1531885E2,1.7452168E3,6.733594E2,4.7611328E2,9.80999E0,0E0,0E0,9.6676953E2,8.429346E2,8.422923E1,6.166953E2,7.649512E1,8.7904236E1,7.65125E2,0E0,3.8559082E2,2.9612488E1,5.722656E2,2.644336E1,0E0,0E0,0E0,0E0,0E0,0E0,0E0,0E0,0E0,0E0,0E0,0E0,0E0,0E0,0E0,0E0,0E0,0E0,0E0,0E0,0E0,0E0,0E0,0E0,0E0,0E0,0E0,0E0,0E0,0E0,0E0,0E0,0E0,0E0,0E0,0E0,0E0,0E0,0E0,0E0,0E0,0E0,0E0,0E0,0E0,0E0,0E0,0E0,0E0,0E0,0E0,0E0,0E0,0E0,0E0,0E0,0E0,0E0,0E0,0E0,0E0,0E0,0E0,0E0,0E0,0E0,0E0,0E0,0E0,0E0,0E0,0E0,0E0,0E0,0E0,0E0,0E0,0E0,0E0,0E0,0E0,0E0],"parents":[2147483647,0,0,1,1,2,2,3,3,4,4,5,5,6,6,7,7,8,8,9,9,10,10,11,11,12,12,13,13,14,14,15,15,16,16,17,17,18,18,19,19,20,20,21,21,22,22,23,23,24,24,25,25,26,26,27,27,28,28,29,29,30,30,31,31,32,32,34,34,35,35,36,36,38,38,39,39,40,40,41,41,42,42,43,43,44,44,45,45,46,46,47,47,48,48,49,49,50,50,51,51,52,52,53,53,54,54,55,55,56,56,57,57,59,59,63,63,64,64,65,65,66,66,67,67,68,68,69,69,70,70,71,71,72,72,73,73,74,74,76,76,78,78,82,82,83,83,84,84,85,85,86,86,87,87,88,88,91,91,92,92,93,93,94,94,95,95,96,96,97,97,98,98,101,101,102,102,103,103,104,104,105,105,106,106,107,107,109,109,110,110,111,111,112,112],"right_children":[2,4,6,8,10,12,14,16,18,20,22,24,26,28,30,32,34,36,38,40,42,44,46,48,50,52,54,56,58,60,62,64,66,-1,68,70,72,-1,74,76,78,80,82,84,86,88,90,92,94,96,98,100,102,104,106,108,110,112,-1,114,-1,-1,-1,116,118,120,122,124,126,128,130,132,134,136,138,-1,140,-1,142,-1,-1,-1,144,146,148,150,152,154,156,-1,-1,158,160,162,164,166,168,170,172,-1,-1,174,176,178,180,182,184,186,-1,188,190,192,194,-1,-1,-1,-1,-1,-1,-1,-1,-1,-1,-1,-1,-1,-1,-1,-1,-1,-1,-1,-1,-1,-1,-1,-1,-1,-1,-1,-1,-1,-1,-1,-1,-1,-1,-1,-1,-1,-1,-1,-1,-1,-1,-1,-1,-1,-1,-1,-1,-1,-1,-1,-1,-1,-1,-1,-1,-1,-1,-1,-1,-1,-1,-1,-1,-1,-1,-1,-1,-1,-1,-1,-1,-1,-1,-1,-1,-1,-1,-1,-1,-1,-1],"split_conditions":[5.845E1,3.353E1,1.024E2,2.2634998E1,4.615E1,8.0350006E1,1.4765E2,1.595E1,2.6724998E1,3.142E1,4.7215E1,6.8350006E1,5.595E1,1.1775E2,7.045E1,9.125E0,4E0,2.079E1,6.7E0,1.909E1,7.2E0,4.505E1,1.037E2,1.1695E2,7.9350006E1,1.855E1,9.115E1,1.18850006E2,9.3E1,8.2899994E1,1.08850006E2,4.55E0,6.7E0,2.5362332E0,1.9415E1,1.775E1,9.169E1,2.9672384E0,4.505E1,8.45E0,1.9835E1,2.9108387E1,4.95E0,4.39E1,3.048E1,6.445E1,1.2125E2,5.9940002E1,9.19E1,6.005E1,1.1725E2,1.475E1,9.355E1,2.2849998E1,9.22E1,9.925E1,7.925E1,9.3850006E1,1.9335817E0,7.67E1,2.195878E0,8.438466E0,2.391195E0,6.75E0,1.035E1,2.835E1,5.675E1,6.7E0,2.0295E1,1.385E1,1.819E1,1.195E1,4.885E1,1.425E1,4.0965E1,-7.648261E-1,4.1158386E1,-9.168535E-1,4.4605E1,-3.2150188E-1,-1.354843E0,3.4885437E0,4.0715E1,2.32E1,2.64E1,3.6705E1,5.945E1,2.0869999E1,2.7099998E1,2.7308674E0,6.480701E-1,9.73E1,8.3E1,6.585E1,1.2035E2,1.02899994E2,2.6145E1,3.175E1,5.770839E1,1.0336564E0,6.186959E0,2.0779999E1,1.2025E2,8.675E1,1.224E2,1.183E2,9.66E1,1.3195001E2,1.2295425E0,8.8E1,7.68E1,1.362E2,2.6599998E1,5.1909513E0,1.2723559E0,3.6963868E-1,1.7661592E0,3.8359472E-1,1.561721E-1,1.5138263E0,5.532521E-1,4.1324088E-1,7.3061246E-1,1.1193473E-1,6.018841E-1,8.1554383E-1,6.8900794E-1,-9.943737E-2,4.9917194E-1,1.1962069E0,6.9842243E-1,6.5486126E-2,8.7356263E-1,3.0734346E0,9.011265E-1,1.5221174E0,9.757563E-1,1.081449E0,1.3941313E0,2.204748E0,1.4837065E0,1.2644045E0,9.008215E-1,1.327192E0,1.5501286E0,1.2337718E0,2.1133218E0,2.2450837E-1,1.3933839E0,-6.221287E-1,1.5608773E0,2.8062513E0,2.037619E0,8.0952007E-1,1.7895194E0,1.8280779E-1,1.4665508E0,2.2987878E0,3.5173094E0,1.8192676E0,2.4398437E0,2.7704172E0,1.3566871E0,4.8225937E0,8.58801E-1,2.9347184E0,6.058869E0,1.6954406E0,2.7197669E0,9.685369E-1,2.2030568E0,7.8284746E-1,2.496091E-1,3.4169188E-1,2.7939403E0,1.8592935E0,-7.0730025E-1,-2.6977932E-1,1.1099745E0,3.5950773E0,1.4649687E0,2.6624649E0,1.1374907E0,1.4064115E0,3.16944E-1,4.181883E0,6.5082554E-3,2.4177368E0,4.617818E0,2.8755113E-1,9.797768E-1,4.7226934E0,1.7390045E0,7.623597E-1,2.9150774E0],"split_indices":[167,167,167,167,167,167,167,167,167,97,166,167,123,167,32,167,163,147,17,4,141,143,161,82,166,112,93,166,87,115,4,139,165,0,145,73,107,0,74,25,166,98,128,119,0,9,13,166,104,166,23,0,112,12,166,3,19,80,0,21,0,0,0,140,140,141,51,75,164,156,58,67,75,112,145,0,167,0,166,0,0,0,167,148,162,166,115,154,120,0,0,31,63,167,110,147,44,149,0,0,0,61,165,2,75,59,148,73,0,85,0,38,2,0,0,0,0,0,0,0,0,0,0,0,0,0,0,0,0,0,0,0,0,0,0,0,0,0,0,0,0,0,0,0,0,0,0,0,0,0,0,0,0,0,0,0,0,0,0,0,0,0,0,0,0,0,0,0,0,0,0,0,0,0,0,0,0,0,0,0,0,0,0,0,0,0,0,0,0,0,0,0,0,0,0],"split_type":[0,0,0,0,0,0,0,0,0,0,0,0,0,0,0,0,0,0,0,0,0,0,0,0,0,0,0,0,0,0,0,0,0,0,0,0,0,0,0,0,0,0,0,0,0,0,0,0,0,0,0,0,0,0,0,0,0,0,0,0,0,0,0,0,0,0,0,0,0,0,0,0,0,0,0,0,0,0,0,0,0,0,0,0,0,0,0,0,0,0,0,0,0,0,0,0,0,0,0,0,0,0,0,0,0,0,0,0,0,0,0,0,0,0,0,0,0,0,0,0,0,0,0,0,0,0,0,0,0,0,0,0,0,0,0,0,0,0,0,0,0,0,0,0,0,0,0,0,0,0,0,0,0,0,0,0,0,0,0,0,0,0,0,0,0,0,0,0,0,0,0,0,0,0,0,0,0,0,0,0,0,0,0,0,0,0,0,0,0,0,0,0,0,0,0],"sum_hessian":[7.947E3,6.348E3,1.599E3,3.998E3,2.35E3,1.297E3,3.02E2,1.773E3,2.225E3,1.624E3,7.26E2,8.64E2,4.33E2,2.77E2,2.5E1,4.39E2,1.334E3,1.151E3,1.074E3,5.74E2,1.05E3,2.14E2,5.12E2,4.36E2,4.28E2,1.99E2,2.34E2,1.41E2,1.36E2,1.5E1,1E1,1.68E2,2.71E2,2E0,1.332E3,1.97E2,9.54E2,2E0,1.072E3,5.7E1,5.17E2,2E0,1.048E3,1.07E2,1.07E2,4.98E2,1.4E1,4.12E2,2.4E1,3.16E2,1.12E2,7E0,1.92E2,2.01E2,3.3E1,1.09E2,3.2E1,1.3E2,6E0,1.2E1,3E0,9E0,1E0,9E0,1.59E2,1E1,2.61E2,1.88E2,1.144E3,1.8E1,1.79E2,9.38E2,1.6E1,8.11E2,2.61E2,1E0,5.6E1,1E0,5.16E2,1E0,1E0,3E0,1.045E3,7.9E1,2.8E1,2E1,8.7E1,3.7E2,1.28E2,1.3E1,1E0,1.61E2,2.51E2,1.6E1,8E0,4.3E1,2.73E2,1.07E2,5E0,2E0,5E0,1.75E2,1.7E1,3E0,1.98E2,2.3E1,1E1,1.05E2,4E0,2.5E1,7E0,1.2E2,1E1,1.1E1,1E0,7E0,2E0,3.2E1,1.27E2,5E0,5E0,2.3E2,3.1E1,8E0,1.8E2,3.29E2,8.15E2,6E0,1.2E1,1.1E1,1.68E2,5E0,9.33E2,3E0,1.3E1,1.5E1,7.96E2,1.9E2,7.1E1,1.6E1,4E1,4.42E2,7.4E1,4.07E2,6.38E2,1.6E1,6.3E1,4E0,2.4E1,1E0,1.9E1,5E1,3.7E1,1.4E1,3.56E2,7E0,1.21E2,1.49E2,1.2E1,1.96E2,5.5E1,1E1,6E0,7E0,1E0,3.8E1,5E0,2.2E1,2.51E2,1E1,9.7E1,2E0,3E0,4E0,1.71E2,1.4E1,3E0,1E0,2E0,1.93E2,5E0,2E1,3E0,7E0,3E0,1.04E2,1E0,2.2E1,3E0,4E0,3E0,1.17E2,3E0,1E0,9E0],"tree_param":{"num_deleted":"0","num_feature":"168","num_nodes":"195","size_leaf_vector":"0"}},{"base_weights":[8.214545E0,5.8808517E0,1.6007729E1,4.3737984E0,8.058636E0,1.4026092E1,2.317635E1,3.0155106E0,4.87584E0,6.944332E0,8.849698E0,1.2386707E1,1.6082935E1,2.1318668E1,3.0337221E1,1.7432988E0,3.4975328E0,4.4616094E0,5.3654327E0,2.4396774E1,6.8536615E0,8.367869E0,1.0587102E1,1.8643139E1,1.2186854E1,2.71797E1,1.5843378E1,2.1589886E1,9.638139E0,2.8009277E1,4.359911E1,1.6502094E0,9.509212E0,2.0837805E0,3.6345816E0,1.5982579E1,4.434396E0,5.3296304E0,1.0731355E1,6.480285E0,7.882704E0,-8.354865E0,8.389752E0,1.1775371E1,8.777688E0,1.2442521E1,2.6906042E1,1.0975785E1,1.3147666E1,1.2106973E1,4.02346E1,1.4017543E1,1.719121E1,1.161797E1,2.191899E1,1.0696664E1,5.8496857E-1,2.8994295E1,1.2670032E1,4.746826E1,1.8748337E1,1.0278586E1,1.5796611E0,-2.2921774E0,2.3324912E0,6.239902E0,3.5711179E0,4.3833013E0,7.51448E0,5.227651E0,6.831017E0,1.2495179E1,4.2145286E0,7.35128E0,6.075289E0,1.1722888E1,7.376168E0,8.031116E0,9.540355E0,1.0050053E1,1.3623145E1,9.275016E0,5.2231865E0,6.0257287E0,1.5048344E1,7.4141555E0,1.15823145E1,1.492108E1,1.2147904E1,1.1747906E1,1.640724E1,2.0113653E1,1.5663616E1,1.2490296E1,1.0111885E0,2.7011513E1,2.1070807E1,2.091064E1,3.2377163E1,4.6606584E0,1.4296547E0,-6.677933E-1,-2.611041E0,3.4951067E0,1.6517586E0,4.3383856E0,9.909097E0,1.4246631E0,3.6389356E0,3.893745E0,4.6471395E0,2.0170225E1,4.4546137E0,5.284476E0,2.6180947E0,7.820117E0,4.6191406E0,6.591222E0,8.835616E0,3.586496E0,6.315695E0,7.7414117E0,1.4722841E1,2.1542678E0,7.5910378E0,8.086204E0,1.0157073E0,1.01518135E1,7.1095085E0,1.0505285E1,3.5017223E0,1.5483481E1,8.915602E0,6.3921795E0,1.0170525E1,6.107368E0,1.7028404E0,1.1408883E1,5.099878E0,1.1813441E1,4.457036E0,1.2992329E1,1.8051401E1,1.183946E1,2.2529922E1,1.4331067E1,7.27292E0,3.692131E0,1.699747E1,1.8774181E1,3.270254E1,1.7111347E1,1.266414E1,1.5469112E1,2.9491194E1,1.6403198E1,2.277115E1,3.6536774E1,2.281429E1],"categories":[],"categories_nodes":[],"categories_segments":[],"categories_sizes":[],"default_left":[1,1,1,1,1,1,1,1,1,1,1,1,1,1,1,1,1,1,1,0,1,1,1,1,1,1,1,1,1,1,1,1,0,1,1,0,1,1,1,1,1,0,1,1,1,1,0,1,1,0,0,1,1,1,1,0,0,1,0,0,0,0,1,1,1,1,1,1,1,1,1,0,0,1,1,1,1,1,1,1,1,1,1,0,0,1,1,1,1,1,1,1,1,0,0,1,1,0,1,0,0,0,0,0,0,0,0,0,0,0,0,0,0,0,0,0,0,0,0,0,0,0,0,0,0,0,0,0,0,0,0,0,0,0,0,0,0,0,0,0,0,0,0,0,0,0,0,0,0,0,0,0,0,0,0,0,0,0,0],"id":10,"left_children":[1,3,5,7,9,11,13,15,17,19,21,23,25,27,29,31,33,35,37,-1,39,41,43,45,47,49,51,53,55,57,59,61,-1,63,65,-1,67,69,71,73,75,-1,77,79,81,83,-1,85,87,-1,-1,89,91,93,95,-1,-1,97,-1,-1,-1,-1,99,101,103,105,107,109,111,113,115,-1,-1,117,119,121,123,125,127,129,131,133,135,-1,-1,137,139,141,143,145,147,149,151,-1,-1,153,155,-1,157,-1,-1,-1,-1,-1,-1,-1,-1,-1,-1,-1,-1,-1,-1,-1,-1,-1,-1,-1,-1,-1,-1,-1,-1,-1,-1,-1,-1,-1,-1,-1,-1,-1,-1,-1,-1,-1,-1,-1,-1,-1,-1,-1,-1,-1,-1,-1,-1,-1,-1,-1,-1,-1,-1,-1,-1,-1,-1,-1,-1],"loss_changes":[1.4445538E5,2.0044266E4,2.5685406E4,2.4524766E3,2.1431406E3,4.6462812E3,4.6077812E3,5.9425977E2,5.1146094E2,1.4832539E3,1.1327812E3,7.7809375E2,1.25475E3,7.9615625E2,1.2177812E3,1.8022015E2,1.2979688E2,3.7935547E2,1.7430078E2,0E0,3.481211E2,4.8982812E2,5.696094E2,8.436279E2,7.656328E2,1.8741572E3,1.2921719E3,7.594375E2,7.998987E1,6.903047E2,7.15625E1,1.4750842E2,0E0,7.608902E1,8.4362305E1,0E0,1.9273633E2,1.4786719E2,2.7800476E1,2.2625195E2,4.4262305E2,0E0,3.9628125E2,4.560547E2,1.7782715E2,1.6013818E2,0E0,6.7453125E2,5.8289844E2,0E0,0E0,1.2716602E3,1.2653125E3,9.840088E1,7.180156E2,0E0,0E0,1.100457E3,0E0,0E0,0E0,0E0,1.1719818E2,3.2819176E-1,4.3295624E1,5.4689026E1,8.681494E1,1.6441211E2,7.6209717E2,1.5328516E2,1.2358472E2,0E0,0E0,2.1139844E2,2.9445898E2,2.4435156E2,2.5630078E2,3.31875E2,3.246836E2,2.6131445E2,6.238662E2,2.215459E2,4.562741E1,0E0,0E0,4.4104126E2,4.3975E2,6.7714844E2,6.3309766E2,1.5372344E3,9.053672E2,1.3758086E3,8.1245703E2,0E0,0E0,6.600332E2,1.6899844E3,0E0,9.1666406E2,0E0,0E0,0E0,0E0,0E0,0E0,0E0,0E0,0E0,0E0,0E0,0E0,0E0,0E0,0E0,0E0,0E0,0E0,0E0,0E0,0E0,0E0,0E0,0E0,0E0,0E0,0E0,0E0,0E0,0E0,0E0,0E0,0E0,0E0,0E0,0E0,0E0,0E0,0E0,0E0,0E0,0E0,0E0,0E0,0E0,0E0,0E0,0E0,0E0,0E0,0E0,0E0,0E0,0E0,0E0,0E0,0E0,0E0,0E0,0E0],"parents":[2147483647,0,0,1,1,2,2,3,3,4,4,5,5,6,6,7,7,8,8,9,9,10,10,11,11,12,12,13,13,14,14,15,15,16,16,17,17,18,18,20,20,21,21,22,22,23,23,24,24,25,25,26,26,27,27,28,28,29,29,30,30,31,31,33,33,34,34,36,36,37,37,38,38,39,39,40,40,42,42,43,43,44,44,45,45,47,47,48,48,51,51,52,52,53,53,54,54,57,57,62,62,63,63,64,64,65,65,66,66,67,67,68,68,69,69,70,70,73,73,74,74,75,75,76,76,77,77,78,78,79,79,80,80,81,81,82,82,85,85,86,86,87,87,88,88,89,89,90,90,91,91,92,92,95,95,96,96,98,98],"right_children":[2,4,6,8,10,12,14,16,18,20,22,24,26,28,30,32,34,36,38,-1,40,42,44,46,48,50,52,54,56,58,60,62,-1,64,66,-1,68,70,72,74,76,-1,78,80,82,84,-1,86,88,-1,-1,90,92,94,96,-1,-1,98,-1,-1,-1,-1,100,102,104,106,108,110,112,114,116,-1,-1,118,120,122,124,126,128,130,132,134,136,-1,-1,138,140,142,144,146,148,150,152,-1,-1,154,156,-1,158,-1,-1,-1,-1,-1,-1,-1,-1,-1,-1,-1,-1,-1,-1,-1,-1,-1,-1,-1,-1,-1,-1,-1,-1,-1,-1,-1,-1,-1,-1,-1,-1,-1,-1,-1,-1,-1,-1,-1,-1,-1,-1,-1,-1,-1,-1,-1,-1,-1,-1,-1,-1,-1,-1,-1,-1,-1,-1,-1,-1],"split_conditions":[5.395E1,3.0404999E1,9.495E1,2.0295E1,4.0715E1,7.17E1,1.2845001E2,1.245E1,2.4795E1,7.05E0,5.535E1,1.905E1,1.245E1,1.247E2,1.777E2,8.24E1,1.255E1,5.7E0,1.00695E2,3.6595163E0,4.7435E1,4.9E0,4.9699997E1,5.065E1,5.405E1,1.085E1,5.305E1,3.235E1,6.83E1,1.1225E2,6.07E1,3.65E0,1.4263818E0,5.05E0,7.25E0,2.397387E0,9.159E1,8.2E1,7.365E1,2.589E1,2.95E1,-1.2532299E0,4.605E1,4.804E1,9.12E1,1.67E1,4.0359063E0,2.675E1,4.485E1,1.816046E0,6.03519E0,5.225E1,4.83E1,9.25E1,3.775E1,1.6044997E0,8.774529E-2,4.76E1,1.9005048E0,7.1202397E0,2.8122506E0,1.541788E0,6.35E0,4.05E0,9.175E0,9E0,1.09E1,2.2185001E1,4.68E1,5.365E1,6.18E1,1.874277E0,6.321793E-1,2.98E1,2.3315E1,4.84E1,2.0150002E1,6.6705E1,6.58E1,1.1105E2,6.2199997E1,3.575E1,1.068E2,9.038593E-1,2.2572517E0,2.3650002E1,1.3145001E2,6.265E1,1.3029999E2,4.245839E1,2.62E1,9.375E1,7.925E1,1.8735446E0,1.5167828E-1,3.705E1,5.965E1,3.1365962E0,7.7399994E1,6.9909877E-1,2.1444821E-1,-1.00168996E-1,-3.916562E-1,5.24266E-1,2.477638E-1,6.5075785E-1,1.4863646E0,2.1369947E-1,5.458404E-1,5.8406174E-1,6.9707096E-1,3.025534E0,6.681921E-1,7.926714E-1,3.9271423E-1,1.1730176E0,6.928711E-1,9.886833E-1,1.3253424E0,5.379744E-1,9.4735426E-1,1.1612118E0,2.2084262E0,3.2314017E-1,1.1386557E0,1.2129306E0,1.5235609E-1,1.5227721E0,1.0664263E0,1.5757929E0,5.2525836E-1,2.3225224E0,1.3373404E0,9.5882696E-1,1.5255787E0,9.161052E-1,2.5542608E-1,1.7113326E0,7.649817E-1,1.7720163E0,6.6855544E-1,1.9488493E0,2.7077103E0,1.7759191E0,3.3794885E0,2.14966E0,1.0909381E0,5.5381966E-1,2.5496206E0,2.8161273E0,4.905381E0,2.5667021E0,1.899621E0,2.3203669E0,4.4236794E0,2.4604797E0,3.4156728E0,5.4805164E0,3.4221435E0],"split_indices":[167,167,167,167,167,167,167,167,167,19,146,137,101,126,167,85,75,29,148,0,154,163,165,99,146,103,124,158,2,2,55,93,0,1,127,0,107,78,67,56,166,0,4,157,80,148,0,78,28,0,0,147,105,11,140,0,0,26,0,0,0,0,44,0,67,128,122,73,76,164,123,0,0,74,37,79,99,6,161,8,161,69,95,0,0,100,104,158,44,114,125,14,91,0,0,4,145,0,35,0,0,0,0,0,0,0,0,0,0,0,0,0,0,0,0,0,0,0,0,0,0,0,0,0,0,0,0,0,0,0,0,0,0,0,0,0,0,0,0,0,0,0,0,0,0,0,0,0,0,0,0,0,0,0,0,0,0,0,0],"split_type":[0,0,0,0,0,0,0,0,0,0,0,0,0,0,0,0,0,0,0,0,0,0,0,0,0,0,0,0,0,0,0,0,0,0,0,0,0,0,0,0,0,0,0,0,0,0,0,0,0,0,0,0,0,0,0,0,0,0,0,0,0,0,0,0,0,0,0,0,0,0,0,0,0,0,0,0,0,0,0,0,0,0,0,0,0,0,0,0,0,0,0,0,0,0,0,0,0,0,0,0,0,0,0,0,0,0,0,0,0,0,0,0,0,0,0,0,0,0,0,0,0,0,0,0,0,0,0,0,0,0,0,0,0,0,0,0,0,0,0,0,0,0,0,0,0,0,0,0,0,0,0,0,0,0,0,0,0,0,0],"sum_hessian":[7.947E3,6.117E3,1.83E3,3.617E3,2.5E3,1.436E3,3.94E2,9.78E2,2.639E3,1.042E3,1.458E3,8.03E2,6.33E2,3.16E2,7.8E1,2.7E2,7.08E2,1.435E3,1.204E3,4E0,1.038E3,1.146E3,3.12E2,2.2E1,7.81E2,1.1E1,6.22E2,3.08E2,8E0,6.9E1,9E0,2.68E2,2E0,6.4E1,6.44E2,2E0,1.433E3,1.198E3,6E0,7.67E2,2.71E2,1E0,1.145E3,1.85E2,1.27E2,1.4E1,8E0,3.51E2,4.3E2,