{"learner":{"attributes":{"best_iteration":"19","best_ntree_limit":"20","best_score":"38.05329778444537","scikit_learn":"{\"n_estimators\": 1000, \"objective\": \"reg:squarederror\", \"max_depth\": 7, \"max_leaves\": null, \"max_bin\": null, \"grow_policy\": null, \"learning_rate\": 0.3, \"verbosity\": null, \"booster\": null, \"tree_method\": null, \"gamma\": null, \"min_child_weight\": null, \"max_delta_step\": null, \"subsample\": null, \"sampling_method\": null, \"colsample_bytree\": null, \"colsample_bylevel\": null, \"colsample_bynode\": null, \"reg_alpha\": null, \"reg_lambda\": null, \"scale_pos_weight\": null, \"base_score\": null, \"missing\": NaN, \"num_parallel_tree\": null, \"random_state\": null, \"n_jobs\": null, \"monotone_constraints\": null, \"interaction_constraints\": null, \"importance_type\": null, \"gpu_id\": null, \"validate_parameters\": null, \"predictor\": null, \"enable_categorical\": false, \"max_cat_to_onehot\": null, \"eval_metric\": null, \"early_stopping_rounds\": null, \"callbacks\": null, \"kwargs\": {\"max_features\": \"auto\", \"min_samples_split\": 7, \"min_samples_leaf\": 3}, \"evals_result_\": {\"validation_0\": {\"rmse\": [32.89756791774716, 25.233734201987243, 20.335186003224198, 17.362465178298386, 15.567639769920236, 14.522858165888868, 13.951119383035932, 13.548467232538556, 13.351542817404, 13.185966926044092, 12.98089671127713, 12.909450099786744, 12.864659026513774, 12.73422498793483, 12.65577969515797, 12.586807020310301, 12.446696903508563, 12.353557830865194, 12.249958450194338, 12.064202991052989, 12.01391420416412, 11.898319149489275, 11.853933165484788, 11.77314905621371, 11.746711884384005, 11.6623703776832, 11.612729620138207, 11.511810803050174, 11.501648639467826, 11.456694553090875, 11.394269435633579, 11.348831426163787, 11.26991474326311, 11.228794751516103, 11.161575749665436, 11.144908873049983, 11.111749198606182, 11.04598059593946, 10.999074744872809, 10.949491419767304, 10.89596113901734, 10.86540260563015, 10.837213177212572, 10.78895154553198, 10.739119083974522, 10.724054367007378, 10.697626612558377, 10.647878346970922, 10.58375108394396, 10.533238387322239, 10.49748101069474, 10.447989618348508, 10.427723013781875, 10.400396966017679, 10.34596613024826, 10.320800025807857, 10.301960225982677, 10.288435961428627, 10.231782807650593, 10.191581684447618, 10.169700318860988, 10.124704663205025, 10.045116888621338, 10.028780309744265, 10.011896832824897, 9.96027594721115, 9.917845279271194, 9.88939193297262, 9.837030473948392, 9.814771279661896, 9.783211904817753, 9.738756638763542, 9.721519126759302, 9.685575306140064, 9.663538545163432, 9.60421939058259, 9.572934401341847, 9.534786901895446, 9.519293240015616, 9.489046835256046, 9.476716874982769, 9.441594261141834, 9.401960148268312, 9.365571566441481, 9.310632807077603, 9.262845010432384, 9.235808242323749, 9.196919651473541, 9.176346028639138, 9.156480693903909, 9.140541434095102, 9.114761208320967, 9.102278087768502, 9.091624558416912, 9.062138896535782, 9.020835151043327, 8.98777476992408, 8.986249726065646, 8.978351818662393, 8.977113553836846, 8.924082290597362, 8.896656902047535, 8.874942228136852, 8.858032529652409, 8.840638419093343, 8.831106857356083, 8.821850915887513, 8.786160418478513, 8.778337157136074, 8.758163249366739, 8.750818170708918, 8.725279782838747, 8.674522011845625, 8.647015558552962, 8.620601439130644, 8.597116659695514, 8.581934433726458, 8.567582892779795, 8.555298699399682, 8.539604602915375]}, \"validation_1\": {\"rmse\": [57.90324913768723, 50.38644411763136, 45.70899810075881, 42.89820208564166, 40.99791918064011, 39.91095645894561, 39.342210840144816, 38.87905733644287, 38.56917987925122, 38.30411061061493, 38.21379637091221, 38.15604050690741, 38.11804135434103, 38.07537344793962, 38.073150854625496, 38.05472844742663, 38.063943286728, 38.070823350059804, 38.06759436514659, 38.05329778444537, 38.05589736601185, 38.095893292085414, 38.09427436903601, 38.12020950124218, 38.12165515860059, 38.10880066436975, 38.105026960436966, 38.0981196104511, 38.09850034399668, 38.10021624059524, 38.10095577338597, 38.10927509448051, 38.1164478851118, 38.11144636949768, 38.129876030759014, 38.1261634017075, 38.13606520645139, 38.156567710889874, 38.159509221811184, 38.16449625380079, 38.164514729616606, 38.164506040948396, 38.215972210162825, 38.2210893334685, 38.20432584517201, 38.20212285460175, 38.200606639484334, 38.20483244008389, 38.19938500585867, 38.20518271476134, 38.245835879964076, 38.24279935256264, 38.24448692564949, 38.247112058985664, 38.2445464074326, 38.24515487939406, 38.2442242323574, 38.25393054539326, 38.25307462686121, 38.26948343098404, 38.2724689236839, 38.275221720493256, 38.29788912755659, 38.296330412237545, 38.31793856928264, 38.31939855038508, 38.31702064383866, 38.32139686703248, 38.313822329322484, 38.327411909825095, 38.33040717825791, 38.3491041881283, 38.34725265676053, 38.350434087780606, 38.35932734576358, 38.35484931761101, 38.35735076903001, 38.360706531115916, 38.36031913639017, 38.36383868047387, 38.367015149109136, 38.37306682015101, 38.38131152658987, 38.37832648955828, 38.38290566751504, 38.38706130731363, 38.39373638680984, 38.39766621995954, 38.400227461838945, 38.395945739823, 38.39490602633018, 38.405190793690835, 38.40833526370912, 38.4129883403692, 38.412561009777605, 38.419741701163275, 38.427870993148005, 38.42586466577666, 38.426814530254646, 38.425918861904876, 38.43910429598949, 38.44297050313837, 38.45119199598033, 38.45414046553838, 38.46493218471498, 38.464242607122536, 38.46536704443729, 38.47568794530656, 38.47558144245659, 38.48200453922648, 38.48171812724963, 38.48394540912265, 38.49430479018348, 38.49385673830249, 38.49983222185551, 38.510702325705914, 38.51056794658303, 38.52275581815973, 38.5292208246161, 38.53025182827681]}}, \"_estimator_type\": \"regressor\"}"},"feature_names":[],"feature_types":[],"gradient_booster":{"model":{"gbtree_model_param":{"num_parallel_tree":"1","num_trees":"120","size_leaf_vector":"0"},"tree_info":[0,0,0,0,0,0,0,0,0,0,0,0,0,0,0,0,0,0,0,0,0,0,0,0,0,0,0,0,0,0,0,0,0,0,0,0,0,0,0,0,0,0,0,0,0,0,0,0,0,0,0,0,0,0,0,0,0,0,0,0,0,0,0,0,0,0,0,0,0,0,0,0,0,0,0,0,0,0,0,0,0,0,0,0,0,0,0,0,0,0,0,0,0,0,0,0,0,0,0,0,0,0,0,0,0,0,0,0,0,0,0,0,0,0,0,0,0,0,0,0],"trees":[{"base_weights":[4.1224663E1,4.82599E1,3.6722984E1,3.8858154E1,5.010261E1,3.0155037E1,3.7697113E1,3.25125E1,4.1041176E1,5.4436634E1,4.6481762E1,3.2304188E1,2.8416739E1,3.9803963E1,3.6998074E1,3.1480953E1,4.1773853E1,4.4997414E1,6.0425335E1,4.850156E1,4.3662395E1,4.4371136E1,3.846585E1,3.7153168E1,3.2938435E1,3.6228573E1,4.6020508E1,6.570021E1,5.407895E1,4.582578E1,4.0347248E1,3.4955173E1,4.6394955E1,3.656554E1,3.884751E1,5.8454735E1,4.999391E1,4.030247E1,4.8595173E1,5.3853333E1,4.317893E1,2.5785555E1,3.9013565E1,4.3731373E1,3.336129E1],"categories":[],"categories_nodes":[],"categories_segments":[],"categories_sizes":[],"default_left":[1,1,1,1,1,1,1,0,1,1,1,0,0,1,1,0,0,1,1,0,1,1,0,1,0,0,0,0,1,1,0,0,1,0,1,0,0,1,0,0,0,0,0,0,0],"id":0,"left_children":[1,3,5,7,9,11,13,-1,15,17,19,-1,-1,21,23,-1,-1,25,27,-1,29,31,-1,33,-1,-1,-1,-1,35,37,-1,-1,39,-1,41,-1,-1,43,-1,-1,-1,-1,-1,-1,-1],"loss_changes":[1.57244E5,3.19405E4,1.84795E4,3.16775E3,2.308025E4,5.8009375E2,2.454E3,0E0,3.52E2,3.89425E4,2.984625E3,0E0,0E0,2.2716875E3,4.55E1,0E0,0E0,9.344375E2,1.14445E4,0E0,9.050625E2,1.0651875E3,0E0,5.05E2,0E0,0E0,0E0,0E0,8.135625E2,1.483125E3,0E0,0E0,3.85125E2,0E0,3.95E1,0E0,0E0,4.6892188E2,0E0,0E0,0E0,0E0,0E0,0E0,0E0],"parents":[2147483647,0,0,1,1,2,2,3,3,4,4,5,5,6,6,8,8,9,9,10,10,13,13,14,14,17,17,18,18,20,20,21,21,23,23,28,28,29,29,32,32,34,34,37,37],"right_children":[2,4,6,8,10,12,14,-1,16,18,20,-1,-1,22,24,-1,-1,26,28,-1,30,32,-1,34,-1,-1,-1,-1,36,38,-1,-1,40,-1,42,-1,-1,44,-1,-1,-1,-1,-1,-1,-1],"split_conditions":[2.671E1,1.695E1,7.109E1,1.375E1,2.255E1,3.5864998E1,2.8845001E1,9.753751E0,5.8300003E1,7.815E1,9.995E1,9.6912565E0,8.525022E0,9.37E1,3.5455E1,9.444286E0,1.2532157E1,5.165E1,2.0849998E1,1.4550468E1,2.525E1,7.78E1,1.1539756E1,3.2985E1,9.881531E0,1.0868572E1,1.3806153E1,1.9710064E1,9.995E1,2.375E1,1.2104175E1,1.0486552E1,2.725E1,1.0969663E1,7.1575E1,1.753642E1,1.4998174E1,2.345E1,1.4578552E1,1.6156E1,1.2953679E1,7.7356668E0,1.170407E1,1.3119412E1,1.0008388E1],"split_indices":[1,1,0,1,1,1,1,0,0,0,0,0,0,0,1,0,0,0,1,0,1,0,0,1,0,0,0,0,0,1,0,0,1,0,0,0,0,1,0,0,0,0,0,0,0],"split_type":[0,0,0,0,0,0,0,0,0,0,0,0,0,0,0,0,0,0,0,0,0,0,0,0,0,0,0,0,0,0,0,0,0,0,0,0,0,0,0,0,0,0,0,0,0],"sum_hessian":[5.02E3,1.955E3,3.065E3,3.24E2,1.631E3,4E2,2.665E3,8.7E1,2.37E2,7.36E2,8.95E2,1.71E2,2.29E2,6.5E2,2.015E3,2E1,2.17E2,2.89E2,4.47E2,5.12E2,3.83E2,1.4E2,5.1E2,1.933E3,8.2E1,3.4E1,2.55E2,2.39E2,2.08E2,2.24E2,1.59E2,2.8E1,1.12E2,1.452E3,4.81E2,9.4E1,1.14E2,8E1,1.44E2,2.9E1,8.3E1,8E0,4.73E2,5E1,3E1],"tree_param":{"num_deleted":"0","num_feature":"2","num_nodes":"45","size_leaf_vector":"0"}},{"base_weights":[2.8913557E1,3.387038E1,2.574185E1,2.7405535E1,3.520877E1,2.1153954E1,2.6422272E1,2.4149437E1,2.9702892E1,3.885217E1,3.2916004E1,2.2015205E1,1.8266459E1,2.787961E1,2.5891224E1,2.0955362E1,2.6593077E1,1.747866E1,3.0480015E1,3.1765709E1,4.3729317E1,3.4448143E1,3.080848E1,2.8838839E1,2.1636019E1,3.1045002E1,2.6965631E1,2.4607246E1,2.631995E1,3.2521877E1,2.4749933E1,2.0137661E1,3.2156532E1,5.228877E1,4.1289013E1,3.3921932E1,4.174596E1,2.109617E1,3.115718E1,3.5325077E1,2.8684525E1,1.601466E1,2.7097723E1,2.4754337E1,1.7648884E1,2.6092972E1,3.1185E1,3.5716667E1,2.7457869E1,2.7008904E1,1.38747835E1,3.7029884E1,3.3015766E1,5.5089413E1,3.2969116E1,3.3010822E1,2.8473518E1,9.156723E0,3.5679485E1,2.0939217E1,2.9678787E1,7.2151685E0,2.7121138E1,2.6443665E1,2.4229502E1,2.496644E1,3.8892323E1,4.4280605E1,2.7525751E1,1.8123667E1,3.4632248E1,2.2894663E1,3.6522247E1,2.7145645E1,4.2281384E1,3.091359E1,3.578654E1,3.4842056E1,1.5362149E1,2.6267584E1,4.6219715E1,4.0811687E1,1.8612755E1],"categories":[],"categories_nodes":[],"categories_segments":[],"categories_sizes":[],"default_left":[1,1,1,1,1,1,1,1,1,1,1,1,0,1,1,0,0,0,1,1,1,1,1,0,0,1,1,1,1,1,1,0,0,0,0,1,1,0,1,1,1,0,1,0,0,1,1,1,1,1,0,1,1,0,1,0,0,0,0,0,0,0,0,1,0,0,1,0,0,0,0,0,0,0,0,0,0,0,0,0,0,0,0],"id":1,"left_children":[1,3,5,7,9,11,13,15,17,19,21,23,-1,25,27,-1,-1,-1,29,31,33,35,37,-1,-1,39,41,43,45,47,49,-1,-1,-1,-1,51,53,-1,55,57,59,-1,61,-1,-1,63,65,67,69,71,-1,73,75,-1,77,-1,-1,-1,-1,-1,-1,-1,-1,79,-1,-1,81,-1,-1,-1,-1,-1,-1,-1,-1,-1,-1,-1,-1,-1,-1,-1,-1],"loss_changes":[7.8066E4,1.595925E4,9.01225E3,1.8260469E3,1.222875E4,5.9509375E2,1.341375E3,5.8228125E2,1.3196875E3,2.0004562E4,2.1645E3,1.62625E2,0E0,1.185125E3,4.3575E2,0E0,0E0,0E0,1.3245E3,5.1584375E2,5.444125E3,7.728125E2,7.99E2,0E0,0E0,5.0215625E2,3.61625E2,8.303125E1,7.995625E2,1.1386719E3,9.0272266E2,0E0,0E0,0E0,0E0,2.898125E2,2.1656016E3,0E0,1.1145312E3,1.27734375E2,1.6404688E2,0E0,5.665625E1,0E0,0E0,2.755E2,1.9047031E3,4.182422E3,3.0555273E3,8.0772266E2,0E0,4.71775E3,1.3691875E3,0E0,2.232168E2,0E0,0E0,0E0,0E0,0E0,0E0,0E0,0E0,2.8565625E3,0E0,0E0,2.1348047E2,0E0,0E0,0E0,0E0,0E0,0E0,0E0,0E0,0E0,0E0,0E0,0E0,0E0,0E0,0E0,0E0],"parents":[2147483647,0,0,1,1,2,2,3,3,4,4,5,5,6,6,7,7,8,8,9,9,10,10,11,11,13,13,14,14,18,18,19,19,20,20,21,21,22,22,25,25,26,26,27,27,28,28,29,29,30,30,35,35,36,36,38,38,39,39,40,40,42,42,45,45,46,46,47,47,48,48,49,49,51,51,52,52,54,54,63,63,66,66],"right_children":[2,4,6,8,10,12,14,16,18,20,22,24,-1,26,28,-1,-1,-1,30,32,34,36,38,-1,-1,40,42,44,46,48,50,-1,-1,-1,-1,52,54,-1,56,58,60,-1,62,-1,-1,64,66,68,70,72,-1,74,76,-1,78,-1,-1,-1,-1,-1,-1,-1,-1,80,-1,-1,82,-1,-1,-1,-1,-1,-1,-1,-1,-1,-1,-1,-1,-1,-1,-1,-1],"split_conditions":[2.671E1,1.725E1,7.109E1,7.2649994E1,2.205E1,3.7114998E1,2.8974998E1,1.415E1,1.295E1,7.815E1,9.995E1,2.7150002E1,5.4799376E0,9.3649994E1,3.0435001E1,6.286609E0,7.9779234E0,5.2435985E0,1.605E1,4.2E1,1.875E1,9.9149994E1,2.2150002E1,8.651652E0,6.490806E0,2.7349998E1,2.6795E1,3.0404999E1,9.929E1,8.8649994E1,9.1E1,6.0412984E0,9.64696E0,1.5686631E1,1.2386704E1,2.295E1,2.455E1,6.328851E0,2.5150002E1,7.19E1,7.575E1,4.804398E0,9.375E1,7.4263015E0,5.2946653E0,3.4585E1,3.0755001E1,1.465E1,1.4700001E1,8.565E1,4.162435E0,7.475E1,2.505E1,1.6526825E1,2.6150002E1,9.903247E0,8.542056E0,2.747017E0,1.0703846E1,6.2817655E0,8.903637E0,2.1645505E0,8.136342E0,3.457E1,7.268851E0,7.4899325E0,3.1535E1,1.3284183E1,8.257726E0,5.4371004E0,1.0389675E1,6.868399E0,1.0956675E1,8.143694E0,1.2684416E1,9.274077E0,1.0735963E1,1.0452618E1,4.608645E0,7.8802752E0,1.3865915E1,1.2243506E1,5.5838265E0],"split_indices":[1,1,0,0,1,1,1,1,1,0,0,1,0,0,1,0,0,0,1,0,1,0,1,0,0,1,1,1,0,0,0,0,0,0,0,1,1,0,1,0,0,0,0,0,0,1,1,1,1,0,0,0,1,0,1,0,0,0,0,0,0,0,0,1,0,0,1,0,0,0,0,0,0,0,0,0,0,0,0,0,0,0,0],"split_type":[0,0,0,0,0,0,0,0,0,0,0,0,0,0,0,0,0,0,0,0,0,0,0,0,0,0,0,0,0,0,0,0,0,0,0,0,0,0,0,0,0,0,0,0,0,0,0,0,0,0,0,0,0,0,0,0,0,0,0,0,0,0,0,0,0,0,0,0,0,0,0,0,0,0,0,0,0,0,0,0,0,0,0],"sum_hessian":[5.02E3,1.955E3,3.065E3,3.39E2,1.616E3,4E2,2.665E3,1.45E2,1.94E2,6.18E2,9.98E2,3.03E2,9.7E1,6.98E2,1.967E3,6.7E1,7.8E1,1.3E1,1.81E2,2.55E2,3.63E2,5.69E2,4.29E2,1.2E1,2.91E2,1.49E2,5.49E2,5.07E2,1.46E3,1.3E2,5.1E1,1E1,2.45E2,7.6E1,2.87E2,5.36E2,3.3E1,1.7E1,4.12E2,4.8E1,1.01E2,8E0,5.41E2,4.94E2,1.3E1,1.401E3,5.9E1,7.6E1,5.4E1,4.1E1,1E1,1.12E2,4.24E2,1.1E1,2.2E1,2.37E2,1.75E2,1E0,4.7E1,1.4E1,8.7E1,1E0,5.4E2,1.168E3,2.33E2,3.5E1,2.4E1,3.5E1,4.1E1,2.5E1,2.9E1,3.1E1,1E1,4.1E1,7.1E1,2.48E2,1.76E2,1.9E1,3E0,1.16E3,8E0,2.1E1,3E0],"tree_param":{"num_deleted":"0","num_feature":"2","num_nodes":"83","size_leaf_vector":"0"}},{"base_weights":[2.0309444E1,2.3611595E1,1.7903893E1,1.9446787E1,2.44133E1,1.4609818E1,1.8399065E1,1.7028032E1,2.1086752E1,2.7211468E1,2.2643631E1,1.516049E1,1.2842439E1,8.151511E0,1.8432482E1,1.4359086E1,1.8642282E1,2.1657497E1,1.2527625E1,2.2866198E1,3.10331E1,2.4167551E1,2.0607899E1,1.9369507E0,8.6268015E0,1.8118042E1,1.9434935E1,1.9193113E1,1.080368E1,2.3706785E1,1.8951286E1,1.5529866E1,6.8779397E0,2.1060215E1,2.5092348E1,3.6693085E1,2.7964699E1,2.3086641E1,2.621205E1,2.2005959E1,1.7735407E1,1.854797E1,1.697993E1,1.9211231E1,3.166711E1,1.0534636E1,1.9752792E1,1.3095262E1,2.4833216E1,1.9413574E1,4.6209593E0,2.491896E1,1.879456E1,2.9292255E1,2.053398E1,3.1965714E1,4.0046608E1,1.1245834E1,2.8130983E1,2.3342188E1,1.2623243E1,3.1583498E1,2.4144924E1,1.9026892E1,2.315482E1,1.7110289E1,2.6322357E1,1.8436714E1,3.081931E1,1.6719067E1,2.7086428E1,1.9261757E1,1.1175693E1,4.3353462E1,1.3647337E1,1.623284E1,7.252209E0,2.9800512E1,2.0785849E1,1.6367218E1,2.3533293E1,1.7254993E1,2.8984331E1,2.1004625E1,1.3269151E1,2.5816395E1,3.8610157E1,2.0763792E1,2.3384361E0,3.4626602E1,1.626296E1,7.3102646E1,3.6838375E1,1.52600355E1,-3.983841E-1,2.1972574E1,2.503794E1,1.3460486E1,1.7067852E0,2.869468E1,4.460737E1,2.1562407E1,2.823317E1,2.1153175E1,1.4091967E1,2.7531168E1,2.1085487E1,1.8403105E1,1.3161368E1,2.1743221E1,1.8288267E1,1.7046408E1,3.6254337E1,1.2495039E1,1.6992493E1,4.6555046E1,1.5424106E1,1.9161835E1,3.8258415E1,3.293415E0,1.2093465E1],"categories":[],"categories_nodes":[],"categories_segments":[],"categories_sizes":[],"default_left":[1,1,1,1,1,1,1,1,1,1,1,0,0,1,1,0,1,1,1,1,1,1,1,0,0,1,1,1,0,1,1,0,0,1,1,1,1,1,1,1,1,1,1,1,1,0,0,1,1,1,0,1,1,1,1,1,1,1,0,1,1,1,1,1,1,1,0,1,1,1,1,1,1,0,0,0,0,0,0,0,0,0,0,0,0,0,0,0,0,0,0,0,0,0,0,0,0,0,0,0,0,0,0,0,0,0,0,0,0,0,0,0,0,0,0,0,0,0,0,0,0],"id":2,"left_children":[1,3,5,7,9,11,13,15,17,19,21,-1,-1,23,25,-1,27,29,31,33,35,37,39,-1,-1,41,43,45,-1,47,49,-1,-1,51,53,55,57,59,61,63,65,67,69,71,73,-1,-1,75,77,79,-1,81,83,85,87,89,91,93,-1,95,97,99,101,103,105,107,-1,109,111,113,115,117,119,-1,-1,-1,-1,-1,-1,-1,-1,-1,-1,-1,-1,-1,-1,-1,-1,-1,-1,-1,-1,-1,-1,-1,-1,-1,-1,-1,-1,-1,-1,-1,-1,-1,-1,-1,-1,-1,-1,-1,-1,-1,-1,-1,-1,-1,-1,-1,-1],"loss_changes":[3.94615E4,6.580375E3,4.476125E3,1.01339844E3,8.138625E3,1.8000781E2,7.144375E2,3.5702734E2,7.1546094E2,1.0582469E4,2.880375E3,0E0,0E0,1.2827454E1,4.409375E2,0E0,1.6828711E2,5.9334375E2,1.476123E2,7.661094E2,5.2086875E3,7.58375E2,1.50925E3,0E0,0E0,6.294375E2,9.978906E2,1.7958789E2,0E0,9.0597656E2,4.8001953E2,0E0,0E0,1.1402969E3,2.0596328E3,6.6984375E2,3.4253125E2,8.069844E2,1.5247344E3,6.341094E2,4.0847266E2,1.3295E3,9.734375E2,1.98125E1,1.3036094E3,0E0,0E0,1.0227246E2,1.2301836E3,6.564844E2,0E0,1.5250742E3,1.1866641E3,1.2703672E3,2.4415625E2,1.7767344E3,4.5185156E3,1.9304831E2,0E0,3.811875E2,8.6702515E1,7.516797E2,1.00658594E3,6.777617E2,1.4299531E3,5.3378516E2,0E0,2.7971875E2,2.0541113E2,3.9979688E2,2.0065225E3,3.564375E2,3.5760498E0,0E0,0E0,0E0,0E0,0E0,0E0,0E0,0E0,0E0,0E0,0E0,0E0,0E0,0E0,0E0,0E0,0E0,0E0,0E0,0E0,0E0,0E0,0E0,0E0,0E0,0E0,0E0,0E0,0E0,0E0,0E0,0E0,0E0,0E0,0E0,0E0,0E0,0E0,0E0,0E0,0E0,0E0,0E0,0E0,0E0,0E0,0E0,0E0],"parents":[2147483647,0,0,1,1,2,2,3,3,4,4,5,5,6,6,7,7,8,8,9,9,10,10,13,13,14,14,16,16,17,17,18,18,19,19,20,20,21,21,22,22,25,25,26,26,27,27,29,29,30,30,33,33,34,34,35,35,36,36,37,37,38,38,39,39,40,40,41,41,42,42,43,43,44,44,47,47,48,48,49,49,51,51,52,52,53,53,54,54,55,55,56,56,57,57,59,59,60,60,61,61,62,62,63,63,64,64,65,65,67,67,68,68,69,69,70,70,71,71,72,72],"right_children":[2,4,6,8,10,12,14,16,18,20,22,-1,-1,24,26,-1,28,30,32,34,36,38,40,-1,-1,42,44,46,-1,48,50,-1,-1,52,54,56,58,60,62,64,66,68,70,72,74,-1,-1,76,78,80,-1,82,84,86,88,90,92,94,-1,96,98,100,102,104,106,108,-1,110,112,114,116,118,120,-1,-1,-1,-1,-1,-1,-1,-1,-1,-1,-1,-1,-1,-1,-1,-1,-1,-1,-1,-1,-1,-1,-1,-1,-1,-1,-1,-1,-1,-1,-1,-1,-1,-1,-1,-1,-1,-1,-1,-1,-1,-1,-1,-1,-1,-1,-1,-1],"split_conditions":[2.7215E1,1.7349998E1,7.109E1,7.255E1,2.2349998E1,3.7114998E1,2.729E1,1.405E1,9.87E1,8.1149994E1,9.995E1,4.548147E0,3.8527317E0,9.8405E1,9.9895004E1,4.307726E0,7.1149994E1,1.545E1,1.45E1,2.005E1,1.995E1,8.93E1,2.605E1,5.810852E-1,2.5880406E0,9.3875E1,3.0965E1,4.8550003E1,3.2411044E0,1.295E1,9.4899994E1,4.65896E0,2.063382E0,1.8349998E1,2.1150002E1,9.13E1,8.175E1,8.855E1,2.455E1,2.375E1,2.7195E1,9.371E1,3.2105E1,3.079E1,3.1255001E1,3.1603909E0,5.925838E0,7.6850006E1,8.465E1,8.4850006E1,1.3862878E0,6.62E1,7.3149994E1,7.825E1,8.07E1,8.975E1,9.155E1,8.15E1,8.439296E0,2.475E1,2.595E1,9.94E1,2.6349998E1,2.345E1,2.4650002E1,2.691E1,7.8967075E0,2.8195E1,3.069E1,9.4305E1,3.2184998E1,3.0755001E1,3.0835E1,1.300604E1,4.094201E0,4.869852E0,2.1756628E0,8.940154E0,6.235755E0,4.910166E0,7.059988E0,5.1764984E0,8.6953E0,6.301388E0,3.9807453E0,7.744919E0,1.1583048E1,6.229138E0,7.015309E-1,1.0387981E1,4.878888E0,2.1930794E1,1.1051513E1,4.578011E0,-1.1951523E-1,6.5917726E0,7.511382E0,4.038146E0,5.120356E-1,8.608404E0,1.3382211E1,6.4687223E0,8.469952E0,6.345953E0,4.22759E0,8.259351E0,6.3256464E0,5.5209317E0,3.9484107E0,6.522967E0,5.48648E0,5.1139226E0,1.0876302E1,3.7485118E0,5.097748E0,1.3966515E1,4.627232E0,5.7485504E0,1.1477525E1,9.8802453E-1,3.6280396E0],"split_indices":[1,1,0,0,1,1,1,1,0,0,0,0,0,0,0,0,0,1,1,1,1,0,1,0,0,0,1,0,0,1,0,0,0,1,1,0,0,0,1,1,1,0,1,1,1,0,0,0,0,0,0,0,0,0,0,0,0,0,0,1,1,0,1,1,1,1,0,1,1,0,1,1,1,0,0,0,0,0,0,0,0,0,0,0,0,0,0,0,0,0,0,0,0,0,0,0,0,0,0,0,0,0,0,0,0,0,0,0,0,0,0,0,0,0,0,0,0,0,0,0,0],"split_type":[0,0,0,0,0,0,0,0,0,0,0,0,0,0,0,0,0,0,0,0,0,0,0,0,0,0,0,0,0,0,0,0,0,0,0,0,0,0,0,0,0,0,0,0,0,0,0,0,0,0,0,0,0,0,0,0,0,0,0,0,0,0,0,0,0,0,0,0,0,0,0,0,0,0,0,0,0,0,0,0,0,0,0,0,0,0,0,0,0,0,0,0,0,0,0,0,0,0,0,0,0,0,0,0,0,0,0,0,0,0,0,0,0,0,0,0,0,0,0,0,0],"sum_hessian":[5.02E3,2.112E3,2.908E3,3.45E2,1.767E3,3.84E2,2.524E3,1.44E2,2.01E2,6.79E2,1.088E3,2.87E2,9.7E1,9E0,2.515E3,5.8E1,8.6E1,1.87E2,1.4E1,3.21E2,3.58E2,6.16E2,4.72E2,1E0,8E0,1.929E3,5.86E2,7.9E1,7E0,1.02E2,8.5E1,8E0,6E0,1.83E2,1.38E2,1.22E2,2.36E2,4.11E2,2.05E2,3.13E2,1.59E2,1.389E3,5.4E2,5.78E2,8E0,6E0,7.3E1,1.1E1,9.1E1,8.2E1,3E0,6.4E1,1.19E2,6.9E1,6.9E1,5.5E1,6.7E1,3E0,2.33E2,4E2,1.1E1,5.3E1,1.52E2,9.2E1,2.21E2,1.51E2,8E0,1.379E3,1E1,5.29E2,1.1E1,5.73E2,5E0,4E0,4E0,6E0,5E0,3.8E1,5.3E1,5E1,3.2E1,2.4E1,4E1,8.3E1,3.6E1,5.3E1,1.6E1,6.8E1,1E0,4.6E1,9E0,4E0,6.3E1,2E0,1E0,2.29E2,1.71E2,1E1,1E0,4.6E1,7E0,9.7E1,5.5E1,6.2E1,3E1,6.7E1,1.54E2,1.11E2,4E1,5.3E1,1.326E3,4E0,6E0,3.5E1,4.94E2,3E0,8E0,5.72E2,1E0,1E0,4E0],"tree_param":{"num_deleted":"0","num_feature":"2","num_nodes":"121","size_leaf_vector":"0"}},{"base_weights":[1.4291208E1,1.6826536E1,1.2667741E1,1.3422486E1,1.7454205E1,1.298145E1,1.0098317E1,1.0474602E1,1.4548908E1,1.8616915E1,1.5928129E1,1.2918274E1,1.9050035E1,8.508314E0,1.0702973E1,1.1117825E1,3.5217495E0,1.3756075E1,1.8801704E1,1.464468E1,1.9908678E1,2.874949E1,1.5501808E1,1.3038174E1,9.82744E0,2.2872955E1,1.2683881E1,6.46948E0,8.798832E0,8.495183E0,1.0976616E1,-1.22302055E-1,3.9925437E0,1.4812228E1,5.8338356E0,5.3684883E0,2.1090504E1,1.5609924E1,1.2187831E1,2.4820501E1,1.909503E1,1.5315005E1,2.1078009E1,1.1145134E1,1.3187941E1,1.2242693E1,7.736859E0,9.186493E0,2.8797539E1,4.744976E0,2.7375446E1,7.051808E0,1.0192877E1,1.3204377E1,1.0361659E1,1.5407228E1,7.7557483E0,3.2691596E0,9.097466E0,1.0929108E-3,6.4417486E0,2.5265984E1,1.2720169E1,9.937145E0,1.633383E1,1.331804E1,6.715703E0,1.7624292E1,2.8482548E1,1.6695099E1,1.9900608E1,1.5466335E1,6.699834E-1,1.1198321E1,2.2848036E1,1.1468538E1,3.950626E0,1.9542496E1,1.2997316E1,9.59081E0,2.3971771E1,4.8510065E0,9.321663E0,3.9529896E-1,5.239273E0,3.4940395E1,2.3402987E0,9.433159E0,5.629147E0,1.1310568E1,5.1298532E0,8.467307E0,1.4420108E1,9.614901E0,1.20593605E1,1.1788006E1,1.6999092E1,5.6618624E0,1.2098469E1,3.6963305E0,1.1703568E0,1.1380862E1,7.2109704E0,1.7978752E1,1.4022461E1,1.1287653E1,1.9991356E1,1.8302803E0,7.377417E0,2.834521E1,1.2823005E1,3.0375994E1,1.3957149E1,1.0862602E1,1.826644E1,2.2924597E1,1.8560637E1,1.3461221E1,1.572944E1,1.8882706E0,-1.0203714E0,1.7851093E1,5.0723553E0,1.0942378E1,1.5341165E1,5.4634523E-1,5.331554E0,1.7793379E1,5.1508907E1,1.3138464E1,1.0417356E1,1.1519167E1,4.1313815E0,2.4292731E0,5.7586856E0,1.5835447E1,8.281168E0,2.841569E0,1.2013996E1,4.272343E0,9.506375E0,2.165816E1,1.2277574E1,1.0345038E1,8.214145E0,1.07428E1,1.823596E1],"categories":[],"categories_nodes":[],"categories_segments":[],"categories_sizes":[],"default_left":[1,1,1,1,1,1,1,1,1,1,1,1,1,1,1,0,1,1,1,1,1,0,1,1,1,1,1,0,0,1,1,0,0,1,1,1,1,1,1,1,1,1,1,1,1,1,1,0,0,1,1,1,1,1,1,1,1,1,0,0,0,0,0,1,1,1,1,1,1,1,1,1,1,1,0,1,1,1,1,1,0,1,1,0,0,0,0,0,0,1,0,1,1,1,1,0,0,0,0,0,0,0,0,0,0,0,0,0,0,0,0,0,0,0,0,0,0,0,0,0,0,0,0,0,0,0,0,0,0,0,0,0,0,0,0,0,0,0,0,0,0,0,0,0,0,0,0],"id":3,"left_children":[1,3,5,7,9,11,13,15,17,19,21,23,25,27,29,-1,31,33,35,37,39,-1,41,43,45,47,49,-1,-1,51,53,-1,-1,55,57,59,61,63,65,67,69,71,73,75,77,79,81,-1,-1,83,85,87,89,91,93,95,97,99,-1,-1,-1,-1,-1,101,103,105,107,109,111,113,115,117,119,121,-1,123,125,127,129,131,-1,133,135,-1,-1,-1,-1,-1,-1,137,-1,139,141,143,145,-1,-1,-1,-1,-1,-1,-1,-1,-1,-1,-1,-1,-1,-1,-1,-1,-1,-1,-1,-1,-1,-1,-1,-1,-1,-1,-1,-1,-1,-1,-1,-1,-1,-1,-1,-1,-1,-1,-1,-1,-1,-1,-1,-1,-1,-1,-1,-1,-1,-1,-1,-1],"loss_changes":[2.0453375E4,3.9470625E3,2.3394688E3,8.7366016E2,2.6294375E3,7.998125E2,2.3388672E2,3.58875E2,4.8651953E2,4.4804688E3,3.4898594E3,8.735625E2,3.4265234E2,1.1240234E0,5.2351562E1,0E0,1.592868E1,1.5033398E3,8.706455E2,3.5992578E2,2.3195938E3,0E0,4.053125E2,5.89875E2,4.3545508E2,9.517495E2,1.2697235E3,0E0,0E0,4.0844727E0,1.522461E2,0E0,0E0,5.816719E2,1.711427E2,3.455664E1,6.222676E2,5.070586E2,3.4348633E2,2.0278906E3,8.355E2,1.4966719E3,9.388672E1,4.130586E2,2.6568125E3,1.2319863E3,2.2461768E2,0E0,0E0,1.7279205E1,6.757876E2,1.4656433E1,9.885254E0,1.197793E2,9.957031E1,6.8109766E2,6.789752E1,9.122192E0,0E0,0E0,0E0,0E0,0E0,5.852051E-1,2.9158203E2,5.4666016E2,3.1755798E1,1.438126E3,1.2812266E3,1.2496211E3,1.3857656E3,1.433125E2,1.8401438E1,1.132262E2,0E0,2.1520117E2,4.4097794E1,2.8855645E3,7.138125E2,3.735188E2,0E0,3.6568176E1,1.19633545E2,0E0,0E0,0E0,0E0,0E0,0E0,1.9477417E1,0E0,7.3328857E0,2.3033887E2,4.0823242E1,1.9442432E2,0E0,0E0,0E0,0E0,0E0,0E0,0E0,0E0,0E0,0E0,0E0,0E0,0E0,0E0,0E0,0E0,0E0,0E0,0E0,0E0,0E0,0E0,0E0,0E0,0E0,0E0,0E0,0E0,0E0,0E0,0E0,0E0,0E0,0E0,0E0,0E0,0E0,0E0,0E0,0E0,0E0,0E0,0E0,0E0,0E0,0E0,0E0,0E0,0E0,0E0,0E0,0E0],"parents":[2147483647,0,0,1,1,2,2,3,3,4,4,5,5,6,6,7,7,8,8,9,9,10,10,11,11,12,12,13,13,14,14,16,16,17,17,18,18,19,19,20,20,22,22,23,23,24,24,25,25,26,26,29,29,30,30,33,33,34,34,35,35,36,36,37,37,38,38,39,39,40,40,41,41,42,42,43,43,44,44,45,45,46,46,49,49,50,50,51,51,52,52,53,53,54,54,55,55,56,56,57,57,63,63,64,64,65,65,66,66,67,67,68,68,69,69,70,70,71,71,72,72,73,73,75,75,76,76,77,77,78,78,79,79,81,81,82,82,89,89,91,91,92,92,93,93,94,94],"right_children":[2,4,6,8,10,12,14,16,18,20,22,24,26,28,30,-1,32,34,36,38,40,-1,42,44,46,48,50,-1,-1,52,54,-1,-1,56,58,60,62,64,66,68,70,72,74,76,78,80,82,-1,-1,84,86,88,90,92,94,96,98,100,-1,-1,-1,-1,-1,102,104,106,108,110,112,114,116,118,120,122,-1,124,126,128,130,132,-1,134,136,-1,-1,-1,-1,-1,-1,138,-1,140,142,144,146,-1,-1,-1,-1,-1,-1,-1,-1,-1,-1,-1,-1,-1,-1,-1,-1,-1,-1,-1,-1,-1,-1,-1,-1,-1,-1,-1,-1,-1,-1,-1,-1,-1,-1,-1,-1,-1,-1,-1,-1,-1,-1,-1,-1,-1,-1,-1,-1,-1,-1,-1,-1],"split_conditions":[2.6724998E1,6.845E1,3.5445E1,1.6150002E1,2.3349998E1,3.5325E1,6.3005E1,6.755E1,2.35E1,1.7349998E1,7.255E1,3.4795E1,7.4125E1,3.7015E1,3.5645E1,3.3353474E0,6.775E1,2.245E1,5.85E1,1.595E1,1.855E1,8.624847E0,2.6695E1,7.4615E1,7.435E1,7.133E1,7.791E1,1.940844E0,2.6396496E0,7.3979996E1,3.5905E1,-3.669062E-2,1.1977632E0,6.7850006E1,6.65E1,2.575E1,2.605E1,1.295E1,9.17E1,7.7649994E1,8.01E1,2.6605E1,9.295E1,7.421E1,7.6715E1,7.3880005E1,3.4934998E1,2.755948E0,8.639262E0,3.535E1,8.0885E1,6.881E1,3.5620003E1,6.8455E1,3.6655E1,5.45E1,2.165E1,6.535E1,2.72924E0,3.2787325E-4,1.9325247E0,7.5797954E0,3.8160508E0,7.6850006E1,8.63E1,8.62E1,9.31E1,7.02E1,9.745E1,1.995E1,2.0650002E1,8.0850006E1,2.6654999E1,8.26E1,6.854411E0,3.454E1,3.2715E1,7.669E1,3.3815002E1,7.278E1,7.1915317E0,7.618E1,3.4945E1,1.1858969E-1,1.571782E0,1.0482119E1,7.020896E-1,2.8299477E0,1.6887442E0,3.5489998E1,1.538956E0,3.5735E1,7.0295E1,7.018E1,7.0295E1,3.536402E0,5.0997276E0,1.6985588E0,3.6295407E0,1.1088992E0,3.5110703E-1,3.4142587E0,2.1632912E0,5.3936257E0,4.2067385E0,3.386296E0,5.997407E0,5.490841E-1,2.2132251E0,8.503563E0,3.8469017E0,9.112799E0,4.1871448E0,3.2587807E0,5.479932E0,6.8773794E0,5.568191E0,4.0383663E0,4.718832E0,5.6648123E-1,-3.0611145E-1,5.355328E0,1.5217067E0,3.2827137E0,4.6023498E0,1.6390358E-1,1.5994662E0,5.3380136E0,1.5452673E1,3.9415393E0,3.1252067E0,3.4557502E0,1.2394145E0,7.2878194E-1,1.7276057E0,4.750634E0,2.4843504E0,8.524707E-1,3.604199E0,1.281703E0,2.8519127E0,6.497448E0,3.6832721E0,3.1035116E0,2.4642434E0,3.22284E0,5.470788E0],"split_indices":[1,0,1,1,1,1,0,0,1,1,0,1,0,1,1,0,0,1,0,1,1,0,1,0,0,0,0,0,0,0,1,0,0,0,0,1,1,1,0,0,0,1,0,0,0,0,1,0,0,1,0,0,1,0,1,0,1,0,0,0,0,0,0,0,0,0,0,0,0,1,1,0,1,0,0,1,1,0,1,0,0,0,1,0,0,0,0,0,0,1,0,1,0,0,0,0,0,0,0,0,0,0,0,0,0,0,0,0,0,0,0,0,0,0,0,0,0,0,0,0,0,0,0,0,0,0,0,0,0,0,0,0,0,0,0,0,0,0,0,0,0,0,0,0,0,0,0],"split_type":[0,0,0,0,0,0,0,0,0,0,0,0,0,0,0,0,0,0,0,0,0,0,0,0,0,0,0,0,0,0,0,0,0,0,0,0,0,0,0,0,0,0,0,0,0,0,0,0,0,0,0,0,0,0,0,0,0,0,0,0,0,0,0,0,0,0,0,0,0,0,0,0,0,0,0,0,0,0,0,0,0,0,0,0,0,0,0,0,0,0,0,0,0,0,0,0,0,0,0,0,0,0,0,0,0,0,0,0,0,0,0,0,0,0,0,0,0,0,0,0,0,0,0,0,0,0,0,0,0,0,0,0,0,0,0,0,0,0,0,0,0,0,0,0,0,0,0],"sum_hessian":[5.02E3,1.956E3,3.064E3,3.08E2,1.648E3,2.727E3,3.37E2,8.8E1,2.2E2,9.29E2,7.19E2,2.702E3,2.5E1,9.7E1,2.4E2,8E1,8E0,1.89E2,3.1E1,2.31E2,6.98E2,2.1E1,6.98E2,2.598E3,1.04E2,1.4E1,1.1E1,1.5E1,8.2E1,3E1,2.1E2,1E0,7E0,1.66E2,2.3E1,5E0,2.6E1,1.62E2,6.9E1,9.5E1,6.03E2,6.79E2,1.9E1,1.96E2,2.402E3,4.6E1,5.8E1,5E0,9E0,8E0,3E0,1.9E1,1.1E1,4.1E1,1.69E2,1.52E2,1.4E1,1.4E1,9E0,1E0,4E0,1.6E1,1E1,2E1,1.42E2,5.6E1,1.3E1,3.4E1,6.1E1,1.57E2,4.46E2,6.72E2,7E0,4E0,1.5E1,1.87E2,9E0,6.7E1,2.335E3,3.9E1,7E0,2.2E1,3.6E1,1E0,7E0,2E0,1E0,5E0,1.4E1,8E0,3E0,1E1,3.1E1,1.22E2,4.7E1,4.9E1,1.03E2,1.1E1,3E0,1.1E1,3E0,1.1E1,9E0,7.9E1,6.3E1,4.5E1,1.1E1,2E0,1.1E1,9E0,2.5E1,5.3E1,8E0,3.5E1,1.22E2,1.32E2,3.14E2,8.4E1,5.88E2,4E0,3E0,1E0,3E0,1.68E2,1.9E1,3E0,6E0,6.5E1,2E0,2.21E3,1.25E2,2.8E1,1.1E1,7E0,1.5E1,3E0,3.3E1,1E0,7E0,3E0,7E0,5E0,2.6E1,7.6E1,4.6E1,4.1E1,6E0],"tree_param":{"num_deleted":"0","num_feature":"2","num_nodes":"147","size_leaf_vector":"0"}},{"base_weights":[1.0057328E1,1.1762945E1,8.814968E0,9.560643E0,1.2153554E1,7.143777E0,9.048939E0,7.4158354E0,1.0382749E1,1.2987208E1,1.0550215E1,8.288472E0,6.789649E0,8.794815E0,9.894147E0,8.014772E0,3.4636343E0,7.57388E0,1.1097368E1,1.1643886E1,1.4812745E1,1.9308346E1,1.0070535E1,3.1746385E0,8.65525E0,2.7751439E0,6.973342E0,8.344579E0,9.660501E0,9.189883E0,1.4523045E1,4.4899225E0,8.239897E0,4.758879E0,1.8973408E0,8.10061E0,3.1810262E0,1.0202638E1,1.4116439E1,1.1825775E1,2.1334789E0,3.264327E0,1.5395506E1,1.1161579E1,3.310596E1,1.0719427E1,8.267751E0,8.715631E0,2.0935392E0,1.1016624E0,3.3343701E0,6.4138002E0,8.070156E0,8.453735E0,5.2499914E0,9.332649E0,1.930143E1,9.577753E0,2.4664593E0,2.2604513E1,1.1173337E1,5.1592507E0,1.8777351E0,5.326996E0,8.464722E0,2.2386399E-1,3.5148516E0,4.183298E0,8.728661E0,1.2133288E1,5.5390406E0,1.1464433E1,1.853857E1,1.587348E1,1.1535775E1,5.3523545E0,-1.8500189E0,2.3120584E1,1.4736252E0,1.7577087E1,1.2941885E1,6.029576E0,1.5278893E1,5.512934E0,1.1027965E1,7.7674E0,1.5799473E1,9.680519E-1,3.804943E0,6.501236E0,3.286669E0,8.737112E0,4.5644684E0,1.0353411E1,8.211905E0,2.7249615E0,6.723287E0,6.367855E0,9.564935E0,2.0460447E1,5.527181E0,1.0689619E1,8.42598E0,3.8836653E0,1.3846298E0,1.2273233E1,3.501586E1,2.6165726E1,9.805204E0,1.0893822E-2,5.378723E-1,8.861846E0,1.9669914E0,1.2839318E1,5.1894703E0,-1.2588501E-3,6.2493677E0,1.1754512E1,1.961195E0,2.0511742E1,5.1240897E0,1.0436026E1,2.8597448E1,8.393629E0,1.2278248E1,-1.6760384E0,1.2799757E1,2.0138302E0,-5.2513633E0,2.4074554E-2,4.9905233E0,1.53390045E1,2.3095953E1,1.21938505E1,2.780524E1,9.356163E0,1.6643867E-1,2.5530754E1,8.243101E0,9.946048E0,3.1473982E-1,1.3670659E1,1.056342E1,1.9036057E0,8.123138E0,4.999095E0,6.7154098E0,9.351594E0,6.374133E0,1.0726942E0,4.986672E0,6.8717976E0,1.1382186E1,8.270118E0,2.1526077E0,-5.257664E-1,5.703193E0,1.6885077E0,7.0336967E0,8.03658E0,2.9547558E0,1.5742738E1,9.222406E0,1.4412931E1,2.6974165E1,1.0097563E1,2.4763775E1,2.4927021E1,8.25264E0,5.405727E0,2.775675E0,-5.303046E-1,2.1619358E0,2.3355724E1,6.6129136E0,3.822497E1,4.6714954E0,1.0588169E0,3.4181755E1,1.1440259E1,4.550038E0],"categories":[],"categories_nodes":[],"categories_segments":[],"categories_sizes":[],"default_left":[1,1,1,1,1,1,1,1,1,1,1,1,1,1,1,1,1,1,1,1,1,1,1,0,1,1,1,1,1,1,1,1,1,0,1,1,0,1,1,1,1,1,1,1,0,1,1,0,0,0,1,1,1,1,1,1,1,1,1,1,1,0,0,0,0,1,0,0,1,1,1,1,1,1,1,1,1,0,1,1,1,1,1,1,1,1,0,0,0,1,0,1,1,1,1,1,1,1,1,1,0,1,1,1,1,1,1,1,1,0,0,0,0,0,0,0,0,0,0,0,0,0,0,0,0,0,0,0,0,0,0,0,0,0,0,0,0,0,0,0,0,0,0,0,0,0,0,0,0,0,0,0,0,0,0,0,0,0,0,0,0,0,0,0,0,0,0,0,0,0,0,0,0,0,0,0,0,0,0,0,0],"id":4,"left_children":[1,3,5,7,9,11,13,15,17,19,21,23,25,27,29,31,33,35,37,39,41,43,45,-1,47,49,51,53,55,57,59,61,63,-1,65,67,-1,69,71,73,75,77,79,81,-1,83,85,-1,-1,-1,87,89,91,93,95,97,99,101,103,105,107,-1,-1,-1,-1,109,-1,-1,111,113,115,117,119,121,123,125,127,-1,129,131,133,135,137,139,141,143,-1,-1,-1,145,-1,147,149,151,153,155,157,159,161,163,-1,165,167,169,171,173,175,177,179,-1,-1,-1,-1,-1,-1,-1,-1,-1,-1,-1,-1,-1,-1,-1,-1,-1,-1,-1,-1,-1,-1,-1,-1,-1,-1,-1,-1,-1,-1,-1,-1,-1,-1,-1,-1,-1,-1,-1,-1,-1,-1,-1,-1,-1,-1,-1,-1,-1,-1,-1,-1,-1,-1,-1,-1,-1,-1,-1,-1,-1,-1,-1,-1,-1,-1,-1,-1,-1,-1,-1,-1],"loss_changes":[1.0535781E4,1.7014688E3,1.0727969E3,4.925371E2,2.2569062E3,9.046875E1,4.6026562E2,1.9238184E2,3.7963086E2,2.7065E3,2.401836E3,1.2444971E2,1.8860547E2,6.864375E2,1.7605703E3,2.648584E1,1.9373047E1,8.992407E1,3.4760352E2,1.1527891E3,3.2743516E3,3.1150693E3,5.9922266E2,0E0,1.1468262E1,9.428612E0,1.13328125E2,3.9542188E2,1.9281172E3,1.2985352E3,1.7777236E3,2.5511627E0,3.3706055E0,0E0,2.0868086E1,7.1737305E1,0E0,1.2293369E3,2.4483936E2,6.010156E2,1.8941534E2,8.548447E2,2.2883203E3,3.516062E2,0E0,6.2834766E2,4.8023926E2,0E0,0E0,0E0,7.451866E0,2.8668945E1,1.6353809E2,4.9198438E2,1.5652466E2,3.8466797E2,2.2216797E2,5.2334766E2,3.9084625E1,2.2629697E3,8.715762E2,0E0,0E0,0E0,0E0,3.2851255E-1,0E0,0E0,1.588916E1,4.2852734E2,1.731665E2,5.1377686E1,2.3899365E2,2.6073682E3,1.3596953E3,4.401991E2,1.0257132E2,0E0,1.2222998E2,2.68425E3,2.1625625E3,2.1298938E2,5.8297705E2,5.960185E2,3.515625E2,3.0160547E2,0E0,0E0,0E0,2.3373047E1,0E0,4.4936523E1,1.8238678E1,4.160713E2,3.7689844E2,1.8694556E2,3.3446045E1,2.6103003E2,1.1202305E3,3.5966748E2,0E0,1.749793E3,4.8075195E2,5.2326202E0,2.79393E1,6.6104626E2,6.978379E2,7.6883887E2,3.9475586E2,0E0,0E0,0E0,0E0,0E0,0E0,0E0,0E0,0E0,0E0,0E0,0E0,0E0,0E0,0E0,0E0,0E0,0E0,0E0,0E0,0E0,0E0,0E0,0E0,0E0,0E0,0E0,0E0,0E0,0E0,0E0,0E0,0E0,0E0,0E0,0E0,0E0,0E0,0E0,0E0,0E0,0E0,0E0,0E0,0E0,0E0,0E0,0E0,0E0,0E0,0E0,0E0,0E0,0E0,0E0,0E0,0E0,0E0,0E0,0E0,0E0,0E0,0E0,0E0,0E0,0E0,0E0,0E0,0E0,0E0,0E0,0E0],"parents":[2147483647,0,0,1,1,2,2,3,3,4,4,5,5,6,6,7,7,8,8,9,9,10,10,11,11,12,12,13,13,14,14,15,15,16,16,17,17,18,18,19,19,20,20,21,21,22,22,24,24,25,25,26,26,27,27,28,28,29,29,30,30,31,31,32,32,34,34,35,35,37,37,38,38,39,39,40,40,41,41,42,42,43,43,45,45,46,46,50,50,51,51,52,52,53,53,54,54,55,55,56,56,57,57,58,58,59,59,60,60,65,65,68,68,69,69,70,70,71,71,72,72,73,73,74,74,75,75,76,76,78,78,79,79,80,80,81,81,82,82,83,83,84,84,85,85,89,89,91,91,92,92,93,93,94,94,95,95,96,96,97,97,98,98,99,99,101,101,102,102,103,103,104,104,105,105,106,106,107,107,108,108],"right_children":[2,4,6,8,10,12,14,16,18,20,22,24,26,28,30,32,34,36,38,40,42,44,46,-1,48,50,52,54,56,58,60,62,64,-1,66,68,-1,70,72,74,76,78,80,82,-1,84,86,-1,-1,-1,88,90,92,94,96,98,100,102,104,106,108,-1,-1,-1,-1,110,-1,-1,112,114,116,118,120,122,124,126,128,-1,130,132,134,136,138,140,142,144,-1,-1,-1,146,-1,148,150,152,154,156,158,160,162,164,-1,166,168,170,172,174,176,178,180,-1,-1,-1,-1,-1,-1,-1,-1,-1,-1,-1,-1,-1,-1,-1,-1,-1,-1,-1,-1,-1,-1,-1,-1,-1,-1,-1,-1,-1,-1,-1,-1,-1,-1,-1,-1,-1,-1,-1,-1,-1,-1,-1,-1,-1,-1,-1,-1,-1,-1,-1,-1,-1,-1,-1,-1,-1,-1,-1,-1,-1,-1,-1,-1,-1,-1,-1,-1,-1,-1,-1,-1],"split_conditions":[2.7215E1,6.845E1,7.0575E1,1.625E1,9.995E1,3.2605003E1,3.2985E1,6.68E1,5.29E1,8.655E1,2.0650002E1,4.615E1,3.4550003E1,9.9405E1,8.424E1,5.21E1,1.375E1,2.3650002E1,2.375E1,8.6350006E1,1.445E1,2.01E1,2.605E1,9.5239156E-1,6.945E1,6.78E1,6.6815E1,9.9005005E1,3.0755001E1,8.3485E1,8.529E1,5.005E1,1.205E1,1.4276638E0,1.48E1,4.1050003E1,9.543079E-1,2.145E1,6.4399994E1,1.44E1,2.23E1,8.78E1,2.3150002E1,1.735E1,9.931788E0,2.095E1,2.7195E1,2.6146894E0,6.280618E-1,3.3049873E-1,3.3295E1,6.657E1,7.0119995E1,2.8695E1,2.9895E1,2.7595001E1,3.1535E1,3.4585E1,3.3690002E1,8.472E1,3.2995003E1,1.5477753E0,5.633206E-1,1.5980989E0,2.5394166E0,6.805E1,1.0544555E0,1.2549895E0,5.265E1,6.755E1,2.175E1,6.38E1,2.605E1,1.3700001E1,1.795E1,1.625E1,8.645E1,6.936176E0,9.585E1,9.445E1,2.7155E1,1.45E1,1.95E1,2.0849998E1,2.205E1,2.6150002E1,4.739842E0,2.9041559E-1,1.141483E0,5.7925003E1,9.860007E-1,3.647E1,3.539E1,2.755E1,3.2925E1,9.9274994E1,9.9085E1,2.7415E1,2.7705E1,3.108E1,1.6581544E0,3.457E1,7.0585E1,3.3155E1,3.378E1,8.447E1,3.4625E1,8.6649994E1,3.366E1,3.2681467E-3,1.613617E-1,2.6585538E0,5.900974E-1,3.8517957E0,1.5568411E0,-3.7765506E-4,1.8748103E0,3.5263536E0,5.883585E-1,6.153523E0,1.537227E0,3.1308079E0,8.579235E0,2.5180888E0,3.6834745E0,-5.0281155E-1,3.8399272E0,6.041491E-1,-1.575409E0,7.2223665E-3,1.4971571E0,4.6017017E0,6.9287863E0,3.6581552E0,8.341573E0,2.806849E0,4.9931604E-2,7.6592264E0,2.4729304E0,2.9838145E0,9.442195E-2,4.1011977E0,3.1690261E0,5.7108176E-1,2.4369416E0,1.4997286E0,2.014623E0,2.8054783E0,1.91224E0,3.2180828E-1,1.4960016E0,2.0615394E0,3.414656E0,2.4810355E0,6.4578235E-1,-1.5772992E-1,1.710958E0,5.0655234E-1,2.110109E0,2.410974E0,8.8642675E-1,4.7228217E0,2.766722E0,4.3238797E0,8.09225E0,3.029269E0,7.429133E0,7.4781065E0,2.475792E0,1.6217182E0,8.327026E-1,-1.5909138E-1,6.485808E-1,7.0067177E0,1.9838742E0,1.1467492E1,1.4014487E0,3.1764507E-1,1.0254527E1,3.432078E0,1.3650115E0],"split_indices":[1,0,0,1,0,1,1,0,0,0,1,0,1,0,0,0,1,1,1,0,1,1,1,0,0,0,0,0,1,0,0,0,1,0,1,0,0,1,0,1,1,0,1,1,0,1,1,0,0,0,1,0,0,1,1,1,1,1,1,0,1,0,0,0,0,0,0,0,0,0,1,0,1,1,1,1,0,0,0,0,1,1,1,1,1,1,0,0,0,0,0,1,1,1,1,0,0,1,1,1,0,1,0,1,1,0,1,0,1,0,0,0,0,0,0,0,0,0,0,0,0,0,0,0,0,0,0,0,0,0,0,0,0,0,0,0,0,0,0,0,0,0,0,0,0,0,0,0,0,0,0,0,0,0,0,0,0,0,0,0,0,0,0,0,0,0,0,0,0,0,0,0,0,0,0,0,0,0,0,0,0],"split_type":[0,0,0,0,0,0,0,0,0,0,0,0,0,0,0,0,0,0,0,0,0,0,0,0,0,0,0,0,0,0,0,0,0,0,0,0,0,0,0,0,0,0,0,0,0,0,0,0,0,0,0,0,0,0,0,0,0,0,0,0,0,0,0,0,0,0,0,0,0,0,0,0,0,0,0,0,0,0,0,0,0,0,0,0,0,0,0,0,0,0,0,0,0,0,0,0,0,0,0,0,0,0,0,0,0,0,0,0,0,0,0,0,0,0,0,0,0,0,0,0,0,0,0,0,0,0,0,0,0,0,0,0,0,0,0,0,0,0,0,0,0,0,0,0,0,0,0,0,0,0,0,0,0,0,0,0,0,0,0,0,0,0,0,0,0,0,0,0,0,0,0,0,0,0,0,0,0,0,0,0,0],"sum_hessian":[5.02E3,2.112E3,2.908E3,3.22E2,1.79E3,3.61E2,2.547E3,9.2E1,2.3E2,1.173E3,6.17E2,8E1,2.81E2,1.967E3,5.8E2,7.9E1,1.3E1,4.9E1,1.81E2,6.8E2,4.93E2,3E1,5.87E2,6E0,7.4E1,1.3E1,2.68E2,1.301E3,6.66E2,5.06E2,7.4E1,6E0,7.3E1,6E0,7E0,4.3E1,6E0,1.43E2,3.8E1,6.67E2,1.3E1,2.4E1,4.69E2,2E1,1E1,4.28E2,1.59E2,7.3E1,1E0,4E0,9E0,1.82E2,8.6E1,1.255E3,4.6E1,6.46E2,2E1,4.78E2,2.8E1,2E1,5.4E1,4E0,2E0,7E0,6.6E1,4E0,3E0,7E0,3.6E1,1E2,4.3E1,2.6E1,1.2E1,4.1E1,6.26E2,7E0,6E0,1E0,2.3E1,2.45E2,2.24E2,1E1,1E1,2.5E1,4.03E2,1.51E2,8E0,2E0,7E0,1.76E2,6E0,7.1E1,1.5E1,1.37E2,1.118E3,1.8E1,2.8E1,4.9E1,5.97E2,1.8E1,2E0,2.39E2,2.39E2,1.1E1,1.7E1,1.2E1,8E0,3E0,5.1E1,3E0,1E0,3.5E1,1E0,9E1,1E1,5E0,3.8E1,2.5E1,1E0,1E1,2E0,3E1,1.1E1,1.22E2,5.04E2,4E0,3E0,3E0,3E0,1.7E1,6E0,1.77E2,6.8E1,2.15E2,9E0,6E0,4E0,3E0,7E0,1.3E1,1.2E1,5.6E1,3.47E2,9E0,1.42E2,2.5E1,1.51E2,5.4E1,1.7E1,2E0,1.3E1,3.3E1,1.04E2,1.107E3,1.1E1,9E0,9E0,2E0,2.6E1,3.2E1,1.7E1,2.9E1,5.68E2,1.1E1,7E0,2.31E2,8E0,1E0,2.38E2,3E0,8E0,5E0,1.2E1,3E0,9E0,7E0,1E0,1E0,2E0,3.8E1,1.3E1],"tree_param":{"num_deleted":"0","num_feature":"2","num_nodes":"181","size_leaf_vector":"0"}},{"base_weights":[7.088311E0,8.361663E0,6.252318E0,6.698675E0,8.681633E0,5.179143E0,6.44055E0,6.3418756E0,9.565935E0,1.0105805E1,8.15301E0,5.312526E0,1.4065237E0,3.1899529E1,6.418292E0,6.6871324E0,3.634776E-1,1.650172E1,5.531355E0,8.351548E0,1.341068E1,2.7804291E0,8.244943E0,5.2237167E0,2.2238777E1,8.188019E0,-4.3543626E-2,3.1037934E0,6.4640293E0,6.1276083E0,8.558773E0,1.9626025E0,-2.2013583E0,2.6392841E1,2.2117927E0,6.8354216E0,-2.371818E0,7.4646244E0,1.7596266E1,1.7310347E1,1.1728898E1,7.7381334E0,-6.052685E-1,8.752544E0,7.5198407E0,7.3089848E0,5.0754614E0,-2.994068E0,1.7311252E0,-4.350268E0,4.6868463E0,9.028993E0,6.382358E0,6.705014E0,-2.1207348E-1,2.7235321E1,7.7935753E0,-2.877351E0,3.3578534E0,-2.8502474E0,-1.0021296E0,7.4410615E0,-5.49783E0,1.0779045E0,8.207432E0,-4.86243E0,2.5500088E0,7.804602E0,-2.1552486E0,2.022491E1,5.9014E0,2.2394583E1,3.4637384E0,5.9588027E0,1.7822042E1,-2.2664039E-1,1.7750761E1,-5.71616E0,2.275816E-1,8.48363E0,1.4084223E1,9.641414E0,7.2305403E0,2.7994614E0,9.060391E0,5.16722E0,3.0048656E0,-3.2624478E0,-8.2608414E-1,2.2338276E0,-1.8645604E-1,3.301878E0,-6.175938E0,1.4391686E1,1.782017E0,6.7923603E0,1.3887652E1,6.174461E0,7.210247E0,5.7959247E0,8.699321E0,5.5899935E0,-2.6835256E0,-8.001263E0,8.196899E0,7.9324776E-1,8.222649E0,1.7001629E1,-1.4130039E0,1.6746078E0,-6.5445423E-1,1.8376217E1,4.4472346E0,9.748221E0,5.946509E0,-3.3950627E0,4.501539E0,1.2189645E1,3.3406174E1,-1.0015741E1,1.1087976E1,1.5674801E1,2.7401754E1,-3.2615733E0,6.815163E0,1.49818125E1,2.164756E0,2.1357595E1,7.441469E0,2.9708495E0,-8.107045E0,2.1345121E1,3.483841E0,8.6377325E0,2.4475157E0,1.9357347E1,4.888323E0,8.858311E0,1.3330634E1,-1.1033398E0,7.564918E0,6.792474E0,1.132972E1,5.0291133E0,1.7444424E1,2.9631546E-1,5.683784E0,1.0901904E0,2.7019718E0,3.970375E-1,-6.767216E-1,5.5082564E0,1.6843407E1,4.311083E0,-2.4426897E0,8.465047E0,-1.4139658E0,2.0268676E0,1.706971E1,6.5233177E-1,6.2305336E0,1.7176584E1,6.944962E0],"categories":[],"categories_nodes":[],"categories_segments":[],"categories_sizes":[],"default_left":[1,1,1,1,1,1,1,1,1,1,1,1,1,0,1,1,1,1,1,1,1,1,1,1,0,0,1,1,1,1,1,1,1,0,1,1,1,1,1,1,1,1,1,1,1,1,1,1,1,1,1,1,1,1,1,0,1,0,1,0,0,1,0,1,1,0,0,1,1,1,1,1,1,1,1,1,1,0,0,1,1,1,1,0,1,1,1,0,0,1,1,0,0,1,1,1,1,1,1,0,0,0,0,0,0,0,0,0,0,0,0,0,0,0,0,0,0,0,0,0,0,0,0,0,0,0,0,0,0,0,0,0,0,0,0,0,0,0,0,0,0,0,0,0,0,0,0,0,0,0,0,0,0,0,0,0,0,0,0,0,0,0,0],"id":5,"left_children":[1,3,5,7,9,11,13,15,17,19,21,23,25,-1,27,29,31,33,35,37,39,41,43,45,-1,-1,47,49,51,53,55,57,59,-1,61,63,65,67,69,71,73,75,77,79,81,83,85,87,89,91,93,95,97,99,101,-1,103,-1,105,-1,-1,107,-1,109,111,-1,-1,113,115,117,119,121,123,125,127,129,131,-1,-1,133,135,137,139,-1,141,143,145,-1,-1,147,149,-1,-1,151,153,155,157,159,161,-1,-1,-1,-1,-1,-1,-1,-1,-1,-1,-1,-1,-1,-1,-1,-1,-1,-1,-1,-1,-1,-1,-1,-1,-1,-1,-1,-1,-1,-1,-1,-1,-1,-1,-1,-1,-1,-1,-1,-1,-1,-1,-1,-1,-1,-1,-1,-1,-1,-1,-1,-1,-1,-1,-1,-1,-1,-1,-1,-1,-1,-1,-1,-1],"loss_changes":[5.2926406E3,9.99125E2,5.797344E2,2.718213E2,1.1696016E3,2.2299512E2,1.2561094E3,6.002822E2,8.601443E2,2.4737266E3,5.786719E2,5.48251E2,1.6752814E2,0E0,3.7059375E2,2.3658984E2,7.404577E1,1.6377451E3,2.5325653E2,2.2792617E3,8.004004E2,3.7396E2,3.7475E2,9.923926E1,0E0,0E0,8.372616E1,4.5699536E2,4.7467188E2,7.92105E2,6.595054E2,8.394417E1,2.590847E0,0E0,2.8280383E2,1.4914062E2,6.143268E1,8.998672E2,6.491865E2,3.0200068E3,3.7611865E3,7.217579E2,6.0893387E1,8.8128516E2,2.3717383E2,1.8788208E2,6.332129E1,7.9600525E-1,1.0056238E1,1.1818428E2,8.482717E2,7.3156445E2,3.7992188E2,3.085537E2,2.8745197E2,0E0,4.4781177E2,0E0,1.0576392E2,0E0,0E0,3.6262292E2,0E0,6.2644744E0,5.3006287E2,0E0,0E0,8.8461426E2,9.781481E1,1.7110894E3,6.063871E2,6.4718945E2,3.1524005E2,1.9531238E3,1.7862246E3,1.752699E2,1.3075879E2,0E0,0E0,5.9928516E2,1.4570908E3,4.6588867E1,1.245625E3,0E0,2.0829468E1,5.8371387E2,1.434355E2,0E0,0E0,1.337429E0,1.1268842E0,0E0,0E0,5.9680054E1,2.7764465E2,7.532063E2,8.334614E2,6.0840625E2,1.1735859E3,0E0,0E0,0E0,0E0,0E0,0E0,0E0,0E0,0E0,0E0,0E0,0E0,0E0,0E0,0E0,0E0,0E0,0E0,0E0,0E0,0E0,0E0,0E0,0E0,0E0,0E0,0E0,0E0,0E0,0E0,0E0,0E0,0E0,0E0,0E0,0E0,0E0,0E0,0E0,0E0,0E0,0E0,0E0,0E0,0E0,0E0,0E0,0E0,0E0,0E0,0E0,0E0,0E0,0E0,0E0,0E0,0E0,0E0,0E0,0E0,0E0,0E0,0E0,0E0],"parents":[2147483647,0,0,1,1,2,2,3,3,4,4,5,5,6,6,7,7,8,8,9,9,10,10,11,11,12,12,14,14,15,15,16,16,17,17,18,18,19,19,20,20,21,21,22,22,23,23,26,26,27,27,28,28,29,29,30,30,31,31,32,32,34,34,35,35,36,36,37,37,38,38,39,39,40,40,41,41,42,42,43,43,44,44,45,45,46,46,47,47,48,48,49,49,50,50,51,51,52,52,53,53,54,54,56,56,58,58,61,61,63,63,64,64,67,67,68,68,69,69,70,70,71,71,72,72,73,73,74,74,75,75,76,76,79,79,80,80,81,81,82,82,84,84,85,85,86,86,89,89,90,90,93,93,94,94,95,95,96,96,97,97,98,98],"right_children":[2,4,6,8,10,12,14,16,18,20,22,24,26,-1,28,30,32,34,36,38,40,42,44,46,-1,-1,48,50,52,54,56,58,60,-1,62,64,66,68,70,72,74,76,78,80,82,84,86,88,90,92,94,96,98,100,102,-1,104,-1,106,-1,-1,108,-1,110,112,-1,-1,114,116,118,120,122,124,126,128,130,132,-1,-1,134,136,138,140,-1,142,144,146,-1,-1,148,150,-1,-1,152,154,156,158,160,162,-1,-1,-1,-1,-1,-1,-1,-1,-1,-1,-1,-1,-1,-1,-1,-1,-1,-1,-1,-1,-1,-1,-1,-1,-1,-1,-1,-1,-1,-1,-1,-1,-1,-1,-1,-1,-1,-1,-1,-1,-1,-1,-1,-1,-1,-1,-1,-1,-1,-1,-1,-1,-1,-1,-1,-1,-1,-1,-1,-1,-1,-1,-1,-1],"split_conditions":[2.681E1,1.695E1,7.2595E1,9.375E1,2.0849998E1,7.231E1,7.2619995E1,9.125E1,9.5149994E1,8.63E1,2.095E1,7.224E1,2.78E1,9.569859E0,2.6994999E1,8.3E1,1.545E1,1.585E1,1.54E1,2.055E1,1.845E1,9.29E1,9.995E1,2.77E1,6.6716332E0,2.4564056E0,3.5205E1,9.32E1,2.7215E1,8.105E1,8.3149994E1,9.165E1,9.3399994E1,7.917853E0,9.405E1,9.665E1,9.87E1,8.465E1,8.09E1,9.615E1,9.5899994E1,8.705E1,9.695E1,9.94E1,2.205E1,5.14E1,7.1585E1,7.2475E1,7.257E1,8.52E1,9.995E1,2.7195E1,3.311E1,7.255E1,1.44E1,8.170597E0,8.325E1,-8.632054E-1,1.5049999E1,-8.550742E-1,-3.0063888E-1,1.605E1,-1.6493491E0,9.63E1,9.87E1,-1.458729E0,7.6500267E-1,1.875E1,2.0099998E1,7.81E1,8.31E1,9.145E1,9.775E1,8.975E1,2.0650002E1,8.05E1,9.1E1,-1.714848E0,6.827448E-2,9.87E1,2.545E1,2.195E1,2.2150002E1,8.3983845E-1,2.7349998E1,7.154E1,3.5195E1,-9.787344E-1,-2.4782525E-1,7.242E1,3.6260002E1,9.9056345E-1,-1.8527815E0,9.565E1,2.691E1,2.7105E1,8.675E1,7.482E1,3.3175E1,1.7387775E0,2.6097963E0,1.6769981E0,-8.050577E-1,-2.400379E0,2.45907E0,2.3797433E-1,2.4667947E0,5.1004887E0,-4.239012E-1,5.0238234E-1,-1.9633628E-1,5.512865E0,1.3341705E0,2.9244666E0,1.7839527E0,-1.0185188E0,1.3504618E0,3.6568935E0,1.00218525E1,-3.0047226E0,3.3263931E0,4.7024403E0,8.220527E0,-9.7847205E-1,2.044549E0,4.494544E0,6.494268E-1,6.407279E0,2.232441E0,8.912549E-1,-2.4321136E0,6.403537E0,1.0451523E0,2.5913198E0,7.342547E-1,5.8072042E0,1.466497E0,2.6574934E0,3.9991903E0,-3.3100194E-1,2.2694755E0,2.0377421E0,3.398916E0,1.5087341E0,5.2333274E0,8.889464E-2,1.7051352E0,3.2705712E-1,8.105916E-1,1.19111255E-1,-2.0301647E-1,1.652477E0,5.0530224E0,1.293325E0,-7.328069E-1,2.539514E0,-4.2418978E-1,6.080603E-1,5.120913E0,1.9569954E-1,1.8691602E0,5.1529756E0,2.0834887E0],"split_indices":[1,1,0,0,1,0,0,0,0,0,1,0,1,0,1,0,1,1,1,1,1,0,0,1,0,0,1,0,1,0,0,0,0,0,0,0,0,0,0,0,0,0,0,0,1,0,0,0,0,0,0,1,1,0,1,0,0,0,1,0,0,1,0,0,0,0,0,1,1,0,0,0,0,0,1,0,0,0,0,0,1,1,1,0,1,0,1,0,0,0,1,0,0,0,1,1,0,0,1,0,0,0,0,0,0,0,0,0,0,0,0,0,0,0,0,0,0,0,0,0,0,0,0,0,0,0,0,0,0,0,0,0,0,0,0,0,0,0,0,0,0,0,0,0,0,0,0,0,0,0,0,0,0,0,0,0,0,0,0,0,0,0,0],"split_type":[0,0,0,0,0,0,0,0,0,0,0,0,0,0,0,0,0,0,0,0,0,0,0,0,0,0,0,0,0,0,0,0,0,0,0,0,0,0,0,0,0,0,0,0,0,0,0,0,0,0,0,0,0,0,0,0,0,0,0,0,0,0,0,0,0,0,0,0,0,0,0,0,0,0,0,0,0,0,0,0,0,0,0,0,0,0,0,0,0,0,0,0,0,0,0,0,0,0,0,0,0,0,0,0,0,0,0,0,0,0,0,0,0,0,0,0,0,0,0,0,0,0,0,0,0,0,0,0,0,0,0,0,0,0,0,0,0,0,0,0,0,0,0,0,0,0,0,0,0,0,0,0,0,0,0,0,0,0,0,0,0,0,0],"sum_hessian":[5.02E3,1.986E3,3.034E3,3.24E2,1.662E3,4.57E2,2.577E3,2.91E2,3.3E1,4.45E2,1.217E3,4.41E2,1.6E1,1E0,2.576E3,2.75E2,1.6E1,1.1E1,2.2E1,2.93E2,1.52E2,2.1E1,1.196E3,4.4E2,1E0,2E0,1.4E1,3.6E1,2.54E3,2.15E2,6E1,1E1,6E0,6E0,5E0,1.9E1,3E0,2.69E2,2.4E1,4.3E1,1.09E2,8E0,1.3E1,6.97E2,4.99E2,2.6E1,4.14E2,5E0,9E0,6E0,3E1,7.5E1,2.465E3,1.97E2,1.8E1,1E0,5.9E1,2E0,8E0,3E0,3E0,3E0,2E0,4E0,1.5E1,2E0,1E0,2.6E2,9E0,1.9E1,5E0,3.1E1,1.2E1,5.7E1,5.2E1,5E0,3E0,1E0,1.2E1,6.66E2,3.1E1,5.6E1,4.43E2,8E0,1.8E1,3.95E2,1.9E1,4E0,1E0,7E0,2E0,1E0,5E0,6E0,2.4E1,5.3E1,2.2E1,1.977E3,4.88E2,1.38E2,5.9E1,5E0,1.3E1,1E0,5.8E1,6E0,2E0,1E0,2E0,3E0,1E0,3E0,1.2E1,1.25E2,1.35E2,8E0,1E0,1.3E1,6E0,1E0,4E0,1.5E1,1.6E1,4E0,8E0,1.6E1,4.1E1,3.8E1,1.4E1,4E0,1E0,2E0,1E0,6.49E2,1.7E1,1.9E1,1.2E1,4.9E1,7E0,1.7E1,4.26E2,1.1E1,7E0,3.92E2,3E0,1E1,9E0,3E0,4E0,1E0,1E0,2E0,4E0,1.5E1,9E0,4.4E1,9E0,5E0,1.7E1,2E1,1.957E3,1.1E1,4.77E2],"tree_param":{"num_deleted":"0","num_feature":"2","num_nodes":"163","size_leaf_vector":"0"}},{"base_weights":[4.9934244E0,5.8631454E0,4.3599715E0,4.560205E0,6.0897284E0,4.4664927E0,3.2712953E0,4.183602E0,6.801772E0,6.716197E0,5.405455E0,-1.3066494E0,4.4866843E0,3.459851E0,1.6915181E0,4.5690446E0,-2.1804014E-2,4.955791E0,1.1311405E1,5.1760178E0,7.3217535E0,1.11823435E1,5.0519342E0,7.39349E-1,-2.793873E0,5.0190487E0,4.2992344E0,3.2837625E0,1.0867958E1,4.722101E-1,4.4841022E0,3.9734406E0,7.005174E0,-1.7826428E0,2.6216347E0,1.4554172E0,6.017694E0,1.2596301E1,-1.4112263E0,4.677616E0,7.8092184E0,1.2536295E1,6.7675657E0,1.2226893E1,3.1683483E0,-7.5946605E-1,5.2593946E0,-1.12186E0,4.0920925E0,4.9472585E0,1.2270895E1,3.9807954E-1,4.382463E0,2.6278634E0,3.6717288E0,-1.0637531E0,1.9177017E1,-5.3536177E-1,9.781011E-1,-4.363079E-1,8.507692E0,4.2151866E0,9.7385995E-2,9.759665E0,8.862145E-1,-2.7095222E0,-8.636653E-1,4.4064255E0,1.227235E0,1.8933458E0,-1.0240059E0,1.01326E1,5.2193284E0,1.6355577E1,4.814054E0,5.2812862E0,1.4349507E0,1.3232049E1,1.4536444E0,1.5005631E1,3.634042E0,5.3948617E0,7.243774E0,9.989951E0,2.7229668E1,5.054386E-1,6.550415E0,7.278367E0,-7.7451034E0,5.092766E0,1.0829613E1,4.995198E0,3.1992507E-1,1.4067917E0,1.735125E1,6.039366E0,-1.9072106E-1,3.5433347E0,4.6105323E0,9.307497E-1,2.8309064E0,3.7197244E0,-1.5478153E0,3.0718517E-1,-1.9028149E0,-5.5347126E-2,-1.3169371E0,2.7235882E0,-1.6700134E-1,-7.7028847E-1,4.4980717E-1,3.749689E0,8.506682E0,1.7938547E0,-1.934743E-1,1.1262266E1,2.5696766E0,-3.219878E0,5.3947916E0,-1.1732737E0,-3.089367E0,-2.2530777E0,6.9848025E-1,-1.8976631E0,2.856727E0,9.71635E-1,4.172661E0,1.0578022E0,6.316541E0,6.053171E0,-7.120705E-2,8.879561E0,4.2074127E0,-1.61773E0,3.589857E0,8.157425E-1,1.5945909E1,4.0839024E0,-1.0088364E1,1.2273884E1,2.5782965E1,-4.7981443E0,7.1364865E0,5.9827385E0,-3.1120782E0,8.1264105E0,6.007121E0,1.2769401E1,7.261767E0,3.5012722E0,3.228645E1,-1.7291098E0,1.4963531E0,1.0849205E1,2.1576428E0,-4.204321E0,-8.575005E0,2.046668E0,5.311438E0,1.4645566E1,4.785913E0,4.863667E0,8.822262E0,3.0285406E0,-1.9109523E0,-1.5170898E0,3.6272774E0,-2.8908083E0,8.400265E-1,2.7893438E0,4.5371566E0,4.2503166E0,5.6723123E0,-2.6211676E-1,1.2249552E0,3.234989E0,2.1008756E0,1.151317E0,3.8253477E0,-9.4652414E-1,1.151338E0,-1.9091053E0,5.071628E-1,-1.8519211E-1,-9.035899E-1],"categories":[],"categories_nodes":[],"categories_segments":[],"categories_sizes":[],"default_left":[1,1,1,1,1,1,1,1,1,1,1,1,1,1,1,1,1,1,1,1,1,1,1,1,0,1,1,1,1,1,1,1,1,1,1,1,1,1,0,1,1,1,1,1,1,1,1,0,0,1,1,1,1,1,1,1,0,1,1,1,0,1,1,1,1,1,1,0,1,1,0,0,1,0,1,1,1,1,1,1,1,1,1,1,1,1,0,1,1,1,1,1,1,1,0,0,1,1,1,1,1,1,0,0,0,1,0,0,1,1,0,0,0,0,0,0,0,0,0,0,0,0,0,0,0,0,0,0,0,0,0,0,0,0,0,0,0,0,0,0,0,0,0,0,0,0,0,0,0,0,0,0,0,0,0,0,0,0,0,0,0,0,0,0,0,0,0,0,0,0,0,0,0,0,0,0,0,0,0,0,0,0,0,0,0],"id":6,"left_children":[1,3,5,7,9,11,13,15,17,19,21,23,25,27,29,31,33,35,37,39,41,43,45,47,-1,49,51,53,55,57,59,61,63,65,67,69,71,73,-1,75,77,79,81,83,85,87,89,-1,-1,91,93,95,97,99,101,103,-1,105,107,109,-1,111,113,115,117,119,121,-1,123,125,-1,-1,127,-1,129,131,133,135,137,139,141,143,145,147,149,151,-1,153,155,157,159,161,163,165,-1,-1,167,169,171,173,175,177,-1,-1,-1,179,-1,-1,181,183,-1,-1,-1,-1,-1,-1,-1,-1,-1,-1,-1,-1,-1,-1,-1,-1,-1,-1,-1,-1,-1,-1,-1,-1,-1,-1,-1,-1,-1,-1,-1,-1,-1,-1,-1,-1,-1,-1,-1,-1,-1,-1,-1,-1,-1,-1,-1,-1,-1,-1,-1,-1,-1,-1,-1,-1,-1,-1,-1,-1,-1,-1,-1,-1,-1,-1,-1,-1,-1,-1,-1,-1,-1,-1,-1],"loss_changes":[2.7406484E3,5.9603906E2,3.2273438E2,2.3914941E2,7.3402344E2,3.1442188E2,7.248901E1,4.442378E2,3.102296E2,8.3321484E2,1.7080117E3,3.249422E1,2.4167188E2,2.6956152E2,1.0003316E2,3.363589E2,1.163855E2,1.139046E2,2.1394336E2,3.1387988E2,1.8455664E3,3.7144092E2,9.87791E2,3.579154E1,0E0,2.9383008E2,6.339922E2,4.8878418E1,5.1610596E2,1.1737511E1,1.8189137E2,1.9074194E2,8.003723E2,1.0436604E1,1.94794E1,1.171109E1,2.9244629E1,2.430752E2,0E0,4.3677393E2,1.3938386E3,1.330376E3,3.570586E2,1.1710718E3,5.973214E1,1.6847039E3,6.762363E2,0E0,0E0,1.4835938E2,3.0675128E2,1.4065874E2,3.5053906E2,2.8033325E1,4.1330566E1,4.0354223E0,0E0,2.928452E0,3.0436268E1,1.8262074E0,0E0,3.5165723E2,6.761725E0,3.275813E2,3.1357272E2,4.600792E-1,2.110791E1,0E0,4.1065075E1,1.2752649E1,0E0,0E0,9.8338196E1,0E0,3.0698082E1,7.0068164E2,2.4920236E2,7.2830664E2,6.48369E2,1.1261494E3,4.772409E2,8.187832E2,4.390918E2,2.0300293E2,4.8690283E2,1.3658591E1,0E0,2.3258514E2,1.0963928E1,5.000254E2,4.3728198E2,2.938496E2,5.4128113E1,2.4980215E1,0E0,0E0,1.1096958E2,2.9756787E2,5.51125E2,4.181508E0,1.6508118E1,3.38468E1,0E0,0E0,0E0,7.5419893E0,0E0,0E0,1.2712868E1,1.4463902E-1,0E0,0E0,0E0,0E0,0E0,0E0,0E0,0E0,0E0,0E0,0E0,0E0,0E0,0E0,0E0,0E0,0E0,0E0,0E0,0E0,0E0,0E0,0E0,0E0,0E0,0E0,0E0,0E0,0E0,0E0,0E0,0E0,0E0,0E0,0E0,0E0,0E0,0E0,0E0,0E0,0E0,0E0,0E0,0E0,0E0,0E0,0E0,0E0,0E0,0E0,0E0,0E0,0E0,0E0,0E0,0E0,0E0,0E0,0E0,0E0,0E0,0E0,0E0,0E0,0E0,0E0,0E0,0E0,0E0,0E0,0E0,0E0,0E0,0E0,0E0],"parents":[2147483647,0,0,1,1,2,2,3,3,4,4,5,5,6,6,7,7,8,8,9,9,10,10,11,11,12,12,13,13,14,14,15,15,16,16,17,17,18,18,19,19,20,20,21,21,22,22,23,23,25,25,26,26,27,27,28,28,29,29,30,30,31,31,32,32,33,33,34,34,35,35,36,36,37,37,39,39,40,40,41,41,42,42,43,43,44,44,45,45,46,46,49,49,50,50,51,51,52,52,53,53,54,54,55,55,57,57,58,58,59,59,61,61,62,62,63,63,64,64,65,65,66,66,68,68,69,69,72,72,74,74,75,75,76,76,77,77,78,78,79,79,80,80,81,81,82,82,83,83,84,84,85,85,87,87,88,88,89,89,90,90,91,91,92,92,93,93,96,96,97,97,98,98,99,99,100,100,101,101,105,105,108,108,109,109],"right_children":[2,4,6,8,10,12,14,16,18,20,22,24,26,28,30,32,34,36,38,40,42,44,46,48,-1,50,52,54,56,58,60,62,64,66,68,70,72,74,-1,76,78,80,82,84,86,88,90,-1,-1,92,94,96,98,100,102,104,-1,106,108,110,-1,112,114,116,118,120,122,-1,124,126,-1,-1,128,-1,130,132,134,136,138,140,142,144,146,148,150,152,-1,154,156,158,160,162,164,166,-1,-1,168,170,172,174,176,178,-1,-1,-1,180,-1,-1,182,184,-1,-1,-1,-1,-1,-1,-1,-1,-1,-1,-1,-1,-1,-1,-1,-1,-1,-1,-1,-1,-1,-1,-1,-1,-1,-1,-1,-1,-1,-1,-1,-1,-1,-1,-1,-1,-1,-1,-1,-1,-1,-1,-1,-1,-1,-1,-1,-1,-1,-1,-1,-1,-1,-1,-1,-1,-1,-1,-1,-1,-1,-1,-1,-1,-1,-1,-1,-1,-1,-1,-1,-1,-1,-1,-1],"split_conditions":[2.7215E1,6.825E1,3.592E1,2.415E1,2.3349998E1,2.729E1,7.157E1,2.245E1,6.4399994E1,1.795E1,7.455E1,2.725E1,2.9175E1,7.132E1,7.517E1,2.005E1,6.65E1,5.615E1,6.805E1,9.375E1,1.855E1,2.6849998E1,7.72E1,2.7235E1,-8.3816195E-1,2.9134998E1,2.9295E1,6.262E1,3.652E1,7.284E1,3.6055E1,6.755E1,6.5649994E1,2.3150002E1,6.735E1,5.5949997E1,5.7300003E1,2.57E1,-4.233679E-1,8.9350006E1,9.75E1,9.245E1,8.01E1,2.6150002E1,2.7150002E1,2.505E1,2.7195E1,-3.36558E-1,1.2276278E0,2.9105E1,9.833E1,8.7255005E1,3.0435001E1,3.7015E1,7.1235E1,7.1465E1,5.753105E0,7.2485E1,7.333E1,7.7345E1,2.5523078E0,6.575E1,1.2549999E1,2.19E1,2.175E1,2.275E1,6.245E1,1.3219277E0,6.775E1,5.41E1,-3.0720177E-1,3.0397801E0,5.84E1,4.9066734E0,6.685E1,1.425E1,1.475E1,1.435E1,1.67E1,9.145E1,9.485E1,7.9350006E1,9.995E1,2.445E1,6.95E1,7.08E1,1.9651246E0,7.5649994E1,7.495E1,2.3650002E1,9.935E1,2.908E1,9.6615005E1,9.457E1,5.205375E0,1.8118098E0,9.7905E1,9.945E1,9.2285E1,3.6425E1,3.8184998E1,3.5955E1,-4.6434462E-1,9.215555E-2,-5.708445E-1,7.2115E1,-3.9508113E-1,8.170765E-1,7.3655E1,7.5455E1,1.3494216E-1,1.1249068E0,2.5520048E0,5.3815645E-1,-5.804229E-2,3.37868E0,7.7090305E-1,-9.659634E-1,1.6184375E0,-3.5198212E-1,-9.268101E-1,-6.7592335E-1,2.0954408E-1,-5.69299E-1,8.570181E-1,2.914905E-1,1.2517983E0,3.1734067E-1,1.8949624E0,1.8159515E0,-2.1362115E-2,2.6638684E0,1.2622238E0,-4.8531902E-1,1.0769572E0,2.4472275E-1,4.783773E0,1.2251707E0,-3.0265093E0,3.6821654E0,7.7348895E0,-1.4394433E0,2.1409461E0,1.7948216E0,-9.336235E-1,2.4379232E0,1.8021364E0,3.8308203E0,2.1785302E0,1.0503817E0,9.685935E0,-5.1873296E-1,4.4890597E-1,3.2547617E0,6.4729285E-1,-1.2612963E0,-2.5725014E0,6.1400044E-1,1.5934315E0,4.39367E0,1.435774E0,1.4591001E0,2.6466787E0,9.0856224E-1,-5.732857E-1,-4.5512697E-1,1.0881833E0,-8.672425E-1,2.5200796E-1,8.368032E-1,1.361147E0,1.275095E0,1.7016938E0,-7.863503E-2,3.6748657E-1,9.704967E-1,6.3026273E-1,3.4539512E-1,1.1476043E0,-2.8395724E-1,3.454014E-1,-5.727316E-1,1.5214884E-1,-5.5557635E-2,-2.7107698E-1],"split_indices":[1,0,1,1,1,1,0,1,0,1,0,1,1,0,0,1,0,0,0,0,1,1,0,1,0,1,1,0,1,0,1,0,0,1,0,0,0,1,0,0,0,0,0,1,1,1,1,0,0,1,0,0,1,1,0,0,0,0,0,0,0,0,1,1,1,1,0,0,0,0,0,0,0,0,0,1,1,1,1,0,0,0,0,1,0,0,0,0,0,1,0,1,0,0,0,0,0,0,0,1,1,1,0,0,0,0,0,0,0,0,0,0,0,0,0,0,0,0,0,0,0,0,0,0,0,0,0,0,0,0,0,0,0,0,0,0,0,0,0,0,0,0,0,0,0,0,0,0,0,0,0,0,0,0,0,0,0,0,0,0,0,0,0,0,0,0,0,0,0,0,0,0,0,0,0,0,0,0,0,0,0,0,0,0,0],"split_type":[0,0,0,0,0,0,0,0,0,0,0,0,0,0,0,0,0,0,0,0,0,0,0,0,0,0,0,0,0,0,0,0,0,0,0,0,0,0,0,0,0,0,0,0,0,0,0,0,0,0,0,0,0,0,0,0,0,0,0,0,0,0,0,0,0,0,0,0,0,0,0,0,0,0,0,0,0,0,0,0,0,0,0,0,0,0,0,0,0,0,0,0,0,0,0,0,0,0,0,0,0,0,0,0,0,0,0,0,0,0,0,0,0,0,0,0,0,0,0,0,0,0,0,0,0,0,0,0,0,0,0,0,0,0,0,0,0,0,0,0,0,0,0,0,0,0,0,0,0,0,0,0,0,0,0,0,0,0,0,0,0,0,0,0,0,0,0,0,0,0,0,0,0,0,0,0,0,0,0,0,0,0,0,0,0],"sum_hessian":[5.02E3,2.112E3,2.908E3,3.16E2,1.796E3,2.646E3,2.62E2,2.73E2,4.3E1,9.33E2,8.63E2,9E0,2.637E3,2.33E2,2.9E1,2.5E2,2.3E1,3.2E1,1.1E1,2.66E2,6.67E2,4.8E1,8.15E2,4E0,5E0,6.8E2,1.957E3,2.29E2,4E0,2.1E1,8E0,2.03E2,4.7E1,1.4E1,9E0,8E0,2.4E1,1E1,1E0,2.26E2,4E1,6.2E1,6.05E2,4.2E1,6E0,2.8E1,7.87E2,3E0,1E0,6.75E2,5E0,4.1E1,1.916E3,8.8E1,1.41E2,2E0,2E0,7E0,1.4E1,4E0,4E0,1.91E2,1.2E1,3.2E1,1.5E1,6E0,8E0,3E0,6E0,7E0,1E0,2E0,2.2E1,6E0,4E0,1.9E2,3.6E1,2.1E1,1.9E1,4.8E1,1.4E1,1.59E2,4.46E2,3.8E1,4E0,4E0,2E0,1.3E1,1.5E1,7.66E2,2.1E1,6.68E2,7E0,2E0,3E0,3E0,3.8E1,4.13E2,1.503E3,1E1,7.8E1,1.4E2,1E0,1E0,1E0,5E0,2E0,5E0,9E0,3E0,1E0,1.74E2,1.7E1,1E0,1.1E1,2.6E1,6E0,8E0,7E0,2E0,4E0,4E0,4E0,2E0,4E0,6E0,1E0,5E0,1.7E1,3E0,1E0,4.2E1,1.48E2,1.5E1,2.1E1,4E0,1.7E1,1.6E1,3E0,4E1,8E0,4E0,1E1,1.49E2,1E1,2.57E2,1.89E2,1.7E1,2.1E1,1E0,3E0,1E0,3E0,7E0,6E0,4E0,1.1E1,5.2E1,7.14E2,1.2E1,9E0,6.48E2,2E1,3E0,4E0,1E0,1E0,1E1,2.8E1,2.37E2,1.76E2,1.126E3,3.77E2,2E0,8E0,4.8E1,3E1,6E0,1.34E2,3E0,2E0,2E0,7E0,1E0,2E0],"tree_param":{"num_deleted":"0","num_feature":"2","num_nodes":"185","size_leaf_vector":"0"}},{"base_weights":[3.5154366E0,4.187423E0,3.085227E0,3.7217946E0,4.633868E0,-3.5769167E0,3.101647E0,3.4815178E0,7.279935E0,1.0080294E1,4.4599276E0,-5.137651E0,-2.2003968E0,3.5911953E0,2.937041E0,3.8732238E0,1.6075562E0,5.2274466E0,1.4298358E1,8.064534E0,2.1166594E1,-7.5382787E-1,4.6163654E0,1.5514278E-1,-4.6076508E0,3.465793E0,1.0578636E1,2.1359396E0,3.0505338E0,3.634944E0,6.0566125E0,1.3412741E1,6.3293195E-1,6.856934E0,-8.76916E-1,1.6313868E1,-4.9438725E0,9.777438E0,-8.897838E0,2.631481E1,2.8609715E0,3.820188E0,-7.552033E0,5.31606E0,3.42569E0,-1.9943174E0,3.3017616E0,3.581935E0,-3.7618628E-1,1.40184555E1,4.2291045E0,2.3463874E0,-3.9491467E0,2.8993504E0,5.1090984E0,3.7886748E0,-8.9439815E-1,6.3588715E-1,7.594036E0,1.6011986E1,-7.5894775E0,-4.3862357E0,1.1525992E0,9.107656E0,1.8280355E0,-3.3759885E0,6.9126067E0,1.969868E1,9.64594E0,1.0811089E1,-1.406367E0,-2.2647045E0,1.3705691E1,-1.0029604E1,-2.0775132E0,1.2998973E1,5.1878977E0,7.499295E0,2.8000784E0,3.3619301E0,5.8222666E0,-2.7197459E0,1.9987222E0,5.7981644E0,2.5786219E1,1.2939284E1,-3.3608065E0,4.681509E0,1.8892518E0,-1.6477438E0,-4.3185296E0,3.0717595E0,1.6106766E0,4.439115E0,1.4070075E1,3.2249427E0,4.669432E0,8.471415E0,-5.5214047E0,1.6411905E1,-1.3758581E0,2.7224144E1,5.9692345E0,4.136777E0,2.220685E1,-6.1636744E0,-2.713917E0,2.860856E1,7.3106146E-1,4.830517E0,2.0026957E1,-5.704039E0,7.248587E0,4.182981E-1,-8.223421E0,-8.704052E-1,1.1239315E1,1.5410085E1,2.9113455E0,5.7475367E0,1.4973717E1,-7.0297756E0,4.920225E0,-7.5427046E0,1.3171339E0,1.7935476E1,2.087485E0,-1.1896602E1,-2.9524052E0,2.0895157E0,-5.5520377E0,2.6353617E1,5.4185576E0,4.7001786E0,7.1882567E0,5.165673E0,2.2195831E1,-1.127031E0,3.1395006E0,4.6320457E0,2.8323216E0,2.9275743E1,4.1888866E0,6.238022E-1,-3.4508357E0,8.372707E0,6.5811384E-1,1.057204E1,-2.4997241E0,-2.586636E-1,6.696537E0,-1.11366995E-1,2.4168954E0,3.0150633E0,1.0559526E1,1.0288248E0,1.941799E1,1.4066345E1,3.7659168E0,2.7620766E1,6.252625E0],"categories":[],"categories_nodes":[],"categories_segments":[],"categories_sizes":[],"default_left":[1,1,1,1,1,1,1,1,1,1,1,0,1,1,1,1,1,1,1,1,1,1,1,1,0,1,1,1,1,1,1,1,1,1,1,1,0,1,0,0,0,1,1,1,1,0,0,1,1,1,1,1,1,1,1,1,1,1,1,1,0,1,1,1,1,1,1,0,1,1,1,1,1,1,1,1,1,1,1,1,1,1,1,1,0,0,0,1,1,0,0,1,1,1,1,0,0,0,0,0,0,0,0,0,0,0,0,0,0,0,0,0,0,0,0,0,0,0,0,0,0,0,0,0,0,0,0,0,0,0,0,0,0,0,0,0,0,0,0,0,0,0,0,0,0,0,0,0,0,0,0,0,0,0,0,0,0,0,0,0,0],"id":7,"left_children":[1,3,5,7,9,11,13,15,17,19,21,-1,23,25,27,29,31,33,35,37,39,41,43,45,-1,47,49,51,53,55,57,59,61,63,65,67,-1,69,-1,-1,-1,71,73,75,77,-1,-1,79,81,83,85,87,89,91,93,95,97,99,101,103,-1,105,107,109,111,113,115,-1,117,119,121,123,125,127,129,131,133,135,137,139,141,143,145,147,-1,-1,-1,149,151,-1,-1,153,155,157,159,-1,-1,-1,-1,-1,-1,-1,-1,-1,-1,-1,-1,-1,-1,-1,-1,-1,-1,-1,-1,-1,-1,-1,-1,-1,-1,-1,-1,-1,-1,-1,-1,-1,-1,-1,-1,-1,-1,-1,-1,-1,-1,-1,-1,-1,-1,-1,-1,-1,-1,-1,-1,-1,-1,-1,-1,-1,-1,-1,-1,-1,-1,-1,-1,-1,-1],"loss_changes":[1.438625E3,3.895703E2,3.463789E2,7.9795996E2,8.9766016E2,5.8821793E0,2.35875E2,6.5734766E2,7.8957007E2,4.997207E2,7.913789E2,0E0,3.4737137E1,6.3366113E2,2.0205273E2,3.666172E2,1.8093986E3,4.8346814E2,5.8483105E2,8.714806E2,3.0167932E2,9.30608E2,7.6324414E2,3.363889E1,0E0,3.3734668E2,2.2465051E2,3.7807703E2,6.0980664E2,4.7408594E2,5.952156E2,7.7660156E2,3.8847528E2,4.1345972E2,2.3746927E2,8.0823975E1,0E0,3.04208E2,0E0,0E0,0E0,1.1137793E3,1.4192554E2,5.1252734E2,8.709746E2,0E0,0E0,3.4072363E2,1.3344803E2,6.243627E2,4.401433E2,2.8897876E2,1.3851624E0,4.1097168E2,7.540454E2,3.0966016E2,1.0434946E3,5.621151E2,1.6236143E3,7.1735376E2,0E0,2.4886505E1,1.5299645E3,1.1175469E3,5.721102E2,1.6897278E2,1.10807236E2,0E0,1.8805103E2,3.9872485E2,1.413191E2,2.3679407E2,3.0655762E2,7.05813E1,8.3993286E1,7.683053E2,5.330449E2,1.4629673E3,4.100874E2,4.362202E2,2.3291077E3,3.1485855E1,9.7030014E1,2.6410565E2,0E0,0E0,0E0,4.4968848E2,2.4833826E2,0E0,0E0,6.686328E2,2.2905742E3,7.7659937E2,7.806842E2,0E0,0E0,0E0,0E0,0E0,0E0,0E0,0E0,0E0,0E0,0E0,0E0,0E0,0E0,0E0,0E0,0E0,0E0,0E0,0E0,0E0,0E0,0E0,0E0,0E0,0E0,0E0,0E0,0E0,0E0,0E0,0E0,0E0,0E0,0E0,0E0,0E0,0E0,0E0,0E0,0E0,0E0,0E0,0E0,0E0,0E0,0E0,0E0,0E0,0E0,0E0,0E0,0E0,0E0,0E0,0E0,0E0,0E0,0E0,0E0,0E0,0E0,0E0,0E0,0E0,0E0],"parents":[2147483647,0,0,1,1,2,2,3,3,4,4,5,5,6,6,7,7,8,8,9,9,10,10,12,12,13,13,14,14,15,15,16,16,17,17,18,18,19,19,20,20,21,21,22,22,23,23,25,25,26,26,27,27,28,28,29,29,30,30,31,31,32,32,33,33,34,34,35,35,37,37,41,41,42,42,43,43,44,44,47,47,48,48,49,49,50,50,51,51,52,52,53,53,54,54,55,55,56,56,57,57,58,58,59,59,61,61,62,62,63,63,64,64,65,65,66,66,68,68,69,69,70,70,71,71,72,72,73,73,74,74,75,75,76,76,77,77,78,78,79,79,80,80,81,81,82,82,83,83,87,87,88,88,91,91,92,92,93,93,94,94],"right_children":[2,4,6,8,10,12,14,16,18,20,22,-1,24,26,28,30,32,34,36,38,40,42,44,46,-1,48,50,52,54,56,58,60,62,64,66,68,-1,70,-1,-1,-1,72,74,76,78,-1,-1,80,82,84,86,88,90,92,94,96,98,100,102,104,-1,106,108,110,112,114,116,-1,118,120,122,124,126,128,130,132,134,136,138,140,142,144,146,148,-1,-1,-1,150,152,-1,-1,154,156,158,160,-1,-1,-1,-1,-1,-1,-1,-1,-1,-1,-1,-1,-1,-1,-1,-1,-1,-1,-1,-1,-1,-1,-1,-1,-1,-1,-1,-1,-1,-1,-1,-1,-1,-1,-1,-1,-1,-1,-1,-1,-1,-1,-1,-1,-1,-1,-1,-1,-1,-1,-1,-1,-1,-1,-1,-1,-1,-1,-1,-1,-1,-1,-1,-1,-1,-1],"split_conditions":[2.6724998E1,8.655E1,2.6795E1,2.555E1,8.755E1,2.675E1,2.8974998E1,8.255E1,8.19E1,8.745E1,8.845E1,-1.5412954E0,2.6775002E1,2.8915E1,2.976E1,8.0850006E1,1.465E1,2.645E1,2.6650002E1,8.7350006E1,2.35E1,2.2849998E1,2.4650002E1,2.6765E1,-1.3822953E0,2.8895E1,9.9990005E1,2.9724998E1,9.9490005E1,2.505E1,1.825E1,8.635E1,1.565E1,7.49E1,2.6650002E1,2.6150002E1,-1.4831618E0,2.53E1,-2.6693513E0,7.894443E0,8.5829145E-1,2.14E1,8.805E1,8.855E1,9.475E1,-5.982953E-1,9.905285E-1,2.873E1,9.7850006E1,9.8770004E1,2.8925E1,8.9350006E1,9.6505005E1,9.5715E1,3.108E1,7.2649994E1,7.265E1,8.105E1,1.8650002E1,1.365E1,-2.2768433E0,1.505E1,1.5799999E1,6.9600006E1,7.815E1,7.75E1,6.755E1,5.9096045E0,8.42E1,2.12E1,8.685E1,1.58E1,8.805E1,2.455E1,8.8149994E1,1.9150002E1,2.375E1,9.41E1,9.755E1,9.3E1,2.8744999E1,7.515E1,9.945E1,9.168E1,7.735866E0,3.8817854E0,-1.008242E0,2.908E1,9.563E1,-4.9432316E-1,-1.2955589E0,9.557E1,3.2059998E1,9.9575E1,3.1255001E1,9.6748286E-1,1.4008297E0,2.5414245E0,-1.6564215E0,4.9235716E0,-4.1275743E-1,8.167244E0,1.7907704E0,1.2410331E0,6.6620555E0,-1.8491024E0,-8.141751E-1,8.582568E0,2.1931845E-1,1.4491551E0,6.008087E0,-1.7112118E0,2.1745763E0,1.2548943E-1,-2.4670265E0,-2.6112157E-1,3.3717947E0,4.6230254E0,8.7340367E-1,1.724261E0,4.492115E0,-2.1089327E0,1.4760675E0,-2.2628114E0,3.951402E-1,5.380643E0,6.2624556E-1,-3.5689807E0,-8.857216E-1,6.268547E-1,-1.6656114E0,7.9060855E0,1.6255673E0,1.4100536E0,2.1564772E0,1.5497019E0,6.6587496E0,-3.381093E-1,9.4185024E-1,1.3896137E0,8.496965E-1,8.782723E0,1.2566661E0,1.8714066E-1,-1.0352508E0,2.5118122E0,1.9743416E-1,3.171612E0,-7.4991727E-1,-7.759908E-2,2.0089612E0,-3.34101E-2,7.250686E-1,9.04519E-1,3.1678581E0,3.0864745E-1,5.825397E0,4.219904E0,1.129775E0,8.28623E0,1.8757876E0],"split_indices":[1,0,1,1,0,1,1,0,0,0,0,0,1,1,1,0,1,1,1,0,1,1,1,1,0,1,0,1,0,1,1,0,1,0,1,1,0,1,0,0,0,1,0,0,0,0,0,1,0,0,1,0,0,0,1,0,0,0,1,1,0,1,1,0,0,0,0,0,0,1,0,1,0,1,0,1,1,0,0,0,1,0,0,0,0,0,0,1,0,0,0,0,1,0,1,0,0,0,0,0,0,0,0,0,0,0,0,0,0,0,0,0,0,0,0,0,0,0,0,0,0,0,0,0,0,0,0,0,0,0,0,0,0,0,0,0,0,0,0,0,0,0,0,0,0,0,0,0,0,0,0,0,0,0,0,0,0,0,0,0,0],"split_type":[0,0,0,0,0,0,0,0,0,0,0,0,0,0,0,0,0,0,0,0,0,0,0,0,0,0,0,0,0,0,0,0,0,0,0,0,0,0,0,0,0,0,0,0,0,0,0,0,0,0,0,0,0,0,0,0,0,0,0,0,0,0,0,0,0,0,0,0,0,0,0,0,0,0,0,0,0,0,0,0,0,0,0,0,0,0,0,0,0,0,0,0,0,0,0,0,0,0,0,0,0,0,0,0,0,0,0,0,0,0,0,0,0,0,0,0,0,0,0,0,0,0,0,0,0,0,0,0,0,0,0,0,0,0,0,0,0,0,0,0,0,0,0,0,0,0,0,0,0,0,0,0,0,0,0,0,0,0,0,0,0],"sum_hessian":[5.02E3,1.956E3,3.064E3,9.62E2,9.94E2,7E0,3.057E3,9.03E2,5.9E1,2.9E1,9.65E2,2E0,5E0,7.64E2,2.293E3,7.46E2,1.57E2,4.7E1,1.2E1,2.6E1,3E0,2.8E1,9.37E2,3E0,2E0,7.52E2,1.2E1,2.87E2,2.006E3,6.75E2,7.1E1,1.1E1,1.46E2,3.7E1,1E1,1.1E1,1E0,2.4E1,2E0,2E0,1E0,1.7E1,1.1E1,5.88E2,3.49E2,2E0,1E0,7.3E2,2.2E1,7E0,5E0,2.78E2,9E0,1.871E3,1.35E2,6.53E2,2.2E1,1.6E1,5.5E1,1E1,1E0,1.3E1,1.33E2,2.5E1,1.2E1,8E0,2E0,6E0,5E0,2.2E1,2E0,1.1E1,6E0,7E0,4E0,8E0,5.8E2,4.5E1,3.04E2,6.67E2,6.3E1,1.1E1,1.1E1,5E0,2E0,2E0,3E0,4.4E1,2.34E2,2E0,7E0,1.649E3,2.22E2,1.27E2,8E0,4.01E2,2.52E2,7E0,1.5E1,1E0,1.5E1,3E0,5.2E1,4E0,6E0,5E0,8E0,1E0,1.32E2,1.9E1,6E0,5E0,7E0,5E0,3E0,1E0,1E0,2E0,3E0,1.1E1,1.1E1,1E0,1E0,4E0,7E0,4E0,2E0,5E0,2E0,2E0,2E0,2E0,6E0,4.69E2,1.11E2,4E1,5E0,2.4E1,2.8E2,1.94E2,4.73E2,3E0,6E1,2E0,9E0,1E0,1E1,3E0,2E0,1.3E1,3.1E1,4.9E1,1.85E2,1.638E3,1.1E1,2.16E2,6E0,7E0,1.2E2,2E0,6E0],"tree_param":{"num_deleted":"0","num_feature":"2","num_nodes":"161","size_leaf_vector":"0"}},{"base_weights":[2.4869986E0,2.9707E0,2.1695023E0,2.1382172E-1,3.0286744E0,1.3038789E0,2.2494543E0,2.2493143E0,-4.925608E-1,6.8264824E-1,3.0851135E0,4.992779E0,1.1966609E0,2.531298E-1,2.2919457E0,3.5551462E0,1.3152342E0,2.8183613E0,-6.902796E-1,-1.0194402E0,1.0059997E0,3.448302E0,2.7266514E0,-7.5507736E-1,6.076601E0,1.3269434E0,-1.6385742E-1,3.9348254E0,-2.2083654E0,4.47008E0,2.2427905E0,8.582007E-1,5.8229914E0,7.7165157E-1,1.963988E0,-9.787031E-1,1.0052631E0,-1.8796724E0,-4.1941738E-1,1.2333643E0,-2.4205725E-1,2.8527033E0,4.2046695E0,2.49519E0,4.2547035E0,-8.3656585E-1,1.388355E0,-1.9161239E0,1.9478874E-1,-4.6303577E0,8.506815E0,8.0816054E-1,-4.4015107E0,-1.7337415E0,5.2051115E0,2.0821605E0,2.7375598E0,1.1594863E0,-2.6785533E-3,-2.6374185E-1,-3.4371107E0,2.5692368E-1,1.1281171E0,1.4549875E-1,-1.0328331E0,7.679437E-1,2.4408727E0,-1.0887018E0,3.1434098E-1,2.9606857E0,-5.62265E0,2.6568954E1,4.0856104E0,2.5334604E0,-8.988462E0,7.121186E0,2.4954708E0,-9.7343224E-1,-7.683754E-3,2.3469026E0,1.1994283E0,-5.9253025E-1,-2.1598117E0,4.8051766E-1,-1.0682564E0,6.199997E-1,-8.954643E0,2.7273977E1,5.437405E0,-2.5842166E0,3.7338114E0,-3.1874368E0,-5.6661158E0,2.1531663E0,-5.187214E0,1.2524467E1,2.9899356E0,2.2423227E0,8.429757E-1,2.2952783E0,6.9632354E0,-7.70092E-2,7.299137E-2,-1.0864551E0,8.5066185E0,-2.3949528E-1,3.5366186E-1,1.1166295E0,-2.2775242E0,2.9039483E0,-6.3186646E-1,-4.6887207E-1,9.927737E-1,2.8543856E0,1.3402492E1,-1.4054152E1,-1.8750414E0,3.9210317E0,1.3023997E1,3.5366902E0,2.3157415E0,3.487731E0,1.5436634E1,-2.5434773E0,3.0990632E0,1.1271365E0,4.4182477E0,7.271693E-1,1.5362788E0,-1.1810907E-1,7.397879E-1,-3.171711E-1,-1.2128944E0,-1.2804794E-1,1.1613808E0,-1.0830294E1,-7.260227E-1,-2.5232759E0,1.27184105E1,-5.8879743E0,-5.016349E-1,-5.054266E0,-8.652597E-1,-6.3405404E0,-2.2037537E0,-2.1645498E0,4.3139215E0,4.7953377E0,2.238618E1,-4.9894047E0,3.7316647E0,2.2131875E0,8.426364E0,-4.412725E0,1.3869683E0,2.573439E0,-2.4692907E0,1.2657828E1,3.8766572E0],"categories":[],"categories_nodes":[],"categories_segments":[],"categories_sizes":[],"default_left":[1,1,1,1,1,1,1,1,1,1,1,1,1,1,1,1,1,0,1,1,1,1,1,0,0,1,1,1,1,1,1,0,0,1,0,1,1,0,1,1,1,1,1,1,1,1,1,1,1,1,1,1,1,1,1,1,1,0,1,1,0,0,0,1,0,1,1,0,1,1,1,0,1,1,0,1,1,0,0,1,1,0,0,1,1,1,1,0,1,1,0,1,1,1,0,1,1,1,1,1,1,0,0,0,0,0,0,0,0,0,0,0,0,0,0,0,0,0,0,0,0,0,0,0,0,0,0,0,0,0,0,0,0,0,0,0,0,0,0,0,0,0,0,0,0,0,0,0,0,0,0,0,0,0,0,0,0,0,0],"id":8,"left_children":[1,3,5,7,9,11,13,15,17,19,21,23,25,27,29,31,33,-1,35,37,39,41,43,-1,-1,45,47,49,51,53,55,-1,-1,57,-1,59,61,-1,63,65,67,69,71,73,75,77,79,81,83,85,87,89,91,93,95,97,99,-1,101,103,-1,-1,-1,105,-1,107,109,-1,111,113,115,-1,117,119,-1,121,123,-1,-1,125,127,-1,-1,129,131,133,135,-1,137,139,-1,141,143,145,-1,147,149,151,153,155,157,-1,-1,-1,-1,-1,-1,-1,-1,-1,-1,-1,-1,-1,-1,-1,-1,-1,-1,-1,-1,-1,-1,-1,-1,-1,-1,-1,-1,-1,-1,-1,-1,-1,-1,-1,-1,-1,-1,-1,-1,-1,-1,-1,-1,-1,-1,-1,-1,-1,-1,-1,-1,-1,-1,-1,-1,-1,-1],"loss_changes":[7.6464844E2,3.1693164E2,2.0711523E2,6.149706E1,2.555586E2,9.646417E1,2.3498242E2,8.741421E0,2.289367E1,2.6893074E1,2.3795703E2,4.8195892E1,4.5062103E1,5.433756E2,2.810879E2,1.9467728E1,1.3056965E0,0E0,1.6143917E1,3.3409042E0,1.1649109E1,4.1146777E2,3.292749E2,0E0,0E0,3.185321E1,1.4827443E1,9.792277E2,2.4172159E2,2.7806458E2,2.0578223E2,0E0,0E0,1.8049784E0,0E0,4.6550476E1,1.6984272E-1,0E0,2.229447E0,1.723352E1,3.6397247E0,5.0078174E2,9.8846875E2,3.9061963E2,6.125803E2,7.866435E-1,3.7931488E1,1.0419846E-2,7.7310867E0,2.098883E2,7.7336597E2,1.6844754E2,1.4181427E1,1.0513224E2,8.218766E2,3.9763086E2,1.196958E3,0E0,2.249479E-2,1.6798286E2,0E0,0E0,0E0,4.0526658E-1,0E0,3.0152851E1,1.4641102E1,0E0,3.1222706E0,5.422554E2,1.948337E2,0E0,5.53541E2,1.7419238E2,0E0,1.3662102E3,2.4815863E2,0E0,0E0,8.597606E1,2.9108185E1,0E0,0E0,2.7258787E0,4.9847126E-2,2.1736064E0,6.930701E1,0E0,9.0151855E2,5.2089153E1,0E0,5.1983154E1,7.0429077E0,4.6655807E1,0E0,8.073203E2,2.6719614E2,3.0241797E2,6.694227E2,7.869656E2,1.023115E3,0E0,0E0,0E0,0E0,0E0,0E0,0E0,0E0,0E0,0E0,0E0,0E0,0E0,0E0,0E0,0E0,0E0,0E0,0E0,0E0,0E0,0E0,0E0,0E0,0E0,0E0,0E0,0E0,0E0,0E0,0E0,0E0,0E0,0E0,0E0,0E0,0E0,0E0,0E0,0E0,0E0,0E0,0E0,0E0,0E0,0E0,0E0,0E0,0E0,0E0,0E0,0E0,0E0,0E0,0E0,0E0,0E0,0E0],"parents":[2147483647,0,0,1,1,2,2,3,3,4,4,5,5,6,6,7,7,8,8,9,9,10,10,11,11,12,12,13,13,14,14,15,15,16,16,18,18,19,19,20,20,21,21,22,22,25,25,26,26,27,27,28,28,29,29,30,30,33,33,35,35,36,36,38,38,39,39,40,40,41,41,42,42,43,43,44,44,45,45,46,46,47,47,48,48,49,49,50,50,51,51,52,52,53,53,54,54,55,55,56,56,58,58,59,59,63,63,65,65,66,66,68,68,69,69,70,70,72,72,73,73,75,75,76,76,79,79,80,80,83,83,84,84,85,85,86,86,88,88,89,89,91,91,92,92,93,93,95,95,96,96,97,97,98,98,99,99,100,100],"right_children":[2,4,6,8,10,12,14,16,18,20,22,24,26,28,30,32,34,-1,36,38,40,42,44,-1,-1,46,48,50,52,54,56,-1,-1,58,-1,60,62,-1,64,66,68,70,72,74,76,78,80,82,84,86,88,90,92,94,96,98,100,-1,102,104,-1,-1,-1,106,-1,108,110,-1,112,114,116,-1,118,120,-1,122,124,-1,-1,126,128,-1,-1,130,132,134,136,-1,138,140,-1,142,144,146,-1,148,150,152,154,156,158,-1,-1,-1,-1,-1,-1,-1,-1,-1,-1,-1,-1,-1,-1,-1,-1,-1,-1,-1,-1,-1,-1,-1,-1,-1,-1,-1,-1,-1,-1,-1,-1,-1,-1,-1,-1,-1,-1,-1,-1,-1,-1,-1,-1,-1,-1,-1,-1,-1,-1,-1,-1,-1,-1,-1,-1,-1,-1],"split_conditions":[2.681E1,1.295E1,6.6815E1,6.14E1,5.165E1,2.7150002E1,2.7095001E1,1.215E1,1.135E1,4.1050003E1,2.2349998E1,5.4300003E1,6.6009995E1,9.995E1,2.7215E1,1.205E1,6.085E1,8.455084E-1,9.13E1,3.865E1,5.095E1,8.495E1,2.6385E1,-2.2652322E-1,1.8229804E0,4.615E1,3.5025E1,9.0149994E1,2.691E1,7.72E1,3.3114998E1,2.5746024E-1,1.7468975E0,5.845E1,5.891964E-1,7.6850006E1,9.99E1,-5.639017E-1,3.9800003E1,4.8800003E1,5.15E1,8.475E1,1.325E1,2.6314999E1,9.7100006E1,2.945E1,2.855E1,6.628E1,6.672E1,8.52E1,9.085E1,2.6895E1,2.701E1,7.35E1,8.97E1,3.2265E1,8.4225E1,3.478459E-1,6E1,7.405E1,-1.0311333E0,7.7077106E-2,3.3843514E-1,3.8800003E1,-3.0984995E-1,4.86E1,2.3349998E1,-3.2661057E-1,1.855E1,8.445E1,1.45E1,7.9706864E0,2.225E1,7.8350006E1,-2.696539E0,9.085E1,9.945E1,-2.9202968E-1,-2.3051263E-3,5.215E1,3.6755E1,-1.7775908E-1,-6.4794356E-1,6.6115005E1,6.6770004E1,7.27E1,8.845E1,8.182194E0,9.7100006E1,2.6835E1,1.1201434E0,2.6974998E1,2.7085E1,7.155E1,-1.5561643E0,8.675E1,9.505E1,3.2235E1,7.6675E1,8.3244995E1,8.529E1,-2.310276E-2,2.1897413E-2,-3.2593656E-1,2.5519857E0,-7.1848586E-2,1.0609856E-1,3.3498886E-1,-6.832573E-1,8.711845E-1,-1.8955995E-1,-1.4066163E-1,2.9783213E-1,8.5631573E-1,4.0207477E0,-4.2162457E0,-5.6251246E-1,1.1763096E0,3.9071994E0,1.0610071E0,6.947225E-1,1.0463194E0,4.6309905E0,-7.630432E-1,9.29719E-1,3.3814096E-1,1.3254744E0,2.181508E-1,4.6088368E-1,-3.5432722E-2,2.2193637E-1,-9.5151335E-2,-3.6386836E-1,-3.8414385E-2,3.4841424E-1,-3.2490883E0,-2.1780683E-1,-7.569828E-1,3.8155234E0,-1.7663924E0,-1.5049048E-1,-1.5162798E0,-2.5957793E-1,-1.9021622E0,-6.6112614E-1,-6.4936495E-1,1.2941765E0,1.4386014E0,6.7158546E0,-1.4968214E0,1.1194994E0,6.639563E-1,2.5279093E0,-1.3238175E0,4.160905E-1,7.720317E-1,-7.4078727E-1,3.7973487E0,1.1629972E0],"split_indices":[1,1,0,0,0,1,1,1,1,0,1,0,0,0,1,1,0,0,0,0,0,0,1,0,0,0,1,0,1,0,1,0,0,0,0,0,0,0,0,0,0,0,1,1,0,1,1,0,0,0,0,1,1,0,0,1,0,0,0,0,0,0,0,0,0,0,1,0,1,0,1,0,1,0,0,0,0,0,0,0,1,0,0,0,0,0,0,0,0,1,0,1,1,0,0,0,0,1,0,0,0,0,0,0,0,0,0,0,0,0,0,0,0,0,0,0,0,0,0,0,0,0,0,0,0,0,0,0,0,0,0,0,0,0,0,0,0,0,0,0,0,0,0,0,0,0,0,0,0,0,0,0,0,0,0,0,0,0,0],"split_type":[0,0,0,0,0,0,0,0,0,0,0,0,0,0,0,0,0,0,0,0,0,0,0,0,0,0,0,0,0,0,0,0,0,0,0,0,0,0,0,0,0,0,0,0,0,0,0,0,0,0,0,0,0,0,0,0,0,0,0,0,0,0,0,0,0,0,0,0,0,0,0,0,0,0,0,0,0,0,0,0,0,0,0,0,0,0,0,0,0,0,0,0,0,0,0,0,0,0,0,0,0,0,0,0,0,0,0,0,0,0,0,0,0,0,0,0,0,0,0,0,0,0,0,0,0,0,0,0,0,0,0,0,0,0,0,0,0,0,0,0,0,0,0,0,0,0,0,0,0,0,0,0,0,0,0,0,0,0,0],"sum_hessian":[5.02E3,1.986E3,3.034E3,4.1E1,1.945E3,2.58E2,2.776E3,1E1,3.1E1,4.6E1,1.899E3,6E0,2.52E2,5.8E1,2.718E3,3E0,7E0,1E0,3E1,7E0,3.9E1,9.39E2,9.6E2,1E0,5E0,2.3E2,2.2E1,2.3E1,3.5E1,5.8E1,2.66E3,2E0,1E0,5E0,2E0,2.6E1,4E0,2E0,5E0,3.3E1,6E0,5.28E2,4.11E2,8.36E2,1.24E2,6E0,2.24E2,3E0,1.9E1,8E0,1.5E1,1.5E1,2E1,6E0,5.2E1,2.012E3,6.48E2,3E0,2E0,2.1E1,5E0,1E0,3E0,3E0,2E0,2.5E1,8E0,2E0,4E0,5.22E2,6E0,1E0,4.1E2,8.34E2,2E0,4.6E1,7.8E1,5E0,1E0,3.5E1,1.89E2,1E0,2E0,1.6E1,3E0,4E0,4E0,1E0,1.4E1,7E0,8E0,1.2E1,8E0,3E0,3E0,1.1E1,4.1E1,1.781E3,2.31E2,5.88E2,6E1,1E0,1E0,2E1,1E0,1E0,2E0,2.3E1,2E0,7E0,1E0,2E0,2E0,5.18E2,4E0,1E0,5E0,4.04E2,6E0,1.46E2,6.88E2,3.3E1,1.3E1,8E0,7E1,2.3E1,1.2E1,8E1,1.09E2,5E0,1.1E1,1E0,2E0,2E0,2E0,3E0,1E0,7E0,7E0,2E0,5E0,6E0,6E0,6E0,2E0,1E0,2E0,7E0,4E0,3E0,3.8E1,1.774E3,7E0,2.1E1,2.1E2,5.56E2,3.2E1,2E1,4E1],"tree_param":{"num_deleted":"0","num_feature":"2","num_nodes":"159","size_leaf_vector":"0"}},{"base_weights":[1.7493465E0,2.0158913E0,1.4121357E0,2.0011933E0,8.531591E0,-2.0472314E0,1.4508753E0,2.546092E-2,2.0349512E0,5.22583E-1,1.240545E1,-1.6358788E-1,-3.5155523E0,1.8050987E0,1.2961694E0,-1.503739E0,1.2463785E-1,6.978021E-1,2.0783737E0,-1.6047993E0,2.3886738E0,1.7307234E1,5.002444E0,-2.2270298E0,1.1465118E0,5.235176E-1,-3.8665206E0,1.6076152E0,1.782247E1,-8.809749E-1,1.4784777E0,-9.9915123E-1,2.8605485E-1,1.03191696E-1,1.9039685E0,7.4999695E0,2.053058E0,1.0671833E1,-3.168167E0,-7.260386E-2,-3.6391125E0,-9.221535E-1,1.9897591E0,3.3035243E0,9.6696544E-1,1.3580513E0,1.9980522E1,-1.5286133E0,1.8120783E1,1.2643366E0,2.604475E0,-1.4251989E0,-4.298277E-1,5.825844E-1,-5.756243E-1,8.5756177E-1,-1.2387913E0,9.908483E0,-1.7649205E-1,-1.3027368E0,1.0578954E1,2.5366523E0,1.8982872E0,-1.794529E-1,7.0547104E-2,2.7401433E0,-8.810806E-1,2.6726556E0,1.6533121E1,1.2438512E0,-1.8694544E0,-3.3517927E-1,-4.0676975E0,2.2945038E1,1.824009E0,2.6894107E-1,1.6821293E0,3.771979E0,-2.0504189E-1,-1.9580968E-1,-5.6594086E-1,-3.3952555E-1,7.7297187E-1,-6.9554114E-1,-2.3998896E-2,1.8304291E0,6.252093E-1,-4.4351864E0,-2.8208202E-1,1.6100764E0,1.7670197E1,-5.1618824E0,1.0786802E0,4.056301E-1,-2.0074024E0,1.9704443E1,2.732135E0,2.0463386E0,5.6297235E0,-2.0439696E0,1.9408731E0,-6.83848E-2,4.9239135E0,1.5870771E0,4.091417E1,-6.574762E-1,1.4370768E0,-3.11527E0,3.9703972E0,-1.181583E0,2.1783045E1,-1.8481724E0,-5.192933E0,2.4145584E0,-3.8919613E-1,1.2726983E1,1.4926625E0,2.9652324E0,2.8026735E1,-1.3870894E0,4.8117003E0],"categories":[],"categories_nodes":[],"categories_segments":[],"categories_sizes":[],"default_left":[1,1,1,1,1,1,1,1,1,1,1,1,1,1,1,0,1,1,1,0,0,0,1,1,1,0,0,1,1,1,1,1,1,1,1,1,1,0,0,1,0,0,1,1,1,0,0,1,1,1,1,0,1,1,1,1,1,1,1,1,1,1,1,0,0,0,0,1,1,1,1,1,1,0,0,1,1,1,1,0,0,0,0,0,0,0,0,0,0,0,0,0,0,0,0,0,0,0,0,0,0,0,0,0,0,0,0,0,0,0,0,0,0,0,0,0,0,0,0,0,0],"id":9,"left_children":[1,3,5,7,9,11,13,15,17,19,21,23,25,27,29,-1,31,33,35,-1,-1,-1,37,39,41,-1,-1,43,45,47,49,51,53,55,57,59,61,-1,-1,63,-1,-1,65,67,69,-1,-1,71,73,75,77,-1,79,81,83,85,87,89,91,93,95,97,99,-1,-1,-1,-1,101,103,105,107,109,111,-1,-1,113,115,117,119,-1,-1,-1,-1,-1,-1,-1,-1,-1,-1,-1,-1,-1,-1,-1,-1,-1,-1,-1,-1,-1,-1,-1,-1,-1,-1,-1,-1,-1,-1,-1,-1,-1,-1,-1,-1,-1,-1,-1,-1,-1,-1],"loss_changes":[4.4844922E2,2.512666E2,3.0048193E2,1.8649805E2,1.7967172E2,6.856974E1,1.1800244E2,7.4671683E0,1.5822168E2,1.5743008E1,5.8573303E1,3.499309E1,2.1870377E1,2.0748528E3,6.093711E2,0E0,8.630151E0,6.2917046E1,3.5010352E2,0E0,0E0,0E0,1.7277728E2,1.4946926E1,1.5790036E1,0E0,0E0,7.117119E2,2.57114E2,1.4921455E3,3.376538E2,8.427639E-1,1.0811396E1,6.1803448E1,4.8468796E2,3.3902234E2,1.9367676E2,0E0,0E0,5.8546513E-2,0E0,0E0,1.533968E1,1.4581178E3,3.785149E2,0E0,0E0,3.5014322E2,2.7262732E2,4.9443164E2,7.388009E2,0E0,1.6595006E-2,5.704748E0,7.109492E-1,7.6714764E0,6.6025375E1,3.5800873E2,1.5574857E2,5.629573E0,5.906193E2,9.590879E2,3.4191943E2,0E0,0E0,0E0,0E0,1.0678833E3,2.8502673E3,1.6149213E2,3.2521008E2,1.5234143E3,8.280963E1,0E0,0E0,4.9941483E2,1.7346294E3,3.0281184E3,4.0398608E2,0E0,0E0,0E0,0E0,0E0,0E0,0E0,0E0,0E0,0E0,0E0,0E0,0E0,0E0,0E0,0E0,0E0,0E0,0E0,0E0,0E0,0E0,0E0,0E0,0E0,0E0,0E0,0E0,0E0,0E0,0E0,0E0,0E0,0E0,0E0,0E0,0E0,0E0,0E0,0E0,0E0,0E0],"parents":[2147483647,0,0,1,1,2,2,3,3,4,4,5,5,6,6,7,7,8,8,9,9,10,10,11,11,12,12,13,13,14,14,16,16,17,17,18,18,22,22,23,23,24,24,27,27,28,28,29,29,30,30,31,31,32,32,33,33,34,34,35,35,36,36,39,39,42,42,43,43,44,44,47,47,48,48,49,49,50,50,52,52,53,53,54,54,55,55,56,56,57,57,58,58,59,59,60,60,61,61,62,62,67,67,68,68,69,69,70,70,71,71,72,72,75,75,76,76,77,77,78,78],"right_children":[2,4,6,8,10,12,14,16,18,20,22,24,26,28,30,-1,32,34,36,-1,-1,-1,38,40,42,-1,-1,44,46,48,50,52,54,56,58,60,62,-1,-1,64,-1,-1,66,68,70,-1,-1,72,74,76,78,-1,80,82,84,86,88,90,92,94,96,98,100,-1,-1,-1,-1,102,104,106,108,110,112,-1,-1,114,116,118,120,-1,-1,-1,-1,-1,-1,-1,-1,-1,-1,-1,-1,-1,-1,-1,-1,-1,-1,-1,-1,-1,-1,-1,-1,-1,-1,-1,-1,-1,-1,-1,-1,-1,-1,-1,-1,-1,-1,-1,-1,-1,-1],"split_conditions":[2.9175E1,2.9134998E1,2.9224998E1,4.885E1,9.833E1,9.9770004E1,7.8625E1,3.865E1,1.375E1,9.457E1,9.9865005E1,9.29E1,2.919E1,7.845E1,8.078E1,-4.5112172E-1,1.685E1,7.405E1,1.395E1,-4.814398E-1,7.1660215E-1,5.19217E0,2.915E1,8.655E1,2.9195E1,1.5705529E-1,-1.1599562E0,3.4585E1,3.121E1,3.5265E1,3.2745003E1,4.415E1,2.8099998E1,6.795E1,8.105E1,7.5E1,2.0849998E1,3.20155E0,-9.504502E-1,8.365E1,-1.0917338E0,-2.7664605E-1,9.9665E1,3.457E1,7.6595E1,4.0741542E-1,5.994157E0,3.3989998E1,3.5519997E1,9.042E1,3.3795E1,-4.275597E-1,4.75E1,4.1050003E1,2.895E1,5.815E1,6.95E1,1.29E1,8.41E1,6.54E1,8.635E1,9.47E1,2.095E1,-5.3835873E-2,2.1164132E-2,8.22043E-1,-2.643242E-1,7.456E1,7.593E1,3.4905E1,7.825E1,3.3975E1,7.9395004E1,6.8835115E0,5.472027E-1,8.4740005E1,9.054E1,3.378E1,3.4705E1,-5.8742907E-2,-1.6978227E-1,-1.0185767E-1,2.3189157E-1,-2.0866235E-1,-7.199669E-3,5.491288E-1,1.875628E-1,-1.3305559E0,-8.462461E-2,4.8302296E-1,5.3010592E0,-1.5485648E0,3.2360405E-1,1.2168904E-1,-6.022208E-1,5.911333E0,8.196406E-1,6.139016E-1,1.6889172E0,-6.131909E-1,5.82262E-1,-2.051544E-2,1.477174E0,4.7612315E-1,1.2274251E1,-1.9724287E-1,4.3112305E-1,-9.34581E-1,1.1911192E0,-3.5447493E-1,6.5349135E0,-5.5445176E-1,-1.55788E0,7.2436756E-1,-1.16758846E-1,3.818095E0,4.477988E-1,8.8956976E-1,8.408021E0,-4.1612682E-1,1.4435102E0],"split_indices":[1,1,1,0,0,0,0,0,1,0,0,0,1,0,0,0,1,0,1,0,0,0,1,0,1,0,0,1,1,1,1,0,1,0,0,0,1,0,0,0,0,0,0,1,0,0,0,1,1,0,1,0,0,0,1,0,0,1,0,0,0,0,1,0,0,0,0,0,0,1,0,1,0,0,0,0,0,1,1,0,0,0,0,0,0,0,0,0,0,0,0,0,0,0,0,0,0,0,0,0,0,0,0,0,0,0,0,0,0,0,0,0,0,0,0,0,0,0,0,0,0],"split_type":[0,0,0,0,0,0,0,0,0,0,0,0,0,0,0,0,0,0,0,0,0,0,0,0,0,0,0,0,0,0,0,0,0,0,0,0,0,0,0,0,0,0,0,0,0,0,0,0,0,0,0,0,0,0,0,0,0,0,0,0,0,0,0,0,0,0,0,0,0,0,0,0,0,0,0,0,0,0,0,0,0,0,0,0,0,0,0,0,0,0,0,0,0,0,0,0,0,0,0,0,0,0,0,0,0,0,0,0,0,0,0,0,0,0,0,0,0,0,0,0,0],"sum_hessian":[5.02E3,2.801E3,2.219E3,2.796E3,5E0,2.4E1,2.195E3,4.7E1,2.749E3,2E0,3E0,1.1E1,1.3E1,6.64E2,1.531E3,2E0,4.5E1,8.7E1,2.662E3,1E0,1E0,1E0,2E0,4E0,7E0,1E0,1.2E1,6.57E2,7E0,1.18E2,1.413E3,5E0,4E1,5.9E1,2.8E1,1.1E1,2.651E3,1E0,1E0,2E0,2E0,2E0,5E0,1.79E2,4.78E2,1E0,6E0,1.15E2,3E0,1.189E3,2.24E2,2E0,3E0,3E1,1E1,3.8E1,2.1E1,5E0,2.3E1,3E0,8E0,6.39E2,2.012E3,1E0,1E0,4E0,1E0,1.72E2,7E0,4.36E2,4.2E1,7.9E1,3.6E1,2E0,1E0,3.52E2,8.37E2,1.58E2,6.6E1,2E0,1E0,5E0,2.5E1,8E0,2E0,6E0,3.2E1,4E0,1.7E1,3E0,2E0,4E0,1.9E1,1E0,2E0,3E0,5E0,5.53E2,8.6E1,2.1E1,1.991E3,7.8E1,9.4E1,5E0,2E0,4E1,3.96E2,3.5E1,7E0,7.7E1,2E0,1.3E1,2.3E1,8.2E1,2.7E2,1.3E1,8.24E2,1.54E2,4E0,5.4E1,1.2E1],"tree_param":{"num_deleted":"0","num_feature":"2","num_nodes":"121","size_leaf_vector":"0"}},{"base_weights":[1.2374564E0,1.5780061E0,1.1125512E0,8.4751594E-1,1.872215E0,1.1587249E0,5.1122576E-1,1.3395109E0,-1.0938252E0,6.34127E0,1.7798914E0,1.8038963E0,1.0502489E0,6.5570045E-1,-5.958161E-1,1.802783E0,-2.2365813E0,-1.5317749E0,2.4826465E0,1.0901765E1,6.274668E-2,6.526079E-1,2.0478568E0,1.5943894E0,3.5282383E1,-2.646133E0,1.1365054E0,5.658002E-1,1.0801228E1,-1.5789782E0,1.982911E0,1.5361948E0,8.713751E0,-4.0802603E0,9.5207554E-1,-2.1218312E-1,-2.5491538E0,-2.3825817E0,5.3123574E0,4.0760217E0,2.1827808E1,-4.2873297E0,2.95234E0,2.019058E0,-1.3237815E0,4.269445E0,1.746378E0,1.26294E0,5.486212E0,-1.1033882E1,6.395746E1,-1.7857926E0,-7.3714943E0,6.4076715E0,1.0499346E0,1.6198412E-1,9.3824166E-1,-1.728861E0,-3.472646E-3,-1.4836113E0,5.052851E0,2.8074643E-1,2.1448164E0,-2.8133614E0,1.6867386E1,-1.4980147E0,-7.2873783E0,6.330835E0,-4.7195387E-1,-2.905486E0,6.5816116E-1,-3.800897E0,-1.72895E0,5.130167E-1,6.1112213E0,-7.7329254E-1,-5.200911E0,5.7382965E0,-1.7463824E0,6.8345985E0,1.5654687E0,-6.7300305E0,-6.682849E-1,5.2300153E0,-3.1046526E0,-1.3916186E0,2.0126684E0,1.725581E0,-4.649469E0,4.72685E1,3.0794334E0,-3.0142155E0,1.5551472E1,-8.522094E0,-3.5150719E0,1.1502541E1,1.2581019E0,-5.964851E0,1.0670477E0,3.034869E-1,-9.4984424E-1,3.5004106E-1,2.4330478E0,-1.1255602E0,-2.5685296E0,2.0898952E0,-2.0951042E0,-2.1298275E0,-3.42858E-1,5.829728E0,9.726715E-1,7.942984E-1,-1.3955526E0,1.6458013E0,6.260427E0,3.5428295E0,-5.2881165E0,2.117651E1,5.499428E0,7.8298354E0,-3.7051427E0,-9.005764E0,-4.640827E0,-3.7145548E0,2.3748403E0,-4.544695E0,1.3414268E0,1.225676E0,-3.912173E0,-6.850179E-2,-2.9420455E0,1.4094225E0,-1.0881004E0,9.462969E0,2.9075422E0,-2.4556787E-1,2.1076788E1,-6.4461684E0,2.0549881E0,-2.2424793E0,1.660653E0,-1.3120027E0,6.4037833E0,-7.778787E0,4.060066E0,-1.1484168E1,1.8423998E0,4.0567174E0,1.6790831E0,1.0326881E1,1.5543772E0,-6.150423E0,-5.822319E-1,-2.4991555E0,7.4487944E0,9.724448E-1,-4.5335245E0,1.6044985E0,2.8696196E1,6.4898243E0,4.2757378E1,-8.165638E-1,2.4487707E1,-3.553578E0,-7.995356E0,1.0512959E0,8.247913E0,1.18345E-1,3.2151766E0,8.758197E-1,-1.5851253E0,4.012208E0,1.278878E-1,1.7409732E0,9.004162E0,-1.9417373E0,2.8629875E-1,-5.256386E-1,1.1351585E-2],"categories":[],"categories_nodes":[],"categories_segments":[],"categories_sizes":[],"default_left":[1,1,1,1,1,1,1,1,1,1,1,1,1,1,1,1,1,1,1,1,1,1,1,1,1,1,1,1,0,1,1,1,1,1,1,1,1,0,0,1,0,1,1,1,1,1,1,1,1,0,0,1,1,1,1,1,1,1,1,1,1,1,1,1,1,1,1,0,1,1,1,0,1,1,1,0,0,0,0,1,1,0,1,1,1,1,1,1,1,0,1,1,1,0,0,1,1,1,1,1,1,1,1,1,0,0,0,0,1,0,0,0,0,0,0,0,0,0,0,0,0,0,0,0,0,0,0,0,0,0,0,0,0,0,0,0,0,0,0,0,0,0,0,0,0,0,0,0,0,0,0,0,0,0,0,0,0,0,0,0,0,0,0,0,0,0,0,0,0,0,0,0,0,0,0,0,0,0,0],"id":10,"left_children":[1,3,5,7,9,11,13,15,17,19,21,23,25,27,29,31,33,35,37,39,41,43,45,47,49,51,53,55,-1,57,59,61,63,65,67,69,71,-1,-1,73,-1,75,77,79,81,83,85,87,89,-1,-1,91,93,95,97,99,101,103,105,107,109,111,113,115,117,119,121,-1,123,125,127,-1,129,131,133,-1,-1,-1,-1,135,137,-1,139,141,143,145,147,149,151,-1,153,155,157,-1,-1,159,161,163,165,167,169,171,173,175,-1,-1,-1,-1,177,-1,-1,-1,-1,-1,-1,-1,-1,-1,-1,-1,-1,-1,-1,-1,-1,-1,-1,-1,-1,-1,-1,-1,-1,-1,-1,-1,-1,-1,-1,-1,-1,-1,-1,-1,-1,-1,-1,-1,-1,-1,-1,-1,-1,-1,-1,-1,-1,-1,-1,-1,-1,-1,-1,-1,-1,-1,-1,-1,-1,-1,-1,-1,-1,-1,-1,-1,-1,-1,-1],"loss_changes":[2.1182031E2,2.8747607E2,1.01501465E2,3.7205566E2,3.839839E2,2.3703613E2,4.26147E1,5.176102E2,1.27541695E2,5.433461E2,2.8261182E2,3.3805933E3,9.356057E2,2.073166E2,8.172548E1,4.9326923E2,2.1552368E2,9.47784E1,1.3656184E2,7.313915E2,1.2578722E2,4.9418875E2,5.0089307E2,6.2256287E2,4.6900654E3,2.5921915E2,1.2979167E3,3.4890717E1,0E0,5.4252396E0,1.0327461E2,2.026466E2,9.873328E2,1.7955945E2,1.10221016E2,7.69235E1,3.449582E1,0E0,0E0,5.487625E1,0E0,8.819611E0,8.856387E1,2.252026E2,2.612858E2,6.5373804E2,5.6266516E2,1.2416536E3,3.6757466E3,0E0,0E0,1.2821301E3,1.4416199E1,1.1924025E3,3.441704E2,1.8066198E1,1.0553709E2,7.74699E0,1.7514212E1,2.955638E0,1.0178574E1,7.686476E1,3.5731805E2,9.738498E1,1.7745679E2,3.1723926E2,3.6837158E0,0E0,1.1959369E2,6.1788994E1,6.963837E1,0E0,5.2169785E1,7.2745967E0,2.6175644E1,0E0,0E0,0E0,0E0,9.1270935E2,4.0543207E2,0E0,2.530257E2,6.2270654E2,3.9995984E2,1.7510514E3,4.1458057E2,6.009573E2,1.978753E2,0E0,9.2048584E2,3.3754184E2,6.8727344E2,0E0,0E0,3.3259595E3,1.1766438E3,5.8605957E0,3.0894604E2,5.406616E1,1.6465813E1,7.108037E1,1.3894586E2,1.6688496E1,0E0,0E0,0E0,0E0,2.0019478E-1,0E0,0E0,0E0,0E0,0E0,0E0,0E0,0E0,0E0,0E0,0E0,0E0,0E0,0E0,0E0,0E0,0E0,0E0,0E0,0E0,0E0,0E0,0E0,0E0,0E0,0E0,0E0,0E0,0E0,0E0,0E0,0E0,0E0,0E0,0E0,0E0,0E0,0E0,0E0,0E0,0E0,0E0,0E0,0E0,0E0,0E0,0E0,0E0,0E0,0E0,0E0,0E0,0E0,0E0,0E0,0E0,0E0,0E0,0E0,0E0,0E0,0E0,0E0,0E0,0E0,0E0,0E0,0E0,0E0,0E0],"parents":[2147483647,0,0,1,1,2,2,3,3,4,4,5,5,6,6,7,7,8,8,9,9,10,10,11,11,12,12,13,13,14,14,15,15,16,16,17,17,18,18,19,19,20,20,21,21,22,22,23,23,24,24,25,25,26,26,27,27,29,29,30,30,31,31,32,32,33,33,34,34,35,35,36,36,39,39,41,41,42,42,43,43,44,44,45,45,46,46,47,47,48,48,51,51,52,52,53,53,54,54,55,55,56,56,57,57,58,58,59,59,60,60,61,61,62,62,63,63,64,64,65,65,66,66,68,68,69,69,70,70,72,72,73,73,74,74,79,79,80,80,82,82,83,83,84,84,85,85,86,86,87,87,88,88,90,90,91,91,92,92,95,95,96,96,97,97,98,98,99,99,100,100,101,101,102,102,103,103,108,108],"right_children":[2,4,6,8,10,12,14,16,18,20,22,24,26,28,30,32,34,36,38,40,42,44,46,48,50,52,54,56,-1,58,60,62,64,66,68,70,72,-1,-1,74,-1,76,78,80,82,84,86,88,90,-1,-1,92,94,96,98,100,102,104,106,108,110,112,114,116,118,120,122,-1,124,126,128,-1,130,132,134,-1,-1,-1,-1,136,138,-1,140,142,144,146,148,150,152,-1,154,156,158,-1,-1,160,162,164,166,168,170,172,174,176,-1,-1,-1,-1,178,-1,-1,-1,-1,-1,-1,-1,-1,-1,-1,-1,-1,-1,-1,-1,-1,-1,-1,-1,-1,-1,-1,-1,-1,-1,-1,-1,-1,-1,-1,-1,-1,-1,-1,-1,-1,-1,-1,-1,-1,-1,-1,-1,-1,-1,-1,-1,-1,-1,-1,-1,-1,-1,-1,-1,-1,-1,-1,-1,-1,-1,-1,-1,-1,-1,-1,-1,-1,-1,-1],"split_conditions":[2.405E1,7.255E1,3.5905E1,2.145E1,7.3149994E1,7.6715E1,7.157E1,7.025E1,7.195E1,1.9150002E1,1.705E1,7.669E1,7.7884995E1,7.154E1,7.517E1,6.9850006E1,1.85E1,2.245E1,2.28E1,1.505E1,2.105E1,1.545E1,1.855E1,7.6045E1,3.2275E1,7.7645004E1,7.8625E1,6.4119995E1,3.2403684E0,7.5045E1,3.6055E1,1.565E1,1.79E1,1.705E1,1.91E1,2.175E1,6.65E1,-7.1477455E-1,1.5937073E0,1.2950001E1,6.5483427E0,7.275E1,7.2850006E1,7.595E1,1.555E1,9.745E1,1.9349998E1,7.5375E1,7.607E1,-3.3101647E0,1.9187239E1,7.7615005E1,3.4925E1,3.3825E1,7.874E1,6.34E1,3.6605003E1,7.333E1,7.5104996E1,7.638E1,7.6705E1,6.675E1,6.8649994E1,1.495E1,2.035E1,7.1149994E1,7.07E1,1.8992505E0,2.01E1,6.855E1,7.145E1,-1.1402692E0,6.85E1,7.2649994E1,7.28E1,-2.3198777E-1,-1.5602734E0,1.7214891E0,-5.2391475E-1,7.455E1,7.715E1,-2.0190094E0,8.4850006E1,7.655E1,1.825E1,8E1,7.905E1,2.445E1,3.4754997E1,1.4180551E1,3.3465E1,3.304E1,3.424E1,-2.5566282E0,-1.0545216E0,3.3489998E1,7.855E1,7.868E1,3.5265E1,6.306E1,3.6455E1,6.4435E1,7.0295E1,7.284E1,-7.705589E-1,6.269686E-1,-6.285313E-1,-6.3894826E-1,7.7345E1,1.7489185E0,2.9180145E-1,2.3828954E-1,-4.186658E-1,4.937404E-1,1.8781282E0,1.0628489E0,-1.586435E0,6.3529534E0,1.6498284E0,2.3489506E0,-1.1115428E0,-2.7017293E0,-1.3922482E0,-1.1143665E0,7.124521E-1,-1.3634086E0,4.0242806E-1,3.6770278E-1,-1.1736519E0,-2.0550538E-2,-8.8261366E-1,4.2282677E-1,-3.2643014E-1,2.8388908E0,8.722627E-1,-7.3670365E-2,6.3230367E0,-1.9338506E0,6.1649644E-1,-6.727438E-1,4.9819592E-1,-3.9360082E-1,1.9211351E0,-2.3336363E0,1.21802E0,-3.4452505E0,5.5271995E-1,1.2170153E0,5.0372493E-1,3.0980647E0,4.6631318E-1,-1.845127E0,-1.7466956E-1,-7.497467E-1,2.2346385E0,2.9173344E-1,-1.3600574E0,4.8134956E-1,8.608859E0,1.9469473E0,1.2827214E1,-2.4496914E-1,7.3463125E0,-1.0660734E0,-2.398607E0,3.1538877E-1,2.474374E0,3.5503503E-2,9.64553E-1,2.6274592E-1,-4.7553763E-1,1.2036624E0,3.836634E-2,5.22292E-1,2.7012486E0,-5.825212E-1,8.588963E-2,-1.5769158E-1,3.4054758E-3],"split_indices":[1,0,1,1,0,0,0,0,0,1,1,0,0,0,0,0,1,1,1,1,1,1,1,0,1,0,0,0,0,0,1,1,1,1,1,1,0,0,0,1,0,0,0,0,1,0,1,0,0,0,0,0,1,1,0,0,1,0,0,0,0,0,0,1,1,0,0,0,1,0,0,0,0,0,0,0,0,0,0,0,0,0,0,0,1,0,0,1,1,0,1,1,1,0,0,1,0,0,1,0,1,0,0,0,0,0,0,0,0,0,0,0,0,0,0,0,0,0,0,0,0,0,0,0,0,0,0,0,0,0,0,0,0,0,0,0,0,0,0,0,0,0,0,0,0,0,0,0,0,0,0,0,0,0,0,0,0,0,0,0,0,0,0,0,0,0,0,0,0,0,0,0,0,0,0,0,0,0,0],"split_type":[0,0,0,0,0,0,0,0,0,0,0,0,0,0,0,0,0,0,0,0,0,0,0,0,0,0,0,0,0,0,0,0,0,0,0,0,0,0,0,0,0,0,0,0,0,0,0,0,0,0,0,0,0,0,0,0,0,0,0,0,0,0,0,0,0,0,0,0,0,0,0,0,0,0,0,0,0,0,0,0,0,0,0,0,0,0,0,0,0,0,0,0,0,0,0,0,0,0,0,0,0,0,0,0,0,0,0,0,0,0,0,0,0,0,0,0,0,0,0,0,0,0,0,0,0,0,0,0,0,0,0,0,0,0,0,0,0,0,0,0,0,0,0,0,0,0,0,0,0,0,0,0,0,0,0,0,0,0,0,0,0,0,0,0,0,0,0,0,0,0,0,0,0,0,0,0,0,0,0],"sum_hessian":[5.02E3,1.344E3,3.676E3,3.87E2,9.57E2,3.413E3,2.63E2,3.09E2,7.8E1,1.8E1,9.39E2,4.89E2,2.924E3,2.33E2,3E1,2.74E2,3.5E1,7E1,8E0,1E1,8E0,1.81E2,7.58E2,4.87E2,2E0,6.6E1,2.858E3,2.32E2,1E0,2.2E1,8E0,2.65E2,9E0,2.2E1,1.3E1,3.1E1,3.9E1,3E0,5E0,7E0,3E0,3E0,5E0,1.07E2,7.4E1,8.9E1,6.69E2,4.5E2,3.7E1,1E0,1E0,5.7E1,9E0,4.5E1,2.813E3,1.12E2,1.2E2,2E1,2E0,4E0,4E0,8.7E1,1.78E2,4E0,5E0,1.3E1,9E0,2E0,1.1E1,7E0,2.4E1,1.4E1,2.5E1,3E0,4E0,1E0,2E0,3E0,2E0,8E0,9.9E1,7E0,6.7E1,7.9E1,1E1,5.2E1,6.17E2,4.18E2,3.2E1,1E0,3.6E1,5.4E1,3E0,6E0,3E0,2.2E1,2.3E1,6E0,2.807E3,1E2,1.2E1,8.7E1,3.3E1,1.3E1,7E0,1E0,1E0,2E0,2E0,3E0,1E0,6.7E1,2E1,1.6E2,1.8E1,1E0,3E0,3E0,2E0,2E0,1.1E1,4E0,5E0,5E0,6E0,5E0,2E0,2.2E1,2E0,1.1E1,1.4E1,2E0,1E0,1E0,3E0,6E0,2E0,5E0,9.4E1,4E1,2.7E1,1.2E1,6.7E1,6E0,4E0,1.2E1,4E1,8.5E1,5.32E2,7E0,4.11E2,2.3E1,9E0,1.6E1,2E1,1.5E1,3.9E1,2E0,1E0,2E1,2E0,2.2E1,1E0,4E0,2E0,2.802E3,5E0,9.5E1,5E0,3E0,9E0,4E0,8.3E1,3.1E1,2E0,8E0,5E0,1E0,1E0],"tree_param":{"num_deleted":"0","num_feature":"2","num_nodes":"179","size_leaf_vector":"0"}},{"base_weights":[8.830079E-1,1.0212975E0,7.0806634E-1,1.0081306E0,6.9890304E0,1.8980187E-1,8.566757E-1,-7.834836E-2,1.0463592E0,2.3393758E-1,1.0308092E1,3.1352997E0,7.2324336E-2,7.7573633E-1,4.98315E0,-6.9698656E-1,2.1341121E-1,1.2049328E0,7.713599E-1,-1.5217724E0,1.8726788E0,1.4553455E1,4.041819E0,-1.4280646E0,1.1162219E1,-4.376101E0,1.6701928E-1,5.286382E0,7.159218E-1,2.2805756E1,3.7135139E0,-1.9480926E-1,-1.003898E0,-5.3334963E-1,5.9891325E-1,1.1779656E0,1.6174583E1,8.5625404E-1,-4.455393E0,8.913364E0,-2.8506355E0,1.6623703E0,-2.986299E0,3.3062897E0,1.1920492E1,-9.378799E0,-2.778157E0,4.2798166E0,4.965958E-2,8.822866E0,-2.0053234E0,7.343782E-1,-7.163995E0,-6.728193E-1,5.7378845E0,-1.0741282E0,1.0100842E0,-1.1379893E0,-5.2370197E-1,-6.352794E-2,-1.4063244E0,4.0735865E0,2.453131E-1,8.777325E-1,1.6173009E0,2.2570728E1,1.6911469E0,5.03585E-1,2.322111E0,-7.5299134E0,-4.3963337E-1,-2.2942924E-1,2.1926775E0,-6.126391E-1,-3.5769677E0,1.3817215E-1,-3.1599696E0,1.3114839E0,8.766852E0,-1.644862E0,2.4792148E-1,-5.855465E0,1.1531491E1,-2.6224217E0,1.1571827E0,-2.9769368E0,7.653106E-1,-1.8063272E0,1.0486557E0,7.6186485E0,-2.1804435E0,-1.56659E0,-6.488759E-1,1.3246746E0,2.539355E-1,3.40456E-1,-7.646248E-1,8.969228E-1,-1.1360941E0,-1.8534456E0,-4.3306988E-2,6.542363E-2,3.7204456E0,1.2120365E0,-1.1433673E0,2.828041E0,9.858725E-1,5.745996E-1,-6.4921618E0,8.045411E0,1.8886364E0,8.622627E-1,-2.896881E0,-2.0730286E0,1.1540699E0,-5.7302856E-1,-3.9821196E0,-1.0837469E0,-4.188954E0,5.533057E0,-1.721479E0,-5.156696E-1,-4.645329E0,2.3577921E0,-1.4193341E-1,1.2650825E1,3.5834389E0,-1.3286278E0,-3.9046047E0,-4.1614966E0,2.7536151E0,1.4007201E1,7.328043E-1,-1.3813686E-1,-3.0229359E0,6.67791E0,-2.0281353E0,4.606258E0,2.1145182E1,-5.707472E0,1.2818146E-1],"categories":[],"categories_nodes":[],"categories_segments":[],"categories_sizes":[],"default_left":[1,1,1,1,1,1,1,1,1,1,1,1,1,1,1,1,1,1,1,0,0,0,1,1,1,1,1,1,1,0,1,1,1,1,1,1,1,1,1,0,0,1,1,0,0,0,1,1,1,1,1,1,0,1,1,1,1,0,1,1,1,0,1,1,1,0,0,1,1,0,1,0,0,1,1,0,1,1,0,1,1,0,1,1,0,1,1,1,1,1,1,0,0,0,0,0,0,0,0,0,0,0,0,0,0,0,0,0,0,0,0,0,0,0,0,0,0,0,0,0,0,0,0,0,0,0,0,0,0,0,0,0,0,0,0,0,0,0,0,0,0],"id":11,"left_children":[1,3,5,7,9,11,13,15,17,19,21,23,25,27,29,31,33,35,37,-1,-1,-1,39,41,43,45,47,49,51,-1,53,55,57,59,61,63,65,67,69,-1,-1,71,73,-1,-1,-1,75,77,79,81,83,85,-1,87,89,91,93,-1,95,97,99,-1,101,103,105,-1,-1,107,109,-1,111,-1,-1,113,115,-1,117,119,-1,121,123,-1,125,127,-1,129,131,133,135,137,139,-1,-1,-1,-1,-1,-1,-1,-1,-1,-1,-1,-1,-1,-1,-1,-1,-1,-1,-1,-1,-1,-1,-1,-1,-1,-1,-1,-1,-1,-1,-1,-1,-1,-1,-1,-1,-1,-1,-1,-1,-1,-1,-1,-1,-1,-1,-1,-1,-1,-1],"loss_changes":[1.207478E2,2.13125E2,1.7081958E2,1.16254395E2,1.3211197E2,1.7140402E2,5.722743E2,1.7476131E1,1.1689819E2,1.1481253E1,4.7588013E1,7.1190576E2,2.0208525E2,4.5299066E2,6.6204193E2,4.5822744E0,1.9319368E1,6.72063E2,4.4354218E2,0E0,0E0,0E0,1.26139465E2,6.756743E1,2.2860107E0,5.3884537E1,2.2616284E2,5.850067E2,2.484284E2,0E0,2.8800662E2,1.4858272E1,6.274452E-1,9.343936E0,5.3061073E1,2.2413452E2,2.3974402E2,5.0338593E2,1.9423416E2,0E0,0E0,5.5192394E0,1.0427025E1,0E0,0E0,0E0,1.0458046E1,1.6164963E2,1.5394109E2,6.638937E2,1.864724E1,1.9387921E2,0E0,2.3358578E1,3.442472E2,6.588421E-1,1.0908804E0,0E0,1.5094931E0,1.750134E1,4.795205E0,0E0,2.5387321E1,6.8920953E2,5.270073E2,0E0,0E0,3.9520883E2,4.536963E2,0E0,2.809052E1,0E0,0E0,1.01326685E1,6.237488E0,0E0,1.2551437E1,1.2475992E2,0E0,1.6023357E2,3.3757745E2,0E0,7.032129E1,6.4244003E0,0E0,1.06493706E2,7.0255164E2,1.3789167E1,1.0014389E2,6.3604956E2,4.1444515E1,0E0,0E0,0E0,0E0,0E0,0E0,0E0,0E0,0E0,0E0,0E0,0E0,0E0,0E0,0E0,0E0,0E0,0E0,0E0,0E0,0E0,0E0,0E0,0E0,0E0,0E0,0E0,0E0,0E0,0E0,0E0,0E0,0E0,0E0,0E0,0E0,0E0,0E0,0E0,0E0,0E0,0E0,0E0,0E0,0E0,0E0,0E0,0E0,0E0,0E0],"parents":[2147483647,0,0,1,1,2,2,3,3,4,4,5,5,6,6,7,7,8,8,9,9,10,10,11,11,12,12,13,13,14,14,15,15,16,16,17,17,18,18,22,22,23,23,24,24,25,25,26,26,27,27,28,28,30,30,31,31,32,32,33,33,34,34,35,35,36,36,37,37,38,38,41,41,42,42,46,46,47,47,48,48,49,49,50,50,51,51,53,53,54,54,55,55,56,56,58,58,59,59,60,60,62,62,63,63,64,64,67,67,68,68,70,70,73,73,74,74,76,76,77,77,79,79,80,80,82,82,83,83,85,85,86,86,87,87,88,88,89,89,90,90],"right_children":[2,4,6,8,10,12,14,16,18,20,22,24,26,28,30,32,34,36,38,-1,-1,-1,40,42,44,46,48,50,52,-1,54,56,58,60,62,64,66,68,70,-1,-1,72,74,-1,-1,-1,76,78,80,82,84,86,-1,88,90,92,94,-1,96,98,100,-1,102,104,106,-1,-1,108,110,-1,112,-1,-1,114,116,-1,118,120,-1,122,124,-1,126,128,-1,130,132,134,136,138,140,-1,-1,-1,-1,-1,-1,-1,-1,-1,-1,-1,-1,-1,-1,-1,-1,-1,-1,-1,-1,-1,-1,-1,-1,-1,-1,-1,-1,-1,-1,-1,-1,-1,-1,-1,-1,-1,-1,-1,-1,-1,-1,-1,-1,-1,-1,-1,-1,-1,-1],"split_conditions":[2.9175E1,2.9134998E1,3.0525002E1,5.29E1,9.833E1,7.58E1,9.966E1,4.7449997E1,9.9985E1,9.457E1,9.9865005E1,6.905E1,8.1259995E1,3.0585E1,9.97E1,4.275E1,1.98E1,9.9975006E1,2.902E1,-4.5653173E-1,5.6180364E-1,4.366037E0,2.915E1,5.38E1,6.925E1,7.68E1,8.4705E1,9.7165E1,9.955E1,6.841727E0,3.0695E1,4.1050003E1,4.635E1,1.82E1,2.02E1,8.655E1,2.9E1,2.8154999E1,2.9095001E1,2.6740093E0,-8.551907E-1,4.6449997E1,2.94E1,9.918869E-1,3.5761478E0,-2.8136399E0,2.945E1,8.391E1,9.185E1,9.2225006E1,9.922E1,3.0605E1,-2.1491985E0,3.0615E1,3.1255001E1,1.855E1,4.2E1,-3.413968E-1,4.6550003E1,5.095E1,5.15E1,1.2220759E0,5.25E1,8.345E1,9.155E1,6.771219E0,5.0734407E-1,2.8105E1,2.8205E1,-2.258974E0,2.9105E1,-6.882878E-2,6.578033E-1,6.64E1,6.125E1,4.1451648E-2,7.92E1,2.94E1,2.630056E0,3.0150002E1,9.534E1,-1.7566396E0,9.519501E1,3.055E1,3.4715483E-1,9.844E1,3.0615002E1,3.0595001E1,3.0634998E1,3.108E1,3.139E1,-4.69977E-1,-1.9466278E-1,3.974024E-1,7.618065E-2,1.02136806E-1,-2.2938745E-1,2.6907685E-1,-3.4082824E-1,-5.5603373E-1,-1.2992097E-2,1.962709E-2,1.1161337E0,3.6361095E-1,-3.430102E-1,8.4841233E-1,2.9576176E-1,1.723799E-1,-1.9476486E0,2.4136233E0,5.665909E-1,2.5867882E-1,-8.690644E-1,-6.219086E-1,3.4622097E-1,-1.7190857E-1,-1.1946359E0,-3.2512408E-1,-1.2566862E0,1.6599172E0,-5.164437E-1,-1.5470088E-1,-1.3935988E0,7.073377E-1,-4.2580023E-2,3.7952476E0,1.0750318E0,-3.9858836E-1,-1.1713815E0,-1.2484491E0,8.2608455E-1,4.2021604E0,2.198413E-1,-4.144106E-2,-9.068808E-1,2.0033731E0,-6.0844064E-1,1.3818774E0,6.343555E0,-1.7122416E0,3.845444E-2],"split_indices":[1,1,1,0,0,0,0,0,0,0,0,0,0,1,0,0,1,0,1,0,0,0,1,0,0,0,0,0,0,0,1,0,0,1,1,0,1,1,1,0,0,0,1,0,0,0,1,0,0,0,0,1,0,1,1,1,0,0,0,0,0,0,0,0,0,0,0,1,1,0,1,0,0,0,0,0,0,1,0,1,0,0,0,1,0,0,1,1,1,1,1,0,0,0,0,0,0,0,0,0,0,0,0,0,0,0,0,0,0,0,0,0,0,0,0,0,0,0,0,0,0,0,0,0,0,0,0,0,0,0,0,0,0,0,0,0,0,0,0,0,0],"split_type":[0,0,0,0,0,0,0,0,0,0,0,0,0,0,0,0,0,0,0,0,0,0,0,0,0,0,0,0,0,0,0,0,0,0,0,0,0,0,0,0,0,0,0,0,0,0,0,0,0,0,0,0,0,0,0,0,0,0,0,0,0,0,0,0,0,0,0,0,0,0,0,0,0,0,0,0,0,0,0,0,0,0,0,0,0,0,0,0,0,0,0,0,0,0,0,0,0,0,0,0,0,0,0,0,0,0,0,0,0,0,0,0,0,0,0,0,0,0,0,0,0,0,0,0,0,0,0,0,0,0,0,0,0,0,0,0,0,0,0,0,0],"sum_hessian":[5.02E3,2.801E3,2.219E3,2.796E3,5E0,4.95E2,1.724E3,9.5E1,2.701E3,2E0,3E0,1.8E1,4.77E2,1.692E3,3.2E1,3E1,6.5E1,1.711E3,9.9E2,1E0,1E0,1E0,2E0,1.2E1,6E0,9E0,4.68E2,2.1E1,1.671E3,1E0,3.1E1,1.2E1,1.8E1,2.2E1,4.3E1,1.709E3,2E0,9.75E2,1.5E1,1E0,1E0,4E0,8E0,1E0,5E0,1E0,8E0,1.2E1,4.56E2,1.4E1,7E0,1.668E3,3E0,1E1,2.1E1,7E0,5E0,1.3E1,5E0,1.5E1,7E0,3E0,4E1,1.017E3,6.92E2,1E0,1E0,7.87E2,1.88E2,8E0,7E0,1E0,3E0,2E0,6E0,1E0,7E0,8E0,4E0,4.7E1,4.09E2,2E0,1.2E1,6E0,1E0,1.3E1,1.655E3,6E0,4E0,1.7E1,4E0,2E0,5E0,3E0,2E0,1E0,4E0,8E0,7E0,5E0,2E0,3.9E1,1E0,8.73E2,1.44E2,2.36E2,4.56E2,7.8E2,7E0,1.2E1,1.76E2,5E0,2E0,1E0,1E0,1E0,5E0,3E0,4E0,3E0,5E0,3.5E1,1.2E1,6.3E1,3.46E2,1E1,2E0,4E0,2E0,1.1E1,2E0,3E0,1.652E3,3E0,3E0,1E0,3E0,1.5E1,2E0,1E0,3E0],"tree_param":{"num_deleted":"0","num_feature":"2","num_nodes":"141","size_leaf_vector":"0"}},{"base_weights":[6.247301E-1,2.6416573E-1,6.7509186E-1,3.992887E-1,-5.112566E-1,2.9731183E0,6.490927E-1,2.2833225E-1,1.6987382E0,-1.0146925E0,1.3518475E0,6.6201444E0,1.3251609E0,-2.5635273E0,6.644987E-1,3.2605922E-1,-4.2606244E0,7.3165674E0,1.7362559E-1,-2.843604E0,-5.3251684E-1,2.8995314E0,2.9543847E-1,-7.957317E-1,9.389166E0,-1.4460396E0,4.3444343E0,-8.25839E0,-1.155584E0,2.8589473E0,6.4392114E-1,2.365999E-1,3.623793E0,-6.512172E0,-7.0664215E-1,6.6694695E-1,1.2920964E1,-3.673881E0,7.959261E-1,-5.722246E-1,-3.3637636E0,3.5572124E0,-8.151311E-1,-1.3823763E0,4.55723E0,-1.4576582E0,1.5733311E0,2.4486237E0,-2.2189765E0,5.9064927E0,1.400722E1,1.0423591E-1,-3.1801496E0,1.2887318E1,2.3462284E0,-2.7325373E0,3.7923223E-1,1.0728204E0,6.486071E0,6.3909364E-1,7.342199E0,3.4295484E-1,-1.8287387E0,5.967094E0,2.8597608E-1,4.3014526E-2,-7.8318124E0,-1.2948412E0,1.1710421E-1,3.7933064E0,-2.6261492E0,-5.308811E0,-1.9581467E0,7.6671944E0,8.890109E-2,1.9314842E0,-2.0506222E0,-5.920527E0,-1.8536726E0,-6.1137325E-1,8.031485E0,-1.7729433E0,-2.3376486E-1,5.9157157E0,-1.1175995E0,-3.0125923E0,-5.4415286E-1,3.2094216E0,-5.0207518E-2,-4.1815434E0,1.834362E0,9.880714E0,-5.379076E-1,-3.9568176E0,1.4463387E0,-3.9626606E0,-2.9424033E-1,3.7613697E0,1.5569607E1,7.546344E-1,6.5344534E0,-6.575012E-1,-4.2610655E0,2.0237525E0,-1.6700386E0,2.8977578E0,-1.255781E0,-4.985817E0,7.8575463E0,-4.848724E-1,6.7040104E-1,1.9421749E0,9.071123E0,2.6218364E-1,3.1009824E0,-2.1202748E0,1.3242245E-2,-5.7575417E-1,1.1018168E1,-2.2942781E0,1.2608826E0,2.0588017E-1,-3.0223846E-2,3.7767982E-1,4.8059554E0,-3.550827E0,2.2062874E0,2.2781296E0,8.704173E0,-3.6746275E-1,2.7362068E0,1.806179E0,-3.9846284E0,-1.2379665E0,3.2090664E-1,-1.5895183E-1,-3.9072704E0,1.4295717E0,-7.6006E-1,2.2724085E0,-1.8163953E0,-1.2239594E0,2.3224E0,2.1359634E0,-2.1411858E0,5.826187E-1,2.9795723E0,-1.4636154E0,1.022255E0,2.5258315E0,-2.230208E0,4.311452E-1,-2.5060434E0,3.3460324E0,5.2610445E-1,-1.9027247E0,-3.6964703E-1,3.409406E-1,2.0625008E1,2.119606E0,-1.7136971E0,1.6139086E1,3.3038015E0,-6.380692E-1,8.642979E0,1.2482069E0,5.653935E-1],"categories":[],"categories_nodes":[],"categories_segments":[],"categories_sizes":[],"default_left":[1,1,1,1,1,1,1,1,1,1,1,1,1,1,1,1,1,1,1,1,1,1,1,1,1,1,1,0,1,1,1,1,1,1,1,1,0,1,1,1,1,1,1,0,1,1,1,0,1,1,0,1,1,1,1,1,1,1,1,1,1,1,1,1,1,0,0,0,1,1,0,0,1,1,1,0,0,0,1,1,0,1,1,0,0,0,1,0,1,0,0,0,1,0,1,0,1,0,0,1,0,1,0,1,1,1,1,0,1,1,1,0,0,0,0,0,0,0,0,0,0,0,0,0,0,0,0,0,0,0,0,0,0,0,0,0,0,0,0,0,0,0,0,0,0,0,0,0,0,0,0,0,0,0,0,0,0,0,0,0,0,0,0,0,0,0,0],"id":12,"left_children":[1,3,5,7,9,11,13,15,17,19,21,23,25,27,29,31,33,35,37,39,41,43,45,47,49,51,53,-1,55,57,59,61,63,65,67,69,-1,71,73,75,77,79,81,-1,83,85,87,-1,89,91,-1,93,95,97,99,101,103,105,107,109,111,113,115,117,119,-1,-1,-1,121,123,-1,-1,125,127,129,-1,-1,-1,131,133,-1,135,137,-1,-1,-1,139,-1,141,-1,-1,-1,143,-1,145,-1,147,-1,-1,149,-1,151,-1,153,155,157,159,-1,161,163,165,-1,-1,-1,-1,-1,-1,-1,-1,-1,-1,-1,-1,-1,-1,-1,-1,-1,-1,-1,-1,-1,-1,-1,-1,-1,-1,-1,-1,-1,-1,-1,-1,-1,-1,-1,-1,-1,-1,-1,-1,-1,-1,-1,-1,-1,-1,-1,-1,-1,-1,-1,-1,-1,-1,-1,-1],"loss_changes":[9.099634E1,6.4851776E1,2.6125476E2,1.16462654E2,8.766344E1,2.8572427E2,2.1734753E2,2.0581978E2,5.213668E2,6.2861275E1,3.184311E1,3.1549207E2,2.9912762E2,1.5883565E2,1.9400244E2,1.3396356E2,7.541783E1,4.7585498E2,1.2024509E2,1.5797363E1,7.109273E1,6.30847E1,3.141688E1,